-1.19861185245362
0.23329002998116
0.131502895742342
-0.274259707648674
-0.0183720947505834
0.21672401187284
0.45310045673008
0.158445003495688
-1.04218623456215
-0.323804376117946
0.73128876892106
0.382211013653105
-0.173562659198713
-0.488523278981972
0.69908446716384
0.314349123843525
1.36592397313951
0.632073179521704
-1.44944072700516
-0.797953600068389
0.34391894590061
-0.101367664554883
0.46186676007541
-0.648340100282688
-0.850401581140902
-0.088445974257105
0.309877138351348
-1.95738435569545
0.181422450606438
-1.45342986552846
-0.0742163921186935
1.25359568909991
0.000462553716117669
-1.67166247692079
-0.658738264459338
0.324796414255539
1.85926622547696
0.050937607343845
-1.38317063986307
2.32496108464602
-0.607902132831266
-0.232753830384634
-0.946109834961354
-1.09738153998674
-0.474396839369799
0.486406517161408
1.48070145398318
-1.28277127607897
-1.74340649002746
0.0619265874665693
0.507982779155842
1.49043568793014
1.98963976380123
0.516126683399086
1.70551073969916
0.0457349600423998
-1.29692353914835
0.655970454746061
1.18275974700828
-2.6457944682043
0.622524295613431
-1.00621308445975
-1.92805408045243
-1.14431159779417
0.384393646990253
-1.58066145641285
-0.704646228203794
-0.976287203668083
-2.27782214454632
0.622396720026426
0.950842885823943
-0.442208785645884
-0.234188119316191
-0.553590228120177
