-1.4320583190311 1.05743059266548 0.123301938564609 1.17364587459374 0.135919837359149 -0.591581181557308 2.13698298899282 -1.54232875270894 -0.585105410668982 -0.357957633004536 -0.501714413380969 -0.223434639057408 1.16855295710463 0.170143002861185 -1.11221142983284 -0.11711791032151 -1.91067005887713 -2.4343734213488 -0.850777568499178 1.14472488590859 -2.55314840734956 1.79706611359332 0.325128834585818 0.436296194383796 0.0986087426853247 1.52855441518552 -1.37867713653279 1.57099446862127 1.02608000073706 0.493450640258369 -0.690370986092477 0.598608841540001 1.53854471892185 -0.682441878126621 0.265180655664115 -0.341935369909801 0.469459679301361 0.380407569258298 -0.529884601025253 0.930545623041015 -0.648926422389659 0.594864193066463 0.526987228303818 0.32149292279 0.0527818300993455 0.812575619208171 0.941223652802783 1.24700328180604 -1.47805411999876 0.157775780769563 0.136964391687266 0.506682703807107 -0.473352704265228 0.102069710585982 -0.284942242689732 -0.519660964181726 0.795978043870126 0.37254811596479 -0.296497007476949 0.953507326312702 -0.098902810821164 0.0157375808058048 0.0806869681629153 -0.467518476764335 0.334771798788828 0.551631049376152 1.26856353185997 -0.122883347286908 -0.377759403738482 1.27577938986581 -1.25361665148962 0.402848289978579 2.28843394641275 1.52026956466256
-1.4320583190311 1.05743059266548 0.123301938564609 1.17364587459374 0.135919837359149 -0.591581181557308 2.13698298899282 -1.54232875270894 -0.585105410668982 -0.357957633004536 -0.501714413380969 -0.223434639057408 1.16855295710463 0.170143002861185 -1.11221142983284 -0.11711791032151 -1.91067005887713 -2.4343734213488 -0.850777568499178 1.14472488590859 -2.55314840734956 1.79706611359332 0.325128834585818 0.436296194383796 0.0986087426853247 1.52855441518552 -1.37867713653279 1.57099446862127 1.02608000073706 0.493450640258369 -0.690370986092477 0.598608841540001 1.53854471892185 -0.682441878126621 0.265180655664115 -0.341935369909801 0.469459679301361 0.380407569258298 -0.529884601025253 0.930545623041015 -0.648926422389659 0.594864193066463 0.526987228303818 0.32149292279 0.0527818300993455 0.812575619208171 0.941223652802783 1.24700328180604 -1.47805411999876 0.157775780769563 0.136964391687266 0.506682703807107 -0.473352704265228 0.102069710585982 -0.284942242689732 -0.519660964181726 0.795978043870126 0.37254811596479 -0.296497007476949 0.953507326312702 -0.098902810821164 0.0157375808058048 0.0806869681629153 -0.467518476764335 0.334771798788828 0.551631049376152 1.26856353185997 -0.122883347286908 -0.377759403738482 1.27577938986581 -1.25361665148962 0.402848289978579 2.28843394641275 1.52026956466256
-1.4320583190311 1.05743059266548 0.123301938564609 1.17364587459374 0.135919837359149 -0.591581181557308 2.13698298899282 -1.54232875270894 -0.585105410668982 -0.357957633004536 -0.501714413380969 -0.223434639057408 1.16855295710463 0.170143002861185 -1.11221142983284 -0.11711791032151 -1.91067005887713 -2.4343734213488 -0.850777568499178 1.14472488590859 -2.55314840734956 1.79706611359332 0.325128834585818 0.436296194383796 0.0986087426853247 1.52855441518552 -1.37867713653279 1.57099446862127 1.02608000073706 0.493450640258369 -0.690370986092477 0.598608841540001 1.53854471892185 -0.682441878126621 0.265180655664115 -0.341935369909801 0.469459679301361 0.380407569258298 -0.529884601025253 0.930545623041015 -0.648926422389659 0.594864193066463 0.526987228303818 0.32149292279 0.0527818300993455 0.812575619208171 0.941223652802783 1.24700328180604 -1.47805411999876 0.157775780769563 0.136964391687266 0.506682703807107 -0.473352704265228 0.102069710585982 -0.284942242689732 -0.519660964181726 0.795978043870126 0.37254811596479 -0.296497007476949 0.953507326312702 -0.098902810821164 0.0157375808058048 0.0806869681629153 -0.467518476764335 0.334771798788828 0.551631049376152 1.26856353185997 -0.122883347286908 -0.377759403738482 1.27577938986581 -1.25361665148962 0.402848289978579 2.28843394641275 1.52026956466256
-1.4320583190311 1.05743059266548 0.123301938564609 1.17364587459374 0.135919837359149 -0.591581181557308 2.13698298899282 -1.54232875270894 -0.585105410668982 -0.357957633004536 -0.501714413380969 -0.223434639057408 1.16855295710463 0.170143002861185 -1.11221142983284 -0.11711791032151 -1.91067005887713 -2.4343734213488 -0.850777568499178 1.14472488590859 -2.55314840734956 1.79706611359332 0.325128834585818 0.436296194383796 0.0986087426853247 1.52855441518552 -1.37867713653279 1.57099446862127 1.02608000073706 0.493450640258369 -0.690370986092477 0.598608841540001 1.53854471892185 -0.682441878126621 0.265180655664115 -0.341935369909801 0.469459679301361 0.380407569258298 -0.529884601025253 0.930545623041015 -0.648926422389659 0.594864193066463 0.526987228303818 0.32149292279 0.0527818300993455 0.812575619208171 0.941223652802783 1.24700328180604 -1.47805411999876 0.157775780769563 0.136964391687266 0.506682703807107 -0.473352704265228 0.102069710585982 -0.284942242689732 -0.519660964181726 0.795978043870126 0.37254811596479 -0.296497007476949 0.953507326312702 -0.098902810821164 0.0157375808058048 0.0806869681629153 -0.467518476764335 0.334771798788828 0.551631049376152 1.26856353185997 -0.122883347286908 -0.377759403738482 1.27577938986581 -1.25361665148962 0.402848289978579 2.28843394641275 1.52026956466256
-1.4320583190311 1.05743059266548 0.123301938564609 1.17364587459374 0.135919837359149 -0.591581181557308 2.13698298899282 -1.54232875270894 -0.585105410668982 -0.357957633004536 -0.501714413380969 -0.223434639057408 1.16855295710463 0.170143002861185 -1.11221142983284 -0.11711791032151 -1.91067005887713 -2.4343734213488 -0.850777568499178 1.14472488590859 -2.55314840734956 1.79706611359332 0.325128834585818 0.436296194383796 0.0986087426853247 1.52855441518552 -1.37867713653279 1.57099446862127 1.02608000073706 0.493450640258369 -0.690370986092477 0.598608841540001 1.53854471892185 -0.682441878126621 0.265180655664115 -0.341935369909801 0.469459679301361 0.380407569258298 -0.529884601025253 0.930545623041015 -0.648926422389659 0.594864193066463 0.526987228303818 0.32149292279 0.0527818300993455 0.812575619208171 0.941223652802783 1.24700328180604 -1.47805411999876 0.157775780769563 0.136964391687266 0.506682703807107 -0.473352704265228 0.102069710585982 -0.284942242689732 -0.519660964181726 0.795978043870126 0.37254811596479 -0.296497007476949 0.953507326312702 -0.098902810821164 0.0157375808058048 0.0806869681629153 -0.467518476764335 0.334771798788828 0.551631049376152 1.26856353185997 -0.122883347286908 -0.377759403738482 1.27577938986581 -1.25361665148962 0.402848289978579 2.28843394641275 1.52026956466256
-1.4320583190311 1.05743059266548 0.123301938564609 1.17364587459374 0.135919837359149 -0.591581181557308 2.13698298899282 -1.54232875270894 -0.585105410668982 -0.357957633004536 -0.501714413380969 -0.223434639057408 1.16855295710463 0.170143002861185 -1.11221142983284 -0.11711791032151 -1.91067005887713 -2.4343734213488 -0.850777568499178 1.14472488590859 -2.55314840734956 1.79706611359332 0.325128834585818 0.436296194383796 0.0986087426853247 1.52855441518552 -1.37867713653279 1.57099446862127 1.02608000073706 0.493450640258369 -0.690370986092477 0.598608841540001 1.53854471892185 -0.682441878126621 0.265180655664115 -0.341935369909801 0.469459679301361 0.380407569258298 -0.529884601025253 0.930545623041015 -0.648926422389659 0.594864193066463 0.526987228303818 0.32149292279 0.0527818300993455 0.812575619208171 0.941223652802783 1.24700328180604 -1.47805411999876 0.157775780769563 0.136964391687266 0.506682703807107 -0.473352704265228 0.102069710585982 -0.284942242689732 -0.519660964181726 0.795978043870126 0.37254811596479 -0.296497007476949 0.953507326312702 -0.098902810821164 0.0157375808058048 0.0806869681629153 -0.467518476764335 0.334771798788828 0.551631049376152 1.26856353185997 -0.122883347286908 -0.377759403738482 1.27577938986581 -1.25361665148962 0.402848289978579 2.28843394641275 1.52026956466256
-1.4320583190311 1.05743059266548 0.123301938564609 1.17364587459374 0.135919837359149 -0.591581181557308 2.13698298899282 -1.54232875270894 -0.585105410668982 -0.357957633004536 -0.501714413380969 -0.223434639057408 1.16855295710463 0.170143002861185 -1.11221142983284 -0.11711791032151 -1.91067005887713 -2.4343734213488 -0.850777568499178 1.14472488590859 -2.55314840734956 1.79706611359332 0.325128834585818 0.436296194383796 0.0986087426853247 1.52855441518552 -1.37867713653279 1.57099446862127 1.02608000073706 0.493450640258369 -0.690370986092477 0.598608841540001 1.53854471892185 -0.682441878126621 0.265180655664115 -0.341935369909801 0.469459679301361 0.380407569258298 -0.529884601025253 0.930545623041015 -0.648926422389659 0.594864193066463 0.526987228303818 0.32149292279 0.0527818300993455 0.812575619208171 0.941223652802783 1.24700328180604 -1.47805411999876 0.157775780769563 0.136964391687266 0.506682703807107 -0.473352704265228 0.102069710585982 -0.284942242689732 -0.519660964181726 0.795978043870126 0.37254811596479 -0.296497007476949 0.953507326312702 -0.098902810821164 0.0157375808058048 0.0806869681629153 -0.467518476764335 0.334771798788828 0.551631049376152 1.26856353185997 -0.122883347286908 -0.377759403738482 1.27577938986581 -1.25361665148962 0.402848289978579 2.28843394641275 1.52026956466256
-1.4320583190311 1.05743059266548 0.123301938564609 1.17364587459374 0.135919837359149 -0.591581181557308 2.13698298899282 -1.54232875270894 -0.585105410668982 -0.357957633004536 -0.501714413380969 -0.223434639057408 1.16855295710463 0.170143002861185 -1.11221142983284 -0.11711791032151 -1.91067005887713 -2.4343734213488 -0.850777568499178 1.14472488590859 -2.55314840734956 1.79706611359332 0.325128834585818 0.436296194383796 0.0986087426853247 1.52855441518552 -1.37867713653279 1.57099446862127 1.02608000073706 0.493450640258369 -0.690370986092477 0.598608841540001 1.53854471892185 -0.682441878126621 0.265180655664115 -0.341935369909801 0.469459679301361 0.380407569258298 -0.529884601025253 0.930545623041015 -0.648926422389659 0.594864193066463 0.526987228303818 0.32149292279 0.0527818300993455 0.812575619208171 0.941223652802783 1.24700328180604 -1.47805411999876 0.157775780769563 0.136964391687266 0.506682703807107 -0.473352704265228 0.102069710585982 -0.284942242689732 -0.519660964181726 0.795978043870126 0.37254811596479 -0.296497007476949 0.953507326312702 -0.098902810821164 0.0157375808058048 0.0806869681629153 -0.467518476764335 0.334771798788828 0.551631049376152 1.26856353185997 -0.122883347286908 -0.377759403738482 1.27577938986581 -1.25361665148962 0.402848289978579 2.28843394641275 1.52026956466256
-1.4320583190311 1.05743059266548 0.123301938564609 1.17364587459374 0.135919837359149 -0.591581181557308 2.13698298899282 -1.54232875270894 -0.585105410668982 -0.357957633004536 -0.501714413380969 -0.223434639057408 1.16855295710463 0.170143002861185 -1.11221142983284 -0.11711791032151 -1.91067005887713 -2.4343734213488 -0.850777568499178 1.14472488590859 -2.55314840734956 1.79706611359332 0.325128834585818 0.436296194383796 0.0986087426853247 1.52855441518552 -1.37867713653279 1.57099446862127 1.02608000073706 0.493450640258369 -0.690370986092477 0.598608841540001 1.53854471892185 -0.682441878126621 0.265180655664115 -0.341935369909801 0.469459679301361 0.380407569258298 -0.529884601025253 0.930545623041015 -0.648926422389659 0.594864193066463 0.526987228303818 0.32149292279 0.0527818300993455 0.812575619208171 0.941223652802783 1.24700328180604 -1.47805411999876 0.157775780769563 0.136964391687266 0.506682703807107 -0.473352704265228 0.102069710585982 -0.284942242689732 -0.519660964181726 0.795978043870126 0.37254811596479 -0.296497007476949 0.953507326312702 -0.098902810821164 0.0157375808058048 0.0806869681629153 -0.467518476764335 0.334771798788828 0.551631049376152 1.26856353185997 -0.122883347286908 -0.377759403738482 1.27577938986581 -1.25361665148962 0.402848289978579 2.28843394641275 1.52026956466256
-1.4320583190311 1.05743059266548 0.123301938564609 1.17364587459374 0.135919837359149 -0.591581181557308 2.13698298899282 -1.54232875270894 -0.585105410668982 -0.357957633004536 -0.501714413380969 -0.223434639057408 1.16855295710463 0.170143002861185 -1.11221142983284 -0.11711791032151 -1.91067005887713 -2.4343734213488 -0.850777568499178 1.14472488590859 -2.55314840734956 1.79706611359332 0.325128834585818 0.436296194383796 0.0986087426853247 1.52855441518552 -1.37867713653279 1.57099446862127 1.02608000073706 0.493450640258369 -0.690370986092477 0.598608841540001 1.53854471892185 -0.682441878126621 0.265180655664115 -0.341935369909801 0.469459679301361 0.380407569258298 -0.529884601025253 0.930545623041015 -0.648926422389659 0.594864193066463 0.526987228303818 0.32149292279 0.0527818300993455 0.812575619208171 0.941223652802783 1.24700328180604 -1.47805411999876 0.157775780769563 0.136964391687266 0.506682703807107 -0.473352704265228 0.102069710585982 -0.284942242689732 -0.519660964181726 0.795978043870126 0.37254811596479 -0.296497007476949 0.953507326312702 -0.098902810821164 0.0157375808058048 0.0806869681629153 -0.467518476764335 0.334771798788828 0.551631049376152 1.26856353185997 -0.122883347286908 -0.377759403738482 1.27577938986581 -1.25361665148962 0.402848289978579 2.28843394641275 1.52026956466256
-1.4320583190311 1.05743059266548 0.123301938564609 1.17364587459374 0.135919837359149 -0.591581181557308 2.13698298899282 -1.54232875270894 -0.585105410668982 -0.357957633004536 -0.501714413380969 -0.223434639057408 1.16855295710463 0.170143002861185 -1.11221142983284 -0.11711791032151 -1.91067005887713 -2.4343734213488 -0.850777568499178 1.14472488590859 -2.55314840734956 1.79706611359332 0.325128834585818 0.436296194383796 0.0986087426853247 1.52855441518552 -1.37867713653279 1.57099446862127 1.02608000073706 0.493450640258369 -0.690370986092477 0.598608841540001 1.53854471892185 -0.682441878126621 0.265180655664115 -0.341935369909801 0.469459679301361 0.380407569258298 -0.529884601025253 0.930545623041015 -0.648926422389659 0.594864193066463 0.526987228303818 0.32149292279 0.0527818300993455 0.812575619208171 0.941223652802783 1.24700328180604 -1.47805411999876 0.157775780769563 0.136964391687266 0.506682703807107 -0.473352704265228 0.102069710585982 -0.284942242689732 -0.519660964181726 0.795978043870126 0.37254811596479 -0.296497007476949 0.953507326312702 -0.098902810821164 0.0157375808058048 0.0806869681629153 -0.467518476764335 0.334771798788828 0.551631049376152 1.26856353185997 -0.122883347286908 -0.377759403738482 1.27577938986581 -1.25361665148962 0.402848289978579 2.28843394641275 1.52026956466256
-1.4320583190311 1.05743059266548 0.123301938564609 1.17364587459374 0.135919837359149 -0.591581181557308 2.13698298899282 -1.54232875270894 -0.585105410668982 -0.357957633004536 -0.501714413380969 -0.223434639057408 1.16855295710463 0.170143002861185 -1.11221142983284 -0.11711791032151 -1.91067005887713 -2.4343734213488 -0.850777568499178 1.14472488590859 -2.55314840734956 1.79706611359332 0.325128834585818 0.436296194383796 0.0986087426853247 1.52855441518552 -1.37867713653279 1.57099446862127 1.02608000073706 0.493450640258369 -0.690370986092477 0.598608841540001 1.53854471892185 -0.682441878126621 0.265180655664115 -0.341935369909801 0.469459679301361 0.380407569258298 -0.529884601025253 0.930545623041015 -0.648926422389659 0.594864193066463 0.526987228303818 0.32149292279 0.0527818300993455 0.812575619208171 0.941223652802783 1.24700328180604 -1.47805411999876 0.157775780769563 0.136964391687266 0.506682703807107 -0.473352704265228 0.102069710585982 -0.284942242689732 -0.519660964181726 0.795978043870126 0.37254811596479 -0.296497007476949 0.953507326312702 -0.098902810821164 0.0157375808058048 0.0806869681629153 -0.467518476764335 0.334771798788828 0.551631049376152 1.26856353185997 -0.122883347286908 -0.377759403738482 1.27577938986581 -1.25361665148962 0.402848289978579 2.28843394641275 1.52026956466256
-1.4320583190311 1.05743059266548 0.123301938564609 1.17364587459374 0.135919837359149 -0.591581181557308 2.13698298899282 -1.54232875270894 -0.585105410668982 -0.357957633004536 -0.501714413380969 -0.223434639057408 1.16855295710463 0.170143002861185 -1.11221142983284 -0.11711791032151 -1.91067005887713 -2.4343734213488 -0.850777568499178 1.14472488590859 -2.55314840734956 1.79706611359332 0.325128834585818 0.436296194383796 0.0986087426853247 1.52855441518552 -1.37867713653279 1.57099446862127 1.02608000073706 0.493450640258369 -0.690370986092477 0.598608841540001 1.53854471892185 -0.682441878126621 0.265180655664115 -0.341935369909801 0.469459679301361 0.380407569258298 -0.529884601025253 0.930545623041015 -0.648926422389659 0.594864193066463 0.526987228303818 0.32149292279 0.0527818300993455 0.812575619208171 0.941223652802783 1.24700328180604 -1.47805411999876 0.157775780769563 0.136964391687266 0.506682703807107 -0.473352704265228 0.102069710585982 -0.284942242689732 -0.519660964181726 0.795978043870126 0.37254811596479 -0.296497007476949 0.953507326312702 -0.098902810821164 0.0157375808058048 0.0806869681629153 -0.467518476764335 0.334771798788828 0.551631049376152 1.26856353185997 -0.122883347286908 -0.377759403738482 1.27577938986581 -1.25361665148962 0.402848289978579 2.28843394641275 1.52026956466256
-1.4320583190311 1.05743059266548 0.123301938564609 1.17364587459374 0.135919837359149 -0.591581181557308 2.13698298899282 -1.54232875270894 -0.585105410668982 -0.357957633004536 -0.501714413380969 -0.223434639057408 1.16855295710463 0.170143002861185 -1.11221142983284 -0.11711791032151 -1.91067005887713 -2.4343734213488 -0.850777568499178 1.14472488590859 -2.55314840734956 1.79706611359332 0.325128834585818 0.436296194383796 0.0986087426853247 1.52855441518552 -1.37867713653279 1.57099446862127 1.02608000073706 0.493450640258369 -0.690370986092477 0.598608841540001 1.53854471892185 -0.682441878126621 0.265180655664115 -0.341935369909801 0.469459679301361 0.380407569258298 -0.529884601025253 0.930545623041015 -0.648926422389659 0.594864193066463 0.526987228303818 0.32149292279 0.0527818300993455 0.812575619208171 0.941223652802783 1.24700328180604 -1.47805411999876 0.157775780769563 0.136964391687266 0.506682703807107 -0.473352704265228 0.102069710585982 -0.284942242689732 -0.519660964181726 0.795978043870126 0.37254811596479 -0.296497007476949 0.953507326312702 -0.098902810821164 0.0157375808058048 0.0806869681629153 -0.467518476764335 0.334771798788828 0.551631049376152 1.26856353185997 -0.122883347286908 -0.377759403738482 1.27577938986581 -1.25361665148962 0.402848289978579 2.28843394641275 1.52026956466256
-1.4320583190311 1.05743059266548 0.123301938564609 1.17364587459374 0.135919837359149 -0.591581181557308 2.13698298899282 -1.54232875270894 -0.585105410668982 -0.357957633004536 -0.501714413380969 -0.223434639057408 1.16855295710463 0.170143002861185 -1.11221142983284 -0.11711791032151 -1.91067005887713 -2.4343734213488 -0.850777568499178 1.14472488590859 -2.55314840734956 1.79706611359332 0.325128834585818 0.436296194383796 0.0986087426853247 1.52855441518552 -1.37867713653279 1.57099446862127 1.02608000073706 0.493450640258369 -0.690370986092477 0.598608841540001 1.53854471892185 -0.682441878126621 0.265180655664115 -0.341935369909801 0.469459679301361 0.380407569258298 -0.529884601025253 0.930545623041015 -0.648926422389659 0.594864193066463 0.526987228303818 0.32149292279 0.0527818300993455 0.812575619208171 0.941223652802783 1.24700328180604 -1.47805411999876 0.157775780769563 0.136964391687266 0.506682703807107 -0.473352704265228 0.102069710585982 -0.284942242689732 -0.519660964181726 0.795978043870126 0.37254811596479 -0.296497007476949 0.953507326312702 -0.098902810821164 0.0157375808058048 0.0806869681629153 -0.467518476764335 0.334771798788828 0.551631049376152 1.26856353185997 -0.122883347286908 -0.377759403738482 1.27577938986581 -1.25361665148962 0.402848289978579 2.28843394641275 1.52026956466256
-1.4320583190311 1.05743059266548 0.123301938564609 1.17364587459374 0.135919837359149 -0.591581181557308 2.13698298899282 -1.54232875270894 -0.585105410668982 -0.357957633004536 -0.501714413380969 -0.223434639057408 1.16855295710463 0.170143002861185 -1.11221142983284 -0.11711791032151 -1.91067005887713 -2.4343734213488 -0.850777568499178 1.14472488590859 -2.55314840734956 1.79706611359332 0.325128834585818 0.436296194383796 0.0986087426853247 1.52855441518552 -1.37867713653279 1.57099446862127 1.02608000073706 0.493450640258369 -0.690370986092477 0.598608841540001 1.53854471892185 -0.682441878126621 0.265180655664115 -0.341935369909801 0.469459679301361 0.380407569258298 -0.529884601025253 0.930545623041015 -0.648926422389659 0.594864193066463 0.526987228303818 0.32149292279 0.0527818300993455 0.812575619208171 0.941223652802783 1.24700328180604 -1.47805411999876 0.157775780769563 0.136964391687266 0.506682703807107 -0.473352704265228 0.102069710585982 -0.284942242689732 -0.519660964181726 0.795978043870126 0.37254811596479 -0.296497007476949 0.953507326312702 -0.098902810821164 0.0157375808058048 0.0806869681629153 -0.467518476764335 0.334771798788828 0.551631049376152 1.26856353185997 -0.122883347286908 -0.377759403738482 1.27577938986581 -1.25361665148962 0.402848289978579 2.28843394641275 1.52026956466256
-1.4320583190311 1.05743059266548 0.123301938564609 1.17364587459374 0.135919837359149 -0.591581181557308 2.13698298899282 -1.54232875270894 -0.585105410668982 -0.357957633004536 -0.501714413380969 -0.223434639057408 1.16855295710463 0.170143002861185 -1.11221142983284 -0.11711791032151 -1.91067005887713 -2.4343734213488 -0.850777568499178 1.14472488590859 -2.55314840734956 1.79706611359332 0.325128834585818 0.436296194383796 0.0986087426853247 1.52855441518552 -1.37867713653279 1.57099446862127 1.02608000073706 0.493450640258369 -0.690370986092477 0.598608841540001 1.53854471892185 -0.682441878126621 0.265180655664115 -0.341935369909801 0.469459679301361 0.380407569258298 -0.529884601025253 0.930545623041015 -0.648926422389659 0.594864193066463 0.526987228303818 0.32149292279 0.0527818300993455 0.812575619208171 0.941223652802783 1.24700328180604 -1.47805411999876 0.157775780769563 0.136964391687266 0.506682703807107 -0.473352704265228 0.102069710585982 -0.284942242689732 -0.519660964181726 0.795978043870126 0.37254811596479 -0.296497007476949 0.953507326312702 -0.098902810821164 0.0157375808058048 0.0806869681629153 -0.467518476764335 0.334771798788828 0.551631049376152 1.26856353185997 -0.122883347286908 -0.377759403738482 1.27577938986581 -1.25361665148962 0.402848289978579 2.28843394641275 1.52026956466256
-1.4320583190311 1.05743059266548 0.123301938564609 1.17364587459374 0.135919837359149 -0.591581181557308 2.13698298899282 -1.54232875270894 -0.585105410668982 -0.357957633004536 -0.501714413380969 -0.223434639057408 1.16855295710463 0.170143002861185 -1.11221142983284 -0.11711791032151 -1.91067005887713 -2.4343734213488 -0.850777568499178 1.14472488590859 -2.55314840734956 1.79706611359332 0.325128834585818 0.436296194383796 0.0986087426853247 1.52855441518552 -1.37867713653279 1.57099446862127 1.02608000073706 0.493450640258369 -0.690370986092477 0.598608841540001 1.53854471892185 -0.682441878126621 0.265180655664115 -0.341935369909801 0.469459679301361 0.380407569258298 -0.529884601025253 0.930545623041015 -0.648926422389659 0.594864193066463 0.526987228303818 0.32149292279 0.0527818300993455 0.812575619208171 0.941223652802783 1.24700328180604 -1.47805411999876 0.157775780769563 0.136964391687266 0.506682703807107 -0.473352704265228 0.102069710585982 -0.284942242689732 -0.519660964181726 0.795978043870126 0.37254811596479 -0.296497007476949 0.953507326312702 -0.098902810821164 0.0157375808058048 0.0806869681629153 -0.467518476764335 0.334771798788828 0.551631049376152 1.26856353185997 -0.122883347286908 -0.377759403738482 1.27577938986581 -1.25361665148962 0.402848289978579 2.28843394641275 1.52026956466256
-1.4320583190311 1.05743059266548 0.123301938564609 1.17364587459374 0.135919837359149 -0.591581181557308 2.13698298899282 -1.54232875270894 -0.585105410668982 -0.357957633004536 -0.501714413380969 -0.223434639057408 1.16855295710463 0.170143002861185 -1.11221142983284 -0.11711791032151 -1.91067005887713 -2.4343734213488 -0.850777568499178 1.14472488590859 -2.55314840734956 1.79706611359332 0.325128834585818 0.436296194383796 0.0986087426853247 1.52855441518552 -1.37867713653279 1.57099446862127 1.02608000073706 0.493450640258369 -0.690370986092477 0.598608841540001 1.53854471892185 -0.682441878126621 0.265180655664115 -0.341935369909801 0.469459679301361 0.380407569258298 -0.529884601025253 0.930545623041015 -0.648926422389659 0.594864193066463 0.526987228303818 0.32149292279 0.0527818300993455 0.812575619208171 0.941223652802783 1.24700328180604 -1.47805411999876 0.157775780769563 0.136964391687266 0.506682703807107 -0.473352704265228 0.102069710585982 -0.284942242689732 -0.519660964181726 0.795978043870126 0.37254811596479 -0.296497007476949 0.953507326312702 -0.098902810821164 0.0157375808058048 0.0806869681629153 -0.467518476764335 0.334771798788828 0.551631049376152 1.26856353185997 -0.122883347286908 -0.377759403738482 1.27577938986581 -1.25361665148962 0.402848289978579 2.28843394641275 1.52026956466256
-1.4320583190311 1.05743059266548 0.123301938564609 1.17364587459374 0.135919837359149 -0.591581181557308 2.13698298899282 -1.54232875270894 -0.585105410668982 -0.357957633004536 -0.501714413380969 -0.223434639057408 1.16855295710463 0.170143002861185 -1.11221142983284 -0.11711791032151 -1.91067005887713 -2.4343734213488 -0.850777568499178 1.14472488590859 -2.55314840734956 1.79706611359332 0.325128834585818 0.436296194383796 0.0986087426853247 1.52855441518552 -1.37867713653279 1.57099446862127 1.02608000073706 0.493450640258369 -0.690370986092477 0.598608841540001 1.53854471892185 -0.682441878126621 0.265180655664115 -0.341935369909801 0.469459679301361 0.380407569258298 -0.529884601025253 0.930545623041015 -0.648926422389659 0.594864193066463 0.526987228303818 0.32149292279 0.0527818300993455 0.812575619208171 0.941223652802783 1.24700328180604 -1.47805411999876 0.157775780769563 0.136964391687266 0.506682703807107 -0.473352704265228 0.102069710585982 -0.284942242689732 -0.519660964181726 0.795978043870126 0.37254811596479 -0.296497007476949 0.953507326312702 -0.098902810821164 0.0157375808058048 0.0806869681629153 -0.467518476764335 0.334771798788828 0.551631049376152 1.26856353185997 -0.122883347286908 -0.377759403738482 1.27577938986581 -1.25361665148962 0.402848289978579 2.28843394641275 1.52026956466256
-1.4320583190311 1.05743059266548 0.123301938564609 1.17364587459374 0.135919837359149 -0.591581181557308 2.13698298899282 -1.54232875270894 -0.585105410668982 -0.357957633004536 -0.501714413380969 -0.223434639057408 1.16855295710463 0.170143002861185 -1.11221142983284 -0.11711791032151 -1.91067005887713 -2.4343734213488 -0.850777568499178 1.14472488590859 -2.55314840734956 1.79706611359332 0.325128834585818 0.436296194383796 0.0986087426853247 1.52855441518552 -1.37867713653279 1.57099446862127 1.02608000073706 0.493450640258369 -0.690370986092477 0.598608841540001 1.53854471892185 -0.682441878126621 0.265180655664115 -0.341935369909801 0.469459679301361 0.380407569258298 -0.529884601025253 0.930545623041015 -0.648926422389659 0.594864193066463 0.526987228303818 0.32149292279 0.0527818300993455 0.812575619208171 0.941223652802783 1.24700328180604 -1.47805411999876 0.157775780769563 0.136964391687266 0.506682703807107 -0.473352704265228 0.102069710585982 -0.284942242689732 -0.519660964181726 0.795978043870126 0.37254811596479 -0.296497007476949 0.953507326312702 -0.098902810821164 0.0157375808058048 0.0806869681629153 -0.467518476764335 0.334771798788828 0.551631049376152 1.26856353185997 -0.122883347286908 -0.377759403738482 1.27577938986581 -1.25361665148962 0.402848289978579 2.28843394641275 1.52026956466256
-1.4320583190311 1.05743059266548 0.123301938564609 1.17364587459374 0.135919837359149 -0.591581181557308 2.13698298899282 -1.54232875270894 -0.585105410668982 -0.357957633004536 -0.501714413380969 -0.223434639057408 1.16855295710463 0.170143002861185 -1.11221142983284 -0.11711791032151 -1.91067005887713 -2.4343734213488 -0.850777568499178 1.14472488590859 -2.55314840734956 1.79706611359332 0.325128834585818 0.436296194383796 0.0986087426853247 1.52855441518552 -1.37867713653279 1.57099446862127 1.02608000073706 0.493450640258369 -0.690370986092477 0.598608841540001 1.53854471892185 -0.682441878126621 0.265180655664115 -0.341935369909801 0.469459679301361 0.380407569258298 -0.529884601025253 0.930545623041015 -0.648926422389659 0.594864193066463 0.526987228303818 0.32149292279 0.0527818300993455 0.812575619208171 0.941223652802783 1.24700328180604 -1.47805411999876 0.157775780769563 0.136964391687266 0.506682703807107 -0.473352704265228 0.102069710585982 -0.284942242689732 -0.519660964181726 0.795978043870126 0.37254811596479 -0.296497007476949 0.953507326312702 -0.098902810821164 0.0157375808058048 0.0806869681629153 -0.467518476764335 0.334771798788828 0.551631049376152 1.26856353185997 -0.122883347286908 -0.377759403738482 1.27577938986581 -1.25361665148962 0.402848289978579 2.28843394641275 1.52026956466256
-1.4320583190311 1.05743059266548 0.123301938564609 1.17364587459374 0.135919837359149 -0.591581181557308 2.13698298899282 -1.54232875270894 -0.585105410668982 -0.357957633004536 -0.501714413380969 -0.223434639057408 1.16855295710463 0.170143002861185 -1.11221142983284 -0.11711791032151 -1.91067005887713 -2.4343734213488 -0.850777568499178 1.14472488590859 -2.55314840734956 1.79706611359332 0.325128834585818 0.436296194383796 0.0986087426853247 1.52855441518552 -1.37867713653279 1.57099446862127 1.02608000073706 0.493450640258369 -0.690370986092477 0.598608841540001 1.53854471892185 -0.682441878126621 0.265180655664115 -0.341935369909801 0.469459679301361 0.380407569258298 -0.529884601025253 0.930545623041015 -0.648926422389659 0.594864193066463 0.526987228303818 0.32149292279 0.0527818300993455 0.812575619208171 0.941223652802783 1.24700328180604 -1.47805411999876 0.157775780769563 0.136964391687266 0.506682703807107 -0.473352704265228 0.102069710585982 -0.284942242689732 -0.519660964181726 0.795978043870126 0.37254811596479 -0.296497007476949 0.953507326312702 -0.098902810821164 0.0157375808058048 0.0806869681629153 -0.467518476764335 0.334771798788828 0.551631049376152 1.26856353185997 -0.122883347286908 -0.377759403738482 1.27577938986581 -1.25361665148962 0.402848289978579 2.28843394641275 1.52026956466256
-1.4320583190311 1.05743059266548 0.123301938564609 1.17364587459374 0.135919837359149 -0.591581181557308 2.13698298899282 -1.54232875270894 -0.585105410668982 -0.357957633004536 -0.501714413380969 -0.223434639057408 1.16855295710463 0.170143002861185 -1.11221142983284 -0.11711791032151 -1.91067005887713 -2.4343734213488 -0.850777568499178 1.14472488590859 -2.55314840734956 1.79706611359332 0.325128834585818 0.436296194383796 0.0986087426853247 1.52855441518552 -1.37867713653279 1.57099446862127 1.02608000073706 0.493450640258369 -0.690370986092477 0.598608841540001 1.53854471892185 -0.682441878126621 0.265180655664115 -0.341935369909801 0.469459679301361 0.380407569258298 -0.529884601025253 0.930545623041015 -0.648926422389659 0.594864193066463 0.526987228303818 0.32149292279 0.0527818300993455 0.812575619208171 0.941223652802783 1.24700328180604 -1.47805411999876 0.157775780769563 0.136964391687266 0.506682703807107 -0.473352704265228 0.102069710585982 -0.284942242689732 -0.519660964181726 0.795978043870126 0.37254811596479 -0.296497007476949 0.953507326312702 -0.098902810821164 0.0157375808058048 0.0806869681629153 -0.467518476764335 0.334771798788828 0.551631049376152 1.26856353185997 -0.122883347286908 -0.377759403738482 1.27577938986581 -1.25361665148962 0.402848289978579 2.28843394641275 1.52026956466256
-1.4320583190311 1.05743059266548 0.123301938564609 1.17364587459374 0.135919837359149 -0.591581181557308 2.13698298899282 -1.54232875270894 -0.585105410668982 -0.357957633004536 -0.501714413380969 -0.223434639057408 1.16855295710463 0.170143002861185 -1.11221142983284 -0.11711791032151 -1.91067005887713 -2.4343734213488 -0.850777568499178 1.14472488590859 -2.55314840734956 1.79706611359332 0.325128834585818 0.436296194383796 0.0986087426853247 1.52855441518552 -1.37867713653279 1.57099446862127 1.02608000073706 0.493450640258369 -0.690370986092477 0.598608841540001 1.53854471892185 -0.682441878126621 0.265180655664115 -0.341935369909801 0.469459679301361 0.380407569258298 -0.529884601025253 0.930545623041015 -0.648926422389659 0.594864193066463 0.526987228303818 0.32149292279 0.0527818300993455 0.812575619208171 0.941223652802783 1.24700328180604 -1.47805411999876 0.157775780769563 0.136964391687266 0.506682703807107 -0.473352704265228 0.102069710585982 -0.284942242689732 -0.519660964181726 0.795978043870126 0.37254811596479 -0.296497007476949 0.953507326312702 -0.098902810821164 0.0157375808058048 0.0806869681629153 -0.467518476764335 0.334771798788828 0.551631049376152 1.26856353185997 -0.122883347286908 -0.377759403738482 1.27577938986581 -1.25361665148962 0.402848289978579 2.28843394641275 1.52026956466256
-1.4320583190311 1.05743059266548 0.123301938564609 1.17364587459374 0.135919837359149 -0.591581181557308 2.13698298899282 -1.54232875270894 -0.585105410668982 -0.357957633004536 -0.501714413380969 -0.223434639057408 1.16855295710463 0.170143002861185 -1.11221142983284 -0.11711791032151 -1.91067005887713 -2.4343734213488 -0.850777568499178 1.14472488590859 -2.55314840734956 1.79706611359332 0.325128834585818 0.436296194383796 0.0986087426853247 1.52855441518552 -1.37867713653279 1.57099446862127 1.02608000073706 0.493450640258369 -0.690370986092477 0.598608841540001 1.53854471892185 -0.682441878126621 0.265180655664115 -0.341935369909801 0.469459679301361 0.380407569258298 -0.529884601025253 0.930545623041015 -0.648926422389659 0.594864193066463 0.526987228303818 0.32149292279 0.0527818300993455 0.812575619208171 0.941223652802783 1.24700328180604 -1.47805411999876 0.157775780769563 0.136964391687266 0.506682703807107 -0.473352704265228 0.102069710585982 -0.284942242689732 -0.519660964181726 0.795978043870126 0.37254811596479 -0.296497007476949 0.953507326312702 -0.098902810821164 0.0157375808058048 0.0806869681629153 -0.467518476764335 0.334771798788828 0.551631049376152 1.26856353185997 -0.122883347286908 -0.377759403738482 1.27577938986581 -1.25361665148962 0.402848289978579 2.28843394641275 1.52026956466256
-1.4320583190311 1.05743059266548 0.123301938564609 1.17364587459374 0.135919837359149 -0.591581181557308 2.13698298899282 -1.54232875270894 -0.585105410668982 -0.357957633004536 -0.501714413380969 -0.223434639057408 1.16855295710463 0.170143002861185 -1.11221142983284 -0.11711791032151 -1.91067005887713 -2.4343734213488 -0.850777568499178 1.14472488590859 -2.55314840734956 1.79706611359332 0.325128834585818 0.436296194383796 0.0986087426853247 1.52855441518552 -1.37867713653279 1.57099446862127 1.02608000073706 0.493450640258369 -0.690370986092477 0.598608841540001 1.53854471892185 -0.682441878126621 0.265180655664115 -0.341935369909801 0.469459679301361 0.380407569258298 -0.529884601025253 0.930545623041015 -0.648926422389659 0.594864193066463 0.526987228303818 0.32149292279 0.0527818300993455 0.812575619208171 0.941223652802783 1.24700328180604 -1.47805411999876 0.157775780769563 0.136964391687266 0.506682703807107 -0.473352704265228 0.102069710585982 -0.284942242689732 -0.519660964181726 0.795978043870126 0.37254811596479 -0.296497007476949 0.953507326312702 -0.098902810821164 0.0157375808058048 0.0806869681629153 -0.467518476764335 0.334771798788828 0.551631049376152 1.26856353185997 -0.122883347286908 -0.377759403738482 1.27577938986581 -1.25361665148962 0.402848289978579 2.28843394641275 1.52026956466256
-1.4320583190311 1.05743059266548 0.123301938564609 1.17364587459374 0.135919837359149 -0.591581181557308 2.13698298899282 -1.54232875270894 -0.585105410668982 -0.357957633004536 -0.501714413380969 -0.223434639057408 1.16855295710463 0.170143002861185 -1.11221142983284 -0.11711791032151 -1.91067005887713 -2.4343734213488 -0.850777568499178 1.14472488590859 -2.55314840734956 1.79706611359332 0.325128834585818 0.436296194383796 0.0986087426853247 1.52855441518552 -1.37867713653279 1.57099446862127 1.02608000073706 0.493450640258369 -0.690370986092477 0.598608841540001 1.53854471892185 -0.682441878126621 0.265180655664115 -0.341935369909801 0.469459679301361 0.380407569258298 -0.529884601025253 0.930545623041015 -0.648926422389659 0.594864193066463 0.526987228303818 0.32149292279 0.0527818300993455 0.812575619208171 0.941223652802783 1.24700328180604 -1.47805411999876 0.157775780769563 0.136964391687266 0.506682703807107 -0.473352704265228 0.102069710585982 -0.284942242689732 -0.519660964181726 0.795978043870126 0.37254811596479 -0.296497007476949 0.953507326312702 -0.098902810821164 0.0157375808058048 0.0806869681629153 -0.467518476764335 0.334771798788828 0.551631049376152 1.26856353185997 -0.122883347286908 -0.377759403738482 1.27577938986581 -1.25361665148962 0.402848289978579 2.28843394641275 1.52026956466256
-1.4320583190311 1.05743059266548 0.123301938564609 1.17364587459374 0.135919837359149 -0.591581181557308 2.13698298899282 -1.54232875270894 -0.585105410668982 -0.357957633004536 -0.501714413380969 -0.223434639057408 1.16855295710463 0.170143002861185 -1.11221142983284 -0.11711791032151 -1.91067005887713 -2.4343734213488 -0.850777568499178 1.14472488590859 -2.55314840734956 1.79706611359332 0.325128834585818 0.436296194383796 0.0986087426853247 1.52855441518552 -1.37867713653279 1.57099446862127 1.02608000073706 0.493450640258369 -0.690370986092477 0.598608841540001 1.53854471892185 -0.682441878126621 0.265180655664115 -0.341935369909801 0.469459679301361 0.380407569258298 -0.529884601025253 0.930545623041015 -0.648926422389659 0.594864193066463 0.526987228303818 0.32149292279 0.0527818300993455 0.812575619208171 0.941223652802783 1.24700328180604 -1.47805411999876 0.157775780769563 0.136964391687266 0.506682703807107 -0.473352704265228 0.102069710585982 -0.284942242689732 -0.519660964181726 0.795978043870126 0.37254811596479 -0.296497007476949 0.953507326312702 -0.098902810821164 0.0157375808058048 0.0806869681629153 -0.467518476764335 0.334771798788828 0.551631049376152 1.26856353185997 -0.122883347286908 -0.377759403738482 1.27577938986581 -1.25361665148962 0.402848289978579 2.28843394641275 1.52026956466256
-1.4320583190311 1.05743059266548 0.123301938564609 1.17364587459374 0.135919837359149 -0.591581181557308 2.13698298899282 -1.54232875270894 -0.585105410668982 -0.357957633004536 -0.501714413380969 -0.223434639057408 1.16855295710463 0.170143002861185 -1.11221142983284 -0.11711791032151 -1.91067005887713 -2.4343734213488 -0.850777568499178 1.14472488590859 -2.55314840734956 1.79706611359332 0.325128834585818 0.436296194383796 0.0986087426853247 1.52855441518552 -1.37867713653279 1.57099446862127 1.02608000073706 0.493450640258369 -0.690370986092477 0.598608841540001 1.53854471892185 -0.682441878126621 0.265180655664115 -0.341935369909801 0.469459679301361 0.380407569258298 -0.529884601025253 0.930545623041015 -0.648926422389659 0.594864193066463 0.526987228303818 0.32149292279 0.0527818300993455 0.812575619208171 0.941223652802783 1.24700328180604 -1.47805411999876 0.157775780769563 0.136964391687266 0.506682703807107 -0.473352704265228 0.102069710585982 -0.284942242689732 -0.519660964181726 0.795978043870126 0.37254811596479 -0.296497007476949 0.953507326312702 -0.098902810821164 0.0157375808058048 0.0806869681629153 -0.467518476764335 0.334771798788828 0.551631049376152 1.26856353185997 -0.122883347286908 -0.377759403738482 1.27577938986581 -1.25361665148962 0.402848289978579 2.28843394641275 1.52026956466256
-1.4320583190311 1.05743059266548 0.123301938564609 1.17364587459374 0.135919837359149 -0.591581181557308 2.13698298899282 -1.54232875270894 -0.585105410668982 -0.357957633004536 -0.501714413380969 -0.223434639057408 1.16855295710463 0.170143002861185 -1.11221142983284 -0.11711791032151 -1.91067005887713 -2.4343734213488 -0.850777568499178 1.14472488590859 -2.55314840734956 1.79706611359332 0.325128834585818 0.436296194383796 0.0986087426853247 1.52855441518552 -1.37867713653279 1.57099446862127 1.02608000073706 0.493450640258369 -0.690370986092477 0.598608841540001 1.53854471892185 -0.682441878126621 0.265180655664115 -0.341935369909801 0.469459679301361 0.380407569258298 -0.529884601025253 0.930545623041015 -0.648926422389659 0.594864193066463 0.526987228303818 0.32149292279 0.0527818300993455 0.812575619208171 0.941223652802783 1.24700328180604 -1.47805411999876 0.157775780769563 0.136964391687266 0.506682703807107 -0.473352704265228 0.102069710585982 -0.284942242689732 -0.519660964181726 0.795978043870126 0.37254811596479 -0.296497007476949 0.953507326312702 -0.098902810821164 0.0157375808058048 0.0806869681629153 -0.467518476764335 0.334771798788828 0.551631049376152 1.26856353185997 -0.122883347286908 -0.377759403738482 1.27577938986581 -1.25361665148962 0.402848289978579 2.28843394641275 1.52026956466256
-1.4320583190311 1.05743059266548 0.123301938564609 1.17364587459374 0.135919837359149 -0.591581181557308 2.13698298899282 -1.54232875270894 -0.585105410668982 -0.357957633004536 -0.501714413380969 -0.223434639057408 1.16855295710463 0.170143002861185 -1.11221142983284 -0.11711791032151 -1.91067005887713 -2.4343734213488 -0.850777568499178 1.14472488590859 -2.55314840734956 1.79706611359332 0.325128834585818 0.436296194383796 0.0986087426853247 1.52855441518552 -1.37867713653279 1.57099446862127 1.02608000073706 0.493450640258369 -0.690370986092477 0.598608841540001 1.53854471892185 -0.682441878126621 0.265180655664115 -0.341935369909801 0.469459679301361 0.380407569258298 -0.529884601025253 0.930545623041015 -0.648926422389659 0.594864193066463 0.526987228303818 0.32149292279 0.0527818300993455 0.812575619208171 0.941223652802783 1.24700328180604 -1.47805411999876 0.157775780769563 0.136964391687266 0.506682703807107 -0.473352704265228 0.102069710585982 -0.284942242689732 -0.519660964181726 0.795978043870126 0.37254811596479 -0.296497007476949 0.953507326312702 -0.098902810821164 0.0157375808058048 0.0806869681629153 -0.467518476764335 0.334771798788828 0.551631049376152 1.26856353185997 -0.122883347286908 -0.377759403738482 1.27577938986581 -1.25361665148962 0.402848289978579 2.28843394641275 1.52026956466256
-1.4320583190311 1.05743059266548 0.123301938564609 1.17364587459374 0.135919837359149 -0.591581181557308 2.13698298899282 -1.54232875270894 -0.585105410668982 -0.357957633004536 -0.501714413380969 -0.223434639057408 1.16855295710463 0.170143002861185 -1.11221142983284 -0.11711791032151 -1.91067005887713 -2.4343734213488 -0.850777568499178 1.14472488590859 -2.55314840734956 1.79706611359332 0.325128834585818 0.436296194383796 0.0986087426853247 1.52855441518552 -1.37867713653279 1.57099446862127 1.02608000073706 0.493450640258369 -0.690370986092477 0.598608841540001 1.53854471892185 -0.682441878126621 0.265180655664115 -0.341935369909801 0.469459679301361 0.380407569258298 -0.529884601025253 0.930545623041015 -0.648926422389659 0.594864193066463 0.526987228303818 0.32149292279 0.0527818300993455 0.812575619208171 0.941223652802783 1.24700328180604 -1.47805411999876 0.157775780769563 0.136964391687266 0.506682703807107 -0.473352704265228 0.102069710585982 -0.284942242689732 -0.519660964181726 0.795978043870126 0.37254811596479 -0.296497007476949 0.953507326312702 -0.098902810821164 0.0157375808058048 0.0806869681629153 -0.467518476764335 0.334771798788828 0.551631049376152 1.26856353185997 -0.122883347286908 -0.377759403738482 1.27577938986581 -1.25361665148962 0.402848289978579 2.28843394641275 1.52026956466256
-1.4320583190311 1.05743059266548 0.123301938564609 1.17364587459374 0.135919837359149 -0.591581181557308 2.13698298899282 -1.54232875270894 -0.585105410668982 -0.357957633004536 -0.501714413380969 -0.223434639057408 1.16855295710463 0.170143002861185 -1.11221142983284 -0.11711791032151 -1.91067005887713 -2.4343734213488 -0.850777568499178 1.14472488590859 -2.55314840734956 1.79706611359332 0.325128834585818 0.436296194383796 0.0986087426853247 1.52855441518552 -1.37867713653279 1.57099446862127 1.02608000073706 0.493450640258369 -0.690370986092477 0.598608841540001 1.53854471892185 -0.682441878126621 0.265180655664115 -0.341935369909801 0.469459679301361 0.380407569258298 -0.529884601025253 0.930545623041015 -0.648926422389659 0.594864193066463 0.526987228303818 0.32149292279 0.0527818300993455 0.812575619208171 0.941223652802783 1.24700328180604 -1.47805411999876 0.157775780769563 0.136964391687266 0.506682703807107 -0.473352704265228 0.102069710585982 -0.284942242689732 -0.519660964181726 0.795978043870126 0.37254811596479 -0.296497007476949 0.953507326312702 -0.098902810821164 0.0157375808058048 0.0806869681629153 -0.467518476764335 0.334771798788828 0.551631049376152 1.26856353185997 -0.122883347286908 -0.377759403738482 1.27577938986581 -1.25361665148962 0.402848289978579 2.28843394641275 1.52026956466256
-1.4320583190311 1.05743059266548 0.123301938564609 1.17364587459374 0.135919837359149 -0.591581181557308 2.13698298899282 -1.54232875270894 -0.585105410668982 -0.357957633004536 -0.501714413380969 -0.223434639057408 1.16855295710463 0.170143002861185 -1.11221142983284 -0.11711791032151 -1.91067005887713 -2.4343734213488 -0.850777568499178 1.14472488590859 -2.55314840734956 1.79706611359332 0.325128834585818 0.436296194383796 0.0986087426853247 1.52855441518552 -1.37867713653279 1.57099446862127 1.02608000073706 0.493450640258369 -0.690370986092477 0.598608841540001 1.53854471892185 -0.682441878126621 0.265180655664115 -0.341935369909801 0.469459679301361 0.380407569258298 -0.529884601025253 0.930545623041015 -0.648926422389659 0.594864193066463 0.526987228303818 0.32149292279 0.0527818300993455 0.812575619208171 0.941223652802783 1.24700328180604 -1.47805411999876 0.157775780769563 0.136964391687266 0.506682703807107 -0.473352704265228 0.102069710585982 -0.284942242689732 -0.519660964181726 0.795978043870126 0.37254811596479 -0.296497007476949 0.953507326312702 -0.098902810821164 0.0157375808058048 0.0806869681629153 -0.467518476764335 0.334771798788828 0.551631049376152 1.26856353185997 -0.122883347286908 -0.377759403738482 1.27577938986581 -1.25361665148962 0.402848289978579 2.28843394641275 1.52026956466256
-1.4320583190311 1.05743059266548 0.123301938564609 1.17364587459374 0.135919837359149 -0.591581181557308 2.13698298899282 -1.54232875270894 -0.585105410668982 -0.357957633004536 -0.501714413380969 -0.223434639057408 1.16855295710463 0.170143002861185 -1.11221142983284 -0.11711791032151 -1.91067005887713 -2.4343734213488 -0.850777568499178 1.14472488590859 -2.55314840734956 1.79706611359332 0.325128834585818 0.436296194383796 0.0986087426853247 1.52855441518552 -1.37867713653279 1.57099446862127 1.02608000073706 0.493450640258369 -0.690370986092477 0.598608841540001 1.53854471892185 -0.682441878126621 0.265180655664115 -0.341935369909801 0.469459679301361 0.380407569258298 -0.529884601025253 0.930545623041015 -0.648926422389659 0.594864193066463 0.526987228303818 0.32149292279 0.0527818300993455 0.812575619208171 0.941223652802783 1.24700328180604 -1.47805411999876 0.157775780769563 0.136964391687266 0.506682703807107 -0.473352704265228 0.102069710585982 -0.284942242689732 -0.519660964181726 0.795978043870126 0.37254811596479 -0.296497007476949 0.953507326312702 -0.098902810821164 0.0157375808058048 0.0806869681629153 -0.467518476764335 0.334771798788828 0.551631049376152 1.26856353185997 -0.122883347286908 -0.377759403738482 1.27577938986581 -1.25361665148962 0.402848289978579 2.28843394641275 1.52026956466256
-1.4320583190311 1.05743059266548 0.123301938564609 1.17364587459374 0.135919837359149 -0.591581181557308 2.13698298899282 -1.54232875270894 -0.585105410668982 -0.357957633004536 -0.501714413380969 -0.223434639057408 1.16855295710463 0.170143002861185 -1.11221142983284 -0.11711791032151 -1.91067005887713 -2.4343734213488 -0.850777568499178 1.14472488590859 -2.55314840734956 1.79706611359332 0.325128834585818 0.436296194383796 0.0986087426853247 1.52855441518552 -1.37867713653279 1.57099446862127 1.02608000073706 0.493450640258369 -0.690370986092477 0.598608841540001 1.53854471892185 -0.682441878126621 0.265180655664115 -0.341935369909801 0.469459679301361 0.380407569258298 -0.529884601025253 0.930545623041015 -0.648926422389659 0.594864193066463 0.526987228303818 0.32149292279 0.0527818300993455 0.812575619208171 0.941223652802783 1.24700328180604 -1.47805411999876 0.157775780769563 0.136964391687266 0.506682703807107 -0.473352704265228 0.102069710585982 -0.284942242689732 -0.519660964181726 0.795978043870126 0.37254811596479 -0.296497007476949 0.953507326312702 -0.098902810821164 0.0157375808058048 0.0806869681629153 -0.467518476764335 0.334771798788828 0.551631049376152 1.26856353185997 -0.122883347286908 -0.377759403738482 1.27577938986581 -1.25361665148962 0.402848289978579 2.28843394641275 1.52026956466256
-1.4320583190311 1.05743059266548 0.123301938564609 1.17364587459374 0.135919837359149 -0.591581181557308 2.13698298899282 -1.54232875270894 -0.585105410668982 -0.357957633004536 -0.501714413380969 -0.223434639057408 1.16855295710463 0.170143002861185 -1.11221142983284 -0.11711791032151 -1.91067005887713 -2.4343734213488 -0.850777568499178 1.14472488590859 -2.55314840734956 1.79706611359332 0.325128834585818 0.436296194383796 0.0986087426853247 1.52855441518552 -1.37867713653279 1.57099446862127 1.02608000073706 0.493450640258369 -0.690370986092477 0.598608841540001 1.53854471892185 -0.682441878126621 0.265180655664115 -0.341935369909801 0.469459679301361 0.380407569258298 -0.529884601025253 0.930545623041015 -0.648926422389659 0.594864193066463 0.526987228303818 0.32149292279 0.0527818300993455 0.812575619208171 0.941223652802783 1.24700328180604 -1.47805411999876 0.157775780769563 0.136964391687266 0.506682703807107 -0.473352704265228 0.102069710585982 -0.284942242689732 -0.519660964181726 0.795978043870126 0.37254811596479 -0.296497007476949 0.953507326312702 -0.098902810821164 0.0157375808058048 0.0806869681629153 -0.467518476764335 0.334771798788828 0.551631049376152 1.26856353185997 -0.122883347286908 -0.377759403738482 1.27577938986581 -1.25361665148962 0.402848289978579 2.28843394641275 1.52026956466256
-1.4320583190311 1.05743059266548 0.123301938564609 1.17364587459374 0.135919837359149 -0.591581181557308 2.13698298899282 -1.54232875270894 -0.585105410668982 -0.357957633004536 -0.501714413380969 -0.223434639057408 1.16855295710463 0.170143002861185 -1.11221142983284 -0.11711791032151 -1.91067005887713 -2.4343734213488 -0.850777568499178 1.14472488590859 -2.55314840734956 1.79706611359332 0.325128834585818 0.436296194383796 0.0986087426853247 1.52855441518552 -1.37867713653279 1.57099446862127 1.02608000073706 0.493450640258369 -0.690370986092477 0.598608841540001 1.53854471892185 -0.682441878126621 0.265180655664115 -0.341935369909801 0.469459679301361 0.380407569258298 -0.529884601025253 0.930545623041015 -0.648926422389659 0.594864193066463 0.526987228303818 0.32149292279 0.0527818300993455 0.812575619208171 0.941223652802783 1.24700328180604 -1.47805411999876 0.157775780769563 0.136964391687266 0.506682703807107 -0.473352704265228 0.102069710585982 -0.284942242689732 -0.519660964181726 0.795978043870126 0.37254811596479 -0.296497007476949 0.953507326312702 -0.098902810821164 0.0157375808058048 0.0806869681629153 -0.467518476764335 0.334771798788828 0.551631049376152 1.26856353185997 -0.122883347286908 -0.377759403738482 1.27577938986581 -1.25361665148962 0.402848289978579 2.28843394641275 1.52026956466256
-1.4320583190311 1.05743059266548 0.123301938564609 1.17364587459374 0.135919837359149 -0.591581181557308 2.13698298899282 -1.54232875270894 -0.585105410668982 -0.357957633004536 -0.501714413380969 -0.223434639057408 1.16855295710463 0.170143002861185 -1.11221142983284 -0.11711791032151 -1.91067005887713 -2.4343734213488 -0.850777568499178 1.14472488590859 -2.55314840734956 1.79706611359332 0.325128834585818 0.436296194383796 0.0986087426853247 1.52855441518552 -1.37867713653279 1.57099446862127 1.02608000073706 0.493450640258369 -0.690370986092477 0.598608841540001 1.53854471892185 -0.682441878126621 0.265180655664115 -0.341935369909801 0.469459679301361 0.380407569258298 -0.529884601025253 0.930545623041015 -0.648926422389659 0.594864193066463 0.526987228303818 0.32149292279 0.0527818300993455 0.812575619208171 0.941223652802783 1.24700328180604 -1.47805411999876 0.157775780769563 0.136964391687266 0.506682703807107 -0.473352704265228 0.102069710585982 -0.284942242689732 -0.519660964181726 0.795978043870126 0.37254811596479 -0.296497007476949 0.953507326312702 -0.098902810821164 0.0157375808058048 0.0806869681629153 -0.467518476764335 0.334771798788828 0.551631049376152 1.26856353185997 -0.122883347286908 -0.377759403738482 1.27577938986581 -1.25361665148962 0.402848289978579 2.28843394641275 1.52026956466256
-1.4320583190311 1.05743059266548 0.123301938564609 1.17364587459374 0.135919837359149 -0.591581181557308 2.13698298899282 -1.54232875270894 -0.585105410668982 -0.357957633004536 -0.501714413380969 -0.223434639057408 1.16855295710463 0.170143002861185 -1.11221142983284 -0.11711791032151 -1.91067005887713 -2.4343734213488 -0.850777568499178 1.14472488590859 -2.55314840734956 1.79706611359332 0.325128834585818 0.436296194383796 0.0986087426853247 1.52855441518552 -1.37867713653279 1.57099446862127 1.02608000073706 0.493450640258369 -0.690370986092477 0.598608841540001 1.53854471892185 -0.682441878126621 0.265180655664115 -0.341935369909801 0.469459679301361 0.380407569258298 -0.529884601025253 0.930545623041015 -0.648926422389659 0.594864193066463 0.526987228303818 0.32149292279 0.0527818300993455 0.812575619208171 0.941223652802783 1.24700328180604 -1.47805411999876 0.157775780769563 0.136964391687266 0.506682703807107 -0.473352704265228 0.102069710585982 -0.284942242689732 -0.519660964181726 0.795978043870126 0.37254811596479 -0.296497007476949 0.953507326312702 -0.098902810821164 0.0157375808058048 0.0806869681629153 -0.467518476764335 0.334771798788828 0.551631049376152 1.26856353185997 -0.122883347286908 -0.377759403738482 1.27577938986581 -1.25361665148962 0.402848289978579 2.28843394641275 1.52026956466256
-1.4320583190311 1.05743059266548 0.123301938564609 1.17364587459374 0.135919837359149 -0.591581181557308 2.13698298899282 -1.54232875270894 -0.585105410668982 -0.357957633004536 -0.501714413380969 -0.223434639057408 1.16855295710463 0.170143002861185 -1.11221142983284 -0.11711791032151 -1.91067005887713 -2.4343734213488 -0.850777568499178 1.14472488590859 -2.55314840734956 1.79706611359332 0.325128834585818 0.436296194383796 0.0986087426853247 1.52855441518552 -1.37867713653279 1.57099446862127 1.02608000073706 0.493450640258369 -0.690370986092477 0.598608841540001 1.53854471892185 -0.682441878126621 0.265180655664115 -0.341935369909801 0.469459679301361 0.380407569258298 -0.529884601025253 0.930545623041015 -0.648926422389659 0.594864193066463 0.526987228303818 0.32149292279 0.0527818300993455 0.812575619208171 0.941223652802783 1.24700328180604 -1.47805411999876 0.157775780769563 0.136964391687266 0.506682703807107 -0.473352704265228 0.102069710585982 -0.284942242689732 -0.519660964181726 0.795978043870126 0.37254811596479 -0.296497007476949 0.953507326312702 -0.098902810821164 0.0157375808058048 0.0806869681629153 -0.467518476764335 0.334771798788828 0.551631049376152 1.26856353185997 -0.122883347286908 -0.377759403738482 1.27577938986581 -1.25361665148962 0.402848289978579 2.28843394641275 1.52026956466256
-1.4320583190311 1.05743059266548 0.123301938564609 1.17364587459374 0.135919837359149 -0.591581181557308 2.13698298899282 -1.54232875270894 -0.585105410668982 -0.357957633004536 -0.501714413380969 -0.223434639057408 1.16855295710463 0.170143002861185 -1.11221142983284 -0.11711791032151 -1.91067005887713 -2.4343734213488 -0.850777568499178 1.14472488590859 -2.55314840734956 1.79706611359332 0.325128834585818 0.436296194383796 0.0986087426853247 1.52855441518552 -1.37867713653279 1.57099446862127 1.02608000073706 0.493450640258369 -0.690370986092477 0.598608841540001 1.53854471892185 -0.682441878126621 0.265180655664115 -0.341935369909801 0.469459679301361 0.380407569258298 -0.529884601025253 0.930545623041015 -0.648926422389659 0.594864193066463 0.526987228303818 0.32149292279 0.0527818300993455 0.812575619208171 0.941223652802783 1.24700328180604 -1.47805411999876 0.157775780769563 0.136964391687266 0.506682703807107 -0.473352704265228 0.102069710585982 -0.284942242689732 -0.519660964181726 0.795978043870126 0.37254811596479 -0.296497007476949 0.953507326312702 -0.098902810821164 0.0157375808058048 0.0806869681629153 -0.467518476764335 0.334771798788828 0.551631049376152 1.26856353185997 -0.122883347286908 -0.377759403738482 1.27577938986581 -1.25361665148962 0.402848289978579 2.28843394641275 1.52026956466256
-1.4320583190311 1.05743059266548 0.123301938564609 1.17364587459374 0.135919837359149 -0.591581181557308 2.13698298899282 -1.54232875270894 -0.585105410668982 -0.357957633004536 -0.501714413380969 -0.223434639057408 1.16855295710463 0.170143002861185 -1.11221142983284 -0.11711791032151 -1.91067005887713 -2.4343734213488 -0.850777568499178 1.14472488590859 -2.55314840734956 1.79706611359332 0.325128834585818 0.436296194383796 0.0986087426853247 1.52855441518552 -1.37867713653279 1.57099446862127 1.02608000073706 0.493450640258369 -0.690370986092477 0.598608841540001 1.53854471892185 -0.682441878126621 0.265180655664115 -0.341935369909801 0.469459679301361 0.380407569258298 -0.529884601025253 0.930545623041015 -0.648926422389659 0.594864193066463 0.526987228303818 0.32149292279 0.0527818300993455 0.812575619208171 0.941223652802783 1.24700328180604 -1.47805411999876 0.157775780769563 0.136964391687266 0.506682703807107 -0.473352704265228 0.102069710585982 -0.284942242689732 -0.519660964181726 0.795978043870126 0.37254811596479 -0.296497007476949 0.953507326312702 -0.098902810821164 0.0157375808058048 0.0806869681629153 -0.467518476764335 0.334771798788828 0.551631049376152 1.26856353185997 -0.122883347286908 -0.377759403738482 1.27577938986581 -1.25361665148962 0.402848289978579 2.28843394641275 1.52026956466256
-1.4320583190311 1.05743059266548 0.123301938564609 1.17364587459374 0.135919837359149 -0.591581181557308 2.13698298899282 -1.54232875270894 -0.585105410668982 -0.357957633004536 -0.501714413380969 -0.223434639057408 1.16855295710463 0.170143002861185 -1.11221142983284 -0.11711791032151 -1.91067005887713 -2.4343734213488 -0.850777568499178 1.14472488590859 -2.55314840734956 1.79706611359332 0.325128834585818 0.436296194383796 0.0986087426853247 1.52855441518552 -1.37867713653279 1.57099446862127 1.02608000073706 0.493450640258369 -0.690370986092477 0.598608841540001 1.53854471892185 -0.682441878126621 0.265180655664115 -0.341935369909801 0.469459679301361 0.380407569258298 -0.529884601025253 0.930545623041015 -0.648926422389659 0.594864193066463 0.526987228303818 0.32149292279 0.0527818300993455 0.812575619208171 0.941223652802783 1.24700328180604 -1.47805411999876 0.157775780769563 0.136964391687266 0.506682703807107 -0.473352704265228 0.102069710585982 -0.284942242689732 -0.519660964181726 0.795978043870126 0.37254811596479 -0.296497007476949 0.953507326312702 -0.098902810821164 0.0157375808058048 0.0806869681629153 -0.467518476764335 0.334771798788828 0.551631049376152 1.26856353185997 -0.122883347286908 -0.377759403738482 1.27577938986581 -1.25361665148962 0.402848289978579 2.28843394641275 1.52026956466256
-1.4320583190311 1.05743059266548 0.123301938564609 1.17364587459374 0.135919837359149 -0.591581181557308 2.13698298899282 -1.54232875270894 -0.585105410668982 -0.357957633004536 -0.501714413380969 -0.223434639057408 1.16855295710463 0.170143002861185 -1.11221142983284 -0.11711791032151 -1.91067005887713 -2.4343734213488 -0.850777568499178 1.14472488590859 -2.55314840734956 1.79706611359332 0.325128834585818 0.436296194383796 0.0986087426853247 1.52855441518552 -1.37867713653279 1.57099446862127 1.02608000073706 0.493450640258369 -0.690370986092477 0.598608841540001 1.53854471892185 -0.682441878126621 0.265180655664115 -0.341935369909801 0.469459679301361 0.380407569258298 -0.529884601025253 0.930545623041015 -0.648926422389659 0.594864193066463 0.526987228303818 0.32149292279 0.0527818300993455 0.812575619208171 0.941223652802783 1.24700328180604 -1.47805411999876 0.157775780769563 0.136964391687266 0.506682703807107 -0.473352704265228 0.102069710585982 -0.284942242689732 -0.519660964181726 0.795978043870126 0.37254811596479 -0.296497007476949 0.953507326312702 -0.098902810821164 0.0157375808058048 0.0806869681629153 -0.467518476764335 0.334771798788828 0.551631049376152 1.26856353185997 -0.122883347286908 -0.377759403738482 1.27577938986581 -1.25361665148962 0.402848289978579 2.28843394641275 1.52026956466256
-1.4320583190311 1.05743059266548 0.123301938564609 1.17364587459374 0.135919837359149 -0.591581181557308 2.13698298899282 -1.54232875270894 -0.585105410668982 -0.357957633004536 -0.501714413380969 -0.223434639057408 1.16855295710463 0.170143002861185 -1.11221142983284 -0.11711791032151 -1.91067005887713 -2.4343734213488 -0.850777568499178 1.14472488590859 -2.55314840734956 1.79706611359332 0.325128834585818 0.436296194383796 0.0986087426853247 1.52855441518552 -1.37867713653279 1.57099446862127 1.02608000073706 0.493450640258369 -0.690370986092477 0.598608841540001 1.53854471892185 -0.682441878126621 0.265180655664115 -0.341935369909801 0.469459679301361 0.380407569258298 -0.529884601025253 0.930545623041015 -0.648926422389659 0.594864193066463 0.526987228303818 0.32149292279 0.0527818300993455 0.812575619208171 0.941223652802783 1.24700328180604 -1.47805411999876 0.157775780769563 0.136964391687266 0.506682703807107 -0.473352704265228 0.102069710585982 -0.284942242689732 -0.519660964181726 0.795978043870126 0.37254811596479 -0.296497007476949 0.953507326312702 -0.098902810821164 0.0157375808058048 0.0806869681629153 -0.467518476764335 0.334771798788828 0.551631049376152 1.26856353185997 -0.122883347286908 -0.377759403738482 1.27577938986581 -1.25361665148962 0.402848289978579 2.28843394641275 1.52026956466256
-1.4320583190311 1.05743059266548 0.123301938564609 1.17364587459374 0.135919837359149 -0.591581181557308 2.13698298899282 -1.54232875270894 -0.585105410668982 -0.357957633004536 -0.501714413380969 -0.223434639057408 1.16855295710463 0.170143002861185 -1.11221142983284 -0.11711791032151 -1.91067005887713 -2.4343734213488 -0.850777568499178 1.14472488590859 -2.55314840734956 1.79706611359332 0.325128834585818 0.436296194383796 0.0986087426853247 1.52855441518552 -1.37867713653279 1.57099446862127 1.02608000073706 0.493450640258369 -0.690370986092477 0.598608841540001 1.53854471892185 -0.682441878126621 0.265180655664115 -0.341935369909801 0.469459679301361 0.380407569258298 -0.529884601025253 0.930545623041015 -0.648926422389659 0.594864193066463 0.526987228303818 0.32149292279 0.0527818300993455 0.812575619208171 0.941223652802783 1.24700328180604 -1.47805411999876 0.157775780769563 0.136964391687266 0.506682703807107 -0.473352704265228 0.102069710585982 -0.284942242689732 -0.519660964181726 0.795978043870126 0.37254811596479 -0.296497007476949 0.953507326312702 -0.098902810821164 0.0157375808058048 0.0806869681629153 -0.467518476764335 0.334771798788828 0.551631049376152 1.26856353185997 -0.122883347286908 -0.377759403738482 1.27577938986581 -1.25361665148962 0.402848289978579 2.28843394641275 1.52026956466256
-1.4320583190311 1.05743059266548 0.123301938564609 1.17364587459374 0.135919837359149 -0.591581181557308 2.13698298899282 -1.54232875270894 -0.585105410668982 -0.357957633004536 -0.501714413380969 -0.223434639057408 1.16855295710463 0.170143002861185 -1.11221142983284 -0.11711791032151 -1.91067005887713 -2.4343734213488 -0.850777568499178 1.14472488590859 -2.55314840734956 1.79706611359332 0.325128834585818 0.436296194383796 0.0986087426853247 1.52855441518552 -1.37867713653279 1.57099446862127 1.02608000073706 0.493450640258369 -0.690370986092477 0.598608841540001 1.53854471892185 -0.682441878126621 0.265180655664115 -0.341935369909801 0.469459679301361 0.380407569258298 -0.529884601025253 0.930545623041015 -0.648926422389659 0.594864193066463 0.526987228303818 0.32149292279 0.0527818300993455 0.812575619208171 0.941223652802783 1.24700328180604 -1.47805411999876 0.157775780769563 0.136964391687266 0.506682703807107 -0.473352704265228 0.102069710585982 -0.284942242689732 -0.519660964181726 0.795978043870126 0.37254811596479 -0.296497007476949 0.953507326312702 -0.098902810821164 0.0157375808058048 0.0806869681629153 -0.467518476764335 0.334771798788828 0.551631049376152 1.26856353185997 -0.122883347286908 -0.377759403738482 1.27577938986581 -1.25361665148962 0.402848289978579 2.28843394641275 1.52026956466256
-1.4320583190311 1.05743059266548 0.123301938564609 1.17364587459374 0.135919837359149 -0.591581181557308 2.13698298899282 -1.54232875270894 -0.585105410668982 -0.357957633004536 -0.501714413380969 -0.223434639057408 1.16855295710463 0.170143002861185 -1.11221142983284 -0.11711791032151 -1.91067005887713 -2.4343734213488 -0.850777568499178 1.14472488590859 -2.55314840734956 1.79706611359332 0.325128834585818 0.436296194383796 0.0986087426853247 1.52855441518552 -1.37867713653279 1.57099446862127 1.02608000073706 0.493450640258369 -0.690370986092477 0.598608841540001 1.53854471892185 -0.682441878126621 0.265180655664115 -0.341935369909801 0.469459679301361 0.380407569258298 -0.529884601025253 0.930545623041015 -0.648926422389659 0.594864193066463 0.526987228303818 0.32149292279 0.0527818300993455 0.812575619208171 0.941223652802783 1.24700328180604 -1.47805411999876 0.157775780769563 0.136964391687266 0.506682703807107 -0.473352704265228 0.102069710585982 -0.284942242689732 -0.519660964181726 0.795978043870126 0.37254811596479 -0.296497007476949 0.953507326312702 -0.098902810821164 0.0157375808058048 0.0806869681629153 -0.467518476764335 0.334771798788828 0.551631049376152 1.26856353185997 -0.122883347286908 -0.377759403738482 1.27577938986581 -1.25361665148962 0.402848289978579 2.28843394641275 1.52026956466256
-1.4320583190311 1.05743059266548 0.123301938564609 1.17364587459374 0.135919837359149 -0.591581181557308 2.13698298899282 -1.54232875270894 -0.585105410668982 -0.357957633004536 -0.501714413380969 -0.223434639057408 1.16855295710463 0.170143002861185 -1.11221142983284 -0.11711791032151 -1.91067005887713 -2.4343734213488 -0.850777568499178 1.14472488590859 -2.55314840734956 1.79706611359332 0.325128834585818 0.436296194383796 0.0986087426853247 1.52855441518552 -1.37867713653279 1.57099446862127 1.02608000073706 0.493450640258369 -0.690370986092477 0.598608841540001 1.53854471892185 -0.682441878126621 0.265180655664115 -0.341935369909801 0.469459679301361 0.380407569258298 -0.529884601025253 0.930545623041015 -0.648926422389659 0.594864193066463 0.526987228303818 0.32149292279 0.0527818300993455 0.812575619208171 0.941223652802783 1.24700328180604 -1.47805411999876 0.157775780769563 0.136964391687266 0.506682703807107 -0.473352704265228 0.102069710585982 -0.284942242689732 -0.519660964181726 0.795978043870126 0.37254811596479 -0.296497007476949 0.953507326312702 -0.098902810821164 0.0157375808058048 0.0806869681629153 -0.467518476764335 0.334771798788828 0.551631049376152 1.26856353185997 -0.122883347286908 -0.377759403738482 1.27577938986581 -1.25361665148962 0.402848289978579 2.28843394641275 1.52026956466256
-1.4320583190311 1.05743059266548 0.123301938564609 1.17364587459374 0.135919837359149 -0.591581181557308 2.13698298899282 -1.54232875270894 -0.585105410668982 -0.357957633004536 -0.501714413380969 -0.223434639057408 1.16855295710463 0.170143002861185 -1.11221142983284 -0.11711791032151 -1.91067005887713 -2.4343734213488 -0.850777568499178 1.14472488590859 -2.55314840734956 1.79706611359332 0.325128834585818 0.436296194383796 0.0986087426853247 1.52855441518552 -1.37867713653279 1.57099446862127 1.02608000073706 0.493450640258369 -0.690370986092477 0.598608841540001 1.53854471892185 -0.682441878126621 0.265180655664115 -0.341935369909801 0.469459679301361 0.380407569258298 -0.529884601025253 0.930545623041015 -0.648926422389659 0.594864193066463 0.526987228303818 0.32149292279 0.0527818300993455 0.812575619208171 0.941223652802783 1.24700328180604 -1.47805411999876 0.157775780769563 0.136964391687266 0.506682703807107 -0.473352704265228 0.102069710585982 -0.284942242689732 -0.519660964181726 0.795978043870126 0.37254811596479 -0.296497007476949 0.953507326312702 -0.098902810821164 0.0157375808058048 0.0806869681629153 -0.467518476764335 0.334771798788828 0.551631049376152 1.26856353185997 -0.122883347286908 -0.377759403738482 1.27577938986581 -1.25361665148962 0.402848289978579 2.28843394641275 1.52026956466256
-1.4320583190311 1.05743059266548 0.123301938564609 1.17364587459374 0.135919837359149 -0.591581181557308 2.13698298899282 -1.54232875270894 -0.585105410668982 -0.357957633004536 -0.501714413380969 -0.223434639057408 1.16855295710463 0.170143002861185 -1.11221142983284 -0.11711791032151 -1.91067005887713 -2.4343734213488 -0.850777568499178 1.14472488590859 -2.55314840734956 1.79706611359332 0.325128834585818 0.436296194383796 0.0986087426853247 1.52855441518552 -1.37867713653279 1.57099446862127 1.02608000073706 0.493450640258369 -0.690370986092477 0.598608841540001 1.53854471892185 -0.682441878126621 0.265180655664115 -0.341935369909801 0.469459679301361 0.380407569258298 -0.529884601025253 0.930545623041015 -0.648926422389659 0.594864193066463 0.526987228303818 0.32149292279 0.0527818300993455 0.812575619208171 0.941223652802783 1.24700328180604 -1.47805411999876 0.157775780769563 0.136964391687266 0.506682703807107 -0.473352704265228 0.102069710585982 -0.284942242689732 -0.519660964181726 0.795978043870126 0.37254811596479 -0.296497007476949 0.953507326312702 -0.098902810821164 0.0157375808058048 0.0806869681629153 -0.467518476764335 0.334771798788828 0.551631049376152 1.26856353185997 -0.122883347286908 -0.377759403738482 1.27577938986581 -1.25361665148962 0.402848289978579 2.28843394641275 1.52026956466256
-1.4320583190311 1.05743059266548 0.123301938564609 1.17364587459374 0.135919837359149 -0.591581181557308 2.13698298899282 -1.54232875270894 -0.585105410668982 -0.357957633004536 -0.501714413380969 -0.223434639057408 1.16855295710463 0.170143002861185 -1.11221142983284 -0.11711791032151 -1.91067005887713 -2.4343734213488 -0.850777568499178 1.14472488590859 -2.55314840734956 1.79706611359332 0.325128834585818 0.436296194383796 0.0986087426853247 1.52855441518552 -1.37867713653279 1.57099446862127 1.02608000073706 0.493450640258369 -0.690370986092477 0.598608841540001 1.53854471892185 -0.682441878126621 0.265180655664115 -0.341935369909801 0.469459679301361 0.380407569258298 -0.529884601025253 0.930545623041015 -0.648926422389659 0.594864193066463 0.526987228303818 0.32149292279 0.0527818300993455 0.812575619208171 0.941223652802783 1.24700328180604 -1.47805411999876 0.157775780769563 0.136964391687266 0.506682703807107 -0.473352704265228 0.102069710585982 -0.284942242689732 -0.519660964181726 0.795978043870126 0.37254811596479 -0.296497007476949 0.953507326312702 -0.098902810821164 0.0157375808058048 0.0806869681629153 -0.467518476764335 0.334771798788828 0.551631049376152 1.26856353185997 -0.122883347286908 -0.377759403738482 1.27577938986581 -1.25361665148962 0.402848289978579 2.28843394641275 1.52026956466256
-1.4320583190311 1.05743059266548 0.123301938564609 1.17364587459374 0.135919837359149 -0.591581181557308 2.13698298899282 -1.54232875270894 -0.585105410668982 -0.357957633004536 -0.501714413380969 -0.223434639057408 1.16855295710463 0.170143002861185 -1.11221142983284 -0.11711791032151 -1.91067005887713 -2.4343734213488 -0.850777568499178 1.14472488590859 -2.55314840734956 1.79706611359332 0.325128834585818 0.436296194383796 0.0986087426853247 1.52855441518552 -1.37867713653279 1.57099446862127 1.02608000073706 0.493450640258369 -0.690370986092477 0.598608841540001 1.53854471892185 -0.682441878126621 0.265180655664115 -0.341935369909801 0.469459679301361 0.380407569258298 -0.529884601025253 0.930545623041015 -0.648926422389659 0.594864193066463 0.526987228303818 0.32149292279 0.0527818300993455 0.812575619208171 0.941223652802783 1.24700328180604 -1.47805411999876 0.157775780769563 0.136964391687266 0.506682703807107 -0.473352704265228 0.102069710585982 -0.284942242689732 -0.519660964181726 0.795978043870126 0.37254811596479 -0.296497007476949 0.953507326312702 -0.098902810821164 0.0157375808058048 0.0806869681629153 -0.467518476764335 0.334771798788828 0.551631049376152 1.26856353185997 -0.122883347286908 -0.377759403738482 1.27577938986581 -1.25361665148962 0.402848289978579 2.28843394641275 1.52026956466256
-1.4320583190311 1.05743059266548 0.123301938564609 1.17364587459374 0.135919837359149 -0.591581181557308 2.13698298899282 -1.54232875270894 -0.585105410668982 -0.357957633004536 -0.501714413380969 -0.223434639057408 1.16855295710463 0.170143002861185 -1.11221142983284 -0.11711791032151 -1.91067005887713 -2.4343734213488 -0.850777568499178 1.14472488590859 -2.55314840734956 1.79706611359332 0.325128834585818 0.436296194383796 0.0986087426853247 1.52855441518552 -1.37867713653279 1.57099446862127 1.02608000073706 0.493450640258369 -0.690370986092477 0.598608841540001 1.53854471892185 -0.682441878126621 0.265180655664115 -0.341935369909801 0.469459679301361 0.380407569258298 -0.529884601025253 0.930545623041015 -0.648926422389659 0.594864193066463 0.526987228303818 0.32149292279 0.0527818300993455 0.812575619208171 0.941223652802783 1.24700328180604 -1.47805411999876 0.157775780769563 0.136964391687266 0.506682703807107 -0.473352704265228 0.102069710585982 -0.284942242689732 -0.519660964181726 0.795978043870126 0.37254811596479 -0.296497007476949 0.953507326312702 -0.098902810821164 0.0157375808058048 0.0806869681629153 -0.467518476764335 0.334771798788828 0.551631049376152 1.26856353185997 -0.122883347286908 -0.377759403738482 1.27577938986581 -1.25361665148962 0.402848289978579 2.28843394641275 1.52026956466256
-1.4320583190311 1.05743059266548 0.123301938564609 1.17364587459374 0.135919837359149 -0.591581181557308 2.13698298899282 -1.54232875270894 -0.585105410668982 -0.357957633004536 -0.501714413380969 -0.223434639057408 1.16855295710463 0.170143002861185 -1.11221142983284 -0.11711791032151 -1.91067005887713 -2.4343734213488 -0.850777568499178 1.14472488590859 -2.55314840734956 1.79706611359332 0.325128834585818 0.436296194383796 0.0986087426853247 1.52855441518552 -1.37867713653279 1.57099446862127 1.02608000073706 0.493450640258369 -0.690370986092477 0.598608841540001 1.53854471892185 -0.682441878126621 0.265180655664115 -0.341935369909801 0.469459679301361 0.380407569258298 -0.529884601025253 0.930545623041015 -0.648926422389659 0.594864193066463 0.526987228303818 0.32149292279 0.0527818300993455 0.812575619208171 0.941223652802783 1.24700328180604 -1.47805411999876 0.157775780769563 0.136964391687266 0.506682703807107 -0.473352704265228 0.102069710585982 -0.284942242689732 -0.519660964181726 0.795978043870126 0.37254811596479 -0.296497007476949 0.953507326312702 -0.098902810821164 0.0157375808058048 0.0806869681629153 -0.467518476764335 0.334771798788828 0.551631049376152 1.26856353185997 -0.122883347286908 -0.377759403738482 1.27577938986581 -1.25361665148962 0.402848289978579 2.28843394641275 1.52026956466256
-1.4320583190311 1.05743059266548 0.123301938564609 1.17364587459374 0.135919837359149 -0.591581181557308 2.13698298899282 -1.54232875270894 -0.585105410668982 -0.357957633004536 -0.501714413380969 -0.223434639057408 1.16855295710463 0.170143002861185 -1.11221142983284 -0.11711791032151 -1.91067005887713 -2.4343734213488 -0.850777568499178 1.14472488590859 -2.55314840734956 1.79706611359332 0.325128834585818 0.436296194383796 0.0986087426853247 1.52855441518552 -1.37867713653279 1.57099446862127 1.02608000073706 0.493450640258369 -0.690370986092477 0.598608841540001 1.53854471892185 -0.682441878126621 0.265180655664115 -0.341935369909801 0.469459679301361 0.380407569258298 -0.529884601025253 0.930545623041015 -0.648926422389659 0.594864193066463 0.526987228303818 0.32149292279 0.0527818300993455 0.812575619208171 0.941223652802783 1.24700328180604 -1.47805411999876 0.157775780769563 0.136964391687266 0.506682703807107 -0.473352704265228 0.102069710585982 -0.284942242689732 -0.519660964181726 0.795978043870126 0.37254811596479 -0.296497007476949 0.953507326312702 -0.098902810821164 0.0157375808058048 0.0806869681629153 -0.467518476764335 0.334771798788828 0.551631049376152 1.26856353185997 -0.122883347286908 -0.377759403738482 1.27577938986581 -1.25361665148962 0.402848289978579 2.28843394641275 1.52026956466256
-1.4320583190311 1.05743059266548 0.123301938564609 1.17364587459374 0.135919837359149 -0.591581181557308 2.13698298899282 -1.54232875270894 -0.585105410668982 -0.357957633004536 -0.501714413380969 -0.223434639057408 1.16855295710463 0.170143002861185 -1.11221142983284 -0.11711791032151 -1.91067005887713 -2.4343734213488 -0.850777568499178 1.14472488590859 -2.55314840734956 1.79706611359332 0.325128834585818 0.436296194383796 0.0986087426853247 1.52855441518552 -1.37867713653279 1.57099446862127 1.02608000073706 0.493450640258369 -0.690370986092477 0.598608841540001 1.53854471892185 -0.682441878126621 0.265180655664115 -0.341935369909801 0.469459679301361 0.380407569258298 -0.529884601025253 0.930545623041015 -0.648926422389659 0.594864193066463 0.526987228303818 0.32149292279 0.0527818300993455 0.812575619208171 0.941223652802783 1.24700328180604 -1.47805411999876 0.157775780769563 0.136964391687266 0.506682703807107 -0.473352704265228 0.102069710585982 -0.284942242689732 -0.519660964181726 0.795978043870126 0.37254811596479 -0.296497007476949 0.953507326312702 -0.098902810821164 0.0157375808058048 0.0806869681629153 -0.467518476764335 0.334771798788828 0.551631049376152 1.26856353185997 -0.122883347286908 -0.377759403738482 1.27577938986581 -1.25361665148962 0.402848289978579 2.28843394641275 1.52026956466256
-1.4320583190311 1.05743059266548 0.123301938564609 1.17364587459374 0.135919837359149 -0.591581181557308 2.13698298899282 -1.54232875270894 -0.585105410668982 -0.357957633004536 -0.501714413380969 -0.223434639057408 1.16855295710463 0.170143002861185 -1.11221142983284 -0.11711791032151 -1.91067005887713 -2.4343734213488 -0.850777568499178 1.14472488590859 -2.55314840734956 1.79706611359332 0.325128834585818 0.436296194383796 0.0986087426853247 1.52855441518552 -1.37867713653279 1.57099446862127 1.02608000073706 0.493450640258369 -0.690370986092477 0.598608841540001 1.53854471892185 -0.682441878126621 0.265180655664115 -0.341935369909801 0.469459679301361 0.380407569258298 -0.529884601025253 0.930545623041015 -0.648926422389659 0.594864193066463 0.526987228303818 0.32149292279 0.0527818300993455 0.812575619208171 0.941223652802783 1.24700328180604 -1.47805411999876 0.157775780769563 0.136964391687266 0.506682703807107 -0.473352704265228 0.102069710585982 -0.284942242689732 -0.519660964181726 0.795978043870126 0.37254811596479 -0.296497007476949 0.953507326312702 -0.098902810821164 0.0157375808058048 0.0806869681629153 -0.467518476764335 0.334771798788828 0.551631049376152 1.26856353185997 -0.122883347286908 -0.377759403738482 1.27577938986581 -1.25361665148962 0.402848289978579 2.28843394641275 1.52026956466256
-1.4320583190311 1.05743059266548 0.123301938564609 1.17364587459374 0.135919837359149 -0.591581181557308 2.13698298899282 -1.54232875270894 -0.585105410668982 -0.357957633004536 -0.501714413380969 -0.223434639057408 1.16855295710463 0.170143002861185 -1.11221142983284 -0.11711791032151 -1.91067005887713 -2.4343734213488 -0.850777568499178 1.14472488590859 -2.55314840734956 1.79706611359332 0.325128834585818 0.436296194383796 0.0986087426853247 1.52855441518552 -1.37867713653279 1.57099446862127 1.02608000073706 0.493450640258369 -0.690370986092477 0.598608841540001 1.53854471892185 -0.682441878126621 0.265180655664115 -0.341935369909801 0.469459679301361 0.380407569258298 -0.529884601025253 0.930545623041015 -0.648926422389659 0.594864193066463 0.526987228303818 0.32149292279 0.0527818300993455 0.812575619208171 0.941223652802783 1.24700328180604 -1.47805411999876 0.157775780769563 0.136964391687266 0.506682703807107 -0.473352704265228 0.102069710585982 -0.284942242689732 -0.519660964181726 0.795978043870126 0.37254811596479 -0.296497007476949 0.953507326312702 -0.098902810821164 0.0157375808058048 0.0806869681629153 -0.467518476764335 0.334771798788828 0.551631049376152 1.26856353185997 -0.122883347286908 -0.377759403738482 1.27577938986581 -1.25361665148962 0.402848289978579 2.28843394641275 1.52026956466256
-1.4320583190311 1.05743059266548 0.123301938564609 1.17364587459374 0.135919837359149 -0.591581181557308 2.13698298899282 -1.54232875270894 -0.585105410668982 -0.357957633004536 -0.501714413380969 -0.223434639057408 1.16855295710463 0.170143002861185 -1.11221142983284 -0.11711791032151 -1.91067005887713 -2.4343734213488 -0.850777568499178 1.14472488590859 -2.55314840734956 1.79706611359332 0.325128834585818 0.436296194383796 0.0986087426853247 1.52855441518552 -1.37867713653279 1.57099446862127 1.02608000073706 0.493450640258369 -0.690370986092477 0.598608841540001 1.53854471892185 -0.682441878126621 0.265180655664115 -0.341935369909801 0.469459679301361 0.380407569258298 -0.529884601025253 0.930545623041015 -0.648926422389659 0.594864193066463 0.526987228303818 0.32149292279 0.0527818300993455 0.812575619208171 0.941223652802783 1.24700328180604 -1.47805411999876 0.157775780769563 0.136964391687266 0.506682703807107 -0.473352704265228 0.102069710585982 -0.284942242689732 -0.519660964181726 0.795978043870126 0.37254811596479 -0.296497007476949 0.953507326312702 -0.098902810821164 0.0157375808058048 0.0806869681629153 -0.467518476764335 0.334771798788828 0.551631049376152 1.26856353185997 -0.122883347286908 -0.377759403738482 1.27577938986581 -1.25361665148962 0.402848289978579 2.28843394641275 1.52026956466256
-1.4320583190311 1.05743059266548 0.123301938564609 1.17364587459374 0.135919837359149 -0.591581181557308 2.13698298899282 -1.54232875270894 -0.585105410668982 -0.357957633004536 -0.501714413380969 -0.223434639057408 1.16855295710463 0.170143002861185 -1.11221142983284 -0.11711791032151 -1.91067005887713 -2.4343734213488 -0.850777568499178 1.14472488590859 -2.55314840734956 1.79706611359332 0.325128834585818 0.436296194383796 0.0986087426853247 1.52855441518552 -1.37867713653279 1.57099446862127 1.02608000073706 0.493450640258369 -0.690370986092477 0.598608841540001 1.53854471892185 -0.682441878126621 0.265180655664115 -0.341935369909801 0.469459679301361 0.380407569258298 -0.529884601025253 0.930545623041015 -0.648926422389659 0.594864193066463 0.526987228303818 0.32149292279 0.0527818300993455 0.812575619208171 0.941223652802783 1.24700328180604 -1.47805411999876 0.157775780769563 0.136964391687266 0.506682703807107 -0.473352704265228 0.102069710585982 -0.284942242689732 -0.519660964181726 0.795978043870126 0.37254811596479 -0.296497007476949 0.953507326312702 -0.098902810821164 0.0157375808058048 0.0806869681629153 -0.467518476764335 0.334771798788828 0.551631049376152 1.26856353185997 -0.122883347286908 -0.377759403738482 1.27577938986581 -1.25361665148962 0.402848289978579 2.28843394641275 1.52026956466256
-1.4320583190311 1.05743059266548 0.123301938564609 1.17364587459374 0.135919837359149 -0.591581181557308 2.13698298899282 -1.54232875270894 -0.585105410668982 -0.357957633004536 -0.501714413380969 -0.223434639057408 1.16855295710463 0.170143002861185 -1.11221142983284 -0.11711791032151 -1.91067005887713 -2.4343734213488 -0.850777568499178 1.14472488590859 -2.55314840734956 1.79706611359332 0.325128834585818 0.436296194383796 0.0986087426853247 1.52855441518552 -1.37867713653279 1.57099446862127 1.02608000073706 0.493450640258369 -0.690370986092477 0.598608841540001 1.53854471892185 -0.682441878126621 0.265180655664115 -0.341935369909801 0.469459679301361 0.380407569258298 -0.529884601025253 0.930545623041015 -0.648926422389659 0.594864193066463 0.526987228303818 0.32149292279 0.0527818300993455 0.812575619208171 0.941223652802783 1.24700328180604 -1.47805411999876 0.157775780769563 0.136964391687266 0.506682703807107 -0.473352704265228 0.102069710585982 -0.284942242689732 -0.519660964181726 0.795978043870126 0.37254811596479 -0.296497007476949 0.953507326312702 -0.098902810821164 0.0157375808058048 0.0806869681629153 -0.467518476764335 0.334771798788828 0.551631049376152 1.26856353185997 -0.122883347286908 -0.377759403738482 1.27577938986581 -1.25361665148962 0.402848289978579 2.28843394641275 1.52026956466256
-1.4320583190311 1.05743059266548 0.123301938564609 1.17364587459374 0.135919837359149 -0.591581181557308 2.13698298899282 -1.54232875270894 -0.585105410668982 -0.357957633004536 -0.501714413380969 -0.223434639057408 1.16855295710463 0.170143002861185 -1.11221142983284 -0.11711791032151 -1.91067005887713 -2.4343734213488 -0.850777568499178 1.14472488590859 -2.55314840734956 1.79706611359332 0.325128834585818 0.436296194383796 0.0986087426853247 1.52855441518552 -1.37867713653279 1.57099446862127 1.02608000073706 0.493450640258369 -0.690370986092477 0.598608841540001 1.53854471892185 -0.682441878126621 0.265180655664115 -0.341935369909801 0.469459679301361 0.380407569258298 -0.529884601025253 0.930545623041015 -0.648926422389659 0.594864193066463 0.526987228303818 0.32149292279 0.0527818300993455 0.812575619208171 0.941223652802783 1.24700328180604 -1.47805411999876 0.157775780769563 0.136964391687266 0.506682703807107 -0.473352704265228 0.102069710585982 -0.284942242689732 -0.519660964181726 0.795978043870126 0.37254811596479 -0.296497007476949 0.953507326312702 -0.098902810821164 0.0157375808058048 0.0806869681629153 -0.467518476764335 0.334771798788828 0.551631049376152 1.26856353185997 -0.122883347286908 -0.377759403738482 1.27577938986581 -1.25361665148962 0.402848289978579 2.28843394641275 1.52026956466256
-1.4320583190311 1.05743059266548 0.123301938564609 1.17364587459374 0.135919837359149 -0.591581181557308 2.13698298899282 -1.54232875270894 -0.585105410668982 -0.357957633004536 -0.501714413380969 -0.223434639057408 1.16855295710463 0.170143002861185 -1.11221142983284 -0.11711791032151 -1.91067005887713 -2.4343734213488 -0.850777568499178 1.14472488590859 -2.55314840734956 1.79706611359332 0.325128834585818 0.436296194383796 0.0986087426853247 1.52855441518552 -1.37867713653279 1.57099446862127 1.02608000073706 0.493450640258369 -0.690370986092477 0.598608841540001 1.53854471892185 -0.682441878126621 0.265180655664115 -0.341935369909801 0.469459679301361 0.380407569258298 -0.529884601025253 0.930545623041015 -0.648926422389659 0.594864193066463 0.526987228303818 0.32149292279 0.0527818300993455 0.812575619208171 0.941223652802783 1.24700328180604 -1.47805411999876 0.157775780769563 0.136964391687266 0.506682703807107 -0.473352704265228 0.102069710585982 -0.284942242689732 -0.519660964181726 0.795978043870126 0.37254811596479 -0.296497007476949 0.953507326312702 -0.098902810821164 0.0157375808058048 0.0806869681629153 -0.467518476764335 0.334771798788828 0.551631049376152 1.26856353185997 -0.122883347286908 -0.377759403738482 1.27577938986581 -1.25361665148962 0.402848289978579 2.28843394641275 1.52026956466256
-1.4320583190311 1.05743059266548 0.123301938564609 1.17364587459374 0.135919837359149 -0.591581181557308 2.13698298899282 -1.54232875270894 -0.585105410668982 -0.357957633004536 -0.501714413380969 -0.223434639057408 1.16855295710463 0.170143002861185 -1.11221142983284 -0.11711791032151 -1.91067005887713 -2.4343734213488 -0.850777568499178 1.14472488590859 -2.55314840734956 1.79706611359332 0.325128834585818 0.436296194383796 0.0986087426853247 1.52855441518552 -1.37867713653279 1.57099446862127 1.02608000073706 0.493450640258369 -0.690370986092477 0.598608841540001 1.53854471892185 -0.682441878126621 0.265180655664115 -0.341935369909801 0.469459679301361 0.380407569258298 -0.529884601025253 0.930545623041015 -0.648926422389659 0.594864193066463 0.526987228303818 0.32149292279 0.0527818300993455 0.812575619208171 0.941223652802783 1.24700328180604 -1.47805411999876 0.157775780769563 0.136964391687266 0.506682703807107 -0.473352704265228 0.102069710585982 -0.284942242689732 -0.519660964181726 0.795978043870126 0.37254811596479 -0.296497007476949 0.953507326312702 -0.098902810821164 0.0157375808058048 0.0806869681629153 -0.467518476764335 0.334771798788828 0.551631049376152 1.26856353185997 -0.122883347286908 -0.377759403738482 1.27577938986581 -1.25361665148962 0.402848289978579 2.28843394641275 1.52026956466256
-1.4320583190311 1.05743059266548 0.123301938564609 1.17364587459374 0.135919837359149 -0.591581181557308 2.13698298899282 -1.54232875270894 -0.585105410668982 -0.357957633004536 -0.501714413380969 -0.223434639057408 1.16855295710463 0.170143002861185 -1.11221142983284 -0.11711791032151 -1.91067005887713 -2.4343734213488 -0.850777568499178 1.14472488590859 -2.55314840734956 1.79706611359332 0.325128834585818 0.436296194383796 0.0986087426853247 1.52855441518552 -1.37867713653279 1.57099446862127 1.02608000073706 0.493450640258369 -0.690370986092477 0.598608841540001 1.53854471892185 -0.682441878126621 0.265180655664115 -0.341935369909801 0.469459679301361 0.380407569258298 -0.529884601025253 0.930545623041015 -0.648926422389659 0.594864193066463 0.526987228303818 0.32149292279 0.0527818300993455 0.812575619208171 0.941223652802783 1.24700328180604 -1.47805411999876 0.157775780769563 0.136964391687266 0.506682703807107 -0.473352704265228 0.102069710585982 -0.284942242689732 -0.519660964181726 0.795978043870126 0.37254811596479 -0.296497007476949 0.953507326312702 -0.098902810821164 0.0157375808058048 0.0806869681629153 -0.467518476764335 0.334771798788828 0.551631049376152 1.26856353185997 -0.122883347286908 -0.377759403738482 1.27577938986581 -1.25361665148962 0.402848289978579 2.28843394641275 1.52026956466256
-1.4320583190311 1.05743059266548 0.123301938564609 1.17364587459374 0.135919837359149 -0.591581181557308 2.13698298899282 -1.54232875270894 -0.585105410668982 -0.357957633004536 -0.501714413380969 -0.223434639057408 1.16855295710463 0.170143002861185 -1.11221142983284 -0.11711791032151 -1.91067005887713 -2.4343734213488 -0.850777568499178 1.14472488590859 -2.55314840734956 1.79706611359332 0.325128834585818 0.436296194383796 0.0986087426853247 1.52855441518552 -1.37867713653279 1.57099446862127 1.02608000073706 0.493450640258369 -0.690370986092477 0.598608841540001 1.53854471892185 -0.682441878126621 0.265180655664115 -0.341935369909801 0.469459679301361 0.380407569258298 -0.529884601025253 0.930545623041015 -0.648926422389659 0.594864193066463 0.526987228303818 0.32149292279 0.0527818300993455 0.812575619208171 0.941223652802783 1.24700328180604 -1.47805411999876 0.157775780769563 0.136964391687266 0.506682703807107 -0.473352704265228 0.102069710585982 -0.284942242689732 -0.519660964181726 0.795978043870126 0.37254811596479 -0.296497007476949 0.953507326312702 -0.098902810821164 0.0157375808058048 0.0806869681629153 -0.467518476764335 0.334771798788828 0.551631049376152 1.26856353185997 -0.122883347286908 -0.377759403738482 1.27577938986581 -1.25361665148962 0.402848289978579 2.28843394641275 1.52026956466256
-1.4320583190311 1.05743059266548 0.123301938564609 1.17364587459374 0.135919837359149 -0.591581181557308 2.13698298899282 -1.54232875270894 -0.585105410668982 -0.357957633004536 -0.501714413380969 -0.223434639057408 1.16855295710463 0.170143002861185 -1.11221142983284 -0.11711791032151 -1.91067005887713 -2.4343734213488 -0.850777568499178 1.14472488590859 -2.55314840734956 1.79706611359332 0.325128834585818 0.436296194383796 0.0986087426853247 1.52855441518552 -1.37867713653279 1.57099446862127 1.02608000073706 0.493450640258369 -0.690370986092477 0.598608841540001 1.53854471892185 -0.682441878126621 0.265180655664115 -0.341935369909801 0.469459679301361 0.380407569258298 -0.529884601025253 0.930545623041015 -0.648926422389659 0.594864193066463 0.526987228303818 0.32149292279 0.0527818300993455 0.812575619208171 0.941223652802783 1.24700328180604 -1.47805411999876 0.157775780769563 0.136964391687266 0.506682703807107 -0.473352704265228 0.102069710585982 -0.284942242689732 -0.519660964181726 0.795978043870126 0.37254811596479 -0.296497007476949 0.953507326312702 -0.098902810821164 0.0157375808058048 0.0806869681629153 -0.467518476764335 0.334771798788828 0.551631049376152 1.26856353185997 -0.122883347286908 -0.377759403738482 1.27577938986581 -1.25361665148962 0.402848289978579 2.28843394641275 1.52026956466256
-1.4320583190311 1.05743059266548 0.123301938564609 1.17364587459374 0.135919837359149 -0.591581181557308 2.13698298899282 -1.54232875270894 -0.585105410668982 -0.357957633004536 -0.501714413380969 -0.223434639057408 1.16855295710463 0.170143002861185 -1.11221142983284 -0.11711791032151 -1.91067005887713 -2.4343734213488 -0.850777568499178 1.14472488590859 -2.55314840734956 1.79706611359332 0.325128834585818 0.436296194383796 0.0986087426853247 1.52855441518552 -1.37867713653279 1.57099446862127 1.02608000073706 0.493450640258369 -0.690370986092477 0.598608841540001 1.53854471892185 -0.682441878126621 0.265180655664115 -0.341935369909801 0.469459679301361 0.380407569258298 -0.529884601025253 0.930545623041015 -0.648926422389659 0.594864193066463 0.526987228303818 0.32149292279 0.0527818300993455 0.812575619208171 0.941223652802783 1.24700328180604 -1.47805411999876 0.157775780769563 0.136964391687266 0.506682703807107 -0.473352704265228 0.102069710585982 -0.284942242689732 -0.519660964181726 0.795978043870126 0.37254811596479 -0.296497007476949 0.953507326312702 -0.098902810821164 0.0157375808058048 0.0806869681629153 -0.467518476764335 0.334771798788828 0.551631049376152 1.26856353185997 -0.122883347286908 -0.377759403738482 1.27577938986581 -1.25361665148962 0.402848289978579 2.28843394641275 1.52026956466256
-1.4320583190311 1.05743059266548 0.123301938564609 1.17364587459374 0.135919837359149 -0.591581181557308 2.13698298899282 -1.54232875270894 -0.585105410668982 -0.357957633004536 -0.501714413380969 -0.223434639057408 1.16855295710463 0.170143002861185 -1.11221142983284 -0.11711791032151 -1.91067005887713 -2.4343734213488 -0.850777568499178 1.14472488590859 -2.55314840734956 1.79706611359332 0.325128834585818 0.436296194383796 0.0986087426853247 1.52855441518552 -1.37867713653279 1.57099446862127 1.02608000073706 0.493450640258369 -0.690370986092477 0.598608841540001 1.53854471892185 -0.682441878126621 0.265180655664115 -0.341935369909801 0.469459679301361 0.380407569258298 -0.529884601025253 0.930545623041015 -0.648926422389659 0.594864193066463 0.526987228303818 0.32149292279 0.0527818300993455 0.812575619208171 0.941223652802783 1.24700328180604 -1.47805411999876 0.157775780769563 0.136964391687266 0.506682703807107 -0.473352704265228 0.102069710585982 -0.284942242689732 -0.519660964181726 0.795978043870126 0.37254811596479 -0.296497007476949 0.953507326312702 -0.098902810821164 0.0157375808058048 0.0806869681629153 -0.467518476764335 0.334771798788828 0.551631049376152 1.26856353185997 -0.122883347286908 -0.377759403738482 1.27577938986581 -1.25361665148962 0.402848289978579 2.28843394641275 1.52026956466256
-1.4320583190311 1.05743059266548 0.123301938564609 1.17364587459374 0.135919837359149 -0.591581181557308 2.13698298899282 -1.54232875270894 -0.585105410668982 -0.357957633004536 -0.501714413380969 -0.223434639057408 1.16855295710463 0.170143002861185 -1.11221142983284 -0.11711791032151 -1.91067005887713 -2.4343734213488 -0.850777568499178 1.14472488590859 -2.55314840734956 1.79706611359332 0.325128834585818 0.436296194383796 0.0986087426853247 1.52855441518552 -1.37867713653279 1.57099446862127 1.02608000073706 0.493450640258369 -0.690370986092477 0.598608841540001 1.53854471892185 -0.682441878126621 0.265180655664115 -0.341935369909801 0.469459679301361 0.380407569258298 -0.529884601025253 0.930545623041015 -0.648926422389659 0.594864193066463 0.526987228303818 0.32149292279 0.0527818300993455 0.812575619208171 0.941223652802783 1.24700328180604 -1.47805411999876 0.157775780769563 0.136964391687266 0.506682703807107 -0.473352704265228 0.102069710585982 -0.284942242689732 -0.519660964181726 0.795978043870126 0.37254811596479 -0.296497007476949 0.953507326312702 -0.098902810821164 0.0157375808058048 0.0806869681629153 -0.467518476764335 0.334771798788828 0.551631049376152 1.26856353185997 -0.122883347286908 -0.377759403738482 1.27577938986581 -1.25361665148962 0.402848289978579 2.28843394641275 1.52026956466256
-1.4320583190311 1.05743059266548 0.123301938564609 1.17364587459374 0.135919837359149 -0.591581181557308 2.13698298899282 -1.54232875270894 -0.585105410668982 -0.357957633004536 -0.501714413380969 -0.223434639057408 1.16855295710463 0.170143002861185 -1.11221142983284 -0.11711791032151 -1.91067005887713 -2.4343734213488 -0.850777568499178 1.14472488590859 -2.55314840734956 1.79706611359332 0.325128834585818 0.436296194383796 0.0986087426853247 1.52855441518552 -1.37867713653279 1.57099446862127 1.02608000073706 0.493450640258369 -0.690370986092477 0.598608841540001 1.53854471892185 -0.682441878126621 0.265180655664115 -0.341935369909801 0.469459679301361 0.380407569258298 -0.529884601025253 0.930545623041015 -0.648926422389659 0.594864193066463 0.526987228303818 0.32149292279 0.0527818300993455 0.812575619208171 0.941223652802783 1.24700328180604 -1.47805411999876 0.157775780769563 0.136964391687266 0.506682703807107 -0.473352704265228 0.102069710585982 -0.284942242689732 -0.519660964181726 0.795978043870126 0.37254811596479 -0.296497007476949 0.953507326312702 -0.098902810821164 0.0157375808058048 0.0806869681629153 -0.467518476764335 0.334771798788828 0.551631049376152 1.26856353185997 -0.122883347286908 -0.377759403738482 1.27577938986581 -1.25361665148962 0.402848289978579 2.28843394641275 1.52026956466256
-1.4320583190311 1.05743059266548 0.123301938564609 1.17364587459374 0.135919837359149 -0.591581181557308 2.13698298899282 -1.54232875270894 -0.585105410668982 -0.357957633004536 -0.501714413380969 -0.223434639057408 1.16855295710463 0.170143002861185 -1.11221142983284 -0.11711791032151 -1.91067005887713 -2.4343734213488 -0.850777568499178 1.14472488590859 -2.55314840734956 1.79706611359332 0.325128834585818 0.436296194383796 0.0986087426853247 1.52855441518552 -1.37867713653279 1.57099446862127 1.02608000073706 0.493450640258369 -0.690370986092477 0.598608841540001 1.53854471892185 -0.682441878126621 0.265180655664115 -0.341935369909801 0.469459679301361 0.380407569258298 -0.529884601025253 0.930545623041015 -0.648926422389659 0.594864193066463 0.526987228303818 0.32149292279 0.0527818300993455 0.812575619208171 0.941223652802783 1.24700328180604 -1.47805411999876 0.157775780769563 0.136964391687266 0.506682703807107 -0.473352704265228 0.102069710585982 -0.284942242689732 -0.519660964181726 0.795978043870126 0.37254811596479 -0.296497007476949 0.953507326312702 -0.098902810821164 0.0157375808058048 0.0806869681629153 -0.467518476764335 0.334771798788828 0.551631049376152 1.26856353185997 -0.122883347286908 -0.377759403738482 1.27577938986581 -1.25361665148962 0.402848289978579 2.28843394641275 1.52026956466256
