-1.37096077652576 0.767268504549231 0.11840534897125 1.05512436794613 0.14648521386284 -0.589867865083646 2.2976925871324 -1.73418094137007 -0.57370855771659 -0.419014296144508 -0.536462677377057 -0.24988180050158 1.09678526740255 0.195039061040502 -0.989566170044918 -0.245725851579394 -1.85137487579839 -2.34362917873047 -0.785276476565503 1.41413150884472 -2.72199094204071 1.8040200662625 0.186462590249839 0.375720878290067 -0.011227809335758 1.66552929229568 -1.37177016948486 1.59296817374443 0.975484848362183 0.447117253384939 -0.681463154782032 -0.294105967449537 1.38670588351599 -0.755459291910817 0.113501378439793 -0.635468242965951 0.352138774627214 0.0795341332961378 -0.567309146448839 0.98575586205219 -0.729558732500834 0.260188786483951 0.517292101384537 0.312511667435211 -0.162613847362198 0.741066969833591 0.903218272719367 1.13435506071801 -1.3445851014874 0.165783179403999 0.3392075356658 0.564835830882893 -0.325655309953601 0.290535478113379 -0.218416950209462 -0.5819990085805 0.783162839358102 0.280999377143981 -0.368033768029411 0.69035696143229 -0.00507165343951426 -0.00695376292864596 0.124643098496338 -0.508079931409189 0.267192082861384 0.399076185814169 1.13580258285519 -0.0532464787894613 -0.417395118733532 1.18804693852015 -1.33938238348277 0.138227565738921 2.29667074186703 1.65349717048288
-1.37096077652576 0.767268504549231 0.11840534897125 1.05512436794613 0.14648521386284 -0.589867865083646 2.2976925871324 -1.73418094137007 -0.57370855771659 -0.419014296144508 -0.536462677377057 -0.24988180050158 1.09678526740255 0.195039061040502 -0.989566170044918 -0.245725851579394 -1.85137487579839 -2.34362917873047 -0.785276476565503 1.41413150884472 -2.72199094204071 1.8040200662625 0.186462590249839 0.375720878290067 -0.011227809335758 1.66552929229568 -1.37177016948486 1.59296817374443 0.975484848362183 0.447117253384939 -0.681463154782032 -0.294105967449537 1.38670588351599 -0.755459291910817 0.113501378439793 -0.635468242965951 0.352138774627214 0.0795341332961378 -0.567309146448839 0.98575586205219 -0.729558732500834 0.260188786483951 0.517292101384537 0.312511667435211 -0.162613847362198 0.741066969833591 0.903218272719367 1.13435506071801 -1.3445851014874 0.165783179403999 0.3392075356658 0.564835830882893 -0.325655309953601 0.290535478113379 -0.218416950209462 -0.5819990085805 0.783162839358102 0.280999377143981 -0.368033768029411 0.69035696143229 -0.00507165343951426 -0.00695376292864596 0.124643098496338 -0.508079931409189 0.267192082861384 0.399076185814169 1.13580258285519 -0.0532464787894613 -0.417395118733532 1.18804693852015 -1.33938238348277 0.138227565738921 2.29667074186703 1.65349717048288
-1.37096077652576 0.767268504549231 0.11840534897125 1.05512436794613 0.14648521386284 -0.589867865083646 2.2976925871324 -1.73418094137007 -0.57370855771659 -0.419014296144508 -0.536462677377057 -0.24988180050158 1.09678526740255 0.195039061040502 -0.989566170044918 -0.245725851579394 -1.85137487579839 -2.34362917873047 -0.785276476565503 1.41413150884472 -2.72199094204071 1.8040200662625 0.186462590249839 0.375720878290067 -0.011227809335758 1.66552929229568 -1.37177016948486 1.59296817374443 0.975484848362183 0.447117253384939 -0.681463154782032 -0.294105967449537 1.38670588351599 -0.755459291910817 0.113501378439793 -0.635468242965951 0.352138774627214 0.0795341332961378 -0.567309146448839 0.98575586205219 -0.729558732500834 0.260188786483951 0.517292101384537 0.312511667435211 -0.162613847362198 0.741066969833591 0.903218272719367 1.13435506071801 -1.3445851014874 0.165783179403999 0.3392075356658 0.564835830882893 -0.325655309953601 0.290535478113379 -0.218416950209462 -0.5819990085805 0.783162839358102 0.280999377143981 -0.368033768029411 0.69035696143229 -0.00507165343951426 -0.00695376292864596 0.124643098496338 -0.508079931409189 0.267192082861384 0.399076185814169 1.13580258285519 -0.0532464787894613 -0.417395118733532 1.18804693852015 -1.33938238348277 0.138227565738921 2.29667074186703 1.65349717048288
-1.37096077652576 0.767268504549231 0.11840534897125 1.05512436794613 0.14648521386284 -0.589867865083646 2.2976925871324 -1.73418094137007 -0.57370855771659 -0.419014296144508 -0.536462677377057 -0.24988180050158 1.09678526740255 0.195039061040502 -0.989566170044918 -0.245725851579394 -1.85137487579839 -2.34362917873047 -0.785276476565503 1.41413150884472 -2.72199094204071 1.8040200662625 0.186462590249839 0.375720878290067 -0.011227809335758 1.66552929229568 -1.37177016948486 1.59296817374443 0.975484848362183 0.447117253384939 -0.681463154782032 -0.294105967449537 1.38670588351599 -0.755459291910817 0.113501378439793 -0.635468242965951 0.352138774627214 0.0795341332961378 -0.567309146448839 0.98575586205219 -0.729558732500834 0.260188786483951 0.517292101384537 0.312511667435211 -0.162613847362198 0.741066969833591 0.903218272719367 1.13435506071801 -1.3445851014874 0.165783179403999 0.3392075356658 0.564835830882893 -0.325655309953601 0.290535478113379 -0.218416950209462 -0.5819990085805 0.783162839358102 0.280999377143981 -0.368033768029411 0.69035696143229 -0.00507165343951426 -0.00695376292864596 0.124643098496338 -0.508079931409189 0.267192082861384 0.399076185814169 1.13580258285519 -0.0532464787894613 -0.417395118733532 1.18804693852015 -1.33938238348277 0.138227565738921 2.29667074186703 1.65349717048288
-1.37096077652576 0.767268504549231 0.11840534897125 1.05512436794613 0.14648521386284 -0.589867865083646 2.2976925871324 -1.73418094137007 -0.57370855771659 -0.419014296144508 -0.536462677377057 -0.24988180050158 1.09678526740255 0.195039061040502 -0.989566170044918 -0.245725851579394 -1.85137487579839 -2.34362917873047 -0.785276476565503 1.41413150884472 -2.72199094204071 1.8040200662625 0.186462590249839 0.375720878290067 -0.011227809335758 1.66552929229568 -1.37177016948486 1.59296817374443 0.975484848362183 0.447117253384939 -0.681463154782032 -0.294105967449537 1.38670588351599 -0.755459291910817 0.113501378439793 -0.635468242965951 0.352138774627214 0.0795341332961378 -0.567309146448839 0.98575586205219 -0.729558732500834 0.260188786483951 0.517292101384537 0.312511667435211 -0.162613847362198 0.741066969833591 0.903218272719367 1.13435506071801 -1.3445851014874 0.165783179403999 0.3392075356658 0.564835830882893 -0.325655309953601 0.290535478113379 -0.218416950209462 -0.5819990085805 0.783162839358102 0.280999377143981 -0.368033768029411 0.69035696143229 -0.00507165343951426 -0.00695376292864596 0.124643098496338 -0.508079931409189 0.267192082861384 0.399076185814169 1.13580258285519 -0.0532464787894613 -0.417395118733532 1.18804693852015 -1.33938238348277 0.138227565738921 2.29667074186703 1.65349717048288
-1.37096077652576 0.767268504549231 0.11840534897125 1.05512436794613 0.14648521386284 -0.589867865083646 2.2976925871324 -1.73418094137007 -0.57370855771659 -0.419014296144508 -0.536462677377057 -0.24988180050158 1.09678526740255 0.195039061040502 -0.989566170044918 -0.245725851579394 -1.85137487579839 -2.34362917873047 -0.785276476565503 1.41413150884472 -2.72199094204071 1.8040200662625 0.186462590249839 0.375720878290067 -0.011227809335758 1.66552929229568 -1.37177016948486 1.59296817374443 0.975484848362183 0.447117253384939 -0.681463154782032 -0.294105967449537 1.38670588351599 -0.755459291910817 0.113501378439793 -0.635468242965951 0.352138774627214 0.0795341332961378 -0.567309146448839 0.98575586205219 -0.729558732500834 0.260188786483951 0.517292101384537 0.312511667435211 -0.162613847362198 0.741066969833591 0.903218272719367 1.13435506071801 -1.3445851014874 0.165783179403999 0.3392075356658 0.564835830882893 -0.325655309953601 0.290535478113379 -0.218416950209462 -0.5819990085805 0.783162839358102 0.280999377143981 -0.368033768029411 0.69035696143229 -0.00507165343951426 -0.00695376292864596 0.124643098496338 -0.508079931409189 0.267192082861384 0.399076185814169 1.13580258285519 -0.0532464787894613 -0.417395118733532 1.18804693852015 -1.33938238348277 0.138227565738921 2.29667074186703 1.65349717048288
-1.37096077652576 0.767268504549231 0.11840534897125 1.05512436794613 0.14648521386284 -0.589867865083646 2.2976925871324 -1.73418094137007 -0.57370855771659 -0.419014296144508 -0.536462677377057 -0.24988180050158 1.09678526740255 0.195039061040502 -0.989566170044918 -0.245725851579394 -1.85137487579839 -2.34362917873047 -0.785276476565503 1.41413150884472 -2.72199094204071 1.8040200662625 0.186462590249839 0.375720878290067 -0.011227809335758 1.66552929229568 -1.37177016948486 1.59296817374443 0.975484848362183 0.447117253384939 -0.681463154782032 -0.294105967449537 1.38670588351599 -0.755459291910817 0.113501378439793 -0.635468242965951 0.352138774627214 0.0795341332961378 -0.567309146448839 0.98575586205219 -0.729558732500834 0.260188786483951 0.517292101384537 0.312511667435211 -0.162613847362198 0.741066969833591 0.903218272719367 1.13435506071801 -1.3445851014874 0.165783179403999 0.3392075356658 0.564835830882893 -0.325655309953601 0.290535478113379 -0.218416950209462 -0.5819990085805 0.783162839358102 0.280999377143981 -0.368033768029411 0.69035696143229 -0.00507165343951426 -0.00695376292864596 0.124643098496338 -0.508079931409189 0.267192082861384 0.399076185814169 1.13580258285519 -0.0532464787894613 -0.417395118733532 1.18804693852015 -1.33938238348277 0.138227565738921 2.29667074186703 1.65349717048288
-1.37096077652576 0.767268504549231 0.11840534897125 1.05512436794613 0.14648521386284 -0.589867865083646 2.2976925871324 -1.73418094137007 -0.57370855771659 -0.419014296144508 -0.536462677377057 -0.24988180050158 1.09678526740255 0.195039061040502 -0.989566170044918 -0.245725851579394 -1.85137487579839 -2.34362917873047 -0.785276476565503 1.41413150884472 -2.72199094204071 1.8040200662625 0.186462590249839 0.375720878290067 -0.011227809335758 1.66552929229568 -1.37177016948486 1.59296817374443 0.975484848362183 0.447117253384939 -0.681463154782032 -0.294105967449537 1.38670588351599 -0.755459291910817 0.113501378439793 -0.635468242965951 0.352138774627214 0.0795341332961378 -0.567309146448839 0.98575586205219 -0.729558732500834 0.260188786483951 0.517292101384537 0.312511667435211 -0.162613847362198 0.741066969833591 0.903218272719367 1.13435506071801 -1.3445851014874 0.165783179403999 0.3392075356658 0.564835830882893 -0.325655309953601 0.290535478113379 -0.218416950209462 -0.5819990085805 0.783162839358102 0.280999377143981 -0.368033768029411 0.69035696143229 -0.00507165343951426 -0.00695376292864596 0.124643098496338 -0.508079931409189 0.267192082861384 0.399076185814169 1.13580258285519 -0.0532464787894613 -0.417395118733532 1.18804693852015 -1.33938238348277 0.138227565738921 2.29667074186703 1.65349717048288
-1.37096077652576 0.767268504549231 0.11840534897125 1.05512436794613 0.14648521386284 -0.589867865083646 2.2976925871324 -1.73418094137007 -0.57370855771659 -0.419014296144508 -0.536462677377057 -0.24988180050158 1.09678526740255 0.195039061040502 -0.989566170044918 -0.245725851579394 -1.85137487579839 -2.34362917873047 -0.785276476565503 1.41413150884472 -2.72199094204071 1.8040200662625 0.186462590249839 0.375720878290067 -0.011227809335758 1.66552929229568 -1.37177016948486 1.59296817374443 0.975484848362183 0.447117253384939 -0.681463154782032 -0.294105967449537 1.38670588351599 -0.755459291910817 0.113501378439793 -0.635468242965951 0.352138774627214 0.0795341332961378 -0.567309146448839 0.98575586205219 -0.729558732500834 0.260188786483951 0.517292101384537 0.312511667435211 -0.162613847362198 0.741066969833591 0.903218272719367 1.13435506071801 -1.3445851014874 0.165783179403999 0.3392075356658 0.564835830882893 -0.325655309953601 0.290535478113379 -0.218416950209462 -0.5819990085805 0.783162839358102 0.280999377143981 -0.368033768029411 0.69035696143229 -0.00507165343951426 -0.00695376292864596 0.124643098496338 -0.508079931409189 0.267192082861384 0.399076185814169 1.13580258285519 -0.0532464787894613 -0.417395118733532 1.18804693852015 -1.33938238348277 0.138227565738921 2.29667074186703 1.65349717048288
-1.37096077652576 0.767268504549231 0.11840534897125 1.05512436794613 0.14648521386284 -0.589867865083646 2.2976925871324 -1.73418094137007 -0.57370855771659 -0.419014296144508 -0.536462677377057 -0.24988180050158 1.09678526740255 0.195039061040502 -0.989566170044918 -0.245725851579394 -1.85137487579839 -2.34362917873047 -0.785276476565503 1.41413150884472 -2.72199094204071 1.8040200662625 0.186462590249839 0.375720878290067 -0.011227809335758 1.66552929229568 -1.37177016948486 1.59296817374443 0.975484848362183 0.447117253384939 -0.681463154782032 -0.294105967449537 1.38670588351599 -0.755459291910817 0.113501378439793 -0.635468242965951 0.352138774627214 0.0795341332961378 -0.567309146448839 0.98575586205219 -0.729558732500834 0.260188786483951 0.517292101384537 0.312511667435211 -0.162613847362198 0.741066969833591 0.903218272719367 1.13435506071801 -1.3445851014874 0.165783179403999 0.3392075356658 0.564835830882893 -0.325655309953601 0.290535478113379 -0.218416950209462 -0.5819990085805 0.783162839358102 0.280999377143981 -0.368033768029411 0.69035696143229 -0.00507165343951426 -0.00695376292864596 0.124643098496338 -0.508079931409189 0.267192082861384 0.399076185814169 1.13580258285519 -0.0532464787894613 -0.417395118733532 1.18804693852015 -1.33938238348277 0.138227565738921 2.29667074186703 1.65349717048288
-1.37096077652576 0.767268504549231 0.11840534897125 1.05512436794613 0.14648521386284 -0.589867865083646 2.2976925871324 -1.73418094137007 -0.57370855771659 -0.419014296144508 -0.536462677377057 -0.24988180050158 1.09678526740255 0.195039061040502 -0.989566170044918 -0.245725851579394 -1.85137487579839 -2.34362917873047 -0.785276476565503 1.41413150884472 -2.72199094204071 1.8040200662625 0.186462590249839 0.375720878290067 -0.011227809335758 1.66552929229568 -1.37177016948486 1.59296817374443 0.975484848362183 0.447117253384939 -0.681463154782032 -0.294105967449537 1.38670588351599 -0.755459291910817 0.113501378439793 -0.635468242965951 0.352138774627214 0.0795341332961378 -0.567309146448839 0.98575586205219 -0.729558732500834 0.260188786483951 0.517292101384537 0.312511667435211 -0.162613847362198 0.741066969833591 0.903218272719367 1.13435506071801 -1.3445851014874 0.165783179403999 0.3392075356658 0.564835830882893 -0.325655309953601 0.290535478113379 -0.218416950209462 -0.5819990085805 0.783162839358102 0.280999377143981 -0.368033768029411 0.69035696143229 -0.00507165343951426 -0.00695376292864596 0.124643098496338 -0.508079931409189 0.267192082861384 0.399076185814169 1.13580258285519 -0.0532464787894613 -0.417395118733532 1.18804693852015 -1.33938238348277 0.138227565738921 2.29667074186703 1.65349717048288
-1.37096077652576 0.767268504549231 0.11840534897125 1.05512436794613 0.14648521386284 -0.589867865083646 2.2976925871324 -1.73418094137007 -0.57370855771659 -0.419014296144508 -0.536462677377057 -0.24988180050158 1.09678526740255 0.195039061040502 -0.989566170044918 -0.245725851579394 -1.85137487579839 -2.34362917873047 -0.785276476565503 1.41413150884472 -2.72199094204071 1.8040200662625 0.186462590249839 0.375720878290067 -0.011227809335758 1.66552929229568 -1.37177016948486 1.59296817374443 0.975484848362183 0.447117253384939 -0.681463154782032 -0.294105967449537 1.38670588351599 -0.755459291910817 0.113501378439793 -0.635468242965951 0.352138774627214 0.0795341332961378 -0.567309146448839 0.98575586205219 -0.729558732500834 0.260188786483951 0.517292101384537 0.312511667435211 -0.162613847362198 0.741066969833591 0.903218272719367 1.13435506071801 -1.3445851014874 0.165783179403999 0.3392075356658 0.564835830882893 -0.325655309953601 0.290535478113379 -0.218416950209462 -0.5819990085805 0.783162839358102 0.280999377143981 -0.368033768029411 0.69035696143229 -0.00507165343951426 -0.00695376292864596 0.124643098496338 -0.508079931409189 0.267192082861384 0.399076185814169 1.13580258285519 -0.0532464787894613 -0.417395118733532 1.18804693852015 -1.33938238348277 0.138227565738921 2.29667074186703 1.65349717048288
-1.37096077652576 0.767268504549231 0.11840534897125 1.05512436794613 0.14648521386284 -0.589867865083646 2.2976925871324 -1.73418094137007 -0.57370855771659 -0.419014296144508 -0.536462677377057 -0.24988180050158 1.09678526740255 0.195039061040502 -0.989566170044918 -0.245725851579394 -1.85137487579839 -2.34362917873047 -0.785276476565503 1.41413150884472 -2.72199094204071 1.8040200662625 0.186462590249839 0.375720878290067 -0.011227809335758 1.66552929229568 -1.37177016948486 1.59296817374443 0.975484848362183 0.447117253384939 -0.681463154782032 -0.294105967449537 1.38670588351599 -0.755459291910817 0.113501378439793 -0.635468242965951 0.352138774627214 0.0795341332961378 -0.567309146448839 0.98575586205219 -0.729558732500834 0.260188786483951 0.517292101384537 0.312511667435211 -0.162613847362198 0.741066969833591 0.903218272719367 1.13435506071801 -1.3445851014874 0.165783179403999 0.3392075356658 0.564835830882893 -0.325655309953601 0.290535478113379 -0.218416950209462 -0.5819990085805 0.783162839358102 0.280999377143981 -0.368033768029411 0.69035696143229 -0.00507165343951426 -0.00695376292864596 0.124643098496338 -0.508079931409189 0.267192082861384 0.399076185814169 1.13580258285519 -0.0532464787894613 -0.417395118733532 1.18804693852015 -1.33938238348277 0.138227565738921 2.29667074186703 1.65349717048288
-1.37096077652576 0.767268504549231 0.11840534897125 1.05512436794613 0.14648521386284 -0.589867865083646 2.2976925871324 -1.73418094137007 -0.57370855771659 -0.419014296144508 -0.536462677377057 -0.24988180050158 1.09678526740255 0.195039061040502 -0.989566170044918 -0.245725851579394 -1.85137487579839 -2.34362917873047 -0.785276476565503 1.41413150884472 -2.72199094204071 1.8040200662625 0.186462590249839 0.375720878290067 -0.011227809335758 1.66552929229568 -1.37177016948486 1.59296817374443 0.975484848362183 0.447117253384939 -0.681463154782032 -0.294105967449537 1.38670588351599 -0.755459291910817 0.113501378439793 -0.635468242965951 0.352138774627214 0.0795341332961378 -0.567309146448839 0.98575586205219 -0.729558732500834 0.260188786483951 0.517292101384537 0.312511667435211 -0.162613847362198 0.741066969833591 0.903218272719367 1.13435506071801 -1.3445851014874 0.165783179403999 0.3392075356658 0.564835830882893 -0.325655309953601 0.290535478113379 -0.218416950209462 -0.5819990085805 0.783162839358102 0.280999377143981 -0.368033768029411 0.69035696143229 -0.00507165343951426 -0.00695376292864596 0.124643098496338 -0.508079931409189 0.267192082861384 0.399076185814169 1.13580258285519 -0.0532464787894613 -0.417395118733532 1.18804693852015 -1.33938238348277 0.138227565738921 2.29667074186703 1.65349717048288
-1.37096077652576 0.767268504549231 0.11840534897125 1.05512436794613 0.14648521386284 -0.589867865083646 2.2976925871324 -1.73418094137007 -0.57370855771659 -0.419014296144508 -0.536462677377057 -0.24988180050158 1.09678526740255 0.195039061040502 -0.989566170044918 -0.245725851579394 -1.85137487579839 -2.34362917873047 -0.785276476565503 1.41413150884472 -2.72199094204071 1.8040200662625 0.186462590249839 0.375720878290067 -0.011227809335758 1.66552929229568 -1.37177016948486 1.59296817374443 0.975484848362183 0.447117253384939 -0.681463154782032 -0.294105967449537 1.38670588351599 -0.755459291910817 0.113501378439793 -0.635468242965951 0.352138774627214 0.0795341332961378 -0.567309146448839 0.98575586205219 -0.729558732500834 0.260188786483951 0.517292101384537 0.312511667435211 -0.162613847362198 0.741066969833591 0.903218272719367 1.13435506071801 -1.3445851014874 0.165783179403999 0.3392075356658 0.564835830882893 -0.325655309953601 0.290535478113379 -0.218416950209462 -0.5819990085805 0.783162839358102 0.280999377143981 -0.368033768029411 0.69035696143229 -0.00507165343951426 -0.00695376292864596 0.124643098496338 -0.508079931409189 0.267192082861384 0.399076185814169 1.13580258285519 -0.0532464787894613 -0.417395118733532 1.18804693852015 -1.33938238348277 0.138227565738921 2.29667074186703 1.65349717048288
-1.37096077652576 0.767268504549231 0.11840534897125 1.05512436794613 0.14648521386284 -0.589867865083646 2.2976925871324 -1.73418094137007 -0.57370855771659 -0.419014296144508 -0.536462677377057 -0.24988180050158 1.09678526740255 0.195039061040502 -0.989566170044918 -0.245725851579394 -1.85137487579839 -2.34362917873047 -0.785276476565503 1.41413150884472 -2.72199094204071 1.8040200662625 0.186462590249839 0.375720878290067 -0.011227809335758 1.66552929229568 -1.37177016948486 1.59296817374443 0.975484848362183 0.447117253384939 -0.681463154782032 -0.294105967449537 1.38670588351599 -0.755459291910817 0.113501378439793 -0.635468242965951 0.352138774627214 0.0795341332961378 -0.567309146448839 0.98575586205219 -0.729558732500834 0.260188786483951 0.517292101384537 0.312511667435211 -0.162613847362198 0.741066969833591 0.903218272719367 1.13435506071801 -1.3445851014874 0.165783179403999 0.3392075356658 0.564835830882893 -0.325655309953601 0.290535478113379 -0.218416950209462 -0.5819990085805 0.783162839358102 0.280999377143981 -0.368033768029411 0.69035696143229 -0.00507165343951426 -0.00695376292864596 0.124643098496338 -0.508079931409189 0.267192082861384 0.399076185814169 1.13580258285519 -0.0532464787894613 -0.417395118733532 1.18804693852015 -1.33938238348277 0.138227565738921 2.29667074186703 1.65349717048288
-1.37096077652576 0.767268504549231 0.11840534897125 1.05512436794613 0.14648521386284 -0.589867865083646 2.2976925871324 -1.73418094137007 -0.57370855771659 -0.419014296144508 -0.536462677377057 -0.24988180050158 1.09678526740255 0.195039061040502 -0.989566170044918 -0.245725851579394 -1.85137487579839 -2.34362917873047 -0.785276476565503 1.41413150884472 -2.72199094204071 1.8040200662625 0.186462590249839 0.375720878290067 -0.011227809335758 1.66552929229568 -1.37177016948486 1.59296817374443 0.975484848362183 0.447117253384939 -0.681463154782032 -0.294105967449537 1.38670588351599 -0.755459291910817 0.113501378439793 -0.635468242965951 0.352138774627214 0.0795341332961378 -0.567309146448839 0.98575586205219 -0.729558732500834 0.260188786483951 0.517292101384537 0.312511667435211 -0.162613847362198 0.741066969833591 0.903218272719367 1.13435506071801 -1.3445851014874 0.165783179403999 0.3392075356658 0.564835830882893 -0.325655309953601 0.290535478113379 -0.218416950209462 -0.5819990085805 0.783162839358102 0.280999377143981 -0.368033768029411 0.69035696143229 -0.00507165343951426 -0.00695376292864596 0.124643098496338 -0.508079931409189 0.267192082861384 0.399076185814169 1.13580258285519 -0.0532464787894613 -0.417395118733532 1.18804693852015 -1.33938238348277 0.138227565738921 2.29667074186703 1.65349717048288
-1.37096077652576 0.767268504549231 0.11840534897125 1.05512436794613 0.14648521386284 -0.589867865083646 2.2976925871324 -1.73418094137007 -0.57370855771659 -0.419014296144508 -0.536462677377057 -0.24988180050158 1.09678526740255 0.195039061040502 -0.989566170044918 -0.245725851579394 -1.85137487579839 -2.34362917873047 -0.785276476565503 1.41413150884472 -2.72199094204071 1.8040200662625 0.186462590249839 0.375720878290067 -0.011227809335758 1.66552929229568 -1.37177016948486 1.59296817374443 0.975484848362183 0.447117253384939 -0.681463154782032 -0.294105967449537 1.38670588351599 -0.755459291910817 0.113501378439793 -0.635468242965951 0.352138774627214 0.0795341332961378 -0.567309146448839 0.98575586205219 -0.729558732500834 0.260188786483951 0.517292101384537 0.312511667435211 -0.162613847362198 0.741066969833591 0.903218272719367 1.13435506071801 -1.3445851014874 0.165783179403999 0.3392075356658 0.564835830882893 -0.325655309953601 0.290535478113379 -0.218416950209462 -0.5819990085805 0.783162839358102 0.280999377143981 -0.368033768029411 0.69035696143229 -0.00507165343951426 -0.00695376292864596 0.124643098496338 -0.508079931409189 0.267192082861384 0.399076185814169 1.13580258285519 -0.0532464787894613 -0.417395118733532 1.18804693852015 -1.33938238348277 0.138227565738921 2.29667074186703 1.65349717048288
-1.37096077652576 0.767268504549231 0.11840534897125 1.05512436794613 0.14648521386284 -0.589867865083646 2.2976925871324 -1.73418094137007 -0.57370855771659 -0.419014296144508 -0.536462677377057 -0.24988180050158 1.09678526740255 0.195039061040502 -0.989566170044918 -0.245725851579394 -1.85137487579839 -2.34362917873047 -0.785276476565503 1.41413150884472 -2.72199094204071 1.8040200662625 0.186462590249839 0.375720878290067 -0.011227809335758 1.66552929229568 -1.37177016948486 1.59296817374443 0.975484848362183 0.447117253384939 -0.681463154782032 -0.294105967449537 1.38670588351599 -0.755459291910817 0.113501378439793 -0.635468242965951 0.352138774627214 0.0795341332961378 -0.567309146448839 0.98575586205219 -0.729558732500834 0.260188786483951 0.517292101384537 0.312511667435211 -0.162613847362198 0.741066969833591 0.903218272719367 1.13435506071801 -1.3445851014874 0.165783179403999 0.3392075356658 0.564835830882893 -0.325655309953601 0.290535478113379 -0.218416950209462 -0.5819990085805 0.783162839358102 0.280999377143981 -0.368033768029411 0.69035696143229 -0.00507165343951426 -0.00695376292864596 0.124643098496338 -0.508079931409189 0.267192082861384 0.399076185814169 1.13580258285519 -0.0532464787894613 -0.417395118733532 1.18804693852015 -1.33938238348277 0.138227565738921 2.29667074186703 1.65349717048288
-1.37096077652576 0.767268504549231 0.11840534897125 1.05512436794613 0.14648521386284 -0.589867865083646 2.2976925871324 -1.73418094137007 -0.57370855771659 -0.419014296144508 -0.536462677377057 -0.24988180050158 1.09678526740255 0.195039061040502 -0.989566170044918 -0.245725851579394 -1.85137487579839 -2.34362917873047 -0.785276476565503 1.41413150884472 -2.72199094204071 1.8040200662625 0.186462590249839 0.375720878290067 -0.011227809335758 1.66552929229568 -1.37177016948486 1.59296817374443 0.975484848362183 0.447117253384939 -0.681463154782032 -0.294105967449537 1.38670588351599 -0.755459291910817 0.113501378439793 -0.635468242965951 0.352138774627214 0.0795341332961378 -0.567309146448839 0.98575586205219 -0.729558732500834 0.260188786483951 0.517292101384537 0.312511667435211 -0.162613847362198 0.741066969833591 0.903218272719367 1.13435506071801 -1.3445851014874 0.165783179403999 0.3392075356658 0.564835830882893 -0.325655309953601 0.290535478113379 -0.218416950209462 -0.5819990085805 0.783162839358102 0.280999377143981 -0.368033768029411 0.69035696143229 -0.00507165343951426 -0.00695376292864596 0.124643098496338 -0.508079931409189 0.267192082861384 0.399076185814169 1.13580258285519 -0.0532464787894613 -0.417395118733532 1.18804693852015 -1.33938238348277 0.138227565738921 2.29667074186703 1.65349717048288
-1.37096077652576 0.767268504549231 0.11840534897125 1.05512436794613 0.14648521386284 -0.589867865083646 2.2976925871324 -1.73418094137007 -0.57370855771659 -0.419014296144508 -0.536462677377057 -0.24988180050158 1.09678526740255 0.195039061040502 -0.989566170044918 -0.245725851579394 -1.85137487579839 -2.34362917873047 -0.785276476565503 1.41413150884472 -2.72199094204071 1.8040200662625 0.186462590249839 0.375720878290067 -0.011227809335758 1.66552929229568 -1.37177016948486 1.59296817374443 0.975484848362183 0.447117253384939 -0.681463154782032 -0.294105967449537 1.38670588351599 -0.755459291910817 0.113501378439793 -0.635468242965951 0.352138774627214 0.0795341332961378 -0.567309146448839 0.98575586205219 -0.729558732500834 0.260188786483951 0.517292101384537 0.312511667435211 -0.162613847362198 0.741066969833591 0.903218272719367 1.13435506071801 -1.3445851014874 0.165783179403999 0.3392075356658 0.564835830882893 -0.325655309953601 0.290535478113379 -0.218416950209462 -0.5819990085805 0.783162839358102 0.280999377143981 -0.368033768029411 0.69035696143229 -0.00507165343951426 -0.00695376292864596 0.124643098496338 -0.508079931409189 0.267192082861384 0.399076185814169 1.13580258285519 -0.0532464787894613 -0.417395118733532 1.18804693852015 -1.33938238348277 0.138227565738921 2.29667074186703 1.65349717048288
-1.37096077652576 0.767268504549231 0.11840534897125 1.05512436794613 0.14648521386284 -0.589867865083646 2.2976925871324 -1.73418094137007 -0.57370855771659 -0.419014296144508 -0.536462677377057 -0.24988180050158 1.09678526740255 0.195039061040502 -0.989566170044918 -0.245725851579394 -1.85137487579839 -2.34362917873047 -0.785276476565503 1.41413150884472 -2.72199094204071 1.8040200662625 0.186462590249839 0.375720878290067 -0.011227809335758 1.66552929229568 -1.37177016948486 1.59296817374443 0.975484848362183 0.447117253384939 -0.681463154782032 -0.294105967449537 1.38670588351599 -0.755459291910817 0.113501378439793 -0.635468242965951 0.352138774627214 0.0795341332961378 -0.567309146448839 0.98575586205219 -0.729558732500834 0.260188786483951 0.517292101384537 0.312511667435211 -0.162613847362198 0.741066969833591 0.903218272719367 1.13435506071801 -1.3445851014874 0.165783179403999 0.3392075356658 0.564835830882893 -0.325655309953601 0.290535478113379 -0.218416950209462 -0.5819990085805 0.783162839358102 0.280999377143981 -0.368033768029411 0.69035696143229 -0.00507165343951426 -0.00695376292864596 0.124643098496338 -0.508079931409189 0.267192082861384 0.399076185814169 1.13580258285519 -0.0532464787894613 -0.417395118733532 1.18804693852015 -1.33938238348277 0.138227565738921 2.29667074186703 1.65349717048288
-1.37096077652576 0.767268504549231 0.11840534897125 1.05512436794613 0.14648521386284 -0.589867865083646 2.2976925871324 -1.73418094137007 -0.57370855771659 -0.419014296144508 -0.536462677377057 -0.24988180050158 1.09678526740255 0.195039061040502 -0.989566170044918 -0.245725851579394 -1.85137487579839 -2.34362917873047 -0.785276476565503 1.41413150884472 -2.72199094204071 1.8040200662625 0.186462590249839 0.375720878290067 -0.011227809335758 1.66552929229568 -1.37177016948486 1.59296817374443 0.975484848362183 0.447117253384939 -0.681463154782032 -0.294105967449537 1.38670588351599 -0.755459291910817 0.113501378439793 -0.635468242965951 0.352138774627214 0.0795341332961378 -0.567309146448839 0.98575586205219 -0.729558732500834 0.260188786483951 0.517292101384537 0.312511667435211 -0.162613847362198 0.741066969833591 0.903218272719367 1.13435506071801 -1.3445851014874 0.165783179403999 0.3392075356658 0.564835830882893 -0.325655309953601 0.290535478113379 -0.218416950209462 -0.5819990085805 0.783162839358102 0.280999377143981 -0.368033768029411 0.69035696143229 -0.00507165343951426 -0.00695376292864596 0.124643098496338 -0.508079931409189 0.267192082861384 0.399076185814169 1.13580258285519 -0.0532464787894613 -0.417395118733532 1.18804693852015 -1.33938238348277 0.138227565738921 2.29667074186703 1.65349717048288
-1.37096077652576 0.767268504549231 0.11840534897125 1.05512436794613 0.14648521386284 -0.589867865083646 2.2976925871324 -1.73418094137007 -0.57370855771659 -0.419014296144508 -0.536462677377057 -0.24988180050158 1.09678526740255 0.195039061040502 -0.989566170044918 -0.245725851579394 -1.85137487579839 -2.34362917873047 -0.785276476565503 1.41413150884472 -2.72199094204071 1.8040200662625 0.186462590249839 0.375720878290067 -0.011227809335758 1.66552929229568 -1.37177016948486 1.59296817374443 0.975484848362183 0.447117253384939 -0.681463154782032 -0.294105967449537 1.38670588351599 -0.755459291910817 0.113501378439793 -0.635468242965951 0.352138774627214 0.0795341332961378 -0.567309146448839 0.98575586205219 -0.729558732500834 0.260188786483951 0.517292101384537 0.312511667435211 -0.162613847362198 0.741066969833591 0.903218272719367 1.13435506071801 -1.3445851014874 0.165783179403999 0.3392075356658 0.564835830882893 -0.325655309953601 0.290535478113379 -0.218416950209462 -0.5819990085805 0.783162839358102 0.280999377143981 -0.368033768029411 0.69035696143229 -0.00507165343951426 -0.00695376292864596 0.124643098496338 -0.508079931409189 0.267192082861384 0.399076185814169 1.13580258285519 -0.0532464787894613 -0.417395118733532 1.18804693852015 -1.33938238348277 0.138227565738921 2.29667074186703 1.65349717048288
-1.37096077652576 0.767268504549231 0.11840534897125 1.05512436794613 0.14648521386284 -0.589867865083646 2.2976925871324 -1.73418094137007 -0.57370855771659 -0.419014296144508 -0.536462677377057 -0.24988180050158 1.09678526740255 0.195039061040502 -0.989566170044918 -0.245725851579394 -1.85137487579839 -2.34362917873047 -0.785276476565503 1.41413150884472 -2.72199094204071 1.8040200662625 0.186462590249839 0.375720878290067 -0.011227809335758 1.66552929229568 -1.37177016948486 1.59296817374443 0.975484848362183 0.447117253384939 -0.681463154782032 -0.294105967449537 1.38670588351599 -0.755459291910817 0.113501378439793 -0.635468242965951 0.352138774627214 0.0795341332961378 -0.567309146448839 0.98575586205219 -0.729558732500834 0.260188786483951 0.517292101384537 0.312511667435211 -0.162613847362198 0.741066969833591 0.903218272719367 1.13435506071801 -1.3445851014874 0.165783179403999 0.3392075356658 0.564835830882893 -0.325655309953601 0.290535478113379 -0.218416950209462 -0.5819990085805 0.783162839358102 0.280999377143981 -0.368033768029411 0.69035696143229 -0.00507165343951426 -0.00695376292864596 0.124643098496338 -0.508079931409189 0.267192082861384 0.399076185814169 1.13580258285519 -0.0532464787894613 -0.417395118733532 1.18804693852015 -1.33938238348277 0.138227565738921 2.29667074186703 1.65349717048288
-1.37096077652576 0.767268504549231 0.11840534897125 1.05512436794613 0.14648521386284 -0.589867865083646 2.2976925871324 -1.73418094137007 -0.57370855771659 -0.419014296144508 -0.536462677377057 -0.24988180050158 1.09678526740255 0.195039061040502 -0.989566170044918 -0.245725851579394 -1.85137487579839 -2.34362917873047 -0.785276476565503 1.41413150884472 -2.72199094204071 1.8040200662625 0.186462590249839 0.375720878290067 -0.011227809335758 1.66552929229568 -1.37177016948486 1.59296817374443 0.975484848362183 0.447117253384939 -0.681463154782032 -0.294105967449537 1.38670588351599 -0.755459291910817 0.113501378439793 -0.635468242965951 0.352138774627214 0.0795341332961378 -0.567309146448839 0.98575586205219 -0.729558732500834 0.260188786483951 0.517292101384537 0.312511667435211 -0.162613847362198 0.741066969833591 0.903218272719367 1.13435506071801 -1.3445851014874 0.165783179403999 0.3392075356658 0.564835830882893 -0.325655309953601 0.290535478113379 -0.218416950209462 -0.5819990085805 0.783162839358102 0.280999377143981 -0.368033768029411 0.69035696143229 -0.00507165343951426 -0.00695376292864596 0.124643098496338 -0.508079931409189 0.267192082861384 0.399076185814169 1.13580258285519 -0.0532464787894613 -0.417395118733532 1.18804693852015 -1.33938238348277 0.138227565738921 2.29667074186703 1.65349717048288
-1.37096077652576 0.767268504549231 0.11840534897125 1.05512436794613 0.14648521386284 -0.589867865083646 2.2976925871324 -1.73418094137007 -0.57370855771659 -0.419014296144508 -0.536462677377057 -0.24988180050158 1.09678526740255 0.195039061040502 -0.989566170044918 -0.245725851579394 -1.85137487579839 -2.34362917873047 -0.785276476565503 1.41413150884472 -2.72199094204071 1.8040200662625 0.186462590249839 0.375720878290067 -0.011227809335758 1.66552929229568 -1.37177016948486 1.59296817374443 0.975484848362183 0.447117253384939 -0.681463154782032 -0.294105967449537 1.38670588351599 -0.755459291910817 0.113501378439793 -0.635468242965951 0.352138774627214 0.0795341332961378 -0.567309146448839 0.98575586205219 -0.729558732500834 0.260188786483951 0.517292101384537 0.312511667435211 -0.162613847362198 0.741066969833591 0.903218272719367 1.13435506071801 -1.3445851014874 0.165783179403999 0.3392075356658 0.564835830882893 -0.325655309953601 0.290535478113379 -0.218416950209462 -0.5819990085805 0.783162839358102 0.280999377143981 -0.368033768029411 0.69035696143229 -0.00507165343951426 -0.00695376292864596 0.124643098496338 -0.508079931409189 0.267192082861384 0.399076185814169 1.13580258285519 -0.0532464787894613 -0.417395118733532 1.18804693852015 -1.33938238348277 0.138227565738921 2.29667074186703 1.65349717048288
-1.37096077652576 0.767268504549231 0.11840534897125 1.05512436794613 0.14648521386284 -0.589867865083646 2.2976925871324 -1.73418094137007 -0.57370855771659 -0.419014296144508 -0.536462677377057 -0.24988180050158 1.09678526740255 0.195039061040502 -0.989566170044918 -0.245725851579394 -1.85137487579839 -2.34362917873047 -0.785276476565503 1.41413150884472 -2.72199094204071 1.8040200662625 0.186462590249839 0.375720878290067 -0.011227809335758 1.66552929229568 -1.37177016948486 1.59296817374443 0.975484848362183 0.447117253384939 -0.681463154782032 -0.294105967449537 1.38670588351599 -0.755459291910817 0.113501378439793 -0.635468242965951 0.352138774627214 0.0795341332961378 -0.567309146448839 0.98575586205219 -0.729558732500834 0.260188786483951 0.517292101384537 0.312511667435211 -0.162613847362198 0.741066969833591 0.903218272719367 1.13435506071801 -1.3445851014874 0.165783179403999 0.3392075356658 0.564835830882893 -0.325655309953601 0.290535478113379 -0.218416950209462 -0.5819990085805 0.783162839358102 0.280999377143981 -0.368033768029411 0.69035696143229 -0.00507165343951426 -0.00695376292864596 0.124643098496338 -0.508079931409189 0.267192082861384 0.399076185814169 1.13580258285519 -0.0532464787894613 -0.417395118733532 1.18804693852015 -1.33938238348277 0.138227565738921 2.29667074186703 1.65349717048288
-1.37096077652576 0.767268504549231 0.11840534897125 1.05512436794613 0.14648521386284 -0.589867865083646 2.2976925871324 -1.73418094137007 -0.57370855771659 -0.419014296144508 -0.536462677377057 -0.24988180050158 1.09678526740255 0.195039061040502 -0.989566170044918 -0.245725851579394 -1.85137487579839 -2.34362917873047 -0.785276476565503 1.41413150884472 -2.72199094204071 1.8040200662625 0.186462590249839 0.375720878290067 -0.011227809335758 1.66552929229568 -1.37177016948486 1.59296817374443 0.975484848362183 0.447117253384939 -0.681463154782032 -0.294105967449537 1.38670588351599 -0.755459291910817 0.113501378439793 -0.635468242965951 0.352138774627214 0.0795341332961378 -0.567309146448839 0.98575586205219 -0.729558732500834 0.260188786483951 0.517292101384537 0.312511667435211 -0.162613847362198 0.741066969833591 0.903218272719367 1.13435506071801 -1.3445851014874 0.165783179403999 0.3392075356658 0.564835830882893 -0.325655309953601 0.290535478113379 -0.218416950209462 -0.5819990085805 0.783162839358102 0.280999377143981 -0.368033768029411 0.69035696143229 -0.00507165343951426 -0.00695376292864596 0.124643098496338 -0.508079931409189 0.267192082861384 0.399076185814169 1.13580258285519 -0.0532464787894613 -0.417395118733532 1.18804693852015 -1.33938238348277 0.138227565738921 2.29667074186703 1.65349717048288
-1.37096077652576 0.767268504549231 0.11840534897125 1.05512436794613 0.14648521386284 -0.589867865083646 2.2976925871324 -1.73418094137007 -0.57370855771659 -0.419014296144508 -0.536462677377057 -0.24988180050158 1.09678526740255 0.195039061040502 -0.989566170044918 -0.245725851579394 -1.85137487579839 -2.34362917873047 -0.785276476565503 1.41413150884472 -2.72199094204071 1.8040200662625 0.186462590249839 0.375720878290067 -0.011227809335758 1.66552929229568 -1.37177016948486 1.59296817374443 0.975484848362183 0.447117253384939 -0.681463154782032 -0.294105967449537 1.38670588351599 -0.755459291910817 0.113501378439793 -0.635468242965951 0.352138774627214 0.0795341332961378 -0.567309146448839 0.98575586205219 -0.729558732500834 0.260188786483951 0.517292101384537 0.312511667435211 -0.162613847362198 0.741066969833591 0.903218272719367 1.13435506071801 -1.3445851014874 0.165783179403999 0.3392075356658 0.564835830882893 -0.325655309953601 0.290535478113379 -0.218416950209462 -0.5819990085805 0.783162839358102 0.280999377143981 -0.368033768029411 0.69035696143229 -0.00507165343951426 -0.00695376292864596 0.124643098496338 -0.508079931409189 0.267192082861384 0.399076185814169 1.13580258285519 -0.0532464787894613 -0.417395118733532 1.18804693852015 -1.33938238348277 0.138227565738921 2.29667074186703 1.65349717048288
-1.37096077652576 0.767268504549231 0.11840534897125 1.05512436794613 0.14648521386284 -0.589867865083646 2.2976925871324 -1.73418094137007 -0.57370855771659 -0.419014296144508 -0.536462677377057 -0.24988180050158 1.09678526740255 0.195039061040502 -0.989566170044918 -0.245725851579394 -1.85137487579839 -2.34362917873047 -0.785276476565503 1.41413150884472 -2.72199094204071 1.8040200662625 0.186462590249839 0.375720878290067 -0.011227809335758 1.66552929229568 -1.37177016948486 1.59296817374443 0.975484848362183 0.447117253384939 -0.681463154782032 -0.294105967449537 1.38670588351599 -0.755459291910817 0.113501378439793 -0.635468242965951 0.352138774627214 0.0795341332961378 -0.567309146448839 0.98575586205219 -0.729558732500834 0.260188786483951 0.517292101384537 0.312511667435211 -0.162613847362198 0.741066969833591 0.903218272719367 1.13435506071801 -1.3445851014874 0.165783179403999 0.3392075356658 0.564835830882893 -0.325655309953601 0.290535478113379 -0.218416950209462 -0.5819990085805 0.783162839358102 0.280999377143981 -0.368033768029411 0.69035696143229 -0.00507165343951426 -0.00695376292864596 0.124643098496338 -0.508079931409189 0.267192082861384 0.399076185814169 1.13580258285519 -0.0532464787894613 -0.417395118733532 1.18804693852015 -1.33938238348277 0.138227565738921 2.29667074186703 1.65349717048288
-1.37096077652576 0.767268504549231 0.11840534897125 1.05512436794613 0.14648521386284 -0.589867865083646 2.2976925871324 -1.73418094137007 -0.57370855771659 -0.419014296144508 -0.536462677377057 -0.24988180050158 1.09678526740255 0.195039061040502 -0.989566170044918 -0.245725851579394 -1.85137487579839 -2.34362917873047 -0.785276476565503 1.41413150884472 -2.72199094204071 1.8040200662625 0.186462590249839 0.375720878290067 -0.011227809335758 1.66552929229568 -1.37177016948486 1.59296817374443 0.975484848362183 0.447117253384939 -0.681463154782032 -0.294105967449537 1.38670588351599 -0.755459291910817 0.113501378439793 -0.635468242965951 0.352138774627214 0.0795341332961378 -0.567309146448839 0.98575586205219 -0.729558732500834 0.260188786483951 0.517292101384537 0.312511667435211 -0.162613847362198 0.741066969833591 0.903218272719367 1.13435506071801 -1.3445851014874 0.165783179403999 0.3392075356658 0.564835830882893 -0.325655309953601 0.290535478113379 -0.218416950209462 -0.5819990085805 0.783162839358102 0.280999377143981 -0.368033768029411 0.69035696143229 -0.00507165343951426 -0.00695376292864596 0.124643098496338 -0.508079931409189 0.267192082861384 0.399076185814169 1.13580258285519 -0.0532464787894613 -0.417395118733532 1.18804693852015 -1.33938238348277 0.138227565738921 2.29667074186703 1.65349717048288
-1.37096077652576 0.767268504549231 0.11840534897125 1.05512436794613 0.14648521386284 -0.589867865083646 2.2976925871324 -1.73418094137007 -0.57370855771659 -0.419014296144508 -0.536462677377057 -0.24988180050158 1.09678526740255 0.195039061040502 -0.989566170044918 -0.245725851579394 -1.85137487579839 -2.34362917873047 -0.785276476565503 1.41413150884472 -2.72199094204071 1.8040200662625 0.186462590249839 0.375720878290067 -0.011227809335758 1.66552929229568 -1.37177016948486 1.59296817374443 0.975484848362183 0.447117253384939 -0.681463154782032 -0.294105967449537 1.38670588351599 -0.755459291910817 0.113501378439793 -0.635468242965951 0.352138774627214 0.0795341332961378 -0.567309146448839 0.98575586205219 -0.729558732500834 0.260188786483951 0.517292101384537 0.312511667435211 -0.162613847362198 0.741066969833591 0.903218272719367 1.13435506071801 -1.3445851014874 0.165783179403999 0.3392075356658 0.564835830882893 -0.325655309953601 0.290535478113379 -0.218416950209462 -0.5819990085805 0.783162839358102 0.280999377143981 -0.368033768029411 0.69035696143229 -0.00507165343951426 -0.00695376292864596 0.124643098496338 -0.508079931409189 0.267192082861384 0.399076185814169 1.13580258285519 -0.0532464787894613 -0.417395118733532 1.18804693852015 -1.33938238348277 0.138227565738921 2.29667074186703 1.65349717048288
-1.37096077652576 0.767268504549231 0.11840534897125 1.05512436794613 0.14648521386284 -0.589867865083646 2.2976925871324 -1.73418094137007 -0.57370855771659 -0.419014296144508 -0.536462677377057 -0.24988180050158 1.09678526740255 0.195039061040502 -0.989566170044918 -0.245725851579394 -1.85137487579839 -2.34362917873047 -0.785276476565503 1.41413150884472 -2.72199094204071 1.8040200662625 0.186462590249839 0.375720878290067 -0.011227809335758 1.66552929229568 -1.37177016948486 1.59296817374443 0.975484848362183 0.447117253384939 -0.681463154782032 -0.294105967449537 1.38670588351599 -0.755459291910817 0.113501378439793 -0.635468242965951 0.352138774627214 0.0795341332961378 -0.567309146448839 0.98575586205219 -0.729558732500834 0.260188786483951 0.517292101384537 0.312511667435211 -0.162613847362198 0.741066969833591 0.903218272719367 1.13435506071801 -1.3445851014874 0.165783179403999 0.3392075356658 0.564835830882893 -0.325655309953601 0.290535478113379 -0.218416950209462 -0.5819990085805 0.783162839358102 0.280999377143981 -0.368033768029411 0.69035696143229 -0.00507165343951426 -0.00695376292864596 0.124643098496338 -0.508079931409189 0.267192082861384 0.399076185814169 1.13580258285519 -0.0532464787894613 -0.417395118733532 1.18804693852015 -1.33938238348277 0.138227565738921 2.29667074186703 1.65349717048288
-1.37096077652576 0.767268504549231 0.11840534897125 1.05512436794613 0.14648521386284 -0.589867865083646 2.2976925871324 -1.73418094137007 -0.57370855771659 -0.419014296144508 -0.536462677377057 -0.24988180050158 1.09678526740255 0.195039061040502 -0.989566170044918 -0.245725851579394 -1.85137487579839 -2.34362917873047 -0.785276476565503 1.41413150884472 -2.72199094204071 1.8040200662625 0.186462590249839 0.375720878290067 -0.011227809335758 1.66552929229568 -1.37177016948486 1.59296817374443 0.975484848362183 0.447117253384939 -0.681463154782032 -0.294105967449537 1.38670588351599 -0.755459291910817 0.113501378439793 -0.635468242965951 0.352138774627214 0.0795341332961378 -0.567309146448839 0.98575586205219 -0.729558732500834 0.260188786483951 0.517292101384537 0.312511667435211 -0.162613847362198 0.741066969833591 0.903218272719367 1.13435506071801 -1.3445851014874 0.165783179403999 0.3392075356658 0.564835830882893 -0.325655309953601 0.290535478113379 -0.218416950209462 -0.5819990085805 0.783162839358102 0.280999377143981 -0.368033768029411 0.69035696143229 -0.00507165343951426 -0.00695376292864596 0.124643098496338 -0.508079931409189 0.267192082861384 0.399076185814169 1.13580258285519 -0.0532464787894613 -0.417395118733532 1.18804693852015 -1.33938238348277 0.138227565738921 2.29667074186703 1.65349717048288
-1.37096077652576 0.767268504549231 0.11840534897125 1.05512436794613 0.14648521386284 -0.589867865083646 2.2976925871324 -1.73418094137007 -0.57370855771659 -0.419014296144508 -0.536462677377057 -0.24988180050158 1.09678526740255 0.195039061040502 -0.989566170044918 -0.245725851579394 -1.85137487579839 -2.34362917873047 -0.785276476565503 1.41413150884472 -2.72199094204071 1.8040200662625 0.186462590249839 0.375720878290067 -0.011227809335758 1.66552929229568 -1.37177016948486 1.59296817374443 0.975484848362183 0.447117253384939 -0.681463154782032 -0.294105967449537 1.38670588351599 -0.755459291910817 0.113501378439793 -0.635468242965951 0.352138774627214 0.0795341332961378 -0.567309146448839 0.98575586205219 -0.729558732500834 0.260188786483951 0.517292101384537 0.312511667435211 -0.162613847362198 0.741066969833591 0.903218272719367 1.13435506071801 -1.3445851014874 0.165783179403999 0.3392075356658 0.564835830882893 -0.325655309953601 0.290535478113379 -0.218416950209462 -0.5819990085805 0.783162839358102 0.280999377143981 -0.368033768029411 0.69035696143229 -0.00507165343951426 -0.00695376292864596 0.124643098496338 -0.508079931409189 0.267192082861384 0.399076185814169 1.13580258285519 -0.0532464787894613 -0.417395118733532 1.18804693852015 -1.33938238348277 0.138227565738921 2.29667074186703 1.65349717048288
-1.37096077652576 0.767268504549231 0.11840534897125 1.05512436794613 0.14648521386284 -0.589867865083646 2.2976925871324 -1.73418094137007 -0.57370855771659 -0.419014296144508 -0.536462677377057 -0.24988180050158 1.09678526740255 0.195039061040502 -0.989566170044918 -0.245725851579394 -1.85137487579839 -2.34362917873047 -0.785276476565503 1.41413150884472 -2.72199094204071 1.8040200662625 0.186462590249839 0.375720878290067 -0.011227809335758 1.66552929229568 -1.37177016948486 1.59296817374443 0.975484848362183 0.447117253384939 -0.681463154782032 -0.294105967449537 1.38670588351599 -0.755459291910817 0.113501378439793 -0.635468242965951 0.352138774627214 0.0795341332961378 -0.567309146448839 0.98575586205219 -0.729558732500834 0.260188786483951 0.517292101384537 0.312511667435211 -0.162613847362198 0.741066969833591 0.903218272719367 1.13435506071801 -1.3445851014874 0.165783179403999 0.3392075356658 0.564835830882893 -0.325655309953601 0.290535478113379 -0.218416950209462 -0.5819990085805 0.783162839358102 0.280999377143981 -0.368033768029411 0.69035696143229 -0.00507165343951426 -0.00695376292864596 0.124643098496338 -0.508079931409189 0.267192082861384 0.399076185814169 1.13580258285519 -0.0532464787894613 -0.417395118733532 1.18804693852015 -1.33938238348277 0.138227565738921 2.29667074186703 1.65349717048288
-1.37096077652576 0.767268504549231 0.11840534897125 1.05512436794613 0.14648521386284 -0.589867865083646 2.2976925871324 -1.73418094137007 -0.57370855771659 -0.419014296144508 -0.536462677377057 -0.24988180050158 1.09678526740255 0.195039061040502 -0.989566170044918 -0.245725851579394 -1.85137487579839 -2.34362917873047 -0.785276476565503 1.41413150884472 -2.72199094204071 1.8040200662625 0.186462590249839 0.375720878290067 -0.011227809335758 1.66552929229568 -1.37177016948486 1.59296817374443 0.975484848362183 0.447117253384939 -0.681463154782032 -0.294105967449537 1.38670588351599 -0.755459291910817 0.113501378439793 -0.635468242965951 0.352138774627214 0.0795341332961378 -0.567309146448839 0.98575586205219 -0.729558732500834 0.260188786483951 0.517292101384537 0.312511667435211 -0.162613847362198 0.741066969833591 0.903218272719367 1.13435506071801 -1.3445851014874 0.165783179403999 0.3392075356658 0.564835830882893 -0.325655309953601 0.290535478113379 -0.218416950209462 -0.5819990085805 0.783162839358102 0.280999377143981 -0.368033768029411 0.69035696143229 -0.00507165343951426 -0.00695376292864596 0.124643098496338 -0.508079931409189 0.267192082861384 0.399076185814169 1.13580258285519 -0.0532464787894613 -0.417395118733532 1.18804693852015 -1.33938238348277 0.138227565738921 2.29667074186703 1.65349717048288
-1.37096077652576 0.767268504549231 0.11840534897125 1.05512436794613 0.14648521386284 -0.589867865083646 2.2976925871324 -1.73418094137007 -0.57370855771659 -0.419014296144508 -0.536462677377057 -0.24988180050158 1.09678526740255 0.195039061040502 -0.989566170044918 -0.245725851579394 -1.85137487579839 -2.34362917873047 -0.785276476565503 1.41413150884472 -2.72199094204071 1.8040200662625 0.186462590249839 0.375720878290067 -0.011227809335758 1.66552929229568 -1.37177016948486 1.59296817374443 0.975484848362183 0.447117253384939 -0.681463154782032 -0.294105967449537 1.38670588351599 -0.755459291910817 0.113501378439793 -0.635468242965951 0.352138774627214 0.0795341332961378 -0.567309146448839 0.98575586205219 -0.729558732500834 0.260188786483951 0.517292101384537 0.312511667435211 -0.162613847362198 0.741066969833591 0.903218272719367 1.13435506071801 -1.3445851014874 0.165783179403999 0.3392075356658 0.564835830882893 -0.325655309953601 0.290535478113379 -0.218416950209462 -0.5819990085805 0.783162839358102 0.280999377143981 -0.368033768029411 0.69035696143229 -0.00507165343951426 -0.00695376292864596 0.124643098496338 -0.508079931409189 0.267192082861384 0.399076185814169 1.13580258285519 -0.0532464787894613 -0.417395118733532 1.18804693852015 -1.33938238348277 0.138227565738921 2.29667074186703 1.65349717048288
-1.37096077652576 0.767268504549231 0.11840534897125 1.05512436794613 0.14648521386284 -0.589867865083646 2.2976925871324 -1.73418094137007 -0.57370855771659 -0.419014296144508 -0.536462677377057 -0.24988180050158 1.09678526740255 0.195039061040502 -0.989566170044918 -0.245725851579394 -1.85137487579839 -2.34362917873047 -0.785276476565503 1.41413150884472 -2.72199094204071 1.8040200662625 0.186462590249839 0.375720878290067 -0.011227809335758 1.66552929229568 -1.37177016948486 1.59296817374443 0.975484848362183 0.447117253384939 -0.681463154782032 -0.294105967449537 1.38670588351599 -0.755459291910817 0.113501378439793 -0.635468242965951 0.352138774627214 0.0795341332961378 -0.567309146448839 0.98575586205219 -0.729558732500834 0.260188786483951 0.517292101384537 0.312511667435211 -0.162613847362198 0.741066969833591 0.903218272719367 1.13435506071801 -1.3445851014874 0.165783179403999 0.3392075356658 0.564835830882893 -0.325655309953601 0.290535478113379 -0.218416950209462 -0.5819990085805 0.783162839358102 0.280999377143981 -0.368033768029411 0.69035696143229 -0.00507165343951426 -0.00695376292864596 0.124643098496338 -0.508079931409189 0.267192082861384 0.399076185814169 1.13580258285519 -0.0532464787894613 -0.417395118733532 1.18804693852015 -1.33938238348277 0.138227565738921 2.29667074186703 1.65349717048288
-1.37096077652576 0.767268504549231 0.11840534897125 1.05512436794613 0.14648521386284 -0.589867865083646 2.2976925871324 -1.73418094137007 -0.57370855771659 -0.419014296144508 -0.536462677377057 -0.24988180050158 1.09678526740255 0.195039061040502 -0.989566170044918 -0.245725851579394 -1.85137487579839 -2.34362917873047 -0.785276476565503 1.41413150884472 -2.72199094204071 1.8040200662625 0.186462590249839 0.375720878290067 -0.011227809335758 1.66552929229568 -1.37177016948486 1.59296817374443 0.975484848362183 0.447117253384939 -0.681463154782032 -0.294105967449537 1.38670588351599 -0.755459291910817 0.113501378439793 -0.635468242965951 0.352138774627214 0.0795341332961378 -0.567309146448839 0.98575586205219 -0.729558732500834 0.260188786483951 0.517292101384537 0.312511667435211 -0.162613847362198 0.741066969833591 0.903218272719367 1.13435506071801 -1.3445851014874 0.165783179403999 0.3392075356658 0.564835830882893 -0.325655309953601 0.290535478113379 -0.218416950209462 -0.5819990085805 0.783162839358102 0.280999377143981 -0.368033768029411 0.69035696143229 -0.00507165343951426 -0.00695376292864596 0.124643098496338 -0.508079931409189 0.267192082861384 0.399076185814169 1.13580258285519 -0.0532464787894613 -0.417395118733532 1.18804693852015 -1.33938238348277 0.138227565738921 2.29667074186703 1.65349717048288
-1.37096077652576 0.767268504549231 0.11840534897125 1.05512436794613 0.14648521386284 -0.589867865083646 2.2976925871324 -1.73418094137007 -0.57370855771659 -0.419014296144508 -0.536462677377057 -0.24988180050158 1.09678526740255 0.195039061040502 -0.989566170044918 -0.245725851579394 -1.85137487579839 -2.34362917873047 -0.785276476565503 1.41413150884472 -2.72199094204071 1.8040200662625 0.186462590249839 0.375720878290067 -0.011227809335758 1.66552929229568 -1.37177016948486 1.59296817374443 0.975484848362183 0.447117253384939 -0.681463154782032 -0.294105967449537 1.38670588351599 -0.755459291910817 0.113501378439793 -0.635468242965951 0.352138774627214 0.0795341332961378 -0.567309146448839 0.98575586205219 -0.729558732500834 0.260188786483951 0.517292101384537 0.312511667435211 -0.162613847362198 0.741066969833591 0.903218272719367 1.13435506071801 -1.3445851014874 0.165783179403999 0.3392075356658 0.564835830882893 -0.325655309953601 0.290535478113379 -0.218416950209462 -0.5819990085805 0.783162839358102 0.280999377143981 -0.368033768029411 0.69035696143229 -0.00507165343951426 -0.00695376292864596 0.124643098496338 -0.508079931409189 0.267192082861384 0.399076185814169 1.13580258285519 -0.0532464787894613 -0.417395118733532 1.18804693852015 -1.33938238348277 0.138227565738921 2.29667074186703 1.65349717048288
-1.37096077652576 0.767268504549231 0.11840534897125 1.05512436794613 0.14648521386284 -0.589867865083646 2.2976925871324 -1.73418094137007 -0.57370855771659 -0.419014296144508 -0.536462677377057 -0.24988180050158 1.09678526740255 0.195039061040502 -0.989566170044918 -0.245725851579394 -1.85137487579839 -2.34362917873047 -0.785276476565503 1.41413150884472 -2.72199094204071 1.8040200662625 0.186462590249839 0.375720878290067 -0.011227809335758 1.66552929229568 -1.37177016948486 1.59296817374443 0.975484848362183 0.447117253384939 -0.681463154782032 -0.294105967449537 1.38670588351599 -0.755459291910817 0.113501378439793 -0.635468242965951 0.352138774627214 0.0795341332961378 -0.567309146448839 0.98575586205219 -0.729558732500834 0.260188786483951 0.517292101384537 0.312511667435211 -0.162613847362198 0.741066969833591 0.903218272719367 1.13435506071801 -1.3445851014874 0.165783179403999 0.3392075356658 0.564835830882893 -0.325655309953601 0.290535478113379 -0.218416950209462 -0.5819990085805 0.783162839358102 0.280999377143981 -0.368033768029411 0.69035696143229 -0.00507165343951426 -0.00695376292864596 0.124643098496338 -0.508079931409189 0.267192082861384 0.399076185814169 1.13580258285519 -0.0532464787894613 -0.417395118733532 1.18804693852015 -1.33938238348277 0.138227565738921 2.29667074186703 1.65349717048288
-1.37096077652576 0.767268504549231 0.11840534897125 1.05512436794613 0.14648521386284 -0.589867865083646 2.2976925871324 -1.73418094137007 -0.57370855771659 -0.419014296144508 -0.536462677377057 -0.24988180050158 1.09678526740255 0.195039061040502 -0.989566170044918 -0.245725851579394 -1.85137487579839 -2.34362917873047 -0.785276476565503 1.41413150884472 -2.72199094204071 1.8040200662625 0.186462590249839 0.375720878290067 -0.011227809335758 1.66552929229568 -1.37177016948486 1.59296817374443 0.975484848362183 0.447117253384939 -0.681463154782032 -0.294105967449537 1.38670588351599 -0.755459291910817 0.113501378439793 -0.635468242965951 0.352138774627214 0.0795341332961378 -0.567309146448839 0.98575586205219 -0.729558732500834 0.260188786483951 0.517292101384537 0.312511667435211 -0.162613847362198 0.741066969833591 0.903218272719367 1.13435506071801 -1.3445851014874 0.165783179403999 0.3392075356658 0.564835830882893 -0.325655309953601 0.290535478113379 -0.218416950209462 -0.5819990085805 0.783162839358102 0.280999377143981 -0.368033768029411 0.69035696143229 -0.00507165343951426 -0.00695376292864596 0.124643098496338 -0.508079931409189 0.267192082861384 0.399076185814169 1.13580258285519 -0.0532464787894613 -0.417395118733532 1.18804693852015 -1.33938238348277 0.138227565738921 2.29667074186703 1.65349717048288
-1.37096077652576 0.767268504549231 0.11840534897125 1.05512436794613 0.14648521386284 -0.589867865083646 2.2976925871324 -1.73418094137007 -0.57370855771659 -0.419014296144508 -0.536462677377057 -0.24988180050158 1.09678526740255 0.195039061040502 -0.989566170044918 -0.245725851579394 -1.85137487579839 -2.34362917873047 -0.785276476565503 1.41413150884472 -2.72199094204071 1.8040200662625 0.186462590249839 0.375720878290067 -0.011227809335758 1.66552929229568 -1.37177016948486 1.59296817374443 0.975484848362183 0.447117253384939 -0.681463154782032 -0.294105967449537 1.38670588351599 -0.755459291910817 0.113501378439793 -0.635468242965951 0.352138774627214 0.0795341332961378 -0.567309146448839 0.98575586205219 -0.729558732500834 0.260188786483951 0.517292101384537 0.312511667435211 -0.162613847362198 0.741066969833591 0.903218272719367 1.13435506071801 -1.3445851014874 0.165783179403999 0.3392075356658 0.564835830882893 -0.325655309953601 0.290535478113379 -0.218416950209462 -0.5819990085805 0.783162839358102 0.280999377143981 -0.368033768029411 0.69035696143229 -0.00507165343951426 -0.00695376292864596 0.124643098496338 -0.508079931409189 0.267192082861384 0.399076185814169 1.13580258285519 -0.0532464787894613 -0.417395118733532 1.18804693852015 -1.33938238348277 0.138227565738921 2.29667074186703 1.65349717048288
-1.37096077652576 0.767268504549231 0.11840534897125 1.05512436794613 0.14648521386284 -0.589867865083646 2.2976925871324 -1.73418094137007 -0.57370855771659 -0.419014296144508 -0.536462677377057 -0.24988180050158 1.09678526740255 0.195039061040502 -0.989566170044918 -0.245725851579394 -1.85137487579839 -2.34362917873047 -0.785276476565503 1.41413150884472 -2.72199094204071 1.8040200662625 0.186462590249839 0.375720878290067 -0.011227809335758 1.66552929229568 -1.37177016948486 1.59296817374443 0.975484848362183 0.447117253384939 -0.681463154782032 -0.294105967449537 1.38670588351599 -0.755459291910817 0.113501378439793 -0.635468242965951 0.352138774627214 0.0795341332961378 -0.567309146448839 0.98575586205219 -0.729558732500834 0.260188786483951 0.517292101384537 0.312511667435211 -0.162613847362198 0.741066969833591 0.903218272719367 1.13435506071801 -1.3445851014874 0.165783179403999 0.3392075356658 0.564835830882893 -0.325655309953601 0.290535478113379 -0.218416950209462 -0.5819990085805 0.783162839358102 0.280999377143981 -0.368033768029411 0.69035696143229 -0.00507165343951426 -0.00695376292864596 0.124643098496338 -0.508079931409189 0.267192082861384 0.399076185814169 1.13580258285519 -0.0532464787894613 -0.417395118733532 1.18804693852015 -1.33938238348277 0.138227565738921 2.29667074186703 1.65349717048288
-1.37096077652576 0.767268504549231 0.11840534897125 1.05512436794613 0.14648521386284 -0.589867865083646 2.2976925871324 -1.73418094137007 -0.57370855771659 -0.419014296144508 -0.536462677377057 -0.24988180050158 1.09678526740255 0.195039061040502 -0.989566170044918 -0.245725851579394 -1.85137487579839 -2.34362917873047 -0.785276476565503 1.41413150884472 -2.72199094204071 1.8040200662625 0.186462590249839 0.375720878290067 -0.011227809335758 1.66552929229568 -1.37177016948486 1.59296817374443 0.975484848362183 0.447117253384939 -0.681463154782032 -0.294105967449537 1.38670588351599 -0.755459291910817 0.113501378439793 -0.635468242965951 0.352138774627214 0.0795341332961378 -0.567309146448839 0.98575586205219 -0.729558732500834 0.260188786483951 0.517292101384537 0.312511667435211 -0.162613847362198 0.741066969833591 0.903218272719367 1.13435506071801 -1.3445851014874 0.165783179403999 0.3392075356658 0.564835830882893 -0.325655309953601 0.290535478113379 -0.218416950209462 -0.5819990085805 0.783162839358102 0.280999377143981 -0.368033768029411 0.69035696143229 -0.00507165343951426 -0.00695376292864596 0.124643098496338 -0.508079931409189 0.267192082861384 0.399076185814169 1.13580258285519 -0.0532464787894613 -0.417395118733532 1.18804693852015 -1.33938238348277 0.138227565738921 2.29667074186703 1.65349717048288
-1.37096077652576 0.767268504549231 0.11840534897125 1.05512436794613 0.14648521386284 -0.589867865083646 2.2976925871324 -1.73418094137007 -0.57370855771659 -0.419014296144508 -0.536462677377057 -0.24988180050158 1.09678526740255 0.195039061040502 -0.989566170044918 -0.245725851579394 -1.85137487579839 -2.34362917873047 -0.785276476565503 1.41413150884472 -2.72199094204071 1.8040200662625 0.186462590249839 0.375720878290067 -0.011227809335758 1.66552929229568 -1.37177016948486 1.59296817374443 0.975484848362183 0.447117253384939 -0.681463154782032 -0.294105967449537 1.38670588351599 -0.755459291910817 0.113501378439793 -0.635468242965951 0.352138774627214 0.0795341332961378 -0.567309146448839 0.98575586205219 -0.729558732500834 0.260188786483951 0.517292101384537 0.312511667435211 -0.162613847362198 0.741066969833591 0.903218272719367 1.13435506071801 -1.3445851014874 0.165783179403999 0.3392075356658 0.564835830882893 -0.325655309953601 0.290535478113379 -0.218416950209462 -0.5819990085805 0.783162839358102 0.280999377143981 -0.368033768029411 0.69035696143229 -0.00507165343951426 -0.00695376292864596 0.124643098496338 -0.508079931409189 0.267192082861384 0.399076185814169 1.13580258285519 -0.0532464787894613 -0.417395118733532 1.18804693852015 -1.33938238348277 0.138227565738921 2.29667074186703 1.65349717048288
-1.37096077652576 0.767268504549231 0.11840534897125 1.05512436794613 0.14648521386284 -0.589867865083646 2.2976925871324 -1.73418094137007 -0.57370855771659 -0.419014296144508 -0.536462677377057 -0.24988180050158 1.09678526740255 0.195039061040502 -0.989566170044918 -0.245725851579394 -1.85137487579839 -2.34362917873047 -0.785276476565503 1.41413150884472 -2.72199094204071 1.8040200662625 0.186462590249839 0.375720878290067 -0.011227809335758 1.66552929229568 -1.37177016948486 1.59296817374443 0.975484848362183 0.447117253384939 -0.681463154782032 -0.294105967449537 1.38670588351599 -0.755459291910817 0.113501378439793 -0.635468242965951 0.352138774627214 0.0795341332961378 -0.567309146448839 0.98575586205219 -0.729558732500834 0.260188786483951 0.517292101384537 0.312511667435211 -0.162613847362198 0.741066969833591 0.903218272719367 1.13435506071801 -1.3445851014874 0.165783179403999 0.3392075356658 0.564835830882893 -0.325655309953601 0.290535478113379 -0.218416950209462 -0.5819990085805 0.783162839358102 0.280999377143981 -0.368033768029411 0.69035696143229 -0.00507165343951426 -0.00695376292864596 0.124643098496338 -0.508079931409189 0.267192082861384 0.399076185814169 1.13580258285519 -0.0532464787894613 -0.417395118733532 1.18804693852015 -1.33938238348277 0.138227565738921 2.29667074186703 1.65349717048288
-1.37096077652576 0.767268504549231 0.11840534897125 1.05512436794613 0.14648521386284 -0.589867865083646 2.2976925871324 -1.73418094137007 -0.57370855771659 -0.419014296144508 -0.536462677377057 -0.24988180050158 1.09678526740255 0.195039061040502 -0.989566170044918 -0.245725851579394 -1.85137487579839 -2.34362917873047 -0.785276476565503 1.41413150884472 -2.72199094204071 1.8040200662625 0.186462590249839 0.375720878290067 -0.011227809335758 1.66552929229568 -1.37177016948486 1.59296817374443 0.975484848362183 0.447117253384939 -0.681463154782032 -0.294105967449537 1.38670588351599 -0.755459291910817 0.113501378439793 -0.635468242965951 0.352138774627214 0.0795341332961378 -0.567309146448839 0.98575586205219 -0.729558732500834 0.260188786483951 0.517292101384537 0.312511667435211 -0.162613847362198 0.741066969833591 0.903218272719367 1.13435506071801 -1.3445851014874 0.165783179403999 0.3392075356658 0.564835830882893 -0.325655309953601 0.290535478113379 -0.218416950209462 -0.5819990085805 0.783162839358102 0.280999377143981 -0.368033768029411 0.69035696143229 -0.00507165343951426 -0.00695376292864596 0.124643098496338 -0.508079931409189 0.267192082861384 0.399076185814169 1.13580258285519 -0.0532464787894613 -0.417395118733532 1.18804693852015 -1.33938238348277 0.138227565738921 2.29667074186703 1.65349717048288
-1.37096077652576 0.767268504549231 0.11840534897125 1.05512436794613 0.14648521386284 -0.589867865083646 2.2976925871324 -1.73418094137007 -0.57370855771659 -0.419014296144508 -0.536462677377057 -0.24988180050158 1.09678526740255 0.195039061040502 -0.989566170044918 -0.245725851579394 -1.85137487579839 -2.34362917873047 -0.785276476565503 1.41413150884472 -2.72199094204071 1.8040200662625 0.186462590249839 0.375720878290067 -0.011227809335758 1.66552929229568 -1.37177016948486 1.59296817374443 0.975484848362183 0.447117253384939 -0.681463154782032 -0.294105967449537 1.38670588351599 -0.755459291910817 0.113501378439793 -0.635468242965951 0.352138774627214 0.0795341332961378 -0.567309146448839 0.98575586205219 -0.729558732500834 0.260188786483951 0.517292101384537 0.312511667435211 -0.162613847362198 0.741066969833591 0.903218272719367 1.13435506071801 -1.3445851014874 0.165783179403999 0.3392075356658 0.564835830882893 -0.325655309953601 0.290535478113379 -0.218416950209462 -0.5819990085805 0.783162839358102 0.280999377143981 -0.368033768029411 0.69035696143229 -0.00507165343951426 -0.00695376292864596 0.124643098496338 -0.508079931409189 0.267192082861384 0.399076185814169 1.13580258285519 -0.0532464787894613 -0.417395118733532 1.18804693852015 -1.33938238348277 0.138227565738921 2.29667074186703 1.65349717048288
-1.37096077652576 0.767268504549231 0.11840534897125 1.05512436794613 0.14648521386284 -0.589867865083646 2.2976925871324 -1.73418094137007 -0.57370855771659 -0.419014296144508 -0.536462677377057 -0.24988180050158 1.09678526740255 0.195039061040502 -0.989566170044918 -0.245725851579394 -1.85137487579839 -2.34362917873047 -0.785276476565503 1.41413150884472 -2.72199094204071 1.8040200662625 0.186462590249839 0.375720878290067 -0.011227809335758 1.66552929229568 -1.37177016948486 1.59296817374443 0.975484848362183 0.447117253384939 -0.681463154782032 -0.294105967449537 1.38670588351599 -0.755459291910817 0.113501378439793 -0.635468242965951 0.352138774627214 0.0795341332961378 -0.567309146448839 0.98575586205219 -0.729558732500834 0.260188786483951 0.517292101384537 0.312511667435211 -0.162613847362198 0.741066969833591 0.903218272719367 1.13435506071801 -1.3445851014874 0.165783179403999 0.3392075356658 0.564835830882893 -0.325655309953601 0.290535478113379 -0.218416950209462 -0.5819990085805 0.783162839358102 0.280999377143981 -0.368033768029411 0.69035696143229 -0.00507165343951426 -0.00695376292864596 0.124643098496338 -0.508079931409189 0.267192082861384 0.399076185814169 1.13580258285519 -0.0532464787894613 -0.417395118733532 1.18804693852015 -1.33938238348277 0.138227565738921 2.29667074186703 1.65349717048288
-1.37096077652576 0.767268504549231 0.11840534897125 1.05512436794613 0.14648521386284 -0.589867865083646 2.2976925871324 -1.73418094137007 -0.57370855771659 -0.419014296144508 -0.536462677377057 -0.24988180050158 1.09678526740255 0.195039061040502 -0.989566170044918 -0.245725851579394 -1.85137487579839 -2.34362917873047 -0.785276476565503 1.41413150884472 -2.72199094204071 1.8040200662625 0.186462590249839 0.375720878290067 -0.011227809335758 1.66552929229568 -1.37177016948486 1.59296817374443 0.975484848362183 0.447117253384939 -0.681463154782032 -0.294105967449537 1.38670588351599 -0.755459291910817 0.113501378439793 -0.635468242965951 0.352138774627214 0.0795341332961378 -0.567309146448839 0.98575586205219 -0.729558732500834 0.260188786483951 0.517292101384537 0.312511667435211 -0.162613847362198 0.741066969833591 0.903218272719367 1.13435506071801 -1.3445851014874 0.165783179403999 0.3392075356658 0.564835830882893 -0.325655309953601 0.290535478113379 -0.218416950209462 -0.5819990085805 0.783162839358102 0.280999377143981 -0.368033768029411 0.69035696143229 -0.00507165343951426 -0.00695376292864596 0.124643098496338 -0.508079931409189 0.267192082861384 0.399076185814169 1.13580258285519 -0.0532464787894613 -0.417395118733532 1.18804693852015 -1.33938238348277 0.138227565738921 2.29667074186703 1.65349717048288
-1.37096077652576 0.767268504549231 0.11840534897125 1.05512436794613 0.14648521386284 -0.589867865083646 2.2976925871324 -1.73418094137007 -0.57370855771659 -0.419014296144508 -0.536462677377057 -0.24988180050158 1.09678526740255 0.195039061040502 -0.989566170044918 -0.245725851579394 -1.85137487579839 -2.34362917873047 -0.785276476565503 1.41413150884472 -2.72199094204071 1.8040200662625 0.186462590249839 0.375720878290067 -0.011227809335758 1.66552929229568 -1.37177016948486 1.59296817374443 0.975484848362183 0.447117253384939 -0.681463154782032 -0.294105967449537 1.38670588351599 -0.755459291910817 0.113501378439793 -0.635468242965951 0.352138774627214 0.0795341332961378 -0.567309146448839 0.98575586205219 -0.729558732500834 0.260188786483951 0.517292101384537 0.312511667435211 -0.162613847362198 0.741066969833591 0.903218272719367 1.13435506071801 -1.3445851014874 0.165783179403999 0.3392075356658 0.564835830882893 -0.325655309953601 0.290535478113379 -0.218416950209462 -0.5819990085805 0.783162839358102 0.280999377143981 -0.368033768029411 0.69035696143229 -0.00507165343951426 -0.00695376292864596 0.124643098496338 -0.508079931409189 0.267192082861384 0.399076185814169 1.13580258285519 -0.0532464787894613 -0.417395118733532 1.18804693852015 -1.33938238348277 0.138227565738921 2.29667074186703 1.65349717048288
-1.37096077652576 0.767268504549231 0.11840534897125 1.05512436794613 0.14648521386284 -0.589867865083646 2.2976925871324 -1.73418094137007 -0.57370855771659 -0.419014296144508 -0.536462677377057 -0.24988180050158 1.09678526740255 0.195039061040502 -0.989566170044918 -0.245725851579394 -1.85137487579839 -2.34362917873047 -0.785276476565503 1.41413150884472 -2.72199094204071 1.8040200662625 0.186462590249839 0.375720878290067 -0.011227809335758 1.66552929229568 -1.37177016948486 1.59296817374443 0.975484848362183 0.447117253384939 -0.681463154782032 -0.294105967449537 1.38670588351599 -0.755459291910817 0.113501378439793 -0.635468242965951 0.352138774627214 0.0795341332961378 -0.567309146448839 0.98575586205219 -0.729558732500834 0.260188786483951 0.517292101384537 0.312511667435211 -0.162613847362198 0.741066969833591 0.903218272719367 1.13435506071801 -1.3445851014874 0.165783179403999 0.3392075356658 0.564835830882893 -0.325655309953601 0.290535478113379 -0.218416950209462 -0.5819990085805 0.783162839358102 0.280999377143981 -0.368033768029411 0.69035696143229 -0.00507165343951426 -0.00695376292864596 0.124643098496338 -0.508079931409189 0.267192082861384 0.399076185814169 1.13580258285519 -0.0532464787894613 -0.417395118733532 1.18804693852015 -1.33938238348277 0.138227565738921 2.29667074186703 1.65349717048288
-1.37096077652576 0.767268504549231 0.11840534897125 1.05512436794613 0.14648521386284 -0.589867865083646 2.2976925871324 -1.73418094137007 -0.57370855771659 -0.419014296144508 -0.536462677377057 -0.24988180050158 1.09678526740255 0.195039061040502 -0.989566170044918 -0.245725851579394 -1.85137487579839 -2.34362917873047 -0.785276476565503 1.41413150884472 -2.72199094204071 1.8040200662625 0.186462590249839 0.375720878290067 -0.011227809335758 1.66552929229568 -1.37177016948486 1.59296817374443 0.975484848362183 0.447117253384939 -0.681463154782032 -0.294105967449537 1.38670588351599 -0.755459291910817 0.113501378439793 -0.635468242965951 0.352138774627214 0.0795341332961378 -0.567309146448839 0.98575586205219 -0.729558732500834 0.260188786483951 0.517292101384537 0.312511667435211 -0.162613847362198 0.741066969833591 0.903218272719367 1.13435506071801 -1.3445851014874 0.165783179403999 0.3392075356658 0.564835830882893 -0.325655309953601 0.290535478113379 -0.218416950209462 -0.5819990085805 0.783162839358102 0.280999377143981 -0.368033768029411 0.69035696143229 -0.00507165343951426 -0.00695376292864596 0.124643098496338 -0.508079931409189 0.267192082861384 0.399076185814169 1.13580258285519 -0.0532464787894613 -0.417395118733532 1.18804693852015 -1.33938238348277 0.138227565738921 2.29667074186703 1.65349717048288
-1.37096077652576 0.767268504549231 0.11840534897125 1.05512436794613 0.14648521386284 -0.589867865083646 2.2976925871324 -1.73418094137007 -0.57370855771659 -0.419014296144508 -0.536462677377057 -0.24988180050158 1.09678526740255 0.195039061040502 -0.989566170044918 -0.245725851579394 -1.85137487579839 -2.34362917873047 -0.785276476565503 1.41413150884472 -2.72199094204071 1.8040200662625 0.186462590249839 0.375720878290067 -0.011227809335758 1.66552929229568 -1.37177016948486 1.59296817374443 0.975484848362183 0.447117253384939 -0.681463154782032 -0.294105967449537 1.38670588351599 -0.755459291910817 0.113501378439793 -0.635468242965951 0.352138774627214 0.0795341332961378 -0.567309146448839 0.98575586205219 -0.729558732500834 0.260188786483951 0.517292101384537 0.312511667435211 -0.162613847362198 0.741066969833591 0.903218272719367 1.13435506071801 -1.3445851014874 0.165783179403999 0.3392075356658 0.564835830882893 -0.325655309953601 0.290535478113379 -0.218416950209462 -0.5819990085805 0.783162839358102 0.280999377143981 -0.368033768029411 0.69035696143229 -0.00507165343951426 -0.00695376292864596 0.124643098496338 -0.508079931409189 0.267192082861384 0.399076185814169 1.13580258285519 -0.0532464787894613 -0.417395118733532 1.18804693852015 -1.33938238348277 0.138227565738921 2.29667074186703 1.65349717048288
-1.37096077652576 0.767268504549231 0.11840534897125 1.05512436794613 0.14648521386284 -0.589867865083646 2.2976925871324 -1.73418094137007 -0.57370855771659 -0.419014296144508 -0.536462677377057 -0.24988180050158 1.09678526740255 0.195039061040502 -0.989566170044918 -0.245725851579394 -1.85137487579839 -2.34362917873047 -0.785276476565503 1.41413150884472 -2.72199094204071 1.8040200662625 0.186462590249839 0.375720878290067 -0.011227809335758 1.66552929229568 -1.37177016948486 1.59296817374443 0.975484848362183 0.447117253384939 -0.681463154782032 -0.294105967449537 1.38670588351599 -0.755459291910817 0.113501378439793 -0.635468242965951 0.352138774627214 0.0795341332961378 -0.567309146448839 0.98575586205219 -0.729558732500834 0.260188786483951 0.517292101384537 0.312511667435211 -0.162613847362198 0.741066969833591 0.903218272719367 1.13435506071801 -1.3445851014874 0.165783179403999 0.3392075356658 0.564835830882893 -0.325655309953601 0.290535478113379 -0.218416950209462 -0.5819990085805 0.783162839358102 0.280999377143981 -0.368033768029411 0.69035696143229 -0.00507165343951426 -0.00695376292864596 0.124643098496338 -0.508079931409189 0.267192082861384 0.399076185814169 1.13580258285519 -0.0532464787894613 -0.417395118733532 1.18804693852015 -1.33938238348277 0.138227565738921 2.29667074186703 1.65349717048288
-1.37096077652576 0.767268504549231 0.11840534897125 1.05512436794613 0.14648521386284 -0.589867865083646 2.2976925871324 -1.73418094137007 -0.57370855771659 -0.419014296144508 -0.536462677377057 -0.24988180050158 1.09678526740255 0.195039061040502 -0.989566170044918 -0.245725851579394 -1.85137487579839 -2.34362917873047 -0.785276476565503 1.41413150884472 -2.72199094204071 1.8040200662625 0.186462590249839 0.375720878290067 -0.011227809335758 1.66552929229568 -1.37177016948486 1.59296817374443 0.975484848362183 0.447117253384939 -0.681463154782032 -0.294105967449537 1.38670588351599 -0.755459291910817 0.113501378439793 -0.635468242965951 0.352138774627214 0.0795341332961378 -0.567309146448839 0.98575586205219 -0.729558732500834 0.260188786483951 0.517292101384537 0.312511667435211 -0.162613847362198 0.741066969833591 0.903218272719367 1.13435506071801 -1.3445851014874 0.165783179403999 0.3392075356658 0.564835830882893 -0.325655309953601 0.290535478113379 -0.218416950209462 -0.5819990085805 0.783162839358102 0.280999377143981 -0.368033768029411 0.69035696143229 -0.00507165343951426 -0.00695376292864596 0.124643098496338 -0.508079931409189 0.267192082861384 0.399076185814169 1.13580258285519 -0.0532464787894613 -0.417395118733532 1.18804693852015 -1.33938238348277 0.138227565738921 2.29667074186703 1.65349717048288
-1.37096077652576 0.767268504549231 0.11840534897125 1.05512436794613 0.14648521386284 -0.589867865083646 2.2976925871324 -1.73418094137007 -0.57370855771659 -0.419014296144508 -0.536462677377057 -0.24988180050158 1.09678526740255 0.195039061040502 -0.989566170044918 -0.245725851579394 -1.85137487579839 -2.34362917873047 -0.785276476565503 1.41413150884472 -2.72199094204071 1.8040200662625 0.186462590249839 0.375720878290067 -0.011227809335758 1.66552929229568 -1.37177016948486 1.59296817374443 0.975484848362183 0.447117253384939 -0.681463154782032 -0.294105967449537 1.38670588351599 -0.755459291910817 0.113501378439793 -0.635468242965951 0.352138774627214 0.0795341332961378 -0.567309146448839 0.98575586205219 -0.729558732500834 0.260188786483951 0.517292101384537 0.312511667435211 -0.162613847362198 0.741066969833591 0.903218272719367 1.13435506071801 -1.3445851014874 0.165783179403999 0.3392075356658 0.564835830882893 -0.325655309953601 0.290535478113379 -0.218416950209462 -0.5819990085805 0.783162839358102 0.280999377143981 -0.368033768029411 0.69035696143229 -0.00507165343951426 -0.00695376292864596 0.124643098496338 -0.508079931409189 0.267192082861384 0.399076185814169 1.13580258285519 -0.0532464787894613 -0.417395118733532 1.18804693852015 -1.33938238348277 0.138227565738921 2.29667074186703 1.65349717048288
-1.37096077652576 0.767268504549231 0.11840534897125 1.05512436794613 0.14648521386284 -0.589867865083646 2.2976925871324 -1.73418094137007 -0.57370855771659 -0.419014296144508 -0.536462677377057 -0.24988180050158 1.09678526740255 0.195039061040502 -0.989566170044918 -0.245725851579394 -1.85137487579839 -2.34362917873047 -0.785276476565503 1.41413150884472 -2.72199094204071 1.8040200662625 0.186462590249839 0.375720878290067 -0.011227809335758 1.66552929229568 -1.37177016948486 1.59296817374443 0.975484848362183 0.447117253384939 -0.681463154782032 -0.294105967449537 1.38670588351599 -0.755459291910817 0.113501378439793 -0.635468242965951 0.352138774627214 0.0795341332961378 -0.567309146448839 0.98575586205219 -0.729558732500834 0.260188786483951 0.517292101384537 0.312511667435211 -0.162613847362198 0.741066969833591 0.903218272719367 1.13435506071801 -1.3445851014874 0.165783179403999 0.3392075356658 0.564835830882893 -0.325655309953601 0.290535478113379 -0.218416950209462 -0.5819990085805 0.783162839358102 0.280999377143981 -0.368033768029411 0.69035696143229 -0.00507165343951426 -0.00695376292864596 0.124643098496338 -0.508079931409189 0.267192082861384 0.399076185814169 1.13580258285519 -0.0532464787894613 -0.417395118733532 1.18804693852015 -1.33938238348277 0.138227565738921 2.29667074186703 1.65349717048288
-1.37096077652576 0.767268504549231 0.11840534897125 1.05512436794613 0.14648521386284 -0.589867865083646 2.2976925871324 -1.73418094137007 -0.57370855771659 -0.419014296144508 -0.536462677377057 -0.24988180050158 1.09678526740255 0.195039061040502 -0.989566170044918 -0.245725851579394 -1.85137487579839 -2.34362917873047 -0.785276476565503 1.41413150884472 -2.72199094204071 1.8040200662625 0.186462590249839 0.375720878290067 -0.011227809335758 1.66552929229568 -1.37177016948486 1.59296817374443 0.975484848362183 0.447117253384939 -0.681463154782032 -0.294105967449537 1.38670588351599 -0.755459291910817 0.113501378439793 -0.635468242965951 0.352138774627214 0.0795341332961378 -0.567309146448839 0.98575586205219 -0.729558732500834 0.260188786483951 0.517292101384537 0.312511667435211 -0.162613847362198 0.741066969833591 0.903218272719367 1.13435506071801 -1.3445851014874 0.165783179403999 0.3392075356658 0.564835830882893 -0.325655309953601 0.290535478113379 -0.218416950209462 -0.5819990085805 0.783162839358102 0.280999377143981 -0.368033768029411 0.69035696143229 -0.00507165343951426 -0.00695376292864596 0.124643098496338 -0.508079931409189 0.267192082861384 0.399076185814169 1.13580258285519 -0.0532464787894613 -0.417395118733532 1.18804693852015 -1.33938238348277 0.138227565738921 2.29667074186703 1.65349717048288
-1.37096077652576 0.767268504549231 0.11840534897125 1.05512436794613 0.14648521386284 -0.589867865083646 2.2976925871324 -1.73418094137007 -0.57370855771659 -0.419014296144508 -0.536462677377057 -0.24988180050158 1.09678526740255 0.195039061040502 -0.989566170044918 -0.245725851579394 -1.85137487579839 -2.34362917873047 -0.785276476565503 1.41413150884472 -2.72199094204071 1.8040200662625 0.186462590249839 0.375720878290067 -0.011227809335758 1.66552929229568 -1.37177016948486 1.59296817374443 0.975484848362183 0.447117253384939 -0.681463154782032 -0.294105967449537 1.38670588351599 -0.755459291910817 0.113501378439793 -0.635468242965951 0.352138774627214 0.0795341332961378 -0.567309146448839 0.98575586205219 -0.729558732500834 0.260188786483951 0.517292101384537 0.312511667435211 -0.162613847362198 0.741066969833591 0.903218272719367 1.13435506071801 -1.3445851014874 0.165783179403999 0.3392075356658 0.564835830882893 -0.325655309953601 0.290535478113379 -0.218416950209462 -0.5819990085805 0.783162839358102 0.280999377143981 -0.368033768029411 0.69035696143229 -0.00507165343951426 -0.00695376292864596 0.124643098496338 -0.508079931409189 0.267192082861384 0.399076185814169 1.13580258285519 -0.0532464787894613 -0.417395118733532 1.18804693852015 -1.33938238348277 0.138227565738921 2.29667074186703 1.65349717048288
-1.37096077652576 0.767268504549231 0.11840534897125 1.05512436794613 0.14648521386284 -0.589867865083646 2.2976925871324 -1.73418094137007 -0.57370855771659 -0.419014296144508 -0.536462677377057 -0.24988180050158 1.09678526740255 0.195039061040502 -0.989566170044918 -0.245725851579394 -1.85137487579839 -2.34362917873047 -0.785276476565503 1.41413150884472 -2.72199094204071 1.8040200662625 0.186462590249839 0.375720878290067 -0.011227809335758 1.66552929229568 -1.37177016948486 1.59296817374443 0.975484848362183 0.447117253384939 -0.681463154782032 -0.294105967449537 1.38670588351599 -0.755459291910817 0.113501378439793 -0.635468242965951 0.352138774627214 0.0795341332961378 -0.567309146448839 0.98575586205219 -0.729558732500834 0.260188786483951 0.517292101384537 0.312511667435211 -0.162613847362198 0.741066969833591 0.903218272719367 1.13435506071801 -1.3445851014874 0.165783179403999 0.3392075356658 0.564835830882893 -0.325655309953601 0.290535478113379 -0.218416950209462 -0.5819990085805 0.783162839358102 0.280999377143981 -0.368033768029411 0.69035696143229 -0.00507165343951426 -0.00695376292864596 0.124643098496338 -0.508079931409189 0.267192082861384 0.399076185814169 1.13580258285519 -0.0532464787894613 -0.417395118733532 1.18804693852015 -1.33938238348277 0.138227565738921 2.29667074186703 1.65349717048288
-1.37096077652576 0.767268504549231 0.11840534897125 1.05512436794613 0.14648521386284 -0.589867865083646 2.2976925871324 -1.73418094137007 -0.57370855771659 -0.419014296144508 -0.536462677377057 -0.24988180050158 1.09678526740255 0.195039061040502 -0.989566170044918 -0.245725851579394 -1.85137487579839 -2.34362917873047 -0.785276476565503 1.41413150884472 -2.72199094204071 1.8040200662625 0.186462590249839 0.375720878290067 -0.011227809335758 1.66552929229568 -1.37177016948486 1.59296817374443 0.975484848362183 0.447117253384939 -0.681463154782032 -0.294105967449537 1.38670588351599 -0.755459291910817 0.113501378439793 -0.635468242965951 0.352138774627214 0.0795341332961378 -0.567309146448839 0.98575586205219 -0.729558732500834 0.260188786483951 0.517292101384537 0.312511667435211 -0.162613847362198 0.741066969833591 0.903218272719367 1.13435506071801 -1.3445851014874 0.165783179403999 0.3392075356658 0.564835830882893 -0.325655309953601 0.290535478113379 -0.218416950209462 -0.5819990085805 0.783162839358102 0.280999377143981 -0.368033768029411 0.69035696143229 -0.00507165343951426 -0.00695376292864596 0.124643098496338 -0.508079931409189 0.267192082861384 0.399076185814169 1.13580258285519 -0.0532464787894613 -0.417395118733532 1.18804693852015 -1.33938238348277 0.138227565738921 2.29667074186703 1.65349717048288
-1.37096077652576 0.767268504549231 0.11840534897125 1.05512436794613 0.14648521386284 -0.589867865083646 2.2976925871324 -1.73418094137007 -0.57370855771659 -0.419014296144508 -0.536462677377057 -0.24988180050158 1.09678526740255 0.195039061040502 -0.989566170044918 -0.245725851579394 -1.85137487579839 -2.34362917873047 -0.785276476565503 1.41413150884472 -2.72199094204071 1.8040200662625 0.186462590249839 0.375720878290067 -0.011227809335758 1.66552929229568 -1.37177016948486 1.59296817374443 0.975484848362183 0.447117253384939 -0.681463154782032 -0.294105967449537 1.38670588351599 -0.755459291910817 0.113501378439793 -0.635468242965951 0.352138774627214 0.0795341332961378 -0.567309146448839 0.98575586205219 -0.729558732500834 0.260188786483951 0.517292101384537 0.312511667435211 -0.162613847362198 0.741066969833591 0.903218272719367 1.13435506071801 -1.3445851014874 0.165783179403999 0.3392075356658 0.564835830882893 -0.325655309953601 0.290535478113379 -0.218416950209462 -0.5819990085805 0.783162839358102 0.280999377143981 -0.368033768029411 0.69035696143229 -0.00507165343951426 -0.00695376292864596 0.124643098496338 -0.508079931409189 0.267192082861384 0.399076185814169 1.13580258285519 -0.0532464787894613 -0.417395118733532 1.18804693852015 -1.33938238348277 0.138227565738921 2.29667074186703 1.65349717048288
-1.37096077652576 0.767268504549231 0.11840534897125 1.05512436794613 0.14648521386284 -0.589867865083646 2.2976925871324 -1.73418094137007 -0.57370855771659 -0.419014296144508 -0.536462677377057 -0.24988180050158 1.09678526740255 0.195039061040502 -0.989566170044918 -0.245725851579394 -1.85137487579839 -2.34362917873047 -0.785276476565503 1.41413150884472 -2.72199094204071 1.8040200662625 0.186462590249839 0.375720878290067 -0.011227809335758 1.66552929229568 -1.37177016948486 1.59296817374443 0.975484848362183 0.447117253384939 -0.681463154782032 -0.294105967449537 1.38670588351599 -0.755459291910817 0.113501378439793 -0.635468242965951 0.352138774627214 0.0795341332961378 -0.567309146448839 0.98575586205219 -0.729558732500834 0.260188786483951 0.517292101384537 0.312511667435211 -0.162613847362198 0.741066969833591 0.903218272719367 1.13435506071801 -1.3445851014874 0.165783179403999 0.3392075356658 0.564835830882893 -0.325655309953601 0.290535478113379 -0.218416950209462 -0.5819990085805 0.783162839358102 0.280999377143981 -0.368033768029411 0.69035696143229 -0.00507165343951426 -0.00695376292864596 0.124643098496338 -0.508079931409189 0.267192082861384 0.399076185814169 1.13580258285519 -0.0532464787894613 -0.417395118733532 1.18804693852015 -1.33938238348277 0.138227565738921 2.29667074186703 1.65349717048288
-1.37096077652576 0.767268504549231 0.11840534897125 1.05512436794613 0.14648521386284 -0.589867865083646 2.2976925871324 -1.73418094137007 -0.57370855771659 -0.419014296144508 -0.536462677377057 -0.24988180050158 1.09678526740255 0.195039061040502 -0.989566170044918 -0.245725851579394 -1.85137487579839 -2.34362917873047 -0.785276476565503 1.41413150884472 -2.72199094204071 1.8040200662625 0.186462590249839 0.375720878290067 -0.011227809335758 1.66552929229568 -1.37177016948486 1.59296817374443 0.975484848362183 0.447117253384939 -0.681463154782032 -0.294105967449537 1.38670588351599 -0.755459291910817 0.113501378439793 -0.635468242965951 0.352138774627214 0.0795341332961378 -0.567309146448839 0.98575586205219 -0.729558732500834 0.260188786483951 0.517292101384537 0.312511667435211 -0.162613847362198 0.741066969833591 0.903218272719367 1.13435506071801 -1.3445851014874 0.165783179403999 0.3392075356658 0.564835830882893 -0.325655309953601 0.290535478113379 -0.218416950209462 -0.5819990085805 0.783162839358102 0.280999377143981 -0.368033768029411 0.69035696143229 -0.00507165343951426 -0.00695376292864596 0.124643098496338 -0.508079931409189 0.267192082861384 0.399076185814169 1.13580258285519 -0.0532464787894613 -0.417395118733532 1.18804693852015 -1.33938238348277 0.138227565738921 2.29667074186703 1.65349717048288
-1.37096077652576 0.767268504549231 0.11840534897125 1.05512436794613 0.14648521386284 -0.589867865083646 2.2976925871324 -1.73418094137007 -0.57370855771659 -0.419014296144508 -0.536462677377057 -0.24988180050158 1.09678526740255 0.195039061040502 -0.989566170044918 -0.245725851579394 -1.85137487579839 -2.34362917873047 -0.785276476565503 1.41413150884472 -2.72199094204071 1.8040200662625 0.186462590249839 0.375720878290067 -0.011227809335758 1.66552929229568 -1.37177016948486 1.59296817374443 0.975484848362183 0.447117253384939 -0.681463154782032 -0.294105967449537 1.38670588351599 -0.755459291910817 0.113501378439793 -0.635468242965951 0.352138774627214 0.0795341332961378 -0.567309146448839 0.98575586205219 -0.729558732500834 0.260188786483951 0.517292101384537 0.312511667435211 -0.162613847362198 0.741066969833591 0.903218272719367 1.13435506071801 -1.3445851014874 0.165783179403999 0.3392075356658 0.564835830882893 -0.325655309953601 0.290535478113379 -0.218416950209462 -0.5819990085805 0.783162839358102 0.280999377143981 -0.368033768029411 0.69035696143229 -0.00507165343951426 -0.00695376292864596 0.124643098496338 -0.508079931409189 0.267192082861384 0.399076185814169 1.13580258285519 -0.0532464787894613 -0.417395118733532 1.18804693852015 -1.33938238348277 0.138227565738921 2.29667074186703 1.65349717048288
-1.37096077652576 0.767268504549231 0.11840534897125 1.05512436794613 0.14648521386284 -0.589867865083646 2.2976925871324 -1.73418094137007 -0.57370855771659 -0.419014296144508 -0.536462677377057 -0.24988180050158 1.09678526740255 0.195039061040502 -0.989566170044918 -0.245725851579394 -1.85137487579839 -2.34362917873047 -0.785276476565503 1.41413150884472 -2.72199094204071 1.8040200662625 0.186462590249839 0.375720878290067 -0.011227809335758 1.66552929229568 -1.37177016948486 1.59296817374443 0.975484848362183 0.447117253384939 -0.681463154782032 -0.294105967449537 1.38670588351599 -0.755459291910817 0.113501378439793 -0.635468242965951 0.352138774627214 0.0795341332961378 -0.567309146448839 0.98575586205219 -0.729558732500834 0.260188786483951 0.517292101384537 0.312511667435211 -0.162613847362198 0.741066969833591 0.903218272719367 1.13435506071801 -1.3445851014874 0.165783179403999 0.3392075356658 0.564835830882893 -0.325655309953601 0.290535478113379 -0.218416950209462 -0.5819990085805 0.783162839358102 0.280999377143981 -0.368033768029411 0.69035696143229 -0.00507165343951426 -0.00695376292864596 0.124643098496338 -0.508079931409189 0.267192082861384 0.399076185814169 1.13580258285519 -0.0532464787894613 -0.417395118733532 1.18804693852015 -1.33938238348277 0.138227565738921 2.29667074186703 1.65349717048288
-1.37096077652576 0.767268504549231 0.11840534897125 1.05512436794613 0.14648521386284 -0.589867865083646 2.2976925871324 -1.73418094137007 -0.57370855771659 -0.419014296144508 -0.536462677377057 -0.24988180050158 1.09678526740255 0.195039061040502 -0.989566170044918 -0.245725851579394 -1.85137487579839 -2.34362917873047 -0.785276476565503 1.41413150884472 -2.72199094204071 1.8040200662625 0.186462590249839 0.375720878290067 -0.011227809335758 1.66552929229568 -1.37177016948486 1.59296817374443 0.975484848362183 0.447117253384939 -0.681463154782032 -0.294105967449537 1.38670588351599 -0.755459291910817 0.113501378439793 -0.635468242965951 0.352138774627214 0.0795341332961378 -0.567309146448839 0.98575586205219 -0.729558732500834 0.260188786483951 0.517292101384537 0.312511667435211 -0.162613847362198 0.741066969833591 0.903218272719367 1.13435506071801 -1.3445851014874 0.165783179403999 0.3392075356658 0.564835830882893 -0.325655309953601 0.290535478113379 -0.218416950209462 -0.5819990085805 0.783162839358102 0.280999377143981 -0.368033768029411 0.69035696143229 -0.00507165343951426 -0.00695376292864596 0.124643098496338 -0.508079931409189 0.267192082861384 0.399076185814169 1.13580258285519 -0.0532464787894613 -0.417395118733532 1.18804693852015 -1.33938238348277 0.138227565738921 2.29667074186703 1.65349717048288
-1.37096077652576 0.767268504549231 0.11840534897125 1.05512436794613 0.14648521386284 -0.589867865083646 2.2976925871324 -1.73418094137007 -0.57370855771659 -0.419014296144508 -0.536462677377057 -0.24988180050158 1.09678526740255 0.195039061040502 -0.989566170044918 -0.245725851579394 -1.85137487579839 -2.34362917873047 -0.785276476565503 1.41413150884472 -2.72199094204071 1.8040200662625 0.186462590249839 0.375720878290067 -0.011227809335758 1.66552929229568 -1.37177016948486 1.59296817374443 0.975484848362183 0.447117253384939 -0.681463154782032 -0.294105967449537 1.38670588351599 -0.755459291910817 0.113501378439793 -0.635468242965951 0.352138774627214 0.0795341332961378 -0.567309146448839 0.98575586205219 -0.729558732500834 0.260188786483951 0.517292101384537 0.312511667435211 -0.162613847362198 0.741066969833591 0.903218272719367 1.13435506071801 -1.3445851014874 0.165783179403999 0.3392075356658 0.564835830882893 -0.325655309953601 0.290535478113379 -0.218416950209462 -0.5819990085805 0.783162839358102 0.280999377143981 -0.368033768029411 0.69035696143229 -0.00507165343951426 -0.00695376292864596 0.124643098496338 -0.508079931409189 0.267192082861384 0.399076185814169 1.13580258285519 -0.0532464787894613 -0.417395118733532 1.18804693852015 -1.33938238348277 0.138227565738921 2.29667074186703 1.65349717048288
-1.37096077652576 0.767268504549231 0.11840534897125 1.05512436794613 0.14648521386284 -0.589867865083646 2.2976925871324 -1.73418094137007 -0.57370855771659 -0.419014296144508 -0.536462677377057 -0.24988180050158 1.09678526740255 0.195039061040502 -0.989566170044918 -0.245725851579394 -1.85137487579839 -2.34362917873047 -0.785276476565503 1.41413150884472 -2.72199094204071 1.8040200662625 0.186462590249839 0.375720878290067 -0.011227809335758 1.66552929229568 -1.37177016948486 1.59296817374443 0.975484848362183 0.447117253384939 -0.681463154782032 -0.294105967449537 1.38670588351599 -0.755459291910817 0.113501378439793 -0.635468242965951 0.352138774627214 0.0795341332961378 -0.567309146448839 0.98575586205219 -0.729558732500834 0.260188786483951 0.517292101384537 0.312511667435211 -0.162613847362198 0.741066969833591 0.903218272719367 1.13435506071801 -1.3445851014874 0.165783179403999 0.3392075356658 0.564835830882893 -0.325655309953601 0.290535478113379 -0.218416950209462 -0.5819990085805 0.783162839358102 0.280999377143981 -0.368033768029411 0.69035696143229 -0.00507165343951426 -0.00695376292864596 0.124643098496338 -0.508079931409189 0.267192082861384 0.399076185814169 1.13580258285519 -0.0532464787894613 -0.417395118733532 1.18804693852015 -1.33938238348277 0.138227565738921 2.29667074186703 1.65349717048288
-1.37096077652576 0.767268504549231 0.11840534897125 1.05512436794613 0.14648521386284 -0.589867865083646 2.2976925871324 -1.73418094137007 -0.57370855771659 -0.419014296144508 -0.536462677377057 -0.24988180050158 1.09678526740255 0.195039061040502 -0.989566170044918 -0.245725851579394 -1.85137487579839 -2.34362917873047 -0.785276476565503 1.41413150884472 -2.72199094204071 1.8040200662625 0.186462590249839 0.375720878290067 -0.011227809335758 1.66552929229568 -1.37177016948486 1.59296817374443 0.975484848362183 0.447117253384939 -0.681463154782032 -0.294105967449537 1.38670588351599 -0.755459291910817 0.113501378439793 -0.635468242965951 0.352138774627214 0.0795341332961378 -0.567309146448839 0.98575586205219 -0.729558732500834 0.260188786483951 0.517292101384537 0.312511667435211 -0.162613847362198 0.741066969833591 0.903218272719367 1.13435506071801 -1.3445851014874 0.165783179403999 0.3392075356658 0.564835830882893 -0.325655309953601 0.290535478113379 -0.218416950209462 -0.5819990085805 0.783162839358102 0.280999377143981 -0.368033768029411 0.69035696143229 -0.00507165343951426 -0.00695376292864596 0.124643098496338 -0.508079931409189 0.267192082861384 0.399076185814169 1.13580258285519 -0.0532464787894613 -0.417395118733532 1.18804693852015 -1.33938238348277 0.138227565738921 2.29667074186703 1.65349717048288
