-1.37166807935567 0.786059962322461 0.130382399731292 1.05180877581228 0.160649368464562 -0.594791631262618 2.28557246999207 -1.70756870606089 -0.576946096981107 -0.418857411094855 -0.533607600376215 -0.22647436862152 1.09404065184399 0.194898984956076 -1.00176179042718 -0.247091421780805 -1.84438277194426 -2.3685235059894 -0.79113870068427 1.3950326998534 -2.71825727505102 1.80314624253145 0.231868739034128 0.391016169228384 -0.00143076205923014 1.62949258744862 -1.39922439142551 1.59613814019102 0.972569112061769 0.452657842040316 -0.691652474102131 -0.187003648761445 1.40766378044255 -0.7513778185585 0.117991834227024 -0.625980838801724 0.363836962474699 0.105463159461573 -0.570469849464606 0.975579722224603 -0.727677141736787 0.285504824266468 0.517292101384537 0.333351033453658 -0.153055993860611 0.73416119664121 0.910264310770612 1.12862699630023 -1.36442965936643 0.15592704817313 0.341718900831659 0.556072754612717 -0.366059721920634 0.273785541196099 -0.220097185668961 -0.581463188610773 0.784004475298464 0.282605597356099 -0.376508907535066 0.698152045657901 -0.00768370341503822 -0.00688847238545463 0.134109351239643 -0.498542453491245 0.327894821249501 0.393483021319467 1.14130801338164 -0.06360705198959 -0.417603581683815 1.18416912193618 -1.32728855291417 0.153713415910452 2.27546561492589 1.60754661628573
-1.37166807935567 0.786059962322461 0.130382399731292 1.05180877581228 0.160649368464562 -0.594791631262618 2.28557246999207 -1.70756870606089 -0.576946096981107 -0.418857411094855 -0.533607600376215 -0.22647436862152 1.09404065184399 0.194898984956076 -1.00176179042718 -0.247091421780805 -1.84438277194426 -2.3685235059894 -0.79113870068427 1.3950326998534 -2.71825727505102 1.80314624253145 0.231868739034128 0.391016169228384 -0.00143076205923014 1.62949258744862 -1.39922439142551 1.59613814019102 0.972569112061769 0.452657842040316 -0.691652474102131 -0.187003648761445 1.40766378044255 -0.7513778185585 0.117991834227024 -0.625980838801724 0.363836962474699 0.105463159461573 -0.570469849464606 0.975579722224603 -0.727677141736787 0.285504824266468 0.517292101384537 0.333351033453658 -0.153055993860611 0.73416119664121 0.910264310770612 1.12862699630023 -1.36442965936643 0.15592704817313 0.341718900831659 0.556072754612717 -0.366059721920634 0.273785541196099 -0.220097185668961 -0.581463188610773 0.784004475298464 0.282605597356099 -0.376508907535066 0.698152045657901 -0.00768370341503822 -0.00688847238545463 0.134109351239643 -0.498542453491245 0.327894821249501 0.393483021319467 1.14130801338164 -0.06360705198959 -0.417603581683815 1.18416912193618 -1.32728855291417 0.153713415910452 2.27546561492589 1.60754661628573
-1.37166807935567 0.786059962322461 0.130382399731292 1.05180877581228 0.160649368464562 -0.594791631262618 2.28557246999207 -1.70756870606089 -0.576946096981107 -0.418857411094855 -0.533607600376215 -0.22647436862152 1.09404065184399 0.194898984956076 -1.00176179042718 -0.247091421780805 -1.84438277194426 -2.3685235059894 -0.79113870068427 1.3950326998534 -2.71825727505102 1.80314624253145 0.231868739034128 0.391016169228384 -0.00143076205923014 1.62949258744862 -1.39922439142551 1.59613814019102 0.972569112061769 0.452657842040316 -0.691652474102131 -0.187003648761445 1.40766378044255 -0.7513778185585 0.117991834227024 -0.625980838801724 0.363836962474699 0.105463159461573 -0.570469849464606 0.975579722224603 -0.727677141736787 0.285504824266468 0.517292101384537 0.333351033453658 -0.153055993860611 0.73416119664121 0.910264310770612 1.12862699630023 -1.36442965936643 0.15592704817313 0.341718900831659 0.556072754612717 -0.366059721920634 0.273785541196099 -0.220097185668961 -0.581463188610773 0.784004475298464 0.282605597356099 -0.376508907535066 0.698152045657901 -0.00768370341503822 -0.00688847238545463 0.134109351239643 -0.498542453491245 0.327894821249501 0.393483021319467 1.14130801338164 -0.06360705198959 -0.417603581683815 1.18416912193618 -1.32728855291417 0.153713415910452 2.27546561492589 1.60754661628573
-1.37166807935567 0.786059962322461 0.130382399731292 1.05180877581228 0.160649368464562 -0.594791631262618 2.28557246999207 -1.70756870606089 -0.576946096981107 -0.418857411094855 -0.533607600376215 -0.22647436862152 1.09404065184399 0.194898984956076 -1.00176179042718 -0.247091421780805 -1.84438277194426 -2.3685235059894 -0.79113870068427 1.3950326998534 -2.71825727505102 1.80314624253145 0.231868739034128 0.391016169228384 -0.00143076205923014 1.62949258744862 -1.39922439142551 1.59613814019102 0.972569112061769 0.452657842040316 -0.691652474102131 -0.187003648761445 1.40766378044255 -0.7513778185585 0.117991834227024 -0.625980838801724 0.363836962474699 0.105463159461573 -0.570469849464606 0.975579722224603 -0.727677141736787 0.285504824266468 0.517292101384537 0.333351033453658 -0.153055993860611 0.73416119664121 0.910264310770612 1.12862699630023 -1.36442965936643 0.15592704817313 0.341718900831659 0.556072754612717 -0.366059721920634 0.273785541196099 -0.220097185668961 -0.581463188610773 0.784004475298464 0.282605597356099 -0.376508907535066 0.698152045657901 -0.00768370341503822 -0.00688847238545463 0.134109351239643 -0.498542453491245 0.327894821249501 0.393483021319467 1.14130801338164 -0.06360705198959 -0.417603581683815 1.18416912193618 -1.32728855291417 0.153713415910452 2.27546561492589 1.60754661628573
-1.37166807935567 0.786059962322461 0.130382399731292 1.05180877581228 0.160649368464562 -0.594791631262618 2.28557246999207 -1.70756870606089 -0.576946096981107 -0.418857411094855 -0.533607600376215 -0.22647436862152 1.09404065184399 0.194898984956076 -1.00176179042718 -0.247091421780805 -1.84438277194426 -2.3685235059894 -0.79113870068427 1.3950326998534 -2.71825727505102 1.80314624253145 0.231868739034128 0.391016169228384 -0.00143076205923014 1.62949258744862 -1.39922439142551 1.59613814019102 0.972569112061769 0.452657842040316 -0.691652474102131 -0.187003648761445 1.40766378044255 -0.7513778185585 0.117991834227024 -0.625980838801724 0.363836962474699 0.105463159461573 -0.570469849464606 0.975579722224603 -0.727677141736787 0.285504824266468 0.517292101384537 0.333351033453658 -0.153055993860611 0.73416119664121 0.910264310770612 1.12862699630023 -1.36442965936643 0.15592704817313 0.341718900831659 0.556072754612717 -0.366059721920634 0.273785541196099 -0.220097185668961 -0.581463188610773 0.784004475298464 0.282605597356099 -0.376508907535066 0.698152045657901 -0.00768370341503822 -0.00688847238545463 0.134109351239643 -0.498542453491245 0.327894821249501 0.393483021319467 1.14130801338164 -0.06360705198959 -0.417603581683815 1.18416912193618 -1.32728855291417 0.153713415910452 2.27546561492589 1.60754661628573
-1.37166807935567 0.786059962322461 0.130382399731292 1.05180877581228 0.160649368464562 -0.594791631262618 2.28557246999207 -1.70756870606089 -0.576946096981107 -0.418857411094855 -0.533607600376215 -0.22647436862152 1.09404065184399 0.194898984956076 -1.00176179042718 -0.247091421780805 -1.84438277194426 -2.3685235059894 -0.79113870068427 1.3950326998534 -2.71825727505102 1.80314624253145 0.231868739034128 0.391016169228384 -0.00143076205923014 1.62949258744862 -1.39922439142551 1.59613814019102 0.972569112061769 0.452657842040316 -0.691652474102131 -0.187003648761445 1.40766378044255 -0.7513778185585 0.117991834227024 -0.625980838801724 0.363836962474699 0.105463159461573 -0.570469849464606 0.975579722224603 -0.727677141736787 0.285504824266468 0.517292101384537 0.333351033453658 -0.153055993860611 0.73416119664121 0.910264310770612 1.12862699630023 -1.36442965936643 0.15592704817313 0.341718900831659 0.556072754612717 -0.366059721920634 0.273785541196099 -0.220097185668961 -0.581463188610773 0.784004475298464 0.282605597356099 -0.376508907535066 0.698152045657901 -0.00768370341503822 -0.00688847238545463 0.134109351239643 -0.498542453491245 0.327894821249501 0.393483021319467 1.14130801338164 -0.06360705198959 -0.417603581683815 1.18416912193618 -1.32728855291417 0.153713415910452 2.27546561492589 1.60754661628573
-1.37166807935567 0.786059962322461 0.130382399731292 1.05180877581228 0.160649368464562 -0.594791631262618 2.28557246999207 -1.70756870606089 -0.576946096981107 -0.418857411094855 -0.533607600376215 -0.22647436862152 1.09404065184399 0.194898984956076 -1.00176179042718 -0.247091421780805 -1.84438277194426 -2.3685235059894 -0.79113870068427 1.3950326998534 -2.71825727505102 1.80314624253145 0.231868739034128 0.391016169228384 -0.00143076205923014 1.62949258744862 -1.39922439142551 1.59613814019102 0.972569112061769 0.452657842040316 -0.691652474102131 -0.187003648761445 1.40766378044255 -0.7513778185585 0.117991834227024 -0.625980838801724 0.363836962474699 0.105463159461573 -0.570469849464606 0.975579722224603 -0.727677141736787 0.285504824266468 0.517292101384537 0.333351033453658 -0.153055993860611 0.73416119664121 0.910264310770612 1.12862699630023 -1.36442965936643 0.15592704817313 0.341718900831659 0.556072754612717 -0.366059721920634 0.273785541196099 -0.220097185668961 -0.581463188610773 0.784004475298464 0.282605597356099 -0.376508907535066 0.698152045657901 -0.00768370341503822 -0.00688847238545463 0.134109351239643 -0.498542453491245 0.327894821249501 0.393483021319467 1.14130801338164 -0.06360705198959 -0.417603581683815 1.18416912193618 -1.32728855291417 0.153713415910452 2.27546561492589 1.60754661628573
-1.37166807935567 0.786059962322461 0.130382399731292 1.05180877581228 0.160649368464562 -0.594791631262618 2.28557246999207 -1.70756870606089 -0.576946096981107 -0.418857411094855 -0.533607600376215 -0.22647436862152 1.09404065184399 0.194898984956076 -1.00176179042718 -0.247091421780805 -1.84438277194426 -2.3685235059894 -0.79113870068427 1.3950326998534 -2.71825727505102 1.80314624253145 0.231868739034128 0.391016169228384 -0.00143076205923014 1.62949258744862 -1.39922439142551 1.59613814019102 0.972569112061769 0.452657842040316 -0.691652474102131 -0.187003648761445 1.40766378044255 -0.7513778185585 0.117991834227024 -0.625980838801724 0.363836962474699 0.105463159461573 -0.570469849464606 0.975579722224603 -0.727677141736787 0.285504824266468 0.517292101384537 0.333351033453658 -0.153055993860611 0.73416119664121 0.910264310770612 1.12862699630023 -1.36442965936643 0.15592704817313 0.341718900831659 0.556072754612717 -0.366059721920634 0.273785541196099 -0.220097185668961 -0.581463188610773 0.784004475298464 0.282605597356099 -0.376508907535066 0.698152045657901 -0.00768370341503822 -0.00688847238545463 0.134109351239643 -0.498542453491245 0.327894821249501 0.393483021319467 1.14130801338164 -0.06360705198959 -0.417603581683815 1.18416912193618 -1.32728855291417 0.153713415910452 2.27546561492589 1.60754661628573
-1.37166807935567 0.786059962322461 0.130382399731292 1.05180877581228 0.160649368464562 -0.594791631262618 2.28557246999207 -1.70756870606089 -0.576946096981107 -0.418857411094855 -0.533607600376215 -0.22647436862152 1.09404065184399 0.194898984956076 -1.00176179042718 -0.247091421780805 -1.84438277194426 -2.3685235059894 -0.79113870068427 1.3950326998534 -2.71825727505102 1.80314624253145 0.231868739034128 0.391016169228384 -0.00143076205923014 1.62949258744862 -1.39922439142551 1.59613814019102 0.972569112061769 0.452657842040316 -0.691652474102131 -0.187003648761445 1.40766378044255 -0.7513778185585 0.117991834227024 -0.625980838801724 0.363836962474699 0.105463159461573 -0.570469849464606 0.975579722224603 -0.727677141736787 0.285504824266468 0.517292101384537 0.333351033453658 -0.153055993860611 0.73416119664121 0.910264310770612 1.12862699630023 -1.36442965936643 0.15592704817313 0.341718900831659 0.556072754612717 -0.366059721920634 0.273785541196099 -0.220097185668961 -0.581463188610773 0.784004475298464 0.282605597356099 -0.376508907535066 0.698152045657901 -0.00768370341503822 -0.00688847238545463 0.134109351239643 -0.498542453491245 0.327894821249501 0.393483021319467 1.14130801338164 -0.06360705198959 -0.417603581683815 1.18416912193618 -1.32728855291417 0.153713415910452 2.27546561492589 1.60754661628573
-1.37166807935567 0.786059962322461 0.130382399731292 1.05180877581228 0.160649368464562 -0.594791631262618 2.28557246999207 -1.70756870606089 -0.576946096981107 -0.418857411094855 -0.533607600376215 -0.22647436862152 1.09404065184399 0.194898984956076 -1.00176179042718 -0.247091421780805 -1.84438277194426 -2.3685235059894 -0.79113870068427 1.3950326998534 -2.71825727505102 1.80314624253145 0.231868739034128 0.391016169228384 -0.00143076205923014 1.62949258744862 -1.39922439142551 1.59613814019102 0.972569112061769 0.452657842040316 -0.691652474102131 -0.187003648761445 1.40766378044255 -0.7513778185585 0.117991834227024 -0.625980838801724 0.363836962474699 0.105463159461573 -0.570469849464606 0.975579722224603 -0.727677141736787 0.285504824266468 0.517292101384537 0.333351033453658 -0.153055993860611 0.73416119664121 0.910264310770612 1.12862699630023 -1.36442965936643 0.15592704817313 0.341718900831659 0.556072754612717 -0.366059721920634 0.273785541196099 -0.220097185668961 -0.581463188610773 0.784004475298464 0.282605597356099 -0.376508907535066 0.698152045657901 -0.00768370341503822 -0.00688847238545463 0.134109351239643 -0.498542453491245 0.327894821249501 0.393483021319467 1.14130801338164 -0.06360705198959 -0.417603581683815 1.18416912193618 -1.32728855291417 0.153713415910452 2.27546561492589 1.60754661628573
-1.37166807935567 0.786059962322461 0.130382399731292 1.05180877581228 0.160649368464562 -0.594791631262618 2.28557246999207 -1.70756870606089 -0.576946096981107 -0.418857411094855 -0.533607600376215 -0.22647436862152 1.09404065184399 0.194898984956076 -1.00176179042718 -0.247091421780805 -1.84438277194426 -2.3685235059894 -0.79113870068427 1.3950326998534 -2.71825727505102 1.80314624253145 0.231868739034128 0.391016169228384 -0.00143076205923014 1.62949258744862 -1.39922439142551 1.59613814019102 0.972569112061769 0.452657842040316 -0.691652474102131 -0.187003648761445 1.40766378044255 -0.7513778185585 0.117991834227024 -0.625980838801724 0.363836962474699 0.105463159461573 -0.570469849464606 0.975579722224603 -0.727677141736787 0.285504824266468 0.517292101384537 0.333351033453658 -0.153055993860611 0.73416119664121 0.910264310770612 1.12862699630023 -1.36442965936643 0.15592704817313 0.341718900831659 0.556072754612717 -0.366059721920634 0.273785541196099 -0.220097185668961 -0.581463188610773 0.784004475298464 0.282605597356099 -0.376508907535066 0.698152045657901 -0.00768370341503822 -0.00688847238545463 0.134109351239643 -0.498542453491245 0.327894821249501 0.393483021319467 1.14130801338164 -0.06360705198959 -0.417603581683815 1.18416912193618 -1.32728855291417 0.153713415910452 2.27546561492589 1.60754661628573
-1.37166807935567 0.786059962322461 0.130382399731292 1.05180877581228 0.160649368464562 -0.594791631262618 2.28557246999207 -1.70756870606089 -0.576946096981107 -0.418857411094855 -0.533607600376215 -0.22647436862152 1.09404065184399 0.194898984956076 -1.00176179042718 -0.247091421780805 -1.84438277194426 -2.3685235059894 -0.79113870068427 1.3950326998534 -2.71825727505102 1.80314624253145 0.231868739034128 0.391016169228384 -0.00143076205923014 1.62949258744862 -1.39922439142551 1.59613814019102 0.972569112061769 0.452657842040316 -0.691652474102131 -0.187003648761445 1.40766378044255 -0.7513778185585 0.117991834227024 -0.625980838801724 0.363836962474699 0.105463159461573 -0.570469849464606 0.975579722224603 -0.727677141736787 0.285504824266468 0.517292101384537 0.333351033453658 -0.153055993860611 0.73416119664121 0.910264310770612 1.12862699630023 -1.36442965936643 0.15592704817313 0.341718900831659 0.556072754612717 -0.366059721920634 0.273785541196099 -0.220097185668961 -0.581463188610773 0.784004475298464 0.282605597356099 -0.376508907535066 0.698152045657901 -0.00768370341503822 -0.00688847238545463 0.134109351239643 -0.498542453491245 0.327894821249501 0.393483021319467 1.14130801338164 -0.06360705198959 -0.417603581683815 1.18416912193618 -1.32728855291417 0.153713415910452 2.27546561492589 1.60754661628573
-1.37166807935567 0.786059962322461 0.130382399731292 1.05180877581228 0.160649368464562 -0.594791631262618 2.28557246999207 -1.70756870606089 -0.576946096981107 -0.418857411094855 -0.533607600376215 -0.22647436862152 1.09404065184399 0.194898984956076 -1.00176179042718 -0.247091421780805 -1.84438277194426 -2.3685235059894 -0.79113870068427 1.3950326998534 -2.71825727505102 1.80314624253145 0.231868739034128 0.391016169228384 -0.00143076205923014 1.62949258744862 -1.39922439142551 1.59613814019102 0.972569112061769 0.452657842040316 -0.691652474102131 -0.187003648761445 1.40766378044255 -0.7513778185585 0.117991834227024 -0.625980838801724 0.363836962474699 0.105463159461573 -0.570469849464606 0.975579722224603 -0.727677141736787 0.285504824266468 0.517292101384537 0.333351033453658 -0.153055993860611 0.73416119664121 0.910264310770612 1.12862699630023 -1.36442965936643 0.15592704817313 0.341718900831659 0.556072754612717 -0.366059721920634 0.273785541196099 -0.220097185668961 -0.581463188610773 0.784004475298464 0.282605597356099 -0.376508907535066 0.698152045657901 -0.00768370341503822 -0.00688847238545463 0.134109351239643 -0.498542453491245 0.327894821249501 0.393483021319467 1.14130801338164 -0.06360705198959 -0.417603581683815 1.18416912193618 -1.32728855291417 0.153713415910452 2.27546561492589 1.60754661628573
-1.37166807935567 0.786059962322461 0.130382399731292 1.05180877581228 0.160649368464562 -0.594791631262618 2.28557246999207 -1.70756870606089 -0.576946096981107 -0.418857411094855 -0.533607600376215 -0.22647436862152 1.09404065184399 0.194898984956076 -1.00176179042718 -0.247091421780805 -1.84438277194426 -2.3685235059894 -0.79113870068427 1.3950326998534 -2.71825727505102 1.80314624253145 0.231868739034128 0.391016169228384 -0.00143076205923014 1.62949258744862 -1.39922439142551 1.59613814019102 0.972569112061769 0.452657842040316 -0.691652474102131 -0.187003648761445 1.40766378044255 -0.7513778185585 0.117991834227024 -0.625980838801724 0.363836962474699 0.105463159461573 -0.570469849464606 0.975579722224603 -0.727677141736787 0.285504824266468 0.517292101384537 0.333351033453658 -0.153055993860611 0.73416119664121 0.910264310770612 1.12862699630023 -1.36442965936643 0.15592704817313 0.341718900831659 0.556072754612717 -0.366059721920634 0.273785541196099 -0.220097185668961 -0.581463188610773 0.784004475298464 0.282605597356099 -0.376508907535066 0.698152045657901 -0.00768370341503822 -0.00688847238545463 0.134109351239643 -0.498542453491245 0.327894821249501 0.393483021319467 1.14130801338164 -0.06360705198959 -0.417603581683815 1.18416912193618 -1.32728855291417 0.153713415910452 2.27546561492589 1.60754661628573
-1.37166807935567 0.786059962322461 0.130382399731292 1.05180877581228 0.160649368464562 -0.594791631262618 2.28557246999207 -1.70756870606089 -0.576946096981107 -0.418857411094855 -0.533607600376215 -0.22647436862152 1.09404065184399 0.194898984956076 -1.00176179042718 -0.247091421780805 -1.84438277194426 -2.3685235059894 -0.79113870068427 1.3950326998534 -2.71825727505102 1.80314624253145 0.231868739034128 0.391016169228384 -0.00143076205923014 1.62949258744862 -1.39922439142551 1.59613814019102 0.972569112061769 0.452657842040316 -0.691652474102131 -0.187003648761445 1.40766378044255 -0.7513778185585 0.117991834227024 -0.625980838801724 0.363836962474699 0.105463159461573 -0.570469849464606 0.975579722224603 -0.727677141736787 0.285504824266468 0.517292101384537 0.333351033453658 -0.153055993860611 0.73416119664121 0.910264310770612 1.12862699630023 -1.36442965936643 0.15592704817313 0.341718900831659 0.556072754612717 -0.366059721920634 0.273785541196099 -0.220097185668961 -0.581463188610773 0.784004475298464 0.282605597356099 -0.376508907535066 0.698152045657901 -0.00768370341503822 -0.00688847238545463 0.134109351239643 -0.498542453491245 0.327894821249501 0.393483021319467 1.14130801338164 -0.06360705198959 -0.417603581683815 1.18416912193618 -1.32728855291417 0.153713415910452 2.27546561492589 1.60754661628573
-1.37166807935567 0.786059962322461 0.130382399731292 1.05180877581228 0.160649368464562 -0.594791631262618 2.28557246999207 -1.70756870606089 -0.576946096981107 -0.418857411094855 -0.533607600376215 -0.22647436862152 1.09404065184399 0.194898984956076 -1.00176179042718 -0.247091421780805 -1.84438277194426 -2.3685235059894 -0.79113870068427 1.3950326998534 -2.71825727505102 1.80314624253145 0.231868739034128 0.391016169228384 -0.00143076205923014 1.62949258744862 -1.39922439142551 1.59613814019102 0.972569112061769 0.452657842040316 -0.691652474102131 -0.187003648761445 1.40766378044255 -0.7513778185585 0.117991834227024 -0.625980838801724 0.363836962474699 0.105463159461573 -0.570469849464606 0.975579722224603 -0.727677141736787 0.285504824266468 0.517292101384537 0.333351033453658 -0.153055993860611 0.73416119664121 0.910264310770612 1.12862699630023 -1.36442965936643 0.15592704817313 0.341718900831659 0.556072754612717 -0.366059721920634 0.273785541196099 -0.220097185668961 -0.581463188610773 0.784004475298464 0.282605597356099 -0.376508907535066 0.698152045657901 -0.00768370341503822 -0.00688847238545463 0.134109351239643 -0.498542453491245 0.327894821249501 0.393483021319467 1.14130801338164 -0.06360705198959 -0.417603581683815 1.18416912193618 -1.32728855291417 0.153713415910452 2.27546561492589 1.60754661628573
-1.37166807935567 0.786059962322461 0.130382399731292 1.05180877581228 0.160649368464562 -0.594791631262618 2.28557246999207 -1.70756870606089 -0.576946096981107 -0.418857411094855 -0.533607600376215 -0.22647436862152 1.09404065184399 0.194898984956076 -1.00176179042718 -0.247091421780805 -1.84438277194426 -2.3685235059894 -0.79113870068427 1.3950326998534 -2.71825727505102 1.80314624253145 0.231868739034128 0.391016169228384 -0.00143076205923014 1.62949258744862 -1.39922439142551 1.59613814019102 0.972569112061769 0.452657842040316 -0.691652474102131 -0.187003648761445 1.40766378044255 -0.7513778185585 0.117991834227024 -0.625980838801724 0.363836962474699 0.105463159461573 -0.570469849464606 0.975579722224603 -0.727677141736787 0.285504824266468 0.517292101384537 0.333351033453658 -0.153055993860611 0.73416119664121 0.910264310770612 1.12862699630023 -1.36442965936643 0.15592704817313 0.341718900831659 0.556072754612717 -0.366059721920634 0.273785541196099 -0.220097185668961 -0.581463188610773 0.784004475298464 0.282605597356099 -0.376508907535066 0.698152045657901 -0.00768370341503822 -0.00688847238545463 0.134109351239643 -0.498542453491245 0.327894821249501 0.393483021319467 1.14130801338164 -0.06360705198959 -0.417603581683815 1.18416912193618 -1.32728855291417 0.153713415910452 2.27546561492589 1.60754661628573
-1.37166807935567 0.786059962322461 0.130382399731292 1.05180877581228 0.160649368464562 -0.594791631262618 2.28557246999207 -1.70756870606089 -0.576946096981107 -0.418857411094855 -0.533607600376215 -0.22647436862152 1.09404065184399 0.194898984956076 -1.00176179042718 -0.247091421780805 -1.84438277194426 -2.3685235059894 -0.79113870068427 1.3950326998534 -2.71825727505102 1.80314624253145 0.231868739034128 0.391016169228384 -0.00143076205923014 1.62949258744862 -1.39922439142551 1.59613814019102 0.972569112061769 0.452657842040316 -0.691652474102131 -0.187003648761445 1.40766378044255 -0.7513778185585 0.117991834227024 -0.625980838801724 0.363836962474699 0.105463159461573 -0.570469849464606 0.975579722224603 -0.727677141736787 0.285504824266468 0.517292101384537 0.333351033453658 -0.153055993860611 0.73416119664121 0.910264310770612 1.12862699630023 -1.36442965936643 0.15592704817313 0.341718900831659 0.556072754612717 -0.366059721920634 0.273785541196099 -0.220097185668961 -0.581463188610773 0.784004475298464 0.282605597356099 -0.376508907535066 0.698152045657901 -0.00768370341503822 -0.00688847238545463 0.134109351239643 -0.498542453491245 0.327894821249501 0.393483021319467 1.14130801338164 -0.06360705198959 -0.417603581683815 1.18416912193618 -1.32728855291417 0.153713415910452 2.27546561492589 1.60754661628573
-1.37166807935567 0.786059962322461 0.130382399731292 1.05180877581228 0.160649368464562 -0.594791631262618 2.28557246999207 -1.70756870606089 -0.576946096981107 -0.418857411094855 -0.533607600376215 -0.22647436862152 1.09404065184399 0.194898984956076 -1.00176179042718 -0.247091421780805 -1.84438277194426 -2.3685235059894 -0.79113870068427 1.3950326998534 -2.71825727505102 1.80314624253145 0.231868739034128 0.391016169228384 -0.00143076205923014 1.62949258744862 -1.39922439142551 1.59613814019102 0.972569112061769 0.452657842040316 -0.691652474102131 -0.187003648761445 1.40766378044255 -0.7513778185585 0.117991834227024 -0.625980838801724 0.363836962474699 0.105463159461573 -0.570469849464606 0.975579722224603 -0.727677141736787 0.285504824266468 0.517292101384537 0.333351033453658 -0.153055993860611 0.73416119664121 0.910264310770612 1.12862699630023 -1.36442965936643 0.15592704817313 0.341718900831659 0.556072754612717 -0.366059721920634 0.273785541196099 -0.220097185668961 -0.581463188610773 0.784004475298464 0.282605597356099 -0.376508907535066 0.698152045657901 -0.00768370341503822 -0.00688847238545463 0.134109351239643 -0.498542453491245 0.327894821249501 0.393483021319467 1.14130801338164 -0.06360705198959 -0.417603581683815 1.18416912193618 -1.32728855291417 0.153713415910452 2.27546561492589 1.60754661628573
-1.37166807935567 0.786059962322461 0.130382399731292 1.05180877581228 0.160649368464562 -0.594791631262618 2.28557246999207 -1.70756870606089 -0.576946096981107 -0.418857411094855 -0.533607600376215 -0.22647436862152 1.09404065184399 0.194898984956076 -1.00176179042718 -0.247091421780805 -1.84438277194426 -2.3685235059894 -0.79113870068427 1.3950326998534 -2.71825727505102 1.80314624253145 0.231868739034128 0.391016169228384 -0.00143076205923014 1.62949258744862 -1.39922439142551 1.59613814019102 0.972569112061769 0.452657842040316 -0.691652474102131 -0.187003648761445 1.40766378044255 -0.7513778185585 0.117991834227024 -0.625980838801724 0.363836962474699 0.105463159461573 -0.570469849464606 0.975579722224603 -0.727677141736787 0.285504824266468 0.517292101384537 0.333351033453658 -0.153055993860611 0.73416119664121 0.910264310770612 1.12862699630023 -1.36442965936643 0.15592704817313 0.341718900831659 0.556072754612717 -0.366059721920634 0.273785541196099 -0.220097185668961 -0.581463188610773 0.784004475298464 0.282605597356099 -0.376508907535066 0.698152045657901 -0.00768370341503822 -0.00688847238545463 0.134109351239643 -0.498542453491245 0.327894821249501 0.393483021319467 1.14130801338164 -0.06360705198959 -0.417603581683815 1.18416912193618 -1.32728855291417 0.153713415910452 2.27546561492589 1.60754661628573
-1.37166807935567 0.786059962322461 0.130382399731292 1.05180877581228 0.160649368464562 -0.594791631262618 2.28557246999207 -1.70756870606089 -0.576946096981107 -0.418857411094855 -0.533607600376215 -0.22647436862152 1.09404065184399 0.194898984956076 -1.00176179042718 -0.247091421780805 -1.84438277194426 -2.3685235059894 -0.79113870068427 1.3950326998534 -2.71825727505102 1.80314624253145 0.231868739034128 0.391016169228384 -0.00143076205923014 1.62949258744862 -1.39922439142551 1.59613814019102 0.972569112061769 0.452657842040316 -0.691652474102131 -0.187003648761445 1.40766378044255 -0.7513778185585 0.117991834227024 -0.625980838801724 0.363836962474699 0.105463159461573 -0.570469849464606 0.975579722224603 -0.727677141736787 0.285504824266468 0.517292101384537 0.333351033453658 -0.153055993860611 0.73416119664121 0.910264310770612 1.12862699630023 -1.36442965936643 0.15592704817313 0.341718900831659 0.556072754612717 -0.366059721920634 0.273785541196099 -0.220097185668961 -0.581463188610773 0.784004475298464 0.282605597356099 -0.376508907535066 0.698152045657901 -0.00768370341503822 -0.00688847238545463 0.134109351239643 -0.498542453491245 0.327894821249501 0.393483021319467 1.14130801338164 -0.06360705198959 -0.417603581683815 1.18416912193618 -1.32728855291417 0.153713415910452 2.27546561492589 1.60754661628573
-1.37166807935567 0.786059962322461 0.130382399731292 1.05180877581228 0.160649368464562 -0.594791631262618 2.28557246999207 -1.70756870606089 -0.576946096981107 -0.418857411094855 -0.533607600376215 -0.22647436862152 1.09404065184399 0.194898984956076 -1.00176179042718 -0.247091421780805 -1.84438277194426 -2.3685235059894 -0.79113870068427 1.3950326998534 -2.71825727505102 1.80314624253145 0.231868739034128 0.391016169228384 -0.00143076205923014 1.62949258744862 -1.39922439142551 1.59613814019102 0.972569112061769 0.452657842040316 -0.691652474102131 -0.187003648761445 1.40766378044255 -0.7513778185585 0.117991834227024 -0.625980838801724 0.363836962474699 0.105463159461573 -0.570469849464606 0.975579722224603 -0.727677141736787 0.285504824266468 0.517292101384537 0.333351033453658 -0.153055993860611 0.73416119664121 0.910264310770612 1.12862699630023 -1.36442965936643 0.15592704817313 0.341718900831659 0.556072754612717 -0.366059721920634 0.273785541196099 -0.220097185668961 -0.581463188610773 0.784004475298464 0.282605597356099 -0.376508907535066 0.698152045657901 -0.00768370341503822 -0.00688847238545463 0.134109351239643 -0.498542453491245 0.327894821249501 0.393483021319467 1.14130801338164 -0.06360705198959 -0.417603581683815 1.18416912193618 -1.32728855291417 0.153713415910452 2.27546561492589 1.60754661628573
-1.37166807935567 0.786059962322461 0.130382399731292 1.05180877581228 0.160649368464562 -0.594791631262618 2.28557246999207 -1.70756870606089 -0.576946096981107 -0.418857411094855 -0.533607600376215 -0.22647436862152 1.09404065184399 0.194898984956076 -1.00176179042718 -0.247091421780805 -1.84438277194426 -2.3685235059894 -0.79113870068427 1.3950326998534 -2.71825727505102 1.80314624253145 0.231868739034128 0.391016169228384 -0.00143076205923014 1.62949258744862 -1.39922439142551 1.59613814019102 0.972569112061769 0.452657842040316 -0.691652474102131 -0.187003648761445 1.40766378044255 -0.7513778185585 0.117991834227024 -0.625980838801724 0.363836962474699 0.105463159461573 -0.570469849464606 0.975579722224603 -0.727677141736787 0.285504824266468 0.517292101384537 0.333351033453658 -0.153055993860611 0.73416119664121 0.910264310770612 1.12862699630023 -1.36442965936643 0.15592704817313 0.341718900831659 0.556072754612717 -0.366059721920634 0.273785541196099 -0.220097185668961 -0.581463188610773 0.784004475298464 0.282605597356099 -0.376508907535066 0.698152045657901 -0.00768370341503822 -0.00688847238545463 0.134109351239643 -0.498542453491245 0.327894821249501 0.393483021319467 1.14130801338164 -0.06360705198959 -0.417603581683815 1.18416912193618 -1.32728855291417 0.153713415910452 2.27546561492589 1.60754661628573
-1.37166807935567 0.786059962322461 0.130382399731292 1.05180877581228 0.160649368464562 -0.594791631262618 2.28557246999207 -1.70756870606089 -0.576946096981107 -0.418857411094855 -0.533607600376215 -0.22647436862152 1.09404065184399 0.194898984956076 -1.00176179042718 -0.247091421780805 -1.84438277194426 -2.3685235059894 -0.79113870068427 1.3950326998534 -2.71825727505102 1.80314624253145 0.231868739034128 0.391016169228384 -0.00143076205923014 1.62949258744862 -1.39922439142551 1.59613814019102 0.972569112061769 0.452657842040316 -0.691652474102131 -0.187003648761445 1.40766378044255 -0.7513778185585 0.117991834227024 -0.625980838801724 0.363836962474699 0.105463159461573 -0.570469849464606 0.975579722224603 -0.727677141736787 0.285504824266468 0.517292101384537 0.333351033453658 -0.153055993860611 0.73416119664121 0.910264310770612 1.12862699630023 -1.36442965936643 0.15592704817313 0.341718900831659 0.556072754612717 -0.366059721920634 0.273785541196099 -0.220097185668961 -0.581463188610773 0.784004475298464 0.282605597356099 -0.376508907535066 0.698152045657901 -0.00768370341503822 -0.00688847238545463 0.134109351239643 -0.498542453491245 0.327894821249501 0.393483021319467 1.14130801338164 -0.06360705198959 -0.417603581683815 1.18416912193618 -1.32728855291417 0.153713415910452 2.27546561492589 1.60754661628573
-1.37166807935567 0.786059962322461 0.130382399731292 1.05180877581228 0.160649368464562 -0.594791631262618 2.28557246999207 -1.70756870606089 -0.576946096981107 -0.418857411094855 -0.533607600376215 -0.22647436862152 1.09404065184399 0.194898984956076 -1.00176179042718 -0.247091421780805 -1.84438277194426 -2.3685235059894 -0.79113870068427 1.3950326998534 -2.71825727505102 1.80314624253145 0.231868739034128 0.391016169228384 -0.00143076205923014 1.62949258744862 -1.39922439142551 1.59613814019102 0.972569112061769 0.452657842040316 -0.691652474102131 -0.187003648761445 1.40766378044255 -0.7513778185585 0.117991834227024 -0.625980838801724 0.363836962474699 0.105463159461573 -0.570469849464606 0.975579722224603 -0.727677141736787 0.285504824266468 0.517292101384537 0.333351033453658 -0.153055993860611 0.73416119664121 0.910264310770612 1.12862699630023 -1.36442965936643 0.15592704817313 0.341718900831659 0.556072754612717 -0.366059721920634 0.273785541196099 -0.220097185668961 -0.581463188610773 0.784004475298464 0.282605597356099 -0.376508907535066 0.698152045657901 -0.00768370341503822 -0.00688847238545463 0.134109351239643 -0.498542453491245 0.327894821249501 0.393483021319467 1.14130801338164 -0.06360705198959 -0.417603581683815 1.18416912193618 -1.32728855291417 0.153713415910452 2.27546561492589 1.60754661628573
-1.37166807935567 0.786059962322461 0.130382399731292 1.05180877581228 0.160649368464562 -0.594791631262618 2.28557246999207 -1.70756870606089 -0.576946096981107 -0.418857411094855 -0.533607600376215 -0.22647436862152 1.09404065184399 0.194898984956076 -1.00176179042718 -0.247091421780805 -1.84438277194426 -2.3685235059894 -0.79113870068427 1.3950326998534 -2.71825727505102 1.80314624253145 0.231868739034128 0.391016169228384 -0.00143076205923014 1.62949258744862 -1.39922439142551 1.59613814019102 0.972569112061769 0.452657842040316 -0.691652474102131 -0.187003648761445 1.40766378044255 -0.7513778185585 0.117991834227024 -0.625980838801724 0.363836962474699 0.105463159461573 -0.570469849464606 0.975579722224603 -0.727677141736787 0.285504824266468 0.517292101384537 0.333351033453658 -0.153055993860611 0.73416119664121 0.910264310770612 1.12862699630023 -1.36442965936643 0.15592704817313 0.341718900831659 0.556072754612717 -0.366059721920634 0.273785541196099 -0.220097185668961 -0.581463188610773 0.784004475298464 0.282605597356099 -0.376508907535066 0.698152045657901 -0.00768370341503822 -0.00688847238545463 0.134109351239643 -0.498542453491245 0.327894821249501 0.393483021319467 1.14130801338164 -0.06360705198959 -0.417603581683815 1.18416912193618 -1.32728855291417 0.153713415910452 2.27546561492589 1.60754661628573
-1.37166807935567 0.786059962322461 0.130382399731292 1.05180877581228 0.160649368464562 -0.594791631262618 2.28557246999207 -1.70756870606089 -0.576946096981107 -0.418857411094855 -0.533607600376215 -0.22647436862152 1.09404065184399 0.194898984956076 -1.00176179042718 -0.247091421780805 -1.84438277194426 -2.3685235059894 -0.79113870068427 1.3950326998534 -2.71825727505102 1.80314624253145 0.231868739034128 0.391016169228384 -0.00143076205923014 1.62949258744862 -1.39922439142551 1.59613814019102 0.972569112061769 0.452657842040316 -0.691652474102131 -0.187003648761445 1.40766378044255 -0.7513778185585 0.117991834227024 -0.625980838801724 0.363836962474699 0.105463159461573 -0.570469849464606 0.975579722224603 -0.727677141736787 0.285504824266468 0.517292101384537 0.333351033453658 -0.153055993860611 0.73416119664121 0.910264310770612 1.12862699630023 -1.36442965936643 0.15592704817313 0.341718900831659 0.556072754612717 -0.366059721920634 0.273785541196099 -0.220097185668961 -0.581463188610773 0.784004475298464 0.282605597356099 -0.376508907535066 0.698152045657901 -0.00768370341503822 -0.00688847238545463 0.134109351239643 -0.498542453491245 0.327894821249501 0.393483021319467 1.14130801338164 -0.06360705198959 -0.417603581683815 1.18416912193618 -1.32728855291417 0.153713415910452 2.27546561492589 1.60754661628573
-1.37166807935567 0.786059962322461 0.130382399731292 1.05180877581228 0.160649368464562 -0.594791631262618 2.28557246999207 -1.70756870606089 -0.576946096981107 -0.418857411094855 -0.533607600376215 -0.22647436862152 1.09404065184399 0.194898984956076 -1.00176179042718 -0.247091421780805 -1.84438277194426 -2.3685235059894 -0.79113870068427 1.3950326998534 -2.71825727505102 1.80314624253145 0.231868739034128 0.391016169228384 -0.00143076205923014 1.62949258744862 -1.39922439142551 1.59613814019102 0.972569112061769 0.452657842040316 -0.691652474102131 -0.187003648761445 1.40766378044255 -0.7513778185585 0.117991834227024 -0.625980838801724 0.363836962474699 0.105463159461573 -0.570469849464606 0.975579722224603 -0.727677141736787 0.285504824266468 0.517292101384537 0.333351033453658 -0.153055993860611 0.73416119664121 0.910264310770612 1.12862699630023 -1.36442965936643 0.15592704817313 0.341718900831659 0.556072754612717 -0.366059721920634 0.273785541196099 -0.220097185668961 -0.581463188610773 0.784004475298464 0.282605597356099 -0.376508907535066 0.698152045657901 -0.00768370341503822 -0.00688847238545463 0.134109351239643 -0.498542453491245 0.327894821249501 0.393483021319467 1.14130801338164 -0.06360705198959 -0.417603581683815 1.18416912193618 -1.32728855291417 0.153713415910452 2.27546561492589 1.60754661628573
-1.37166807935567 0.786059962322461 0.130382399731292 1.05180877581228 0.160649368464562 -0.594791631262618 2.28557246999207 -1.70756870606089 -0.576946096981107 -0.418857411094855 -0.533607600376215 -0.22647436862152 1.09404065184399 0.194898984956076 -1.00176179042718 -0.247091421780805 -1.84438277194426 -2.3685235059894 -0.79113870068427 1.3950326998534 -2.71825727505102 1.80314624253145 0.231868739034128 0.391016169228384 -0.00143076205923014 1.62949258744862 -1.39922439142551 1.59613814019102 0.972569112061769 0.452657842040316 -0.691652474102131 -0.187003648761445 1.40766378044255 -0.7513778185585 0.117991834227024 -0.625980838801724 0.363836962474699 0.105463159461573 -0.570469849464606 0.975579722224603 -0.727677141736787 0.285504824266468 0.517292101384537 0.333351033453658 -0.153055993860611 0.73416119664121 0.910264310770612 1.12862699630023 -1.36442965936643 0.15592704817313 0.341718900831659 0.556072754612717 -0.366059721920634 0.273785541196099 -0.220097185668961 -0.581463188610773 0.784004475298464 0.282605597356099 -0.376508907535066 0.698152045657901 -0.00768370341503822 -0.00688847238545463 0.134109351239643 -0.498542453491245 0.327894821249501 0.393483021319467 1.14130801338164 -0.06360705198959 -0.417603581683815 1.18416912193618 -1.32728855291417 0.153713415910452 2.27546561492589 1.60754661628573
-1.37166807935567 0.786059962322461 0.130382399731292 1.05180877581228 0.160649368464562 -0.594791631262618 2.28557246999207 -1.70756870606089 -0.576946096981107 -0.418857411094855 -0.533607600376215 -0.22647436862152 1.09404065184399 0.194898984956076 -1.00176179042718 -0.247091421780805 -1.84438277194426 -2.3685235059894 -0.79113870068427 1.3950326998534 -2.71825727505102 1.80314624253145 0.231868739034128 0.391016169228384 -0.00143076205923014 1.62949258744862 -1.39922439142551 1.59613814019102 0.972569112061769 0.452657842040316 -0.691652474102131 -0.187003648761445 1.40766378044255 -0.7513778185585 0.117991834227024 -0.625980838801724 0.363836962474699 0.105463159461573 -0.570469849464606 0.975579722224603 -0.727677141736787 0.285504824266468 0.517292101384537 0.333351033453658 -0.153055993860611 0.73416119664121 0.910264310770612 1.12862699630023 -1.36442965936643 0.15592704817313 0.341718900831659 0.556072754612717 -0.366059721920634 0.273785541196099 -0.220097185668961 -0.581463188610773 0.784004475298464 0.282605597356099 -0.376508907535066 0.698152045657901 -0.00768370341503822 -0.00688847238545463 0.134109351239643 -0.498542453491245 0.327894821249501 0.393483021319467 1.14130801338164 -0.06360705198959 -0.417603581683815 1.18416912193618 -1.32728855291417 0.153713415910452 2.27546561492589 1.60754661628573
-1.37166807935567 0.786059962322461 0.130382399731292 1.05180877581228 0.160649368464562 -0.594791631262618 2.28557246999207 -1.70756870606089 -0.576946096981107 -0.418857411094855 -0.533607600376215 -0.22647436862152 1.09404065184399 0.194898984956076 -1.00176179042718 -0.247091421780805 -1.84438277194426 -2.3685235059894 -0.79113870068427 1.3950326998534 -2.71825727505102 1.80314624253145 0.231868739034128 0.391016169228384 -0.00143076205923014 1.62949258744862 -1.39922439142551 1.59613814019102 0.972569112061769 0.452657842040316 -0.691652474102131 -0.187003648761445 1.40766378044255 -0.7513778185585 0.117991834227024 -0.625980838801724 0.363836962474699 0.105463159461573 -0.570469849464606 0.975579722224603 -0.727677141736787 0.285504824266468 0.517292101384537 0.333351033453658 -0.153055993860611 0.73416119664121 0.910264310770612 1.12862699630023 -1.36442965936643 0.15592704817313 0.341718900831659 0.556072754612717 -0.366059721920634 0.273785541196099 -0.220097185668961 -0.581463188610773 0.784004475298464 0.282605597356099 -0.376508907535066 0.698152045657901 -0.00768370341503822 -0.00688847238545463 0.134109351239643 -0.498542453491245 0.327894821249501 0.393483021319467 1.14130801338164 -0.06360705198959 -0.417603581683815 1.18416912193618 -1.32728855291417 0.153713415910452 2.27546561492589 1.60754661628573
-1.37166807935567 0.786059962322461 0.130382399731292 1.05180877581228 0.160649368464562 -0.594791631262618 2.28557246999207 -1.70756870606089 -0.576946096981107 -0.418857411094855 -0.533607600376215 -0.22647436862152 1.09404065184399 0.194898984956076 -1.00176179042718 -0.247091421780805 -1.84438277194426 -2.3685235059894 -0.79113870068427 1.3950326998534 -2.71825727505102 1.80314624253145 0.231868739034128 0.391016169228384 -0.00143076205923014 1.62949258744862 -1.39922439142551 1.59613814019102 0.972569112061769 0.452657842040316 -0.691652474102131 -0.187003648761445 1.40766378044255 -0.7513778185585 0.117991834227024 -0.625980838801724 0.363836962474699 0.105463159461573 -0.570469849464606 0.975579722224603 -0.727677141736787 0.285504824266468 0.517292101384537 0.333351033453658 -0.153055993860611 0.73416119664121 0.910264310770612 1.12862699630023 -1.36442965936643 0.15592704817313 0.341718900831659 0.556072754612717 -0.366059721920634 0.273785541196099 -0.220097185668961 -0.581463188610773 0.784004475298464 0.282605597356099 -0.376508907535066 0.698152045657901 -0.00768370341503822 -0.00688847238545463 0.134109351239643 -0.498542453491245 0.327894821249501 0.393483021319467 1.14130801338164 -0.06360705198959 -0.417603581683815 1.18416912193618 -1.32728855291417 0.153713415910452 2.27546561492589 1.60754661628573
-1.37166807935567 0.786059962322461 0.130382399731292 1.05180877581228 0.160649368464562 -0.594791631262618 2.28557246999207 -1.70756870606089 -0.576946096981107 -0.418857411094855 -0.533607600376215 -0.22647436862152 1.09404065184399 0.194898984956076 -1.00176179042718 -0.247091421780805 -1.84438277194426 -2.3685235059894 -0.79113870068427 1.3950326998534 -2.71825727505102 1.80314624253145 0.231868739034128 0.391016169228384 -0.00143076205923014 1.62949258744862 -1.39922439142551 1.59613814019102 0.972569112061769 0.452657842040316 -0.691652474102131 -0.187003648761445 1.40766378044255 -0.7513778185585 0.117991834227024 -0.625980838801724 0.363836962474699 0.105463159461573 -0.570469849464606 0.975579722224603 -0.727677141736787 0.285504824266468 0.517292101384537 0.333351033453658 -0.153055993860611 0.73416119664121 0.910264310770612 1.12862699630023 -1.36442965936643 0.15592704817313 0.341718900831659 0.556072754612717 -0.366059721920634 0.273785541196099 -0.220097185668961 -0.581463188610773 0.784004475298464 0.282605597356099 -0.376508907535066 0.698152045657901 -0.00768370341503822 -0.00688847238545463 0.134109351239643 -0.498542453491245 0.327894821249501 0.393483021319467 1.14130801338164 -0.06360705198959 -0.417603581683815 1.18416912193618 -1.32728855291417 0.153713415910452 2.27546561492589 1.60754661628573
-1.37166807935567 0.786059962322461 0.130382399731292 1.05180877581228 0.160649368464562 -0.594791631262618 2.28557246999207 -1.70756870606089 -0.576946096981107 -0.418857411094855 -0.533607600376215 -0.22647436862152 1.09404065184399 0.194898984956076 -1.00176179042718 -0.247091421780805 -1.84438277194426 -2.3685235059894 -0.79113870068427 1.3950326998534 -2.71825727505102 1.80314624253145 0.231868739034128 0.391016169228384 -0.00143076205923014 1.62949258744862 -1.39922439142551 1.59613814019102 0.972569112061769 0.452657842040316 -0.691652474102131 -0.187003648761445 1.40766378044255 -0.7513778185585 0.117991834227024 -0.625980838801724 0.363836962474699 0.105463159461573 -0.570469849464606 0.975579722224603 -0.727677141736787 0.285504824266468 0.517292101384537 0.333351033453658 -0.153055993860611 0.73416119664121 0.910264310770612 1.12862699630023 -1.36442965936643 0.15592704817313 0.341718900831659 0.556072754612717 -0.366059721920634 0.273785541196099 -0.220097185668961 -0.581463188610773 0.784004475298464 0.282605597356099 -0.376508907535066 0.698152045657901 -0.00768370341503822 -0.00688847238545463 0.134109351239643 -0.498542453491245 0.327894821249501 0.393483021319467 1.14130801338164 -0.06360705198959 -0.417603581683815 1.18416912193618 -1.32728855291417 0.153713415910452 2.27546561492589 1.60754661628573
-1.37166807935567 0.786059962322461 0.130382399731292 1.05180877581228 0.160649368464562 -0.594791631262618 2.28557246999207 -1.70756870606089 -0.576946096981107 -0.418857411094855 -0.533607600376215 -0.22647436862152 1.09404065184399 0.194898984956076 -1.00176179042718 -0.247091421780805 -1.84438277194426 -2.3685235059894 -0.79113870068427 1.3950326998534 -2.71825727505102 1.80314624253145 0.231868739034128 0.391016169228384 -0.00143076205923014 1.62949258744862 -1.39922439142551 1.59613814019102 0.972569112061769 0.452657842040316 -0.691652474102131 -0.187003648761445 1.40766378044255 -0.7513778185585 0.117991834227024 -0.625980838801724 0.363836962474699 0.105463159461573 -0.570469849464606 0.975579722224603 -0.727677141736787 0.285504824266468 0.517292101384537 0.333351033453658 -0.153055993860611 0.73416119664121 0.910264310770612 1.12862699630023 -1.36442965936643 0.15592704817313 0.341718900831659 0.556072754612717 -0.366059721920634 0.273785541196099 -0.220097185668961 -0.581463188610773 0.784004475298464 0.282605597356099 -0.376508907535066 0.698152045657901 -0.00768370341503822 -0.00688847238545463 0.134109351239643 -0.498542453491245 0.327894821249501 0.393483021319467 1.14130801338164 -0.06360705198959 -0.417603581683815 1.18416912193618 -1.32728855291417 0.153713415910452 2.27546561492589 1.60754661628573
-1.37166807935567 0.786059962322461 0.130382399731292 1.05180877581228 0.160649368464562 -0.594791631262618 2.28557246999207 -1.70756870606089 -0.576946096981107 -0.418857411094855 -0.533607600376215 -0.22647436862152 1.09404065184399 0.194898984956076 -1.00176179042718 -0.247091421780805 -1.84438277194426 -2.3685235059894 -0.79113870068427 1.3950326998534 -2.71825727505102 1.80314624253145 0.231868739034128 0.391016169228384 -0.00143076205923014 1.62949258744862 -1.39922439142551 1.59613814019102 0.972569112061769 0.452657842040316 -0.691652474102131 -0.187003648761445 1.40766378044255 -0.7513778185585 0.117991834227024 -0.625980838801724 0.363836962474699 0.105463159461573 -0.570469849464606 0.975579722224603 -0.727677141736787 0.285504824266468 0.517292101384537 0.333351033453658 -0.153055993860611 0.73416119664121 0.910264310770612 1.12862699630023 -1.36442965936643 0.15592704817313 0.341718900831659 0.556072754612717 -0.366059721920634 0.273785541196099 -0.220097185668961 -0.581463188610773 0.784004475298464 0.282605597356099 -0.376508907535066 0.698152045657901 -0.00768370341503822 -0.00688847238545463 0.134109351239643 -0.498542453491245 0.327894821249501 0.393483021319467 1.14130801338164 -0.06360705198959 -0.417603581683815 1.18416912193618 -1.32728855291417 0.153713415910452 2.27546561492589 1.60754661628573
-1.37166807935567 0.786059962322461 0.130382399731292 1.05180877581228 0.160649368464562 -0.594791631262618 2.28557246999207 -1.70756870606089 -0.576946096981107 -0.418857411094855 -0.533607600376215 -0.22647436862152 1.09404065184399 0.194898984956076 -1.00176179042718 -0.247091421780805 -1.84438277194426 -2.3685235059894 -0.79113870068427 1.3950326998534 -2.71825727505102 1.80314624253145 0.231868739034128 0.391016169228384 -0.00143076205923014 1.62949258744862 -1.39922439142551 1.59613814019102 0.972569112061769 0.452657842040316 -0.691652474102131 -0.187003648761445 1.40766378044255 -0.7513778185585 0.117991834227024 -0.625980838801724 0.363836962474699 0.105463159461573 -0.570469849464606 0.975579722224603 -0.727677141736787 0.285504824266468 0.517292101384537 0.333351033453658 -0.153055993860611 0.73416119664121 0.910264310770612 1.12862699630023 -1.36442965936643 0.15592704817313 0.341718900831659 0.556072754612717 -0.366059721920634 0.273785541196099 -0.220097185668961 -0.581463188610773 0.784004475298464 0.282605597356099 -0.376508907535066 0.698152045657901 -0.00768370341503822 -0.00688847238545463 0.134109351239643 -0.498542453491245 0.327894821249501 0.393483021319467 1.14130801338164 -0.06360705198959 -0.417603581683815 1.18416912193618 -1.32728855291417 0.153713415910452 2.27546561492589 1.60754661628573
-1.37166807935567 0.786059962322461 0.130382399731292 1.05180877581228 0.160649368464562 -0.594791631262618 2.28557246999207 -1.70756870606089 -0.576946096981107 -0.418857411094855 -0.533607600376215 -0.22647436862152 1.09404065184399 0.194898984956076 -1.00176179042718 -0.247091421780805 -1.84438277194426 -2.3685235059894 -0.79113870068427 1.3950326998534 -2.71825727505102 1.80314624253145 0.231868739034128 0.391016169228384 -0.00143076205923014 1.62949258744862 -1.39922439142551 1.59613814019102 0.972569112061769 0.452657842040316 -0.691652474102131 -0.187003648761445 1.40766378044255 -0.7513778185585 0.117991834227024 -0.625980838801724 0.363836962474699 0.105463159461573 -0.570469849464606 0.975579722224603 -0.727677141736787 0.285504824266468 0.517292101384537 0.333351033453658 -0.153055993860611 0.73416119664121 0.910264310770612 1.12862699630023 -1.36442965936643 0.15592704817313 0.341718900831659 0.556072754612717 -0.366059721920634 0.273785541196099 -0.220097185668961 -0.581463188610773 0.784004475298464 0.282605597356099 -0.376508907535066 0.698152045657901 -0.00768370341503822 -0.00688847238545463 0.134109351239643 -0.498542453491245 0.327894821249501 0.393483021319467 1.14130801338164 -0.06360705198959 -0.417603581683815 1.18416912193618 -1.32728855291417 0.153713415910452 2.27546561492589 1.60754661628573
-1.37166807935567 0.786059962322461 0.130382399731292 1.05180877581228 0.160649368464562 -0.594791631262618 2.28557246999207 -1.70756870606089 -0.576946096981107 -0.418857411094855 -0.533607600376215 -0.22647436862152 1.09404065184399 0.194898984956076 -1.00176179042718 -0.247091421780805 -1.84438277194426 -2.3685235059894 -0.79113870068427 1.3950326998534 -2.71825727505102 1.80314624253145 0.231868739034128 0.391016169228384 -0.00143076205923014 1.62949258744862 -1.39922439142551 1.59613814019102 0.972569112061769 0.452657842040316 -0.691652474102131 -0.187003648761445 1.40766378044255 -0.7513778185585 0.117991834227024 -0.625980838801724 0.363836962474699 0.105463159461573 -0.570469849464606 0.975579722224603 -0.727677141736787 0.285504824266468 0.517292101384537 0.333351033453658 -0.153055993860611 0.73416119664121 0.910264310770612 1.12862699630023 -1.36442965936643 0.15592704817313 0.341718900831659 0.556072754612717 -0.366059721920634 0.273785541196099 -0.220097185668961 -0.581463188610773 0.784004475298464 0.282605597356099 -0.376508907535066 0.698152045657901 -0.00768370341503822 -0.00688847238545463 0.134109351239643 -0.498542453491245 0.327894821249501 0.393483021319467 1.14130801338164 -0.06360705198959 -0.417603581683815 1.18416912193618 -1.32728855291417 0.153713415910452 2.27546561492589 1.60754661628573
-1.37166807935567 0.786059962322461 0.130382399731292 1.05180877581228 0.160649368464562 -0.594791631262618 2.28557246999207 -1.70756870606089 -0.576946096981107 -0.418857411094855 -0.533607600376215 -0.22647436862152 1.09404065184399 0.194898984956076 -1.00176179042718 -0.247091421780805 -1.84438277194426 -2.3685235059894 -0.79113870068427 1.3950326998534 -2.71825727505102 1.80314624253145 0.231868739034128 0.391016169228384 -0.00143076205923014 1.62949258744862 -1.39922439142551 1.59613814019102 0.972569112061769 0.452657842040316 -0.691652474102131 -0.187003648761445 1.40766378044255 -0.7513778185585 0.117991834227024 -0.625980838801724 0.363836962474699 0.105463159461573 -0.570469849464606 0.975579722224603 -0.727677141736787 0.285504824266468 0.517292101384537 0.333351033453658 -0.153055993860611 0.73416119664121 0.910264310770612 1.12862699630023 -1.36442965936643 0.15592704817313 0.341718900831659 0.556072754612717 -0.366059721920634 0.273785541196099 -0.220097185668961 -0.581463188610773 0.784004475298464 0.282605597356099 -0.376508907535066 0.698152045657901 -0.00768370341503822 -0.00688847238545463 0.134109351239643 -0.498542453491245 0.327894821249501 0.393483021319467 1.14130801338164 -0.06360705198959 -0.417603581683815 1.18416912193618 -1.32728855291417 0.153713415910452 2.27546561492589 1.60754661628573
-1.37166807935567 0.786059962322461 0.130382399731292 1.05180877581228 0.160649368464562 -0.594791631262618 2.28557246999207 -1.70756870606089 -0.576946096981107 -0.418857411094855 -0.533607600376215 -0.22647436862152 1.09404065184399 0.194898984956076 -1.00176179042718 -0.247091421780805 -1.84438277194426 -2.3685235059894 -0.79113870068427 1.3950326998534 -2.71825727505102 1.80314624253145 0.231868739034128 0.391016169228384 -0.00143076205923014 1.62949258744862 -1.39922439142551 1.59613814019102 0.972569112061769 0.452657842040316 -0.691652474102131 -0.187003648761445 1.40766378044255 -0.7513778185585 0.117991834227024 -0.625980838801724 0.363836962474699 0.105463159461573 -0.570469849464606 0.975579722224603 -0.727677141736787 0.285504824266468 0.517292101384537 0.333351033453658 -0.153055993860611 0.73416119664121 0.910264310770612 1.12862699630023 -1.36442965936643 0.15592704817313 0.341718900831659 0.556072754612717 -0.366059721920634 0.273785541196099 -0.220097185668961 -0.581463188610773 0.784004475298464 0.282605597356099 -0.376508907535066 0.698152045657901 -0.00768370341503822 -0.00688847238545463 0.134109351239643 -0.498542453491245 0.327894821249501 0.393483021319467 1.14130801338164 -0.06360705198959 -0.417603581683815 1.18416912193618 -1.32728855291417 0.153713415910452 2.27546561492589 1.60754661628573
-1.37166807935567 0.786059962322461 0.130382399731292 1.05180877581228 0.160649368464562 -0.594791631262618 2.28557246999207 -1.70756870606089 -0.576946096981107 -0.418857411094855 -0.533607600376215 -0.22647436862152 1.09404065184399 0.194898984956076 -1.00176179042718 -0.247091421780805 -1.84438277194426 -2.3685235059894 -0.79113870068427 1.3950326998534 -2.71825727505102 1.80314624253145 0.231868739034128 0.391016169228384 -0.00143076205923014 1.62949258744862 -1.39922439142551 1.59613814019102 0.972569112061769 0.452657842040316 -0.691652474102131 -0.187003648761445 1.40766378044255 -0.7513778185585 0.117991834227024 -0.625980838801724 0.363836962474699 0.105463159461573 -0.570469849464606 0.975579722224603 -0.727677141736787 0.285504824266468 0.517292101384537 0.333351033453658 -0.153055993860611 0.73416119664121 0.910264310770612 1.12862699630023 -1.36442965936643 0.15592704817313 0.341718900831659 0.556072754612717 -0.366059721920634 0.273785541196099 -0.220097185668961 -0.581463188610773 0.784004475298464 0.282605597356099 -0.376508907535066 0.698152045657901 -0.00768370341503822 -0.00688847238545463 0.134109351239643 -0.498542453491245 0.327894821249501 0.393483021319467 1.14130801338164 -0.06360705198959 -0.417603581683815 1.18416912193618 -1.32728855291417 0.153713415910452 2.27546561492589 1.60754661628573
-1.37166807935567 0.786059962322461 0.130382399731292 1.05180877581228 0.160649368464562 -0.594791631262618 2.28557246999207 -1.70756870606089 -0.576946096981107 -0.418857411094855 -0.533607600376215 -0.22647436862152 1.09404065184399 0.194898984956076 -1.00176179042718 -0.247091421780805 -1.84438277194426 -2.3685235059894 -0.79113870068427 1.3950326998534 -2.71825727505102 1.80314624253145 0.231868739034128 0.391016169228384 -0.00143076205923014 1.62949258744862 -1.39922439142551 1.59613814019102 0.972569112061769 0.452657842040316 -0.691652474102131 -0.187003648761445 1.40766378044255 -0.7513778185585 0.117991834227024 -0.625980838801724 0.363836962474699 0.105463159461573 -0.570469849464606 0.975579722224603 -0.727677141736787 0.285504824266468 0.517292101384537 0.333351033453658 -0.153055993860611 0.73416119664121 0.910264310770612 1.12862699630023 -1.36442965936643 0.15592704817313 0.341718900831659 0.556072754612717 -0.366059721920634 0.273785541196099 -0.220097185668961 -0.581463188610773 0.784004475298464 0.282605597356099 -0.376508907535066 0.698152045657901 -0.00768370341503822 -0.00688847238545463 0.134109351239643 -0.498542453491245 0.327894821249501 0.393483021319467 1.14130801338164 -0.06360705198959 -0.417603581683815 1.18416912193618 -1.32728855291417 0.153713415910452 2.27546561492589 1.60754661628573
-1.37166807935567 0.786059962322461 0.130382399731292 1.05180877581228 0.160649368464562 -0.594791631262618 2.28557246999207 -1.70756870606089 -0.576946096981107 -0.418857411094855 -0.533607600376215 -0.22647436862152 1.09404065184399 0.194898984956076 -1.00176179042718 -0.247091421780805 -1.84438277194426 -2.3685235059894 -0.79113870068427 1.3950326998534 -2.71825727505102 1.80314624253145 0.231868739034128 0.391016169228384 -0.00143076205923014 1.62949258744862 -1.39922439142551 1.59613814019102 0.972569112061769 0.452657842040316 -0.691652474102131 -0.187003648761445 1.40766378044255 -0.7513778185585 0.117991834227024 -0.625980838801724 0.363836962474699 0.105463159461573 -0.570469849464606 0.975579722224603 -0.727677141736787 0.285504824266468 0.517292101384537 0.333351033453658 -0.153055993860611 0.73416119664121 0.910264310770612 1.12862699630023 -1.36442965936643 0.15592704817313 0.341718900831659 0.556072754612717 -0.366059721920634 0.273785541196099 -0.220097185668961 -0.581463188610773 0.784004475298464 0.282605597356099 -0.376508907535066 0.698152045657901 -0.00768370341503822 -0.00688847238545463 0.134109351239643 -0.498542453491245 0.327894821249501 0.393483021319467 1.14130801338164 -0.06360705198959 -0.417603581683815 1.18416912193618 -1.32728855291417 0.153713415910452 2.27546561492589 1.60754661628573
-1.37166807935567 0.786059962322461 0.130382399731292 1.05180877581228 0.160649368464562 -0.594791631262618 2.28557246999207 -1.70756870606089 -0.576946096981107 -0.418857411094855 -0.533607600376215 -0.22647436862152 1.09404065184399 0.194898984956076 -1.00176179042718 -0.247091421780805 -1.84438277194426 -2.3685235059894 -0.79113870068427 1.3950326998534 -2.71825727505102 1.80314624253145 0.231868739034128 0.391016169228384 -0.00143076205923014 1.62949258744862 -1.39922439142551 1.59613814019102 0.972569112061769 0.452657842040316 -0.691652474102131 -0.187003648761445 1.40766378044255 -0.7513778185585 0.117991834227024 -0.625980838801724 0.363836962474699 0.105463159461573 -0.570469849464606 0.975579722224603 -0.727677141736787 0.285504824266468 0.517292101384537 0.333351033453658 -0.153055993860611 0.73416119664121 0.910264310770612 1.12862699630023 -1.36442965936643 0.15592704817313 0.341718900831659 0.556072754612717 -0.366059721920634 0.273785541196099 -0.220097185668961 -0.581463188610773 0.784004475298464 0.282605597356099 -0.376508907535066 0.698152045657901 -0.00768370341503822 -0.00688847238545463 0.134109351239643 -0.498542453491245 0.327894821249501 0.393483021319467 1.14130801338164 -0.06360705198959 -0.417603581683815 1.18416912193618 -1.32728855291417 0.153713415910452 2.27546561492589 1.60754661628573
-1.37166807935567 0.786059962322461 0.130382399731292 1.05180877581228 0.160649368464562 -0.594791631262618 2.28557246999207 -1.70756870606089 -0.576946096981107 -0.418857411094855 -0.533607600376215 -0.22647436862152 1.09404065184399 0.194898984956076 -1.00176179042718 -0.247091421780805 -1.84438277194426 -2.3685235059894 -0.79113870068427 1.3950326998534 -2.71825727505102 1.80314624253145 0.231868739034128 0.391016169228384 -0.00143076205923014 1.62949258744862 -1.39922439142551 1.59613814019102 0.972569112061769 0.452657842040316 -0.691652474102131 -0.187003648761445 1.40766378044255 -0.7513778185585 0.117991834227024 -0.625980838801724 0.363836962474699 0.105463159461573 -0.570469849464606 0.975579722224603 -0.727677141736787 0.285504824266468 0.517292101384537 0.333351033453658 -0.153055993860611 0.73416119664121 0.910264310770612 1.12862699630023 -1.36442965936643 0.15592704817313 0.341718900831659 0.556072754612717 -0.366059721920634 0.273785541196099 -0.220097185668961 -0.581463188610773 0.784004475298464 0.282605597356099 -0.376508907535066 0.698152045657901 -0.00768370341503822 -0.00688847238545463 0.134109351239643 -0.498542453491245 0.327894821249501 0.393483021319467 1.14130801338164 -0.06360705198959 -0.417603581683815 1.18416912193618 -1.32728855291417 0.153713415910452 2.27546561492589 1.60754661628573
-1.37166807935567 0.786059962322461 0.130382399731292 1.05180877581228 0.160649368464562 -0.594791631262618 2.28557246999207 -1.70756870606089 -0.576946096981107 -0.418857411094855 -0.533607600376215 -0.22647436862152 1.09404065184399 0.194898984956076 -1.00176179042718 -0.247091421780805 -1.84438277194426 -2.3685235059894 -0.79113870068427 1.3950326998534 -2.71825727505102 1.80314624253145 0.231868739034128 0.391016169228384 -0.00143076205923014 1.62949258744862 -1.39922439142551 1.59613814019102 0.972569112061769 0.452657842040316 -0.691652474102131 -0.187003648761445 1.40766378044255 -0.7513778185585 0.117991834227024 -0.625980838801724 0.363836962474699 0.105463159461573 -0.570469849464606 0.975579722224603 -0.727677141736787 0.285504824266468 0.517292101384537 0.333351033453658 -0.153055993860611 0.73416119664121 0.910264310770612 1.12862699630023 -1.36442965936643 0.15592704817313 0.341718900831659 0.556072754612717 -0.366059721920634 0.273785541196099 -0.220097185668961 -0.581463188610773 0.784004475298464 0.282605597356099 -0.376508907535066 0.698152045657901 -0.00768370341503822 -0.00688847238545463 0.134109351239643 -0.498542453491245 0.327894821249501 0.393483021319467 1.14130801338164 -0.06360705198959 -0.417603581683815 1.18416912193618 -1.32728855291417 0.153713415910452 2.27546561492589 1.60754661628573
-1.37166807935567 0.786059962322461 0.130382399731292 1.05180877581228 0.160649368464562 -0.594791631262618 2.28557246999207 -1.70756870606089 -0.576946096981107 -0.418857411094855 -0.533607600376215 -0.22647436862152 1.09404065184399 0.194898984956076 -1.00176179042718 -0.247091421780805 -1.84438277194426 -2.3685235059894 -0.79113870068427 1.3950326998534 -2.71825727505102 1.80314624253145 0.231868739034128 0.391016169228384 -0.00143076205923014 1.62949258744862 -1.39922439142551 1.59613814019102 0.972569112061769 0.452657842040316 -0.691652474102131 -0.187003648761445 1.40766378044255 -0.7513778185585 0.117991834227024 -0.625980838801724 0.363836962474699 0.105463159461573 -0.570469849464606 0.975579722224603 -0.727677141736787 0.285504824266468 0.517292101384537 0.333351033453658 -0.153055993860611 0.73416119664121 0.910264310770612 1.12862699630023 -1.36442965936643 0.15592704817313 0.341718900831659 0.556072754612717 -0.366059721920634 0.273785541196099 -0.220097185668961 -0.581463188610773 0.784004475298464 0.282605597356099 -0.376508907535066 0.698152045657901 -0.00768370341503822 -0.00688847238545463 0.134109351239643 -0.498542453491245 0.327894821249501 0.393483021319467 1.14130801338164 -0.06360705198959 -0.417603581683815 1.18416912193618 -1.32728855291417 0.153713415910452 2.27546561492589 1.60754661628573
-1.37166807935567 0.786059962322461 0.130382399731292 1.05180877581228 0.160649368464562 -0.594791631262618 2.28557246999207 -1.70756870606089 -0.576946096981107 -0.418857411094855 -0.533607600376215 -0.22647436862152 1.09404065184399 0.194898984956076 -1.00176179042718 -0.247091421780805 -1.84438277194426 -2.3685235059894 -0.79113870068427 1.3950326998534 -2.71825727505102 1.80314624253145 0.231868739034128 0.391016169228384 -0.00143076205923014 1.62949258744862 -1.39922439142551 1.59613814019102 0.972569112061769 0.452657842040316 -0.691652474102131 -0.187003648761445 1.40766378044255 -0.7513778185585 0.117991834227024 -0.625980838801724 0.363836962474699 0.105463159461573 -0.570469849464606 0.975579722224603 -0.727677141736787 0.285504824266468 0.517292101384537 0.333351033453658 -0.153055993860611 0.73416119664121 0.910264310770612 1.12862699630023 -1.36442965936643 0.15592704817313 0.341718900831659 0.556072754612717 -0.366059721920634 0.273785541196099 -0.220097185668961 -0.581463188610773 0.784004475298464 0.282605597356099 -0.376508907535066 0.698152045657901 -0.00768370341503822 -0.00688847238545463 0.134109351239643 -0.498542453491245 0.327894821249501 0.393483021319467 1.14130801338164 -0.06360705198959 -0.417603581683815 1.18416912193618 -1.32728855291417 0.153713415910452 2.27546561492589 1.60754661628573
-1.37166807935567 0.786059962322461 0.130382399731292 1.05180877581228 0.160649368464562 -0.594791631262618 2.28557246999207 -1.70756870606089 -0.576946096981107 -0.418857411094855 -0.533607600376215 -0.22647436862152 1.09404065184399 0.194898984956076 -1.00176179042718 -0.247091421780805 -1.84438277194426 -2.3685235059894 -0.79113870068427 1.3950326998534 -2.71825727505102 1.80314624253145 0.231868739034128 0.391016169228384 -0.00143076205923014 1.62949258744862 -1.39922439142551 1.59613814019102 0.972569112061769 0.452657842040316 -0.691652474102131 -0.187003648761445 1.40766378044255 -0.7513778185585 0.117991834227024 -0.625980838801724 0.363836962474699 0.105463159461573 -0.570469849464606 0.975579722224603 -0.727677141736787 0.285504824266468 0.517292101384537 0.333351033453658 -0.153055993860611 0.73416119664121 0.910264310770612 1.12862699630023 -1.36442965936643 0.15592704817313 0.341718900831659 0.556072754612717 -0.366059721920634 0.273785541196099 -0.220097185668961 -0.581463188610773 0.784004475298464 0.282605597356099 -0.376508907535066 0.698152045657901 -0.00768370341503822 -0.00688847238545463 0.134109351239643 -0.498542453491245 0.327894821249501 0.393483021319467 1.14130801338164 -0.06360705198959 -0.417603581683815 1.18416912193618 -1.32728855291417 0.153713415910452 2.27546561492589 1.60754661628573
-1.37166807935567 0.786059962322461 0.130382399731292 1.05180877581228 0.160649368464562 -0.594791631262618 2.28557246999207 -1.70756870606089 -0.576946096981107 -0.418857411094855 -0.533607600376215 -0.22647436862152 1.09404065184399 0.194898984956076 -1.00176179042718 -0.247091421780805 -1.84438277194426 -2.3685235059894 -0.79113870068427 1.3950326998534 -2.71825727505102 1.80314624253145 0.231868739034128 0.391016169228384 -0.00143076205923014 1.62949258744862 -1.39922439142551 1.59613814019102 0.972569112061769 0.452657842040316 -0.691652474102131 -0.187003648761445 1.40766378044255 -0.7513778185585 0.117991834227024 -0.625980838801724 0.363836962474699 0.105463159461573 -0.570469849464606 0.975579722224603 -0.727677141736787 0.285504824266468 0.517292101384537 0.333351033453658 -0.153055993860611 0.73416119664121 0.910264310770612 1.12862699630023 -1.36442965936643 0.15592704817313 0.341718900831659 0.556072754612717 -0.366059721920634 0.273785541196099 -0.220097185668961 -0.581463188610773 0.784004475298464 0.282605597356099 -0.376508907535066 0.698152045657901 -0.00768370341503822 -0.00688847238545463 0.134109351239643 -0.498542453491245 0.327894821249501 0.393483021319467 1.14130801338164 -0.06360705198959 -0.417603581683815 1.18416912193618 -1.32728855291417 0.153713415910452 2.27546561492589 1.60754661628573
-1.37166807935567 0.786059962322461 0.130382399731292 1.05180877581228 0.160649368464562 -0.594791631262618 2.28557246999207 -1.70756870606089 -0.576946096981107 -0.418857411094855 -0.533607600376215 -0.22647436862152 1.09404065184399 0.194898984956076 -1.00176179042718 -0.247091421780805 -1.84438277194426 -2.3685235059894 -0.79113870068427 1.3950326998534 -2.71825727505102 1.80314624253145 0.231868739034128 0.391016169228384 -0.00143076205923014 1.62949258744862 -1.39922439142551 1.59613814019102 0.972569112061769 0.452657842040316 -0.691652474102131 -0.187003648761445 1.40766378044255 -0.7513778185585 0.117991834227024 -0.625980838801724 0.363836962474699 0.105463159461573 -0.570469849464606 0.975579722224603 -0.727677141736787 0.285504824266468 0.517292101384537 0.333351033453658 -0.153055993860611 0.73416119664121 0.910264310770612 1.12862699630023 -1.36442965936643 0.15592704817313 0.341718900831659 0.556072754612717 -0.366059721920634 0.273785541196099 -0.220097185668961 -0.581463188610773 0.784004475298464 0.282605597356099 -0.376508907535066 0.698152045657901 -0.00768370341503822 -0.00688847238545463 0.134109351239643 -0.498542453491245 0.327894821249501 0.393483021319467 1.14130801338164 -0.06360705198959 -0.417603581683815 1.18416912193618 -1.32728855291417 0.153713415910452 2.27546561492589 1.60754661628573
-1.37166807935567 0.786059962322461 0.130382399731292 1.05180877581228 0.160649368464562 -0.594791631262618 2.28557246999207 -1.70756870606089 -0.576946096981107 -0.418857411094855 -0.533607600376215 -0.22647436862152 1.09404065184399 0.194898984956076 -1.00176179042718 -0.247091421780805 -1.84438277194426 -2.3685235059894 -0.79113870068427 1.3950326998534 -2.71825727505102 1.80314624253145 0.231868739034128 0.391016169228384 -0.00143076205923014 1.62949258744862 -1.39922439142551 1.59613814019102 0.972569112061769 0.452657842040316 -0.691652474102131 -0.187003648761445 1.40766378044255 -0.7513778185585 0.117991834227024 -0.625980838801724 0.363836962474699 0.105463159461573 -0.570469849464606 0.975579722224603 -0.727677141736787 0.285504824266468 0.517292101384537 0.333351033453658 -0.153055993860611 0.73416119664121 0.910264310770612 1.12862699630023 -1.36442965936643 0.15592704817313 0.341718900831659 0.556072754612717 -0.366059721920634 0.273785541196099 -0.220097185668961 -0.581463188610773 0.784004475298464 0.282605597356099 -0.376508907535066 0.698152045657901 -0.00768370341503822 -0.00688847238545463 0.134109351239643 -0.498542453491245 0.327894821249501 0.393483021319467 1.14130801338164 -0.06360705198959 -0.417603581683815 1.18416912193618 -1.32728855291417 0.153713415910452 2.27546561492589 1.60754661628573
-1.37166807935567 0.786059962322461 0.130382399731292 1.05180877581228 0.160649368464562 -0.594791631262618 2.28557246999207 -1.70756870606089 -0.576946096981107 -0.418857411094855 -0.533607600376215 -0.22647436862152 1.09404065184399 0.194898984956076 -1.00176179042718 -0.247091421780805 -1.84438277194426 -2.3685235059894 -0.79113870068427 1.3950326998534 -2.71825727505102 1.80314624253145 0.231868739034128 0.391016169228384 -0.00143076205923014 1.62949258744862 -1.39922439142551 1.59613814019102 0.972569112061769 0.452657842040316 -0.691652474102131 -0.187003648761445 1.40766378044255 -0.7513778185585 0.117991834227024 -0.625980838801724 0.363836962474699 0.105463159461573 -0.570469849464606 0.975579722224603 -0.727677141736787 0.285504824266468 0.517292101384537 0.333351033453658 -0.153055993860611 0.73416119664121 0.910264310770612 1.12862699630023 -1.36442965936643 0.15592704817313 0.341718900831659 0.556072754612717 -0.366059721920634 0.273785541196099 -0.220097185668961 -0.581463188610773 0.784004475298464 0.282605597356099 -0.376508907535066 0.698152045657901 -0.00768370341503822 -0.00688847238545463 0.134109351239643 -0.498542453491245 0.327894821249501 0.393483021319467 1.14130801338164 -0.06360705198959 -0.417603581683815 1.18416912193618 -1.32728855291417 0.153713415910452 2.27546561492589 1.60754661628573
-1.37166807935567 0.786059962322461 0.130382399731292 1.05180877581228 0.160649368464562 -0.594791631262618 2.28557246999207 -1.70756870606089 -0.576946096981107 -0.418857411094855 -0.533607600376215 -0.22647436862152 1.09404065184399 0.194898984956076 -1.00176179042718 -0.247091421780805 -1.84438277194426 -2.3685235059894 -0.79113870068427 1.3950326998534 -2.71825727505102 1.80314624253145 0.231868739034128 0.391016169228384 -0.00143076205923014 1.62949258744862 -1.39922439142551 1.59613814019102 0.972569112061769 0.452657842040316 -0.691652474102131 -0.187003648761445 1.40766378044255 -0.7513778185585 0.117991834227024 -0.625980838801724 0.363836962474699 0.105463159461573 -0.570469849464606 0.975579722224603 -0.727677141736787 0.285504824266468 0.517292101384537 0.333351033453658 -0.153055993860611 0.73416119664121 0.910264310770612 1.12862699630023 -1.36442965936643 0.15592704817313 0.341718900831659 0.556072754612717 -0.366059721920634 0.273785541196099 -0.220097185668961 -0.581463188610773 0.784004475298464 0.282605597356099 -0.376508907535066 0.698152045657901 -0.00768370341503822 -0.00688847238545463 0.134109351239643 -0.498542453491245 0.327894821249501 0.393483021319467 1.14130801338164 -0.06360705198959 -0.417603581683815 1.18416912193618 -1.32728855291417 0.153713415910452 2.27546561492589 1.60754661628573
-1.37166807935567 0.786059962322461 0.130382399731292 1.05180877581228 0.160649368464562 -0.594791631262618 2.28557246999207 -1.70756870606089 -0.576946096981107 -0.418857411094855 -0.533607600376215 -0.22647436862152 1.09404065184399 0.194898984956076 -1.00176179042718 -0.247091421780805 -1.84438277194426 -2.3685235059894 -0.79113870068427 1.3950326998534 -2.71825727505102 1.80314624253145 0.231868739034128 0.391016169228384 -0.00143076205923014 1.62949258744862 -1.39922439142551 1.59613814019102 0.972569112061769 0.452657842040316 -0.691652474102131 -0.187003648761445 1.40766378044255 -0.7513778185585 0.117991834227024 -0.625980838801724 0.363836962474699 0.105463159461573 -0.570469849464606 0.975579722224603 -0.727677141736787 0.285504824266468 0.517292101384537 0.333351033453658 -0.153055993860611 0.73416119664121 0.910264310770612 1.12862699630023 -1.36442965936643 0.15592704817313 0.341718900831659 0.556072754612717 -0.366059721920634 0.273785541196099 -0.220097185668961 -0.581463188610773 0.784004475298464 0.282605597356099 -0.376508907535066 0.698152045657901 -0.00768370341503822 -0.00688847238545463 0.134109351239643 -0.498542453491245 0.327894821249501 0.393483021319467 1.14130801338164 -0.06360705198959 -0.417603581683815 1.18416912193618 -1.32728855291417 0.153713415910452 2.27546561492589 1.60754661628573
-1.37166807935567 0.786059962322461 0.130382399731292 1.05180877581228 0.160649368464562 -0.594791631262618 2.28557246999207 -1.70756870606089 -0.576946096981107 -0.418857411094855 -0.533607600376215 -0.22647436862152 1.09404065184399 0.194898984956076 -1.00176179042718 -0.247091421780805 -1.84438277194426 -2.3685235059894 -0.79113870068427 1.3950326998534 -2.71825727505102 1.80314624253145 0.231868739034128 0.391016169228384 -0.00143076205923014 1.62949258744862 -1.39922439142551 1.59613814019102 0.972569112061769 0.452657842040316 -0.691652474102131 -0.187003648761445 1.40766378044255 -0.7513778185585 0.117991834227024 -0.625980838801724 0.363836962474699 0.105463159461573 -0.570469849464606 0.975579722224603 -0.727677141736787 0.285504824266468 0.517292101384537 0.333351033453658 -0.153055993860611 0.73416119664121 0.910264310770612 1.12862699630023 -1.36442965936643 0.15592704817313 0.341718900831659 0.556072754612717 -0.366059721920634 0.273785541196099 -0.220097185668961 -0.581463188610773 0.784004475298464 0.282605597356099 -0.376508907535066 0.698152045657901 -0.00768370341503822 -0.00688847238545463 0.134109351239643 -0.498542453491245 0.327894821249501 0.393483021319467 1.14130801338164 -0.06360705198959 -0.417603581683815 1.18416912193618 -1.32728855291417 0.153713415910452 2.27546561492589 1.60754661628573
-1.37166807935567 0.786059962322461 0.130382399731292 1.05180877581228 0.160649368464562 -0.594791631262618 2.28557246999207 -1.70756870606089 -0.576946096981107 -0.418857411094855 -0.533607600376215 -0.22647436862152 1.09404065184399 0.194898984956076 -1.00176179042718 -0.247091421780805 -1.84438277194426 -2.3685235059894 -0.79113870068427 1.3950326998534 -2.71825727505102 1.80314624253145 0.231868739034128 0.391016169228384 -0.00143076205923014 1.62949258744862 -1.39922439142551 1.59613814019102 0.972569112061769 0.452657842040316 -0.691652474102131 -0.187003648761445 1.40766378044255 -0.7513778185585 0.117991834227024 -0.625980838801724 0.363836962474699 0.105463159461573 -0.570469849464606 0.975579722224603 -0.727677141736787 0.285504824266468 0.517292101384537 0.333351033453658 -0.153055993860611 0.73416119664121 0.910264310770612 1.12862699630023 -1.36442965936643 0.15592704817313 0.341718900831659 0.556072754612717 -0.366059721920634 0.273785541196099 -0.220097185668961 -0.581463188610773 0.784004475298464 0.282605597356099 -0.376508907535066 0.698152045657901 -0.00768370341503822 -0.00688847238545463 0.134109351239643 -0.498542453491245 0.327894821249501 0.393483021319467 1.14130801338164 -0.06360705198959 -0.417603581683815 1.18416912193618 -1.32728855291417 0.153713415910452 2.27546561492589 1.60754661628573
-1.37166807935567 0.786059962322461 0.130382399731292 1.05180877581228 0.160649368464562 -0.594791631262618 2.28557246999207 -1.70756870606089 -0.576946096981107 -0.418857411094855 -0.533607600376215 -0.22647436862152 1.09404065184399 0.194898984956076 -1.00176179042718 -0.247091421780805 -1.84438277194426 -2.3685235059894 -0.79113870068427 1.3950326998534 -2.71825727505102 1.80314624253145 0.231868739034128 0.391016169228384 -0.00143076205923014 1.62949258744862 -1.39922439142551 1.59613814019102 0.972569112061769 0.452657842040316 -0.691652474102131 -0.187003648761445 1.40766378044255 -0.7513778185585 0.117991834227024 -0.625980838801724 0.363836962474699 0.105463159461573 -0.570469849464606 0.975579722224603 -0.727677141736787 0.285504824266468 0.517292101384537 0.333351033453658 -0.153055993860611 0.73416119664121 0.910264310770612 1.12862699630023 -1.36442965936643 0.15592704817313 0.341718900831659 0.556072754612717 -0.366059721920634 0.273785541196099 -0.220097185668961 -0.581463188610773 0.784004475298464 0.282605597356099 -0.376508907535066 0.698152045657901 -0.00768370341503822 -0.00688847238545463 0.134109351239643 -0.498542453491245 0.327894821249501 0.393483021319467 1.14130801338164 -0.06360705198959 -0.417603581683815 1.18416912193618 -1.32728855291417 0.153713415910452 2.27546561492589 1.60754661628573
-1.37166807935567 0.786059962322461 0.130382399731292 1.05180877581228 0.160649368464562 -0.594791631262618 2.28557246999207 -1.70756870606089 -0.576946096981107 -0.418857411094855 -0.533607600376215 -0.22647436862152 1.09404065184399 0.194898984956076 -1.00176179042718 -0.247091421780805 -1.84438277194426 -2.3685235059894 -0.79113870068427 1.3950326998534 -2.71825727505102 1.80314624253145 0.231868739034128 0.391016169228384 -0.00143076205923014 1.62949258744862 -1.39922439142551 1.59613814019102 0.972569112061769 0.452657842040316 -0.691652474102131 -0.187003648761445 1.40766378044255 -0.7513778185585 0.117991834227024 -0.625980838801724 0.363836962474699 0.105463159461573 -0.570469849464606 0.975579722224603 -0.727677141736787 0.285504824266468 0.517292101384537 0.333351033453658 -0.153055993860611 0.73416119664121 0.910264310770612 1.12862699630023 -1.36442965936643 0.15592704817313 0.341718900831659 0.556072754612717 -0.366059721920634 0.273785541196099 -0.220097185668961 -0.581463188610773 0.784004475298464 0.282605597356099 -0.376508907535066 0.698152045657901 -0.00768370341503822 -0.00688847238545463 0.134109351239643 -0.498542453491245 0.327894821249501 0.393483021319467 1.14130801338164 -0.06360705198959 -0.417603581683815 1.18416912193618 -1.32728855291417 0.153713415910452 2.27546561492589 1.60754661628573
-1.37166807935567 0.786059962322461 0.130382399731292 1.05180877581228 0.160649368464562 -0.594791631262618 2.28557246999207 -1.70756870606089 -0.576946096981107 -0.418857411094855 -0.533607600376215 -0.22647436862152 1.09404065184399 0.194898984956076 -1.00176179042718 -0.247091421780805 -1.84438277194426 -2.3685235059894 -0.79113870068427 1.3950326998534 -2.71825727505102 1.80314624253145 0.231868739034128 0.391016169228384 -0.00143076205923014 1.62949258744862 -1.39922439142551 1.59613814019102 0.972569112061769 0.452657842040316 -0.691652474102131 -0.187003648761445 1.40766378044255 -0.7513778185585 0.117991834227024 -0.625980838801724 0.363836962474699 0.105463159461573 -0.570469849464606 0.975579722224603 -0.727677141736787 0.285504824266468 0.517292101384537 0.333351033453658 -0.153055993860611 0.73416119664121 0.910264310770612 1.12862699630023 -1.36442965936643 0.15592704817313 0.341718900831659 0.556072754612717 -0.366059721920634 0.273785541196099 -0.220097185668961 -0.581463188610773 0.784004475298464 0.282605597356099 -0.376508907535066 0.698152045657901 -0.00768370341503822 -0.00688847238545463 0.134109351239643 -0.498542453491245 0.327894821249501 0.393483021319467 1.14130801338164 -0.06360705198959 -0.417603581683815 1.18416912193618 -1.32728855291417 0.153713415910452 2.27546561492589 1.60754661628573
-1.37166807935567 0.786059962322461 0.130382399731292 1.05180877581228 0.160649368464562 -0.594791631262618 2.28557246999207 -1.70756870606089 -0.576946096981107 -0.418857411094855 -0.533607600376215 -0.22647436862152 1.09404065184399 0.194898984956076 -1.00176179042718 -0.247091421780805 -1.84438277194426 -2.3685235059894 -0.79113870068427 1.3950326998534 -2.71825727505102 1.80314624253145 0.231868739034128 0.391016169228384 -0.00143076205923014 1.62949258744862 -1.39922439142551 1.59613814019102 0.972569112061769 0.452657842040316 -0.691652474102131 -0.187003648761445 1.40766378044255 -0.7513778185585 0.117991834227024 -0.625980838801724 0.363836962474699 0.105463159461573 -0.570469849464606 0.975579722224603 -0.727677141736787 0.285504824266468 0.517292101384537 0.333351033453658 -0.153055993860611 0.73416119664121 0.910264310770612 1.12862699630023 -1.36442965936643 0.15592704817313 0.341718900831659 0.556072754612717 -0.366059721920634 0.273785541196099 -0.220097185668961 -0.581463188610773 0.784004475298464 0.282605597356099 -0.376508907535066 0.698152045657901 -0.00768370341503822 -0.00688847238545463 0.134109351239643 -0.498542453491245 0.327894821249501 0.393483021319467 1.14130801338164 -0.06360705198959 -0.417603581683815 1.18416912193618 -1.32728855291417 0.153713415910452 2.27546561492589 1.60754661628573
-1.37166807935567 0.786059962322461 0.130382399731292 1.05180877581228 0.160649368464562 -0.594791631262618 2.28557246999207 -1.70756870606089 -0.576946096981107 -0.418857411094855 -0.533607600376215 -0.22647436862152 1.09404065184399 0.194898984956076 -1.00176179042718 -0.247091421780805 -1.84438277194426 -2.3685235059894 -0.79113870068427 1.3950326998534 -2.71825727505102 1.80314624253145 0.231868739034128 0.391016169228384 -0.00143076205923014 1.62949258744862 -1.39922439142551 1.59613814019102 0.972569112061769 0.452657842040316 -0.691652474102131 -0.187003648761445 1.40766378044255 -0.7513778185585 0.117991834227024 -0.625980838801724 0.363836962474699 0.105463159461573 -0.570469849464606 0.975579722224603 -0.727677141736787 0.285504824266468 0.517292101384537 0.333351033453658 -0.153055993860611 0.73416119664121 0.910264310770612 1.12862699630023 -1.36442965936643 0.15592704817313 0.341718900831659 0.556072754612717 -0.366059721920634 0.273785541196099 -0.220097185668961 -0.581463188610773 0.784004475298464 0.282605597356099 -0.376508907535066 0.698152045657901 -0.00768370341503822 -0.00688847238545463 0.134109351239643 -0.498542453491245 0.327894821249501 0.393483021319467 1.14130801338164 -0.06360705198959 -0.417603581683815 1.18416912193618 -1.32728855291417 0.153713415910452 2.27546561492589 1.60754661628573
-1.37166807935567 0.786059962322461 0.130382399731292 1.05180877581228 0.160649368464562 -0.594791631262618 2.28557246999207 -1.70756870606089 -0.576946096981107 -0.418857411094855 -0.533607600376215 -0.22647436862152 1.09404065184399 0.194898984956076 -1.00176179042718 -0.247091421780805 -1.84438277194426 -2.3685235059894 -0.79113870068427 1.3950326998534 -2.71825727505102 1.80314624253145 0.231868739034128 0.391016169228384 -0.00143076205923014 1.62949258744862 -1.39922439142551 1.59613814019102 0.972569112061769 0.452657842040316 -0.691652474102131 -0.187003648761445 1.40766378044255 -0.7513778185585 0.117991834227024 -0.625980838801724 0.363836962474699 0.105463159461573 -0.570469849464606 0.975579722224603 -0.727677141736787 0.285504824266468 0.517292101384537 0.333351033453658 -0.153055993860611 0.73416119664121 0.910264310770612 1.12862699630023 -1.36442965936643 0.15592704817313 0.341718900831659 0.556072754612717 -0.366059721920634 0.273785541196099 -0.220097185668961 -0.581463188610773 0.784004475298464 0.282605597356099 -0.376508907535066 0.698152045657901 -0.00768370341503822 -0.00688847238545463 0.134109351239643 -0.498542453491245 0.327894821249501 0.393483021319467 1.14130801338164 -0.06360705198959 -0.417603581683815 1.18416912193618 -1.32728855291417 0.153713415910452 2.27546561492589 1.60754661628573
-1.37166807935567 0.786059962322461 0.130382399731292 1.05180877581228 0.160649368464562 -0.594791631262618 2.28557246999207 -1.70756870606089 -0.576946096981107 -0.418857411094855 -0.533607600376215 -0.22647436862152 1.09404065184399 0.194898984956076 -1.00176179042718 -0.247091421780805 -1.84438277194426 -2.3685235059894 -0.79113870068427 1.3950326998534 -2.71825727505102 1.80314624253145 0.231868739034128 0.391016169228384 -0.00143076205923014 1.62949258744862 -1.39922439142551 1.59613814019102 0.972569112061769 0.452657842040316 -0.691652474102131 -0.187003648761445 1.40766378044255 -0.7513778185585 0.117991834227024 -0.625980838801724 0.363836962474699 0.105463159461573 -0.570469849464606 0.975579722224603 -0.727677141736787 0.285504824266468 0.517292101384537 0.333351033453658 -0.153055993860611 0.73416119664121 0.910264310770612 1.12862699630023 -1.36442965936643 0.15592704817313 0.341718900831659 0.556072754612717 -0.366059721920634 0.273785541196099 -0.220097185668961 -0.581463188610773 0.784004475298464 0.282605597356099 -0.376508907535066 0.698152045657901 -0.00768370341503822 -0.00688847238545463 0.134109351239643 -0.498542453491245 0.327894821249501 0.393483021319467 1.14130801338164 -0.06360705198959 -0.417603581683815 1.18416912193618 -1.32728855291417 0.153713415910452 2.27546561492589 1.60754661628573
-1.37166807935567 0.786059962322461 0.130382399731292 1.05180877581228 0.160649368464562 -0.594791631262618 2.28557246999207 -1.70756870606089 -0.576946096981107 -0.418857411094855 -0.533607600376215 -0.22647436862152 1.09404065184399 0.194898984956076 -1.00176179042718 -0.247091421780805 -1.84438277194426 -2.3685235059894 -0.79113870068427 1.3950326998534 -2.71825727505102 1.80314624253145 0.231868739034128 0.391016169228384 -0.00143076205923014 1.62949258744862 -1.39922439142551 1.59613814019102 0.972569112061769 0.452657842040316 -0.691652474102131 -0.187003648761445 1.40766378044255 -0.7513778185585 0.117991834227024 -0.625980838801724 0.363836962474699 0.105463159461573 -0.570469849464606 0.975579722224603 -0.727677141736787 0.285504824266468 0.517292101384537 0.333351033453658 -0.153055993860611 0.73416119664121 0.910264310770612 1.12862699630023 -1.36442965936643 0.15592704817313 0.341718900831659 0.556072754612717 -0.366059721920634 0.273785541196099 -0.220097185668961 -0.581463188610773 0.784004475298464 0.282605597356099 -0.376508907535066 0.698152045657901 -0.00768370341503822 -0.00688847238545463 0.134109351239643 -0.498542453491245 0.327894821249501 0.393483021319467 1.14130801338164 -0.06360705198959 -0.417603581683815 1.18416912193618 -1.32728855291417 0.153713415910452 2.27546561492589 1.60754661628573
-1.37166807935567 0.786059962322461 0.130382399731292 1.05180877581228 0.160649368464562 -0.594791631262618 2.28557246999207 -1.70756870606089 -0.576946096981107 -0.418857411094855 -0.533607600376215 -0.22647436862152 1.09404065184399 0.194898984956076 -1.00176179042718 -0.247091421780805 -1.84438277194426 -2.3685235059894 -0.79113870068427 1.3950326998534 -2.71825727505102 1.80314624253145 0.231868739034128 0.391016169228384 -0.00143076205923014 1.62949258744862 -1.39922439142551 1.59613814019102 0.972569112061769 0.452657842040316 -0.691652474102131 -0.187003648761445 1.40766378044255 -0.7513778185585 0.117991834227024 -0.625980838801724 0.363836962474699 0.105463159461573 -0.570469849464606 0.975579722224603 -0.727677141736787 0.285504824266468 0.517292101384537 0.333351033453658 -0.153055993860611 0.73416119664121 0.910264310770612 1.12862699630023 -1.36442965936643 0.15592704817313 0.341718900831659 0.556072754612717 -0.366059721920634 0.273785541196099 -0.220097185668961 -0.581463188610773 0.784004475298464 0.282605597356099 -0.376508907535066 0.698152045657901 -0.00768370341503822 -0.00688847238545463 0.134109351239643 -0.498542453491245 0.327894821249501 0.393483021319467 1.14130801338164 -0.06360705198959 -0.417603581683815 1.18416912193618 -1.32728855291417 0.153713415910452 2.27546561492589 1.60754661628573
-1.37166807935567 0.786059962322461 0.130382399731292 1.05180877581228 0.160649368464562 -0.594791631262618 2.28557246999207 -1.70756870606089 -0.576946096981107 -0.418857411094855 -0.533607600376215 -0.22647436862152 1.09404065184399 0.194898984956076 -1.00176179042718 -0.247091421780805 -1.84438277194426 -2.3685235059894 -0.79113870068427 1.3950326998534 -2.71825727505102 1.80314624253145 0.231868739034128 0.391016169228384 -0.00143076205923014 1.62949258744862 -1.39922439142551 1.59613814019102 0.972569112061769 0.452657842040316 -0.691652474102131 -0.187003648761445 1.40766378044255 -0.7513778185585 0.117991834227024 -0.625980838801724 0.363836962474699 0.105463159461573 -0.570469849464606 0.975579722224603 -0.727677141736787 0.285504824266468 0.517292101384537 0.333351033453658 -0.153055993860611 0.73416119664121 0.910264310770612 1.12862699630023 -1.36442965936643 0.15592704817313 0.341718900831659 0.556072754612717 -0.366059721920634 0.273785541196099 -0.220097185668961 -0.581463188610773 0.784004475298464 0.282605597356099 -0.376508907535066 0.698152045657901 -0.00768370341503822 -0.00688847238545463 0.134109351239643 -0.498542453491245 0.327894821249501 0.393483021319467 1.14130801338164 -0.06360705198959 -0.417603581683815 1.18416912193618 -1.32728855291417 0.153713415910452 2.27546561492589 1.60754661628573
-1.37166807935567 0.786059962322461 0.130382399731292 1.05180877581228 0.160649368464562 -0.594791631262618 2.28557246999207 -1.70756870606089 -0.576946096981107 -0.418857411094855 -0.533607600376215 -0.22647436862152 1.09404065184399 0.194898984956076 -1.00176179042718 -0.247091421780805 -1.84438277194426 -2.3685235059894 -0.79113870068427 1.3950326998534 -2.71825727505102 1.80314624253145 0.231868739034128 0.391016169228384 -0.00143076205923014 1.62949258744862 -1.39922439142551 1.59613814019102 0.972569112061769 0.452657842040316 -0.691652474102131 -0.187003648761445 1.40766378044255 -0.7513778185585 0.117991834227024 -0.625980838801724 0.363836962474699 0.105463159461573 -0.570469849464606 0.975579722224603 -0.727677141736787 0.285504824266468 0.517292101384537 0.333351033453658 -0.153055993860611 0.73416119664121 0.910264310770612 1.12862699630023 -1.36442965936643 0.15592704817313 0.341718900831659 0.556072754612717 -0.366059721920634 0.273785541196099 -0.220097185668961 -0.581463188610773 0.784004475298464 0.282605597356099 -0.376508907535066 0.698152045657901 -0.00768370341503822 -0.00688847238545463 0.134109351239643 -0.498542453491245 0.327894821249501 0.393483021319467 1.14130801338164 -0.06360705198959 -0.417603581683815 1.18416912193618 -1.32728855291417 0.153713415910452 2.27546561492589 1.60754661628573
-1.37166807935567 0.786059962322461 0.130382399731292 1.05180877581228 0.160649368464562 -0.594791631262618 2.28557246999207 -1.70756870606089 -0.576946096981107 -0.418857411094855 -0.533607600376215 -0.22647436862152 1.09404065184399 0.194898984956076 -1.00176179042718 -0.247091421780805 -1.84438277194426 -2.3685235059894 -0.79113870068427 1.3950326998534 -2.71825727505102 1.80314624253145 0.231868739034128 0.391016169228384 -0.00143076205923014 1.62949258744862 -1.39922439142551 1.59613814019102 0.972569112061769 0.452657842040316 -0.691652474102131 -0.187003648761445 1.40766378044255 -0.7513778185585 0.117991834227024 -0.625980838801724 0.363836962474699 0.105463159461573 -0.570469849464606 0.975579722224603 -0.727677141736787 0.285504824266468 0.517292101384537 0.333351033453658 -0.153055993860611 0.73416119664121 0.910264310770612 1.12862699630023 -1.36442965936643 0.15592704817313 0.341718900831659 0.556072754612717 -0.366059721920634 0.273785541196099 -0.220097185668961 -0.581463188610773 0.784004475298464 0.282605597356099 -0.376508907535066 0.698152045657901 -0.00768370341503822 -0.00688847238545463 0.134109351239643 -0.498542453491245 0.327894821249501 0.393483021319467 1.14130801338164 -0.06360705198959 -0.417603581683815 1.18416912193618 -1.32728855291417 0.153713415910452 2.27546561492589 1.60754661628573
-1.37166807935567 0.786059962322461 0.130382399731292 1.05180877581228 0.160649368464562 -0.594791631262618 2.28557246999207 -1.70756870606089 -0.576946096981107 -0.418857411094855 -0.533607600376215 -0.22647436862152 1.09404065184399 0.194898984956076 -1.00176179042718 -0.247091421780805 -1.84438277194426 -2.3685235059894 -0.79113870068427 1.3950326998534 -2.71825727505102 1.80314624253145 0.231868739034128 0.391016169228384 -0.00143076205923014 1.62949258744862 -1.39922439142551 1.59613814019102 0.972569112061769 0.452657842040316 -0.691652474102131 -0.187003648761445 1.40766378044255 -0.7513778185585 0.117991834227024 -0.625980838801724 0.363836962474699 0.105463159461573 -0.570469849464606 0.975579722224603 -0.727677141736787 0.285504824266468 0.517292101384537 0.333351033453658 -0.153055993860611 0.73416119664121 0.910264310770612 1.12862699630023 -1.36442965936643 0.15592704817313 0.341718900831659 0.556072754612717 -0.366059721920634 0.273785541196099 -0.220097185668961 -0.581463188610773 0.784004475298464 0.282605597356099 -0.376508907535066 0.698152045657901 -0.00768370341503822 -0.00688847238545463 0.134109351239643 -0.498542453491245 0.327894821249501 0.393483021319467 1.14130801338164 -0.06360705198959 -0.417603581683815 1.18416912193618 -1.32728855291417 0.153713415910452 2.27546561492589 1.60754661628573
-1.37166807935567 0.786059962322461 0.130382399731292 1.05180877581228 0.160649368464562 -0.594791631262618 2.28557246999207 -1.70756870606089 -0.576946096981107 -0.418857411094855 -0.533607600376215 -0.22647436862152 1.09404065184399 0.194898984956076 -1.00176179042718 -0.247091421780805 -1.84438277194426 -2.3685235059894 -0.79113870068427 1.3950326998534 -2.71825727505102 1.80314624253145 0.231868739034128 0.391016169228384 -0.00143076205923014 1.62949258744862 -1.39922439142551 1.59613814019102 0.972569112061769 0.452657842040316 -0.691652474102131 -0.187003648761445 1.40766378044255 -0.7513778185585 0.117991834227024 -0.625980838801724 0.363836962474699 0.105463159461573 -0.570469849464606 0.975579722224603 -0.727677141736787 0.285504824266468 0.517292101384537 0.333351033453658 -0.153055993860611 0.73416119664121 0.910264310770612 1.12862699630023 -1.36442965936643 0.15592704817313 0.341718900831659 0.556072754612717 -0.366059721920634 0.273785541196099 -0.220097185668961 -0.581463188610773 0.784004475298464 0.282605597356099 -0.376508907535066 0.698152045657901 -0.00768370341503822 -0.00688847238545463 0.134109351239643 -0.498542453491245 0.327894821249501 0.393483021319467 1.14130801338164 -0.06360705198959 -0.417603581683815 1.18416912193618 -1.32728855291417 0.153713415910452 2.27546561492589 1.60754661628573
-1.37166807935567 0.786059962322461 0.130382399731292 1.05180877581228 0.160649368464562 -0.594791631262618 2.28557246999207 -1.70756870606089 -0.576946096981107 -0.418857411094855 -0.533607600376215 -0.22647436862152 1.09404065184399 0.194898984956076 -1.00176179042718 -0.247091421780805 -1.84438277194426 -2.3685235059894 -0.79113870068427 1.3950326998534 -2.71825727505102 1.80314624253145 0.231868739034128 0.391016169228384 -0.00143076205923014 1.62949258744862 -1.39922439142551 1.59613814019102 0.972569112061769 0.452657842040316 -0.691652474102131 -0.187003648761445 1.40766378044255 -0.7513778185585 0.117991834227024 -0.625980838801724 0.363836962474699 0.105463159461573 -0.570469849464606 0.975579722224603 -0.727677141736787 0.285504824266468 0.517292101384537 0.333351033453658 -0.153055993860611 0.73416119664121 0.910264310770612 1.12862699630023 -1.36442965936643 0.15592704817313 0.341718900831659 0.556072754612717 -0.366059721920634 0.273785541196099 -0.220097185668961 -0.581463188610773 0.784004475298464 0.282605597356099 -0.376508907535066 0.698152045657901 -0.00768370341503822 -0.00688847238545463 0.134109351239643 -0.498542453491245 0.327894821249501 0.393483021319467 1.14130801338164 -0.06360705198959 -0.417603581683815 1.18416912193618 -1.32728855291417 0.153713415910452 2.27546561492589 1.60754661628573
-1.37166807935567 0.786059962322461 0.130382399731292 1.05180877581228 0.160649368464562 -0.594791631262618 2.28557246999207 -1.70756870606089 -0.576946096981107 -0.418857411094855 -0.533607600376215 -0.22647436862152 1.09404065184399 0.194898984956076 -1.00176179042718 -0.247091421780805 -1.84438277194426 -2.3685235059894 -0.79113870068427 1.3950326998534 -2.71825727505102 1.80314624253145 0.231868739034128 0.391016169228384 -0.00143076205923014 1.62949258744862 -1.39922439142551 1.59613814019102 0.972569112061769 0.452657842040316 -0.691652474102131 -0.187003648761445 1.40766378044255 -0.7513778185585 0.117991834227024 -0.625980838801724 0.363836962474699 0.105463159461573 -0.570469849464606 0.975579722224603 -0.727677141736787 0.285504824266468 0.517292101384537 0.333351033453658 -0.153055993860611 0.73416119664121 0.910264310770612 1.12862699630023 -1.36442965936643 0.15592704817313 0.341718900831659 0.556072754612717 -0.366059721920634 0.273785541196099 -0.220097185668961 -0.581463188610773 0.784004475298464 0.282605597356099 -0.376508907535066 0.698152045657901 -0.00768370341503822 -0.00688847238545463 0.134109351239643 -0.498542453491245 0.327894821249501 0.393483021319467 1.14130801338164 -0.06360705198959 -0.417603581683815 1.18416912193618 -1.32728855291417 0.153713415910452 2.27546561492589 1.60754661628573
