-0.314408989031109 -0.218729581307552 -0.513889917440806
-0.175629905964573 -0.341049637809596 0.757295208286616
1.11355408121613 0.130000578928416 0.687719643413315
-0.328930629800347 -1.33251914461134 0.259635597229352
-0.329513306590365 0.237847429109681 1.20212951612013
-1.16418004740154 0.378665543521004 0.399719266528877
1.61186092794807 -0.133334204450051 -0.72895583570531
0.343975802813556 0.151525126849452 0.800231787207891
-0.217904950619331 -0.56684617261737 -1.450778012037
0.140854366196326 -0.465966706913648 -0.824654597114941
-0.576964223066129 -0.262599887054675 -0.847503297122537
0.166945461052683 -0.62795980518149 1.09380152289865
0.250950331701948 0.415829047360079 -0.200349085675536
-1.68097368398014 -1.24197573584209 -0.491542135634558
1.31086467220049 0.587036318111058 0.392721936233303
-0.0126477006607581 0.777322171352831 -0.583472688449689
-0.513630888183967 -1.46445762568735 -0.0300849558156647
-0.397621230897587 0.643735038078879 0.835257874144321
2.07072514258113 -0.866533202456037 1.04509384493908
0.932602704436619 -1.40230442636979 0.403031426339037
0.121534392800123 0.421913476632208 -0.363294491645111
0.206202714317411 0.511990635051995 1.01450549608937
-1.57618959574049 0.48955036820322 1.51779083738541
0.985961073475097 0.432810438626676 0.619915307810459
-0.204645765508327 0.393246527152375 1.3269557134166
-0.223483605829287 0.843649851207918 0.228316798999842
-0.768332246175133 0.629412647814708 0.537673240476609
-0.463120426267881 -0.451814117223736 0.136000289276235
0.170116449802906 1.11504475837889 -0.0869407381270726
-1.13338446251007 -0.176237712831002 0.28252379186934
0.536340924239688 -1.89059933150505 0.584551693886044
1.8923564099676 -0.997181166451455 -1.15878816737339
1.92151192627365 -0.237228061104237 -0.492472762944157
-0.163938666223229 -0.406214552985977 0.641054477506375
-0.647338232510875 -0.0942406780739571 -0.352655475732467
-0.654510075635465 -1.0265661847308 0.642902923422765
-0.398715744134506 -0.441231556410698 0.5240746185722
0.942689278635341 0.503403263677701 -0.945733165059681
0.49437312871669 0.397441153877165 1.23893605977888
0.0538262351583374 -0.587922375537841 1.43458866227635
1.86278341738252 -0.400497866410646 -0.273917456260804
1.00277010687997 0.542952050143427 0.958572336200981
0.0886930053936436 2.89167983642005 0.0576067360033688
-0.927887139506994 -0.000931967719729218 0.743306188781197
-0.621883271073835 -0.382837605496937 -0.426432191660404
-0.343189027642258 0.496975769707817 -1.42971569258814
0.448405281673266 1.45560599883636 0.495435078922139
1.23811388070427 0.752434195633126 1.92369247693197
0.57851954720707 1.12030687965326 -0.847596592818441
0.112521518102998 -0.154834722275138 -1.82134499062598
-0.766629950770382 -0.481780975456006 -1.68069668527816
-1.11025588160608 0.395652578718802 -0.759209533238747
-0.674819877583473 0.0741401792338833 0.288811595729789
0.232798862659012 1.91750707581326 -0.745917166849883
0.930068143382183 1.46886803846813 -0.522399202482427
0.953078109234204 -1.12115534326167 0.154865921010016
0.636620768151656 0.832174773617076 -1.41921615289905
-0.549787575280679 0.00784936258212098 0.00601746353034999
1.2052224916183 0.973460202574942 1.5223052727091
-0.974506151698509 -0.715868819419655 -1.76343675122011
-0.480049277337568 -0.264564110239648 0.617988142874856
0.714078953551835 -0.747008663238417 -1.93934781396588
0.0643695341559271 0.0950704778260241 1.50987750645195
-0.112385436838549 -0.167378711867304 -0.0235073487292278
-0.321405955107618 0.531562235269805 -0.763656379963648
-0.0100927002518864 0.104838349725156 0.451403454920443
0.154407504010612 -0.719986734270383 -0.807428752022945
0.820152413834735 -2.73368543374206 0.971978260652878
-1.27542360016058 0.00478602152473149 0.270384378267596
0.152958896559304 -0.45464109322469 -0.9010827975128
-0.962111818945683 0.0315320330796477 0.70297060938306
0.421856065266994 0.179246648824899 0.402879797861373
1.48932638170198 0.807289230105563 -0.704924432885027
0.51994642143088 2.5694046607018 0.24943811526082
