-0.648101820304552 -0.318731734672923 0.0944311777034836 0.418956045524735 -2.38128035978193 0.155521586794391 0.110832724959541 0.476089712069035 0.545466934752832 -1.0975624149055 -1.19223754272714 -1.34962977780003 -0.401211095215953 -0.434389822037444 -0.0678321416668891 1.45054225381288 -1.29403067361775 0.0919847914301926 1.21548794316713 0.368370653739639 0.939307682621882 -0.459298436669235 0.434054008421664 -0.470460246182917 0.209411399238908 1.22086869250081 -0.881551515877571 0.943626808360525 0.101435181650314 0.19686198442916 -1.27669121831554 -1.43234877896939 -0.0489425218079688 0.375378140184947 -0.188229123791042 0.716982350689193 -1.54034908360455 1.63765712155389 -1.16268915978603 -0.340115182897099 -0.618603488576061 -0.517911780030848 -2.14761680216875 -0.684934436679358 -2.13592640542058 0.631500805119827 -0.807216719399244 -0.776192825186598 0.376793514690932 -1.51729256849919 -0.250779527214932 -1.9284829668447 0.740150083691882 -1.24162604796486 -0.335413734725184 -1.92983603733852 -0.797015394181215 -0.733788364868773 0.79790066117403 1.09998674319506 -1.43027521717864 -2.73293610099728 -0.125134968261599 1.40271015470516 1.56069849644682 -1.12375864351827 -1.47044680554896 0.393456115721249 -0.417261155124992 0.000795263473835547 0.19277365646696 1.03161159898575 0.559396263714591 -0.489980274485028
-1.59041683103353 0.667346716877522 -0.328627432953065 -0.83628305269937 0.554463697416359 -0.20562244902309 0.86493209370991 1.87995681686147 0.198173869878055 0.946538656926674 0.095281556763342 0.0785902832799709 0.685681788566487 0.651480207424165 -0.439243252425898 -1.16045178906093 1.67293415787773 0.686323005062075 -0.877389919978838 -0.317274246523379 0.487741652291964 -2.9241189343845 -0.91382383233306 -2.1152028330456 -0.240053186294543 -0.849723864419981 1.03441955824017 -0.514173782897494 -0.582005804489949 -1.28337774830003 0.77630663568012 0.400897113109201 -1.32776701454959 -0.639176399848783 1.40205908878646 0.13729178330029 0.870890784290687 0.708259293075122 -0.848091925609518 0.191625147038766 -0.908562618745937 0.560266312479643 -0.805368275843699 0.945399879079682 0.965804338321028 -2.44566471882452 -0.578955006414587 -0.346966209562448 -0.767845309476772 -0.484109377048503 1.59355415173985 0.164561341052675 -1.52814768057304 -0.807070166248338 -0.516194044514054 -0.229532276973379 2.04297013638468 -1.68268591754779 0.47774455168237 0.795135627317092 -1.02371040608209 -1.31024366167683 0.2790957073586 -0.124837755538544 -0.967037965428397 0.240769523550232 -0.104242243341295 -1.09343135450065 -0.569360118832354 -0.932778656987792 1.93036707075068 0.486363498024021 -0.515051059986675 -1.54151443347726
1.41984452275124 -0.291112210168522 0.141118229252013 0.41914241925184 -1.5411542507073 0.97997248602572 2.49084758505241 0.278883869055003 -0.290596610235348 -0.690346717163255 -0.205038604551452 -1.17706087476613 -0.755887589055584 1.88053440775334 1.58550161991726 -0.24769224306524 1.32552081124208 -0.221137224160976 -0.078711066452849 2.29791221764161 0.754847245283548 0.0701021042223132 -0.245161043312758 -0.136699658282751 0.937069171124095 0.334034615438606 -1.66295268296417 -2.03782417335252 1.46089331205785 -1.43785545308766 0.400472618946286 -3.2205773867656 -0.789426018705137 1.329121109752 -0.983308107827614 0.298871267036686 -0.65760736713398 -1.67737843395817 -0.393564293548643 -0.824349610056753 -0.838856882862367 -0.787985731914093 -1.08065885190948 -1.9029866998565 1.74519073264772 -1.24244549663573 1.57737118449019 0.339798223139494 -0.242298739293796 0.967060188253444 0.149745069701514 -1.55597279258692 -0.325499913187895 2.14445194194302 0.586805601033532 1.30539980935146 0.384036009986444 -1.39301552770662 -0.412769005538104 -0.726277224751534 -0.754287493558718 -0.673053803505509 -1.59320495207222 -0.186821301588738 0.848001077687726 0.908827446167861 0.179517431300034 0.422159080680805 -0.926269208741847 -0.384685460050321 -0.0981756480107038 -0.210626616998072 0.637886251105237 1.43210024790801
1.31362000891024 -1.40151081877905 0.608083893340224 -0.859127208734339 0.67972752298136 0.0372067381785788 0.341124518237111 -0.181099209899189 0.285973388856692 -0.71297146728531 -1.67468473496106 1.58293402514987 0.545622843493948 -0.597038333631533 -1.53154361994537 -0.558190028329509 0.493010188280272 -0.370523433470048 -0.378555737496678 -2.93998129732254 0.517465168729991 -0.0080550530704249 -2.00317615072873 1.00593945434632 -0.501457567613266 -0.284313020645707 -0.992250306206315 0.0190747907535487 1.36040810407035 -0.844889359736949 -1.04049348851539 -0.0489316081408659 0.228483965383562 0.828655798998009 -1.3025882448289 0.845655393202558 -0.831428014521127 -1.32887638193992 -0.329950698140651 -0.364715589650074 -1.12855747466582 0.106050782903706 -0.107618689402756 -1.44584358941163 -0.874022480451176 0.620714548935655 -0.461049975972115 0.192167546538214 -0.554511487366728 -2.44745378792174 0.633159662632596 1.50567373845726 -1.65280307654943 -1.06841314796414 2.47120734779057 -1.25968632921767 -1.46248261987035 -0.597647299775808 0.48062535103282 -2.44454031862028 2.12127988574158 -0.0579428836180306 -0.199647251652298 1.16620169900685 0.926836986184678 -0.304983663367311 0.782255568459548 0.376233925755468 0.625768685320928 -0.812447899138701 0.173342542330066 -0.675454564059544 0.18176731898534 -1.22785321088315
-0.585606167492139 -0.336358787155109 2.09318671332337 -1.08608881353605 -0.961393022426096 -0.787537927521615 -0.387596639092628 0.583877179676444 -0.426768289976403 0.584934602908874 1.37466631643418 0.858583602659451 -0.605071017417228 -0.699389392993977 0.927313632371219 0.635096148588041 0.979514238110218 -1.52960204342728 0.613844251961066 -1.08622748640299 -0.617352730886359 1.73870550158928 0.714648008264598 1.1078744703458 0.243507314818729 -1.30682471033527 -0.964359879549164 -0.139380589289711 1.34736457175302 1.82747022783984 -0.575618813200363 0.898029778520531 -0.655137484748586 -1.9245788714262 0.777377427379806 1.66882401904749 1.78236152576792 0.269275906831219 0.898460135315658 -1.78644600953669 -0.103778070611281 0.415343209648142 0.0134494517303063 1.82251534045565 0.122835036307895 0.903847344782556 0.600078809277429 -0.169376654139824 1.37175506295975 0.69595314297988 0.618905930799895 -1.02100320538577 -0.121741093257635 0.676212181413298 -0.524029364971 -0.565428690438384 -0.742891984586503 -0.447984238668853 -1.92286098244757 0.217654159002366 0.57110983640872 -0.973646556164071 1.48086133184541 -0.52943418931095 -0.239018496329405 1.28170627340896 -0.522833354848767 -0.825351093099063 -0.86192556946949 -0.695549453913889 -1.54942677842023 -0.791058204001304 -0.04607924923994 -0.32249666615105
1.29493888049143 -0.192828892840045 0.00180765142824626 1.60462763513352 1.80851537564922 1.1011321570855 -0.712790771217045 -0.119502540154617 0.202192841537715 -0.162721149959609 0.0822761423164889 -1.48420825182414 -0.277889592547789 -1.18553089428166 -1.60889534967473 -1.43870998632562 0.47770332237676 0.470681489431811 0.131992409734376 0.802660766135629 1.52987292808503 3.12597492211746 1.73878538473846 -1.19303140729122 -0.39484499631634 0.22119359898002 -2.08452179052642 -0.271595574691134 1.17634558665858 0.406758403046128 -0.436781073264147 -1.9452588424223 0.0273297507660714 0.762073416401899 -0.389300471766745 0.539244339981534 2.45609470861729 1.89477934765612 1.70870412054218 0.329116914128498 0.345408852526986 2.63137795061531 -0.115966044129837 -1.0605531318254 -0.384544986080491 0.559690496644282 2.9838923820777 -1.42013375562776 -0.143759430882854 -0.609529508167463 0.187489787455015 0.587723416715237 0.48763338454614 0.66622678540515 -0.862629700598053 0.480830656560276 -0.679975131872274 -0.963978410166379 -0.438872702762694 0.188807008471259 -0.264335970949945 -1.69732719193203 0.936035958719449 0.414956890110219 1.59879000189272 0.828825563516749 0.508601517970205 0.377950675730623 1.21743079741143 1.20061623632443 0.898884600615269 -0.624888560185848 0.6157789516491 -0.0839257981322767
-0.432156496129983 1.66632860666982 -1.04496862286519 -0.377464785925652 1.80394438546169 1.3730929671007 0.871735320977396 -1.99294651314306 -0.101933750267588 0.00623023921932672 -1.10127188054692 -2.04430764249894 0.471752716679857 1.32817840747408 2.71423896043535 -0.238678762842562 -0.531032808638389 0.336868322532867 0.134776207639693 0.659064432863762 0.0520433390475348 0.191457687937808 0.281914210463821 -1.15656555262384 0.303325952844082 -1.75242583896204 1.81304632178777 -0.915008141273447 -0.530109871476902 0.739254300153055 0.233996703584433 1.0262739686083 1.21387245259091 2.82131363258136 -0.483554038775655 1.14218523479609 0.718508591567571 0.380519685299208 -0.962385220448837 0.246152750287229 0.757797704210921 1.30230767390802 0.909413610738473 0.0247787891910312 0.999208219247271 -0.346350715912888 -1.47589462411565 0.938220782097382 1.72155709430744 1.1647368125797 -0.0743262869150575 -1.75443536306892 -1.41679186463967 -1.20360121194445 0.578603139666913 -0.212496044568007 -0.293444880964587 -0.340930878687995 -1.30866039663072 0.541585896903348 2.24509861798576 -0.401546505051974 0.724016027737835 1.07318294226145 0.980101968226388 0.161677350352237 0.302914067757924 0.176359187370189 -0.668636775016361 0.105898860604664 0.116098082533755 -0.660836752049071 -0.237210928093701 1.38759496848633
-0.906443739148495 1.40643233275067 1.3595051258702 0.964142937597582 1.53333212931557 -0.285818257933259 1.07776408768886 2.15698791837595 -1.7943028990166 0.882308550012548 -1.14471145451091 -0.651127516457684 -1.53035805223076 0.407340408976937 1.06760097028096 -0.941345626971441 1.58897121342823 0.388957810029818 0.100550720746244 -0.747452764349811 -0.770358938624073 -1.65112663740515 0.271240571189718 -0.584189467499518 0.763707239524274 -0.852345210704937 0.504334519117139 -0.598757083548626 -0.444886262455655 0.579815089867795 -0.566180863708231 2.24789897789139 0.0845194849360995 -0.296108441647737 -0.624600590427677 0.754986339610192 1.11313230894069 0.664874456790742 0.404452882896972 -1.75190156528415 0.421376594216684 -0.806890723144224 1.07699203367153 0.462959736273216 -2.13468416505427 -1.27248501701087 0.524661959912524 1.38503289369064 -0.627805667630533 -1.07842398099929 0.0073148627693815 -0.516364683100577 0.609167116990875 -0.778755579247191 0.152290221495355 0.0605072673810711 -1.53925993008402 -0.950588631949501 0.137363954523134 0.906442240624082 0.50779986164511 0.458915362139325 -0.447327637277254 2.48844247794862 -0.263557321182107 0.0136570352259529 1.28295591626636 -1.05709471722086 -0.0842783697878587 1.60364096499783 0.866809310714471 -0.486132194673416 -0.512839916678655 0.289110600670433
-0.361792855455875 0.563212530834284 -0.365052181721964 0.259429642397838 0.329750085883545 -1.28959978118956 0.0757404250753349 -0.00701106952051725 -0.00238370893614894 1.15792133983624 -0.438615591229903 -1.54992177983962 1.80620085964422 1.78637410212534 -1.36905744253187 -1.18423985325777 -0.0936843789576689 -0.344675383982711 -1.51024975595683 -0.795928375894048 0.303072249519918 -0.835778382710689 -0.153122356390093 0.298975576722427 -0.939358172897787 -2.43829637791575 0.819216827826681 -1.05085403434683 0.280565773516979 0.381824489003207 1.74381606732467 -1.07393829054789 -0.567044195594628 0.666378474341322 1.25509041724566 -0.0190617862393554 -0.0747703558381463 -1.51936126934203 -0.282626705781227 -0.419879696488283 0.107821899724007 0.610334941665599 -0.388506540694453 0.423332043549527 -1.53429957119572 -0.469425076396685 -0.302313034060962 0.656385096487969 2.25435118225791 -0.2123076078208 0.786569141301371 -1.26794378658794 -0.489114836011293 -0.289041140681404 2.05017467518553 1.09825067847523 -0.390522143608936 -0.679153110801383 -0.236310463489913 -1.16541139405614 -0.686694445160567 0.217425779039063 -0.284742577910036 0.101431874677979 0.874148066656761 -0.323437756442819 0.682829455764316 -0.451789548296945 -1.79487755774385 -2.02956284953485 -0.489936390475391 1.22303535385906 -0.529373280953126 0.688321155201478
-0.492752952134385 0.583581854679365 -0.171290088905195 -0.382460405126418 0.794364913216678 0.191816558233468 -0.0082708184460607 1.31453582760838 1.68158209266197 -0.938372595040249 -1.68949336677176 -0.9520166739921 1.49141436568276 0.547300382144318 0.573624738187954 -0.783955281532068 -1.68915210679628 -0.078484250789191 0.580624656604072 -1.66990209009794 0.959062708526988 0.683422167652966 0.249125607675728 2.14071153506842 -1.87003974524024 1.48361892576663 0.791435048679826 0.803442149547087 -0.342061906955991 -0.207980694191451 -0.118898130030313 -0.697898607196511 0.892547363087297 0.395125708139799 -0.419313961523051 0.37087701191026 1.6844518519919 -0.708545992011321 -0.0322913161256081 0.90617634354855 2.4738749431388 0.0152326720238931 -0.794805113870197 1.72550649747002 -0.991915940825 -0.915931721901536 -0.630750729147469 -0.23729212282325 -0.589184290597276 -1.87617274784012 -0.158451917851521 1.27736977536475 0.349409203477361 0.590753454603542 0.833949981409723 -0.444327901967071 -0.779036696513712 0.490275951297122 -1.55343348802504 -0.947927457962306 0.492021895767098 0.251111703217771 0.91323603557486 -0.7020997067262 0.388112253267256 -0.299667081093243 -1.28389812368466 0.784123600204879 2.08835136421896 2.24401272833165 -1.5482400546439 -1.10396562690701 -0.313616286598493 -0.708813456759998
-0.188777854477638 -0.647141724709913 0.289643162892244 -1.66382661424251 1.31240602032297 3.48788305614812 -0.467034562984254 -1.00893118964294 1.03191422383026 0.15772313788822 -0.531780113623027 -0.654815826206616 0.736665917348974 0.574348664190823 -0.0972818815889162 1.39522862521939 1.83814335831444 0.0176831873102492 -1.26126958374926 -0.656146084869791 0.460850778175896 -0.594675329798517 0.585363314356323 1.17568529702379 -0.835801001512898 1.4524994375179 -0.760820760040948 -1.46905745659944 -1.69955105725915 1.18472694202477 0.196943148153102 -0.734805438511806 -1.42136743052285 -1.70156495316578 -0.613008927297676 -1.68767354037517 0.93819068135487 -0.00883975775630955 -0.483644730371051 -0.0574470682374841 0.685913320110706 -0.217862162852894 1.52058538927934 -0.284317664664756 -0.406312766143377 -0.361527104542825 -0.258461064634575 -1.1851191827648 1.70677799583816 1.63405526278453 0.113039057865507 0.887479439626103 -1.25132418112575 0.228666836168635 0.218401695250923 0.978163578222636 0.0268908804089586 -1.78446388936267 -0.194995349183142 -1.4554076042062 -1.49322195145873 0.387797896956699 -0.243776280237529 1.32932837939608 0.573222083702168 0.470754150119438 -0.361255121794966 0.55582918221502 -0.377442782338256 0.850849119021623 -0.0445457867409035 2.60580070272854 -0.65418519518957 0.270445397582055
-0.577651843503793 0.896791740078409 -0.384510525259048 -1.95249656266682 -1.70351208534462 1.37818407125487 0.776572332403465 -1.33525162818495 0.047014202672898 -0.950431249066686 0.425447534779143 1.04908533658482 -1.51368545226287 -2.04811642997982 -0.211236053781943 0.499516145017539 1.29872879632675 -0.174497864424985 1.02972068782897 -0.671643900137503 -0.597488469656902 -0.331807690843209 1.03164720985029 2.67195757731653 -0.581604783200995 -0.561090520852002 -0.486582931862565 -1.79750735805028 0.794385076491352 -0.518153953865375 -0.68421252835104 1.75396131603357 0.570163591766949 0.278029691606943 1.07340619953329 1.48202183163594 -0.0116870571250875 0.284860769642409 -0.958989878974882 -2.35354363872842 -1.219127615042 -1.13142158391454 -0.276524040494419 0.194899844115856 0.113639974069091 -0.444400801195907 1.59320957436806 -0.715850124433988 0.62839328501751 -0.624437105372145 1.33202956971967 0.49344309433851 0.741549662201742 -0.36390459474837 -0.407552871328401 0.847940774057598 1.07493828311146 -1.00875724804539 0.965738006823369 1.586748020117 0.202677145466532 1.20136182234471 1.21865550325105 -0.558071740174857 0.75431301372622 0.44693232927551 0.710371690327621 -0.140060694200911 3.17382929159084 0.446578290900913 -0.25790190712706 -0.0857173131777629 1.76115982856779 -1.24600090100054
1.37342609520798 -0.343807765991851 -1.3738718784722 0.379559603804443 -0.952178271468543 -1.77874381907877 -1.85932109426644 -0.872087659169343 -0.267070749622306 0.580734763053945 0.23473036169245 2.17411837737595 -1.60737191060292 0.189157861333859 -2.26883398111401 -2.06426109441666 1.68241535647424 -1.02551870441614 0.564403225744113 1.01423672421028 0.483687920585319 -1.499462649565 2.1578531642718 -1.7960050435508 -0.0019048652248541 -0.419350116296744 2.20629764057933 -0.113839112105363 -0.0537973724369307 -0.672066599083877 1.10455611045557 -0.357562941280614 0.672682319902619 -0.86686458713102 -1.12173306345258 -0.473526506148138 -0.788806068249961 -1.23159849857531 0.420105681810549 -0.0824659834382491 -0.351648493064391 0.466582838901815 0.344166534751677 0.564205554399574 -0.593967369541623 0.210977293027138 0.848427704042956 -0.499691199630332 -1.29543540834409 -0.793568495534926 0.529126019905461 -1.02146452913171 -0.153948738723763 -0.648641967311319 -1.55052200893451 -0.0470104641416725 -0.348495130697636 0.343272624818362 -0.298568720879095 1.50560531078935 0.42738548580944 -1.51998704288591 -0.116423003360487 -0.45174192836257 -1.10358540729412 0.837300323609963 2.72849886509717 -0.118471773454169 0.740171929494776 -0.582245061395536 2.31214209519475 -1.50812907725226 0.536140732440676 0.226821312097825
0.310741094315569 -0.0980753561761038 1.77149148921771 -1.29524682609704 -0.0554373532565723 0.256228664778841 1.94192846041361 1.34893233436407 0.0578379601848677 1.26549295121341 -1.78230521288564 0.373281737628406 0.497579155313615 1.84528711377146 0.197990271348365 0.361333883402739 2.17587703035778 -0.576032273984448 0.750719764274611 -2.74053187953011 0.564314102677261 1.16694692170166 1.70919741455476 -1.24013388050958 -1.01689789219986 -0.271943518762973 -0.991315746082116 1.66403654427187 -0.716054804796197 0.229453673631107 -0.269639574123476 -1.04202482714195 -0.644319725664463 0.554607279937077 -1.12948353899445 -0.753042302826342 -1.27675864986078 -0.0868760336950349 -0.0110775519857756 -0.589534328327402 -1.00429273041694 -1.33921166090313 0.0358208692788948 0.867815092309559 0.0977894564063837 -0.420980807714456 -1.3906041993459 -1.44758153167985 -0.551242473580121 -2.77253039651891 -0.187705642906435 -1.54651120318501 0.373343641546511 1.65685306025644 -1.05160919805019 -0.599737759964793 0.689749755631781 -1.69520240328643 -0.357078490273876 -0.122999040429434 -0.146163633143792 1.56278018615245 1.17832972107856 -0.276354119506224 -0.52131269756826 0.189118554497955 1.64399219721508 -0.619104477676557 -0.20523987425927 -0.617677130219405 1.24533497870886 -1.24183449596578 0.962954395087563 0.956091201182327
0.140361629005355 -0.280126713082788 0.434667766419399 -0.71754607757397 -0.671317936465911 -1.74022953990716 -0.037007787035537 2.37627526658001 1.34112424917591 -0.0297943243218217 1.34952952173102 -0.0515489802482356 0.214746606509455 2.09685796445173 0.0818307311821951 -2.37965555165004 -0.557248813950042 1.50429807504792 -0.108537268278096 -0.825597984929789 1.05687620442838 0.0857925551491196 -1.1291965722352 -0.399353500166306 -0.817866729854019 0.941972600880357 0.982092968120782 -0.221983315817421 0.997444522749348 0.197263135898488 0.569524385857337 0.276791347280275 -0.861615065136299 0.211190491611975 -0.360098173497047 1.60989637627921 -0.562257804752058 0.506138667340696 0.869862877260048 0.140239809581105 0.824132590276418 0.554124034129541 -2.0053444461502 0.0876220147818605 0.60759270914092 1.1614698971084 -1.13639551722514 1.64876815756192 1.09859093544538 0.237426277722119 0.839041448552313 1.57189548547228 -1.87294927496283 -2.57075806946358 1.85380659533836 -0.23735772220309 0.282440456912473 0.105353431931534 0.0778068299640507 -0.0449409523788213 1.74402968659572 0.588817267212162 2.21139712101584 1.3969574036984 1.3446382094076 0.673209181258746 -0.377885056225284 -0.446081989770296 -1.34840576711747 -1.32242351046868 0.887122865061658 -0.521390908310457 -0.56498432404249 -1.29031527246051
-1.29533658925312 0.175946727255047 0.0212346527348479 -0.729971868004529 -0.402369685411808 1.05345712322608 0.468656605300205 -0.718116462840742 -0.143563600330312 0.432966974918133 1.44596036124948 0.943300950003843 -2.04624642950455 -0.555975965362415 0.568060210114429 1.52785669687485 -1.63029811341772 0.381440956544927 -0.373677206621689 0.0195732496248731 2.29955795039655 -0.38328138459062 1.49105886615308 -0.0202068439654732 0.952645693773032 0.0732078967854582 -0.289115794113031 0.305285796034815 2.29095087165143 0.849900378777032 0.663894891942891 -2.15154146244766 -1.2195927111949 -0.556224509008743 1.30168296214504 -0.432156719031954 -0.507638217362302 -0.521311892452307 -0.259747031484943 0.4453814299742 -0.50650413621234 1.15240980525544 2.94589754270975 0.0346159146128405 -0.698697454165577 0.265830129585162 -0.134865126826878 -0.864653228103127 -0.42124097471279 -2.08476268104826 -0.20660000717462 -0.11524723586541 0.427801593947879 0.262492929407282 -0.916483368656254 -1.6706581256655 -0.801963859884187 1.07142892918038 -0.264212931150886 -0.361187975837251 2.13473177953206 -0.21443561537174 0.786826872930524 0.322488697103164 0.187920432522877 0.913038765212405 -1.37825796612254 1.32529201397882 0.022597862668122 -0.361562815102017 1.34627291609956 0.792180166999902 -0.921713065128132 0.710253788807136
-1.92831682270922 1.01435484437845 0.951712591254243 1.62886472854339 0.845228057841166 0.733479278390647 1.67307492666367 0.425243447662438 0.278655088148021 -0.22577948291107 0.642361971055157 0.597609206921732 0.0577089718899374 -0.475837503559185 0.29725982489849 -1.29108302573702 1.00452296456937 0.642356680389313 0.413236799714101 -0.575407493700411 -0.274626882891079 0.602947327478592 1.55692712838353 -0.4232975280668 -0.334769042204168 0.256141142727444 1.59941850839395 -0.698926550470746 -0.415037896628297 -0.478935774554854 1.76075435759 0.886127994111598 -0.192739908050612 -0.715042788236291 1.05784630135011 0.315367320769846 0.668603134711047 -0.680725185675741 0.432306192008424 -1.42739951536457 0.705226922227304 0.371188002231855 -0.105585684609402 0.290700734272774 -1.28313177820376 -0.768487163787054 0.209979416734555 0.749379152723193 -1.01473498270032 -2.19354135370539 -0.841629056307343 0.690303481779662 -1.43276295920542 -1.08632725153201 -1.14208710168919 0.134172990269908 -1.98383403112055 -1.05967642425526 0.408424160385861 -1.46282735349471 0.287283962578459 0.133426360033194 0.172536162227919 -0.520175572979131 -0.749730166905596 -1.79643584433758 0.0956229826037805 -0.60620330282053 0.191154295224092 1.31968604348081 -0.0392886568481654 1.93340276428503 -1.10416766938714 -0.562024838998767
-0.031967090739074 -0.875843603319823 -1.20710838363476 -0.988894538352659 -0.973733550756209 -0.390134339072166 0.294486328976187 -0.475737873481212 -1.61324151065844 -1.20848182500459 0.00886291939950164 0.411871474881775 -0.3419335943202 -0.147731441270901 1.93590634195706 0.511989167279093 -2.35006934280414 0.650175092047305 -0.967756805083363 -0.155702559058827 0.577188758898638 0.495662469099783 0.239309382781354 -0.56176529577199 0.149804955733549 -1.3240535323023 0.893761504590817 0.538750141616093 1.52765947764932 0.250490894347529 -0.348630891016105 0.0687271666032288 -0.0187741350664354 -0.399824874751297 -0.0378650220602472 -0.738836906571314 -0.938900834832145 -0.729904432069815 1.10691513226909 -1.60468170164801 -1.36905825448044 0.996871673369752 -0.56262835598374 -1.07402694861878 -0.216683895062695 -0.739891346834962 0.0490083555605116 -0.0324392301629691 -0.127414649344636 0.637224848189015 -0.785321796206634 0.943323551944186 0.401708244916125 0.424646291242705 1.5170961491815 1.3124132500483 -0.72100303267633 -1.64600702404521 -1.54364629865455 1.13677179899108 1.5538256260078 0.830685545991823 0.423119866560374 -0.104200909088514 0.528376961647177 1.06593777307269 -0.709002670464217 -0.73600173732227 -0.0370721075610023 1.06673486322881 -1.29768692032291 -0.343393937490856 1.06807690203181 -0.947980590429909
-0.535184003050537 -0.795076517591014 1.16940457219773 -0.255423776121003 0.203548302949265 0.93136203429839 -1.16875385169391 0.230805975981264 0.155520038438249 -0.521034209408969 -1.41617230605701 -1.75063992389453 -2.24291872409544 -2.63204509194592 -0.715983912657768 1.0435693295924 -0.594482190173456 -0.087967247455455 0.335849663643846 0.842880549593385 1.12244990487977 0.600856304957881 0.0394350816937673 2.39327430412721 0.362225144997474 -0.343650708454093 -0.359344535235731 0.566390565902697 0.219464856060721 -0.307616597499961 0.167433141731517 1.52916175326296 -0.325345714299465 0.667973337339905 0.762234773768813 1.39630608845068 -1.16340328627962 0.803831908266571 1.62245686636331 -0.18745409776215 0.482559343981908 0.479300386642818 0.562508337512673 -0.0671303931587881 -1.67058137607635 0.235523663596727 -0.393171312854838 0.8150606505474 -0.662613111580298 -0.81379899467674 0.397817770303375 -0.308931612162222 0.796838322279757 1.20696773833149 1.03390441633978 -0.368742991324762 -0.778626055842836 -1.51563965216366 -0.845276404332605 -0.715492140120122 0.654635727633801 -0.657149954937181 -0.689784608143559 0.264942902045078 0.654617858616509 -0.989608887183551 0.973594188632516 -0.217278702337201 0.277874665907214 -0.463113446222629 1.17457239178253 -0.0238027930815056 -0.265161857289728 1.57965672516783
-0.311568567251091 -0.258141530936571 0.68828705463051 -1.23448698596384 -1.59767440251464 0.85877503565906 -0.705445534132666 -0.485938764975971 0.89507742729435 0.350264934327871 -0.91677827488657 -0.427179479615402 0.199644910222829 0.367639019950053 -0.087872739298674 -0.395849066562412 0.00862170110396946 -0.477135078117002 -0.375985218018639 -0.64165291807877 0.898259292524492 -0.257262136863868 0.558661069799993 -0.16257857709568 -0.154720637735327 1.92985236886506 0.249474833076969 0.868968422161255 0.105601752577994 -0.929256126388551 0.186662911709347 -0.720098229450303 -0.141150375385979 -0.77635391882623 -0.800119462689433 -0.320342144895254 0.401561735340285 -1.89001156439398 -0.954319662131622 -0.694217996257477 -0.320984165768797 0.0193968262339874 -0.984818646512735 0.677903148438112 0.29605005498207 0.114292772912419 -0.247114751900208 1.4452698894867 -0.255979524207698 -0.596011033928097 -0.829952831545738 0.438912386730763 1.69425109303317 -0.325057719810511 -1.95381747565209 1.11107847089127 0.363785469602121 -1.07202024372815 0.196260102174686 -1.42672261866247 -0.684517545670387 0.455539159228706 -0.501895720706066 -0.101029797160567 0.52416944341988 1.03477269683355 -0.455246917056087 1.18842656643405 0.547083573939433 1.69223330168058 0.0367302598948727 -0.184414650512069 1.86941292259725 0.627177628877995
-0.600901276420256 -0.807014805865051 0.94371169981038 -0.214016048351005 -1.11613105476362 1.33062902835299 1.0242784587383 1.86534618476836 -1.95117318207703 -0.602896193418069 0.0433059845144287 -0.255050562372745 0.100003268325871 -0.750473113135679 -0.951468631112247 0.14029323334953 -1.83009049597998 1.77927681218102 -1.18299956266318 0.433486247485992 0.260089604345493 -0.13187640920295 1.55383384222177 -0.421081691435282 -1.00620720139407 1.81882806547726 1.59165824977632 0.964275465570546 -0.656180834134767 -0.79866438781413 0.258555951081499 -1.09199233226047 -1.21226846898118 0.423858912883568 -0.444811558241906 0.115761562741165 0.81215681639242 0.769174200111152 -0.199365046236195 1.78040096264112 0.59979616176835 -0.587272072919219 0.0940943714396016 -0.340831111089117 -1.3888501525549 -0.0903606292268776 1.55897948258454 -0.115503249918541 0.104550910625483 -1.55485607060245 -0.167080860790568 -1.96025824837231 -1.01463063417857 0.623220520137708 0.85623438151722 1.48567409799714 0.203392987038347 -0.660587712418686 -0.448850546564802 0.121785508373678 0.774725693155947 0.649115071563949 0.915425641822424 -0.783039484765071 0.598429090545188 -1.49180232742515 -0.511187959981118 0.0442494010812911 -1.28173139911546 0.00445130803347597 -0.895859049734986 -0.109175269493124 0.0739750804045018 1.24985644044154
0.562337192797718 -0.614787481184398 -2.48463806392056 -0.512234615294488 0.750993637128502 -0.910275705774132 -1.9084888645872 0.242495862894285 -0.871367804262183 -1.00644007130471 1.80946865806106 0.82526738441608 -0.122600697395034 1.18894564369275 -0.283340125458852 2.02424129179173 0.117149948518283 3.00867966400645 -1.66476667004784 -0.448527115104715 0.124046757197453 0.266888988586582 -0.808811235702941 -1.38334747857081 -1.10539574425609 -0.474226913845207 -0.432069173913191 2.76413488265718 1.49619692510219 -0.662192074011182 -0.411115094715043 1.23374642908772 0.265765039206585 1.22892814622218 -1.60142744941449 0.142141747895979 1.16113917778741 1.45478329522605 -2.08795948654095 -0.371535772121458 -1.4871620635599 0.120408143763203 -1.47004459215301 -1.8710719018785 -1.26615535775127 0.237335730555012 -1.37810251198117 -0.908819732113271 1.95482502581158 0.740985933349524 -1.17333490109329 -1.98270455303671 1.64166059144296 -0.449357197664935 -0.255572206808217 0.357516340176633 1.37497986632887 0.308143176239968 -0.266355369379763 -2.58811801938836 -0.844713414793693 -1.69095300134203 -1.79181294890611 -1.7133008753068 2.02768635256876 -1.29841505305916 -1.05597132867497 -1.41283312247806 0.99181575971693 -1.11388143491209 -1.11802831122923 0.0400279663081717 0.606758943511923 0.308624355296967
-0.210241949904478 1.01281051482314 1.70974171279297 -0.10259442402562 0.104332933459991 0.945344394512738 -2.25513469189575 0.0538341472968243 1.16305901019966 -0.851285035364496 0.519433359937376 -0.196739008790407 0.513388579104691 0.0611900182017296 -1.37759408283304 0.996168618805792 -1.17756740249521 -1.01955068388319 -0.619976022617822 0.977718249055263 0.624034014659819 0.235667719692403 -0.894456175798552 -0.749875926622049 -1.00268426722429 0.636569990388893 -0.159034395269948 0.43872898958198 -0.593209987938915 -1.6009473384071 -0.303526359997128 0.539897518424067 0.686759783731311 -1.66553260489076 -0.28850292125359 1.42498673433712 0.599199722565395 0.557849862143241 -0.306297876654018 -0.297269770326511 -0.71767250952315 -1.31639991786754 -0.640248953398264 0.481403863832985 -0.672737477736614 0.295640461601955 0.321012491677673 -0.603020897225748 1.36091557783855 0.283821012745686 -0.163094647519981 0.825801839826927 -1.13971599032494 -1.51542879401368 0.715079249390479 -0.39243254674462 0.304854453141086 -1.83897830319963 0.809221836700678 -1.55396860858807 -1.20247388064192 1.60751874980607 1.33225555394772 0.141806934486068 1.24159412215815 0.313974787628312 -1.50049269722349 -1.21200304606462 -0.341695086066687 -0.555403099009321 -0.955494712040414 1.68213993455167 -0.568966772596998 0.0129723983210624
0.0922965046013597 0.708183560187101 0.514435090021946 1.21637195975039 -0.0301569458252852 0.797116237789574 -1.30054082159132 0.999691756841176 -0.843050709046115 0.278812922039616 -0.035954793622518 -1.07182926891709 -1.40435354389008 -0.395384745582871 -1.14462166793629 0.0603575516357873 1.10922490626038 -1.83454641184875 0.0384573934568162 -0.718621209346384 0.729866453839653 0.726886658238573 -0.925256074636899 2.32859873696462 0.615729164747237 -0.228897215760916 1.81032026161913 -1.10409208658021 0.51112544680821 -0.318064878757038 0.295455955700951 0.954003118195448 1.47044922266076 -0.487758291801967 1.44634639513355 -0.139030515615899 -0.40663284926093 -0.238160467067439 -0.0490814932124446 -0.467705859185599 0.39577185820616 -0.917809524035709 -0.884009949714809 -0.0074835623920523 0.878082904077643 -1.20725973328142 -0.774709593935556 -1.73675559350155 0.255239310087588 0.452152628086189 -1.43049877606186 0.11002838858716 2.67484851648325 -0.17956663570184 -0.909861460680011 -0.223126559111155 0.0398653691750811 1.41010068456587 0.305985965988964 0.890350881587856 0.785820233109152 1.3220217071693 1.06154797371796 -1.04846499357676 -0.363446841523286 1.73703097740408 2.73044768862035 0.745513435300076 -1.27634295179975 0.776989031419499 0.931962688915973 0.48228861645827 -0.0834322498439272 2.24719223155678
-2.00922027002871 -1.37934929459818 0.0828413147770072 -1.74250177007977 0.301762145909526 2.13204924569592 0.160762990106304 2.10443402092428 -0.173895001995176 2.23504450540291 0.950672292685249 0.203327103453533 -0.667939426948996 0.436123647305707 -0.252331821872649 0.548720783579847 1.17584977661033 0.531565424893074 -0.104166542848883 -1.97444402597883 -0.80814147769062 0.901208586073197 0.244813188994484 -2.42814945616196 -0.569560305961958 -1.35050018452274 0.104342457220715 0.504247356091389 -1.25868268352071 0.175044970731773 0.116722491060339 -0.542727276004265 -0.00772206224285321 -0.056337941340355 0.678440564408209 0.207403330859341 -0.496520215757614 -1.52764425037514 0.595498040006543 -0.947397211350865 -1.04903259506254 1.89399172544726 0.1895018887656 -0.366484249853025 0.382913360820672 1.138311014148 0.808775041070205 -0.466029756192676 1.34980796971589 -0.265620377487984 1.30118269050457 0.639575752540596 0.424812761533705 -0.877581544254828 -1.04622081114891 0.115193970184364 0.0308067425794306 -0.796927522537676 -1.40665466800362 -2.12645919151167 -0.564166500136952 -0.584417139525853 -0.990402127024686 -0.533239919096604 -1.05535792574901 0.388987510842553 -1.15805648241974 0.0334423458256986 0.391544980862199 -0.494003994330442 0.575719095660674 0.57976115415316 0.155588077753295 -0.607075615616143
0.302512861253764 0.48886637951015 -1.9796245413576 -0.396177845397727 -0.180387399544256 -0.881960048500014 0.534907568416852 -0.591979372243145 -1.03042106338614 2.65889467279609 0.236084668184356 -0.177902499631422 -1.81445944017282 0.226652468232525 0.966346678265082 -1.05891938317035 -0.438946578110467 -1.5871798423938 0.0821099608681003 -0.706757876123873 -0.0725881984195682 -0.441137598695427 -1.41296075013757 0.610320255546235 -0.199861601796026 -0.0862376647284038 2.61478213717423 1.35212071799383 -1.42162236179757 1.82491772429467 -0.624275260363768 -1.60373784412751 -0.419323460509505 0.162060005289475 1.11830341357173 -0.712033959031417 -0.792132667947848 -0.816262498567143 -0.794217380917227 0.103592145786737 2.49518177308375 1.60726565692418 0.226692213825568 0.518566238968853 -1.03192458373138 1.83863140829839 -0.444829119909178 0.209328947130765 0.0564864587039989 -0.271247938069912 0.109964061443361 0.383690797217857 -1.42244066762634 -0.162058834956035 2.10341460995685 -1.08417133745053 -0.247363499035045 -0.289590733625789 -0.131641603301374 -1.00167505633915 -0.846470505115281 0.0586192862442115 0.71036501152977 -1.3928361432537 -0.689090790979374 -1.07417146136576 -0.201634505990448 0.730792695942513 1.30052020219929 3.15552868575179 1.11083898769771 0.49450611225109 -0.638038113790802 -0.251558655940437
0.385661595835087 1.82867985378563 -0.947714868333116 0.294586823635411 0.796946982737641 -1.0470164282961 1.05343799671648 1.2043270162501 -0.0319071434566667 0.368856005089505 -1.27816923690191 1.0428128866244 0.853143088401121 -1.85047500250455 -0.449186340308276 -0.387191921100272 -2.10098524825087 0.117634959029013 -0.486615370716682 1.7200009928211 0.826313412390227 0.543553969508604 -0.30623990425013 -0.559422014543029 2.23065672288768 0.179966365739654 -0.546885915969606 -1.98836154197436 -0.581037872881094 2.4296129364983 -0.28078465496097 0.265318674090168 1.97451231101052 -1.64808663834212 0.843889619039505 0.926656892102024 0.56324269708476 0.315055008524368 1.31926250336308 -0.259282694336302 -0.412923383273895 -2.5054930826169 2.06151326939736 -2.50166162393181 -1.08018941374157 1.85834381988967 0.216973482116771 0.787348402588186 0.908976704896697 -2.07302429964187 1.84844438122024 0.357318462544278 0.449891088526565 -2.38745339206588 -0.413224573119557 -0.933013318825679 0.628611372877533 -0.00451411105525072 0.917725721482956 -0.116697930546528 0.0967523423792819 -0.453875262162572 -0.987410803956113 1.06851497141456 1.17365164627439 -0.675349455691331 0.657248664276872 0.873772999769353 0.430353977810347 -0.972897903508653 0.00586820999362779 -0.347143724444963 0.294505016594646 -1.28894824492654
0.638237866479206 0.0805791468409077 0.764551374489806 1.31480925782349 -0.377068683809293 1.89408086654243 0.462114546944914 -1.39969750676162 -0.0237524737091967 -0.255236477564987 -0.69941159759426 0.553147729231018 0.770072973248611 0.00388329679731374 0.41140286504846 -0.566717486886134 -0.404794037739604 -1.36159546151548 0.834882692311777 -1.16404842336854 0.579791123615484 -0.790057779735019 -0.716579526923247 -0.799360566480351 0.75535067620423 0.403578962631474 -1.44292534640171 0.464319689630249 0.600836655600315 -0.354877583882877 -1.14883253859747 0.604571876677912 -0.612950948574273 0.506069094090504 0.603696061701016 -0.622086435305516 -1.34642555511018 -0.536005028194203 2.44992394245152 -0.544580844397872 -0.538360912808327 -0.0815584594558144 0.474213117749828 1.15208641689687 0.956310393748095 0.135563809567 1.51266816138353 0.146133460548189 -1.21425034952695 2.80111333545017 -0.369613474522465 -0.319150835558302 0.466152685720312 0.548820182701927 -0.756389017730084 -1.57768086599688 -0.430444447169515 -2.00079521183807 0.536266366703401 -1.1207217910728 -0.474182449277447 -0.361064298250327 0.7477279468472 -1.42981090585105 0.306108935999904 0.0605327731948036 1.88221092734516 -0.912239623483061 -1.22902976206918 1.3960333791995 1.33246017558938 -1.66652761895334 0.988163587073927 1.61880538387129
-0.576962373856031 0.848008393768371 -0.839285216868224 -1.26110824589063 0.23158112924747 0.102160644761595 1.6314035454531 0.418633445496055 -0.935911381741083 -0.245092529485956 0.294849406501922 -1.39604325423991 -1.29743270979529 -0.729033601227641 -0.259526270821197 0.661545938082804 -0.216150908800155 1.02860068723476 -0.162152396255964 -0.202182474827897 0.476532479986182 -0.760815253640271 1.70853044947181 -0.487670379604819 0.497906348950312 -2.02849951163799 -0.0786163495758442 -0.290583336301728 1.77522950454788 -0.872738968975681 -1.40448270481562 -0.834552390391158 1.69761163156931 0.705737310332641 0.425042296961704 1.14323749107318 -0.00780884530300452 0.290334840977275 0.208668085992526 -0.532082090037005 -0.249007510594195 -2.51851659276193 -0.425202423911447 0.647844320814039 0.729831672786395 -0.982543559401918 1.41079478213574 1.09539764491903 0.0232760374765335 -0.664620798975726 -1.99716031515441 0.164476357376368 -0.995697772921552 -0.198024665795875 -0.132177735294852 0.157456186288975 0.907322548939311 1.78684383450163 0.558678806205112 0.30295540825601 0.534641957407032 0.111489123736799 -0.221359778544489 -1.5809747030915 0.991757814141218 1.0180883030213 -0.771013039643992 1.45463133506415 -1.36306056615561 -0.702841578552646 1.79936473209326 1.19251290140218 -0.627650751184187 0.617801833971172
0.424278425659276 0.525318599619218 -0.10860587768195 0.673760943907472 1.09079296600076 1.75085051911787 -0.227870587294435 0.46448249692986 -0.912318382461635 -0.734298016113486 0.957604588327481 -0.343386920044995 -0.446747556913828 0.379113468363851 -0.921479551894122 -1.68871377887883 -0.715752636802301 1.35951903727223 0.553483175462097 -0.67397587544416 2.31354875312357 -1.60712060214045 0.419577204884092 1.29667960134626 0.262119188564142 -0.516297314698787 0.134297742978732 0.0771761947090408 -1.41891738139528 0.98842297003243 0.629119982935674 -2.7716159576632 -0.82038407568742 0.159536571788739 -0.973917555771781 1.72049622272167 1.00029858707825 1.41502114455541 0.157049524284894 -0.720034037628806 -0.196946907490682 -1.38465641948801 0.57924145086011 -1.11963522644621 0.181214530474044 -0.991757389822951 1.9417677938047 -0.523204741597717 1.7377794684469 1.10412242553831 -0.934382255366268 -1.04265647784621 -1.31422401651161 -0.822524089290849 0.456374405239429 -0.472553333475079 0.283395231703448 0.0678378323136624 -0.0871999140723237 -0.958573506602143 0.0769331334027645 1.44597151083114 0.940166942367972 -0.643077526330232 0.736799538850612 1.43966511972023 -0.163671017201341 1.17190641968288 0.673309541885155 -0.907446229317601 0.114620115427886 -1.07818425779237 0.505031372109855 0.706893614891025
1.06306543679034 0.162314125853162 0.10498813144425 -0.32461919443424 0.439312504640542 -0.181123139636334 0.142047472758785 0.94300893255013 -0.367538897068463 -0.25485899519562 0.304454396120668 -0.699907829770737 1.81326941591928 -1.40512140468251 -0.378048535031822 0.665311652144268 1.33161807492961 1.52491051986173 -1.6312057806087 -1.8318118556198 1.39102200037351 -1.79888390565551 -1.43713346291566 -0.960303497833616 -0.154648496726164 -0.786484574636222 -0.0298146581050338 0.922258729760198 0.0505661297145747 0.682460295365488 0.595925223076932 0.516936030672212 0.0923343001413033 0.537665511789953 -1.69958086374011 -1.31429514876237 -0.449101125467598 -0.62036898788391 -0.576191558604651 0.909296382612388 0.796660146692375 -0.155320263605346 -1.19105538167072 1.93876397772287 0.0903543862516686 -0.0316126824325186 -0.74693984684436 -1.2013261704551 -0.0548517572072622 2.72726112865266 1.77647241729494 0.778391711263107 1.0168260942243 0.741568333776581 2.49514027564382 -0.000977017887029825 0.982544545929886 -0.331851243492779 0.973243514167458 0.649083042812239 -0.870528749946981 -0.591616437185037 -1.21618159852039 -0.129434374628811 0.499890358873963 1.17839685486952 0.192285300308211 -2.20090450216447 -0.602158643032583 0.32282761996379 0.157350372330388 -0.903101697059676 -0.241660702826126 0.703712181698347
1.89904874891829 -1.73346518841533 0.0144064874426659 -0.505528655081476 0.530488908289798 0.540324479172168 0.528997930615655 -0.133066279427937 -1.12082697876809 0.937151063584915 -1.11595062090513 -1.16061301291575 0.095055852354746 0.139337227390486 -0.0330404701038852 -0.694647229818298 0.157409249818493 0.256626681340136 -1.13273791426677 -1.59359914494568 -0.114354010171258 -1.28909896615751 -0.925276750744311 -0.131733117551045 -0.350831362838561 0.578535943380562 0.607896371944907 -0.843172836414862 0.15712915331034 0.266144864306697 -0.37437322329351 0.78875380671994 1.16074925092506 0.32433594981831 1.52441297199225 -0.0808733914745224 1.41021023920498 -0.751505901127039 0.0805325295668565 -0.38787210157724 -1.20275934558692 0.550932234358082 -0.636072121373819 0.44855636447351 -1.28614294332214 2.07985208158364 0.412577799444144 0.0638847936231873 -0.337644103752455 -1.00161860332451 0.838913476052205 -0.147865181796961 0.463270848474586 -0.387479333998334 -0.416994885910941 0.327821250842243 0.217492657026771 0.119257066871697 -0.18246329893121 0.249601407903935 0.889737788766603 0.745117468719056 0.644787965245856 1.61401680547904 0.321818207728586 -0.425461167623545 0.00715568715514228 0.000885873450485352 -0.0333133337976952 -1.55024273393285 -0.86429915265008 -0.59542242016313 0.680378352179452 -2.11427088150596
-0.212705990035205 -0.928673651792617 -1.73709604956975 0.838156388654712 0.778047857646387 0.827907515712921 -1.18093733500758 0.635065522571476 -1.5888868813607 -0.503000181142819 0.799698176650905 -1.23524738792501 -0.298501876814803 0.121508596276791 2.03590610041395 0.937503626540012 -0.949417515167312 1.41215619208135 -0.175479501314169 0.151123087834634 0.113870510862422 -1.19645695217512 0.934800912300732 -0.945404730994609 -1.50686012683409 -0.962556317136253 -0.448900288526286 0.620267982975509 0.822814315180903 0.144854629004119 0.690373882636467 0.645399416875343 -0.364032092419825 -1.10742706795777 -1.86536352473111 0.099992491192833 -0.932419919553458 0.146000424485208 2.9399031605435 -0.852716317747832 1.09687502598865 -0.280798879985493 -1.97906071955427 0.230314170415615 -0.379305966146386 -0.0756549898466576 -0.758933050868506 2.50887725904836 0.191818449077717 -0.659653546489006 -0.677359650423745 -0.917513574614584 -0.661644844711989 -0.336772005294399 0.576180361695043 -0.989047704407529 0.310967987872075 -0.983189588070108 -1.80379743025773 -2.71208730438747 -0.620730298551897 -0.808554368042459 -2.00653891867236 -1.01592129222924 -1.39087744101028 -1.12073104175348 -0.955888531951512 -0.0833057791366237 -0.930719492877634 -0.704786122164777 0.166852173481789 1.61994626991159 -1.30735331844808 -0.830230393721934
-0.054809043980923 0.872071616755575 -0.135683509196622 0.386189917831809 -1.5972127111105 4.16070681565907 -0.0204517385183875 0.305137150179047 0.441127821961457 -0.454110351267711 -0.16449127075701 0.154946983134269 -2.0952269550852 0.185323780762073 -1.01807968546671 0.753566295377352 -0.52333188309158 0.937971666638933 0.217260457079844 -0.2485812046908 0.709458561471504 -0.533083220849709 0.395951314259691 -0.474170191337549 -0.7540202666866 1.03177275172515 -1.63756506046332 1.1350326138544 1.02000175556839 -0.512110244955348 0.0245298936854327 0.364012598457561 -0.874565276570197 1.48981469834884 -0.377735538568144 0.65114092995588 -1.70234073870604 0.59686338256703 -0.395490942645856 -1.3450103131776 -0.0660255431998765 -0.863861309263125 -0.372556292739827 0.232482158444489 0.106071925143275 1.31128912770922 0.214742757449161 -2.07399981626655 0.608945450459433 0.993347981883812 2.09914523343366 0.114982023538813 1.07899746687613 0.29432243349006 0.182495789703328 -0.221301771616688 -1.0844457518709 -1.58202351953679 -0.0439215878852451 0.867726303706067 -1.50705915577165 1.14758531722277 1.08545537140866 -1.78665938887023 2.66927314764126 -0.992783695296064 -1.3022284060317 -1.32293864140217 -2.06152163768052 0.846760023506576 0.654287437373828 0.455809493795891 0.168589262643872 -0.156941059017602
-0.837435595315987 0.519044453679308 0.253019242020144 0.162648632498756 -0.217109061604883 1.29762242777637 0.211879827283269 -0.571673234832266 0.393495661286385 -0.430556426843935 -0.13511837569326 0.192533323814518 -1.44735507294979 1.21056412445837 -3.34469762917972 -0.581682552301315 0.31426128534536 -1.01725953254371 -0.305928099291761 1.09230610045883 1.34240872328 1.61711891390772 -0.788988883934516 -0.132338880498376 0.13389545088414 -0.511655433783903 -0.773782031654418 -0.138573263081481 -0.170938548617948 0.336141060558186 -0.356805160377308 -0.68782985625842 -0.133998896373631 -0.637373857143158 0.651666835766418 0.373812901676079 0.289520157282811 0.650471195770906 1.45798147204703 -0.63938368121893 0.0288472414588507 -1.32212966161928 -0.539389406693603 0.244853548859469 -0.0953580202478053 0.317598737684647 -0.216702888647094 -0.5471384565545 0.263827368349017 0.463207326375862 -0.856093735899473 4.12993951558744 0.686378526870689 -0.410511362389794 -0.00337244741446203 0.986344990420891 -2.50807329652675 0.124559636609783 -1.90569665200204 1.7788128603842 -0.818532862889909 0.885234523875915 0.370362330731496 1.23177845528992 -2.47722716238563 -0.569932658233827 0.579012960258723 -0.985449949035796 0.13512558589273 -0.888059954078742 0.246394444297758 -0.536152599967687 -1.10082541560296 0.820548134090554
0.315629244025908 -0.610611507029046 -0.428474450853889 -0.785138742170093 0.109427526129691 -0.872108834076271 0.44119790204987 0.750080434127637 -0.421566793906396 0.323581481807193 0.114630993134213 0.460692845254662 0.21225590412375 -1.19669756105616 -1.87123607826403 0.303554344263117 -0.830788446950513 2.50324326139427 0.15071938226975 -0.663146947559829 -0.0511309177498893 1.54163030999574 1.26631892245328 -1.30786471211921 -0.410227012589071 1.37277693018279 0.719804949794391 0.133761530948651 0.768048880971351 0.35546368261351 -0.243241470918926 -0.983992991906315 -0.812525254715564 2.11694418298084 0.195072853287913 -0.380314903047317 0.0519813512669348 -0.499844680590071 -1.06524282139256 2.71411656350142 -0.954952584151215 -0.206709542125418 -1.21935567321446 0.430451350308025 0.701299225417974 -0.951350147042831 -1.3406225556826 0.284122064852064 -0.581031533663184 1.2405175134376 -1.19755055486563 1.34173100985276 -0.375809322679148 0.200699517307538 0.500897846232787 -0.752421610546672 -0.560164274997564 1.2600442193387 -1.74787634838664 -0.729432722163227 0.434386208246341 -1.81197801836416 -0.983037213786208 0.895801226999602 -0.0828061183776597 -0.743022547724335 -1.2575560917956 1.4183311182344 -0.896165477508202 -1.39250535553109 -0.159372269310525 0.136421419274462 0.48349984348499 1.57215591011315
-0.139046148571463 2.26901152525422 -0.618174196665175 0.481003864922398 -0.212942629692557 -1.77753652152465 -0.161105565654166 -0.0304717456195373 0.757362227212029 0.375200215494622 -0.611786244518154 0.780384870290806 0.79083743698384 0.236276041395725 -1.07307156302644 -0.347531297057722 -0.952997571008362 0.0839225395959382 0.984627529408455 1.9741677824319 0.491953128078109 1.64448476622326 1.81282908425788 -0.00831754742142592 -0.500928234309485 0.0117758784533114 -0.64797214882195 0.613302404241897 -0.852160227592251 0.582649094406532 0.0769201452292116 -0.146417373162613 1.04003207499377 0.432032663433287 0.0155872831944781 1.05855452754619 -0.935948982389418 -1.05639461509136 -0.791335519578184 0.544763891252854 0.580808919227684 1.76429405834224 0.650421219214597 -0.142897845162453 0.962097165889514 0.353850038639337 -0.473676748399376 0.0809165579998901 -1.06861859869213 -0.97317815097837 -1.20791024059064 0.22973287289849 0.208831136526139 -0.140521957590249 -1.96687924698887 0.600756076076044 -1.88050802411763 2.62975497990991 2.625541054595 0.127714007830846 -0.311593041889661 0.30436832338679 -1.23805302996397 -0.890837323306127 0.0809730116341646 -0.319299161827965 -0.455448703403746 -1.89941304084203 -0.639602512096133 -0.301409465599398 -0.0756646411636166 -0.580669843774682 -1.20973960049982 -0.0248818393116513
-0.551462496957931 1.67928496662318 0.75390448172544 -0.543900261421045 -0.673020913864099 0.648374559009977 -0.179007438418844 0.371249886444182 0.18200881671225 -2.54095015154007 2.02092265389513 -1.35401501812852 1.30624309826732 0.277363949294631 0.163927776811063 -0.0366933472279884 0.750103933645419 -1.35360366429018 -0.907582580055479 0.25870861412379 -0.106898450179095 -0.39426263300617 -0.752216363877906 -0.509530316320178 -0.288569638125896 -0.796565678816418 -1.92563542935914 0.392042690655572 1.02843428204753 -0.486075676005505 -0.348472126144432 0.522733903861122 -0.475360085755623 0.223738808562226 0.55223378968536 0.254242922327824 -1.69726487859612 -0.971747923499011 -1.07761532372571 -0.480859531080448 -0.663754717192937 -1.12699497675808 1.38218983777864 1.4561767515967 -1.42247308402957 -0.728577893214888 1.86803841610099 -0.373230724094038 -0.225744984391855 0.696053346683098 0.945573793684323 0.957149226363114 1.1758969486288 1.03719802456016 1.69770924677059 -0.14748125488039 1.50333897443018 0.464906429655634 1.35246874404332 1.30427088039509 -0.634402593983 0.0989634447487612 -1.12472432586432 0.357149515964374 -0.366287176784887 -1.12146701556181 1.55410727844179 0.577804756730935 -0.858678417513845 -0.139415503846517 -0.0171467940378581 -0.394449498510594 -1.14911171553654 -1.12854862061544
-0.818816122405812 0.751519866714867 -2.70835126080192 0.0784660321503062 -0.993820186074359 0.440309427945374 -0.591306712220134 0.331741752545863 1.32110593180605 1.69769148182623 0.153088602329678 -1.195916110152 -1.79139141435884 -0.253241112068865 0.62569147891291 1.55826431817658 -0.848410024275536 0.497706434551448 -1.1067263002489 -1.19355018516225 0.883223656775727 1.51828262364267 0.103427143253934 0.0860354126072581 -3.11498679399692 0.034976645005741 0.81792788033061 -0.400865706496368 1.8690208626116 -0.297839730124974 -0.49123035965527 2.2927323490614 0.283333873202399 -0.59877520566043 0.495707897879617 0.315809243727354 -0.251261321579599 -0.562554679824387 2.7932806372701 0.673812545663807 -0.677402274548073 -0.513797612374711 0.75486581118568 -1.96688592321683 1.52029540575953 -0.11244226268828 -1.61291209240793 1.38973328458664 -0.637511605237838 -0.578587625707224 -1.09305515476528 -2.36273228278042 0.144234639180219 0.0883390244942602 0.406247594837096 -0.925448392284515 -1.18752086496477 -0.140050713277769 -1.50948050850048 0.178528311878118 -0.247917817709008 -0.360464523326461 -1.28513034594095 1.24830612288179 1.21035885967781 -0.37372445830231 0.790951878948535 0.976783559617002 -1.07838946871714 -2.45822173436879 -1.15384638276719 -1.05531041157879 -0.0394634896794384 1.98667503271628
1.23130651456559 -0.519689816030474 0.042338164189632 -0.53491577219971 0.0557525728769079 -1.50447005854212 0.357560022328289 -0.279781087494926 -0.0806870856438217 -0.108676964192475 0.31430616732763 -0.431197494681982 -0.518591412985037 -2.30299427823035 0.808770724503439 1.22104561113126 -0.0584864795246139 -0.162271827707373 -1.77970351600358 1.28796837016702 -0.117075089804915 -1.59167663901946 1.00068354855951 -1.90730145938394 0.521761778938812 0.586321457675017 -0.719782966464273 0.732105987229971 0.128770707254781 0.621241822962405 0.619704705021275 -0.414304279084288 -2.28585157061197 0.736483576337129 -0.357732698720574 0.395173196108689 -0.0866194036921021 0.332975053637445 0.656790085600994 -0.670679482239107 -0.380502133325589 0.900576671122143 -2.05320783221994 0.802140414730294 -0.0971157551697367 -0.460612146874922 0.246245922777497 -0.428151551301583 -1.3726257372429 -0.454194006317297 -1.29763948869075 -0.510032670641273 -0.857604442034653 -0.21335817913959 1.47624295220215 -1.18980524415807 1.6995752098814 -0.289764420402062 1.41025361598546 0.549532190545151 -0.633944528094235 -1.52597124522466 -0.419334795825074 0.839022931661171 -1.09426322179099 -0.505963609708881 0.467004986567366 -1.71024975983739 1.12395319241487 0.911026047498453 1.09720448333898 -0.621400017579436 -0.626027219638394 -0.919285606529554
0.877059732335151 1.65220426181671 -1.61325987338284 -1.35912387407063 -0.9453870045393 0.103658144292746 1.5166035643023 2.96851841331404 -1.88525827705062 1.11298359610405 0.464420022706012 0.0558114340043395 -0.312619885598722 -0.274481182426976 -1.08406114724196 1.25237766121335 0.449851076632723 -0.928264593899929 -0.751778811216364 0.240637524179987 0.864630670108208 0.918594581780578 1.57420170572608 0.525675241910076 -1.58602945616195 -0.43012293663666 -0.0148143125959603 0.724616538854498 -0.144322109940104 0.98723898363986 0.380228034491515 0.963825467723668 -0.184587632904316 0.856471148462379 0.00525608230836875 -1.55186545206742 -0.448663526989281 -0.765156485853454 -1.85192963845012 1.10287214619089 -1.87674486301707 0.215063167739571 -1.82188240133692 0.00264408189767338 -0.430987772158833 -1.47075951422982 0.387507841242147 1.34150734793915 0.729050128434294 1.12516772135395 0.590305531902833 -1.4540757113222 -0.0204851495956141 -2.04273377176133 -0.784757778711913 0.523714723887414 -0.0362188714890077 -2.20697240176755 0.503517753757601 -0.696145115687848 0.338135226907744 3.12899263432192 -0.564064012574754 0.055440839560467 0.271135883027003 -0.369776449785045 -1.82712034769304 -1.35950631027294 0.554552286784099 -0.161573965357022 1.12553408289542 -0.204883762076273 -0.422935675113272 1.06667214757956
1.35927811621293 0.0456165227654223 -0.389358722323246 0.218672678425242 0.919255713692466 0.391025088887511 -0.412122557881253 -1.39391011609084 -3.30595316679295 -1.32498808931562 -2.2116513451092 -1.07405483861635 -0.705388522471514 0.583349641295543 0.377757015369688 0.464638980854732 -1.10003441210264 1.13536472999888 -0.0652217293174444 0.197963504021012 0.904094697414652 0.812025524671509 -0.20739739777702 0.672897869721115 0.489268752925119 0.0241662128119834 -0.441344070810808 -0.83969880920727 2.08551568775915 -0.85129401113149 -0.365240571454882 3.01689204379532 -0.463513294114191 0.0177311769836014 0.378489926981679 0.635007946243047 0.895864591892159 0.243760372910505 0.607779458640679 -0.256640138569024 0.325904830589489 1.18648713608561 1.30182016567655 -0.112158485114818 1.22881285868143 -0.606109077853207 0.925607755057743 1.31425715303191 0.186195679574802 0.21099631996586 -1.42336158420908 -0.279312886905272 -0.317100211814545 0.918137533857999 0.429130494195991 -0.559268150904506 0.782583852132518 -0.062429480628614 -0.906173526054026 0.375755749138728 0.618564041221547 -1.97610357426433 -0.784321613844578 1.13610120022072 1.0840687014173 -0.240992173376622 -0.133527381158636 -1.36946261003867 -0.305745447688831 1.04235990477824 1.40873572785753 2.05891705894881 1.78595515175261 3.08470775764274
0.742820949353536 0.38027396720253 0.514931757962917 1.19099932069273 0.0929201402938104 1.44996897421101 0.9843267357166 0.898853973384702 -0.908123920199477 -0.0031732837916232 -0.629316717208491 -0.0927765736688435 0.841467997943233 0.626048295158303 0.0184082721362354 0.0914708555716713 -2.43423382029994 -1.73998111044614 0.348886295250911 1.06044153887244 -0.457159800177031 2.3551444138169 -0.120126533003269 -1.42812904431501 0.78578949850006 0.126733930980531 0.431528330055482 1.48777200664751 -1.02631622340208 -2.14528127629723 -1.62162954555224 1.96721191877353 -1.3907575783766 -1.77989403758727 0.761465665674452 -0.00560557932491213 -0.531511136054243 0.203718110432748 0.705176976631927 1.55170135812534 1.10916061603245 0.178201036006218 -1.50697600381012 0.350855358351193 0.803556793057553 -0.402218692810742 1.44721198131801 -0.0661073843636135 -0.224823630248925 1.97013882494649 -0.241521548959742 -0.623758451882904 -0.433378460257375 -0.369284263213517 -0.0136889388895237 -0.00617052923533286 -0.433833423776172 -1.31464472824442 -0.235052451482122 1.31295593503146 0.772916406060298 1.09445655557905 0.372018209297071 0.269305038315571 2.35621041935566 0.543070338352578 -0.329160619617754 0.185694880690082 0.525533400194948 0.216136285601992 0.0548575967382622 1.64686967718694 0.491286698231785 0.398031707680631
0.115099097459151 -0.664492561030979 1.81912795769946 -0.25948626441685 1.15363977465493 -1.35533479565752 0.0834392438746289 0.817954181399916 -1.05129117391939 -0.951683833186071 0.753717198107978 -1.14606242791311 -0.0776165132856356 -0.235699118824562 -0.248106392018617 -0.391350728398682 0.328975931773219 0.244155128005188 -1.48282002500784 -1.45965128841496 -0.885250853867212 0.00975946757410908 0.954074338241142 2.0659812908143 0.714982634698751 0.622431407377064 -1.09954030959206 -0.597994623509707 0.526152818634391 0.442000343045313 -0.457406192975741 -0.292825839584592 -0.773585718509911 -1.32683594443528 -1.00564864558572 -0.397615442221555 0.735550508810192 2.3259491174608 0.159995464020316 0.0531078697188772 -0.542562541563273 0.338725941082713 -1.18885163178852 0.357754325901465 -0.0670482133898318 0.540153274291281 0.270552403865454 0.197916684229251 0.327895363920775 0.159778261520736 -1.91759834563866 -1.7417042816922 1.35869496870742 0.827250575930716 -0.673094905865956 1.60621572029261 0.548078915427097 -1.42303388401604 0.752861676074988 -0.56322641421677 -1.62404990865359 -0.721501461368247 1.00059926330799 0.305341190351376 -1.53233511449519 -0.0703140931015092 0.116132950224083 -1.05528790932468 -1.09844931907939 1.97553950963687 -0.333748736371322 1.42569021547242 -0.643811199903362 -1.20147339885149
-1.14029144302182 -1.03280034730488 0.469073943463314 0.0822683206531949 0.00426177368831503 2.48704863427611 0.516522023695991 0.283663305505568 0.487637241315728 -1.62805113390653 -0.547184912054366 -0.0117203008947777 -0.407768760568685 -1.52600627418565 -0.0424899656926776 -0.564345090675837 0.899381518076735 -1.5200976605142 -1.04306275837312 -0.940518219917076 -0.237266886827533 0.172702622659533 -0.0693674257010056 0.186689038091842 0.21029623741656 1.56415721324652 -0.786952316562595 0.691492225562977 1.11924183457344 -1.76236792910237 -0.92321084517585 -0.467322521005849 -0.174910144424723 -0.068061044004262 2.02425356922743 -0.467310416659031 2.46679884273959 -0.129277125736946 0.392512324505759 0.994616177138975 -0.0262594191676191 0.260722436282813 -0.1103663994391 0.151123410092006 -0.187293414412994 -0.0189161079350266 0.342715483459893 0.0533711830497198 0.468534406923275 -2.142027480231 1.70889622322809 0.223984551131138 0.781931258983211 0.178796846469971 -0.258297630639705 1.18215833500318 -0.0381864946540656 0.122317213489427 0.436074195164923 -0.79339649873877 -0.756584659230879 1.14972819700081 1.89964803399453 -0.695682689408819 -0.55738180321726 0.364255165307907 -1.01491972083481 -0.591771819001026 0.494693245954333 -0.158021866587194 -0.38032593861287 0.0297642362393939 -0.614506792105236 0.0701870684920941
0.15699598215439 -1.2830047005918 0.109582250651653 -1.12223679203336 -0.23497818599675 -1.84376561553386 0.859096801015739 1.3452554022576 -0.391987720467925 -0.860906607481701 1.70078290378657 0.822224621857311 0.285491105874142 -0.685888331212569 -0.871565741830439 1.42110337506613 -0.346179191807595 -0.146924179366552 0.314562664322287 -0.167052918501982 -2.43284262204728 -0.0592049408954875 -0.658001347012405 -0.709446932670699 -0.610107311912149 -0.56572963505631 0.427457183995983 0.404561274630725 2.50605056954332 0.0581220622382292 0.910770281915159 -0.657589912471567 -2.36644682829516 -1.02206949158903 0.00215088242859654 -0.0542688448870839 -0.315284732227997 0.0646995225970839 0.519513721083096 0.491707643379542 0.1368466662326 1.14960782234412 0.21755790518538 -0.88240142202968 0.124388731920694 1.0248035710085 0.338960152730881 -2.40946094674684 -0.700020417744197 -0.421451378395669 0.0208126830582974 -0.695000600761864 -0.607346775600002 -0.808540914729488 -1.08684296007648 -0.329881160649992 0.379553690487377 1.99981358449518 -0.443518653932096 1.10811703169065 -0.945631150797841 0.320411304677744 -1.05092403581355 0.724059343972521 -0.487743392825117 -0.0753559832714658 0.0333882625553933 -2.07877459392819 0.00252461493427562 0.39720915649485 0.93986808612427 -0.386328502561138 1.9230712635396 -0.0457584378874615
-0.472651972387283 -0.481179436617462 -1.31977721077851 0.701718937125423 0.34390705709143 0.880160007199065 1.42109521267552 -0.550339649650966 0.910632386804263 -0.016145424083561 -1.75885202571486 -0.200863668007357 -2.96156232604697 0.362311564954181 -0.597091335511051 0.683906634601428 -1.46321560206645 -0.494237547631267 -0.558658760020387 -0.136598719287356 0.693308633786458 0.725047619026822 1.13540304348989 1.65390391313973 -0.846529357597674 -1.04719556787812 0.066611625565116 -0.801815311424195 -0.822865541508432 0.362453175367183 1.3538322492777 0.0188164231607489 -0.281454751189362 -0.698640410850094 0.446549254825038 -0.00068527162052257 -2.63599315996713 1.05245063871163 1.25922708541132 1.5310154730174 -0.411028178669594 0.725283744526263 -0.177655887747164 -2.24523016989662 -0.725434478010954 -1.00067462996942 0.388972875250696 1.22207772264799 1.00352623426478 1.75117011623379 1.74020770750965 -2.11062924809681 0.725599300375812 0.833811234791917 -0.0596791864794981 -0.515649071460109 -0.533433418556942 0.807463081341211 -0.417017695453054 -0.947503533797077 0.752997764531316 -1.17461441985008 -0.791562453601389 -0.338230840575293 1.67600912396831 0.516916306348596 0.660824932779014 -1.3195492337582 1.31371282329572 1.84106363399948 0.48352079243558 2.20825535078385 -0.271367823387554 -1.54190035136382
1.23872415753406 0.276127829353544 -0.670241270644336 1.57441747976895 0.517847200158883 -0.416425652590438 0.401303257381087 -1.20246553510268 -1.39515667165422 -1.15685653141624 1.02796831721032 0.784905042454048 -0.190433044900485 1.03549582645279 -0.121631983306139 -0.168455632468257 0.529603540236842 0.696878122973204 -0.365566571749734 0.0359412539474894 -1.93576924954785 2.03330777506885 0.881829842794862 -1.53002403617837 -0.575064704879187 2.37142877525082 0.607143722341537 -0.827747098704616 0.687016650685162 -0.565964999435767 0.360720561409124 -0.968432368946594 -0.435871665056715 1.42679067270808 -1.03717257749433 -1.78688518824049 0.779031541970142 0.33541399348341 0.246305892432012 -1.60572675100442 -0.807358562644937 0.262931222170535 0.951038256112947 -0.281526151012327 0.479153394484975 -0.178813072533809 -1.79542498673656 1.06787967755463 0.471903837973458 -0.631990580147526 1.16729100934909 -0.868192124780048 1.46896393566581 0.0010342937348313 0.223550315318835 -0.854228461133913 0.0901124679965897 0.069653404482402 1.32592572897234 -0.305515866812105 -0.314293709338083 -0.272456784002506 -0.552186834351491 1.03889587567449 -0.856176285643679 2.15258595060509 -0.328636525122016 0.100452628652005 -2.07866669374677 -0.153436333288175 2.05138840685595 0.705762544595437 1.30473285266213 2.19133973558146
-0.250142528817654 1.31613931364763 0.640235547993581 -0.30998180972972 1.69296673790575 0.773805294965338 -1.21400654261448 -1.31637596133667 0.702389890896687 -2.87733387028448 0.809596595311728 -1.07662371055381 -0.0615904250741032 1.25473574141025 0.4026699843003 0.662691736870813 -0.5777401301478 0.845403303304634 0.88476303645457 -2.4887841650758 0.296395023942744 -0.844993032378633 0.440371159985222 -0.866270413712877 0.586577607618401 1.77916527958099 -0.049162266698146 1.69417362858448 -0.601961881001939 0.755286323548118 1.31606397039485 -1.06849148681537 3.09214830397671 -2.44793493641543 0.667516428041125 -0.549616628591689 -0.58188335410274 1.49507203910794 0.146215241028795 -0.340538248835097 -0.0807900846745417 0.232491745907654 0.890949150577938 0.828792152697842 0.984427026265247 -1.33001106012488 0.479487726469952 0.245537083216914 -1.18688146897786 -0.100649927723611 0.375453703209146 -0.551450546452945 -0.851737432558383 0.325274572732518 0.324381985025086 -0.0336304717878182 0.614801463781886 0.695678171363062 -0.241409281224523 -0.62636936666788 0.0731575970774905 0.613716910848113 -1.30667416124114 1.54502810765134 -1.02502585594907 0.3454248689614 1.56022359614303 -1.86649875453973 -0.330944537886428 -0.102571122285744 1.85399954222234 -1.06301091960704 -0.856269722595903 0.663025156537228
-1.9814827206838 0.2458743271545 -0.546266874494786 0.320687981621827 0.963920238702415 -0.262169878078046 -1.20357601480687 -1.26028536482215 -0.664834002965228 0.261446247230503 -0.768650515106863 1.62764722500588 -0.00509638083256911 0.369416015108405 -0.258548868732823 -0.136029879707813 -0.44751123584304 0.721331700547041 -0.117275544833678 -1.56449261834404 -0.0240655199932141 0.898559661122141 0.967084221061031 1.55402693921459 -2.67608459532983 -0.293517359300791 0.0922056228657584 -0.783499418948929 0.50456361318393 1.15439055588597 0.584303327012336 -0.677384602608398 -0.0767873910069892 -0.2389494793863 -1.49204550729142 -1.0244651842504 0.308946509368286 -0.270166808977806 0.494229963112692 0.325367500420654 0.761745095660616 -1.28887001931612 -0.383595885363017 -0.112190801488811 2.48340966980144 -0.178345050892835 -0.211330127912754 -0.24925069102861 -0.618756384137814 -0.908005286459671 -2.30239538958562 -1.0669737735018 1.94016223029869 0.441146639450706 0.141377492890448 -1.51969646062613 0.683937276941311 0.543873102981941 0.459573587659629 -0.909463355260142 1.77691474466583 -0.560946869064871 -1.78342715309408 0.542101689224729 -0.0018339484257816 -0.600990617893645 0.491836449999063 0.254785382399412 -0.891226601502723 0.172402619890048 0.123044281192724 0.756784986846162 0.4671651890822 1.42266283795759
0.021089345934037 -0.324535034628848 -1.39202821791061 -0.269654133910817 1.50560832726734 -1.05833938815745 0.32357345293178 -1.00178795445741 -0.9920670303392 -0.827006626634533 1.51655980589474 -1.18668469698455 -0.111042426656205 -0.73811924170348 0.143520328061732 1.1178137090573 0.420487895289468 -0.154589853614522 0.636409272979193 1.14652891484057 -0.835575549763388 1.13221174177266 1.52401486643364 -0.987314109302823 -0.210184537058481 -0.0411096488629923 1.7907286136573 0.261238590202491 -1.64600757736668 0.923207526769791 1.73773185966535 -1.55510611539888 -0.725380352982773 -0.926105506955445 -0.990213369418926 -0.225802752336972 1.35862449531167 0.786679433075291 0.671302179451304 0.99004338327691 2.3834664964137 -0.0528698546624629 -0.635677028468013 -0.184677084853752 0.30327361285318 -2.64624954838239 -0.790903476835673 -0.314741728243084 -0.992331243956131 -0.635589817458006 1.67340415309291 0.450993314637685 1.29981693133931 1.01779169281855 1.77028693789112 -0.833875227209977 0.538558355373133 -1.55942397021598 1.68306823198447 1.00358913334388 -1.27959642041253 0.615428614749944 -0.982664679544451 -0.223280995616613 0.415443544243418 -0.0641656240649832 1.40564379321115 -0.32663378552622 0.203766966510081 -1.25984045872126 -0.472618720533185 0.591794220650696 0.442130815912719 -0.282087767943128
0.247013996749673 -2.24117626615039 0.0476116033172045 0.552022305166634 -1.26991609070731 0.300203228453706 0.988462051238889 1.12001303184369 1.83283864854852 0.0359271849519081 -0.983837289032972 0.667225208165916 -0.366855938602478 -0.414774425297387 0.49772225202558 -0.893345652019142 0.440075272488837 0.36375709553135 -0.932367212497491 0.155983764587271 -0.683298799810488 0.635498922211145 1.53288502501727 -0.451579979798179 -1.10638722262282 -0.325236419569876 -0.451213923211447 0.0747049846374057 1.1079220381777 0.170659113854283 0.946695612486336 -0.819299202026901 1.25601858182063 -0.562639797726853 1.65849337919077 0.311222289664332 -0.830394475689472 0.374944406714564 0.452942421959651 -1.56676779548911 0.50617585048336 -0.487588360141279 0.209124750507468 -1.51213675544829 0.570951090667027 0.614030754652544 -1.00410956755669 -1.40983347665734 -1.21451520654526 1.35660401556736 0.713000587006516 0.448692894623005 0.77097812904118 -0.447510431561633 0.385716206746541 0.257448181033728 0.173883753111322 -1.87158975385514 -0.0834896886692554 0.366790492222708 -0.186265044797696 0.305311968781568 -0.570790597062595 0.800721263567317 2.16846740214793 1.44793299832074 1.07976211467493 -0.309350065199306 -0.283811842088571 -1.54808280159258 -0.358760235789872 0.139967924034346 -1.78335871356284 -1.57643451740335
-0.463080291831233 0.328508200552164 0.247147074379469 0.371847357784709 1.62930097624627 0.699776163698189 -0.986640793709206 -1.39263106300732 0.429264443349108 -0.87042770656471 -1.07250790557955 0.888840171348996 -1.76418243916839 0.1218529705151 -0.987595913567007 -0.606366393789863 -0.944745754155581 0.593563555774918 -0.998717215503565 0.74007449462414 -0.154419128782424 -1.87536750313983 -1.36083773601903 1.18913969624014 1.3854580107469 -1.42350482347514 0.171471788808869 -0.579525250572531 -1.92707722189258 -0.269711529336225 -1.32181446093122 -0.284346536743943 -1.62932374497273 -1.50317967991597 0.253264458944573 1.38530199620829 1.02413308045121 -0.183154057352313 -0.26114878464032 -1.10481986994812 0.602835952560016 -0.633081926527485 -0.289258331729466 1.09652127145805 -0.371196777388431 1.5837698322829 0.550825584237006 -0.0826237896508263 0.104887142796391 -0.445001918130504 -0.364808643102088 -0.570814406191498 -0.833731412939729 -1.44675628080012 1.3382044713851 0.14497289900455 -1.82834845609519 -0.228205632277576 1.02043990970934 -0.17349924934523 0.609316640634119 -2.1646931774192 -1.35010101315497 -1.60524100762425 1.47111791739452 1.07503075265903 0.803996997667209 -1.09993866161619 -0.56714502545771 0.579809873963979 -0.913800906380813 -2.43028103337653 -0.299134851722694 0.689822074708544
2.25409178343713 -1.50564920316308 1.01426046162888 -0.651952797882937 0.295094608977857 0.425250673097767 1.04329442459572 -1.33114082865606 3.17658851813436 1.59770935584671 0.156822931786586 0.748160789369914 -1.25529674347197 0.627711936241167 -0.163457716188283 -0.38666972605079 0.445178409748506 -0.985198758033593 -1.41043800715598 -1.76770497026841 -0.599916224147645 -1.14022818161028 -0.760909775488176 -0.333713218193777 1.39445077381348 -0.451680318561023 0.586101267678872 0.844012878809198 -0.528195192141322 1.27679038084616 1.12014767592488 0.759815635952453 -0.9515941848116 -0.0203828488234586 3.36072883220093 0.779182327957011 -2.87867677581806 -1.02504228270485 -0.134012977163075 -0.434081478991201 -1.65621420506051 -0.631039051609642 0.388767438345349 -0.293182365331314 1.38483049521377 -0.675988980247026 0.514865658922409 -0.593085374972232 0.796719178489102 -0.736527507732111 0.45767760397953 -0.213410598616846 0.10059794247674 2.16972471499401 0.911795424141789 0.0695748700078892 0.874386943014182 -2.28072433086759 -1.42854518159819 1.64361283365803 -0.934758587226092 -0.676105763600362 0.0218457410773271 0.318212154896726 1.20515209789127 -0.0605086788555355 1.33044683261935 0.663043231604433 0.559859576841591 1.39089466471925 0.402993024344312 -1.22596497428947 -1.58202675914148 2.28112962492703
1.7870261544193 0.733268794986139 -1.21338883388375 1.13433887925821 1.80958518200278 -0.818596878552312 -0.329072674085266 -0.645600130595174 -1.63744316743465 -3.05015494879121 -1.16160974390929 1.67178228131333 0.177640329372096 -0.241561362994483 0.763341295493737 -1.38936660426887 -0.291517314819566 0.709477693297936 1.3898539290492 0.489150182949125 -0.267905850824415 -0.178676433614721 2.11222724061081 -1.31328486746636 0.73362204277431 0.824820779939581 -0.649854625313599 1.78821181672686 0.442546572385691 -0.66504221217571 0.0308557350657985 0.489567370016115 0.965029849954772 0.596116430746731 -0.045352775932801 0.20300111917525 0.991962161155758 -1.63995313254603 0.0761051737958903 0.751653209091036 -1.53666099976923 2.24223613810678 0.979190355040924 0.35838131580459 0.265729614750624 -0.505520560890701 -0.478899043204407 3.19869611508992 -0.498173652967273 0.400660331511461 -1.37862165628083 -1.45386566311722 -1.29662214943992 0.843523590211759 2.66899200997355 -1.11056894896685 -0.0258184780246365 0.423174267792614 -0.629890508866536 1.2112105590115 -1.18212569787774 0.670987358012449 -1.36156498923959 0.177748013806581 -1.04114914299427 2.06028027073654 0.690162490745996 -0.924867227140815 0.140728002710206 1.10087369355678 -0.253221749980058 0.578556266244793 1.23345657605503 -1.1816019715978
-0.661752789863843 -1.10134444142106 1.02532085476372 1.19588869044532 1.63310864677765 -1.27786793536246 -1.02282827807904 -0.304356849756052 -0.412825964558394 -0.985277594799622 0.524899800474401 -0.580498326621727 -0.376858624860327 0.644402769107015 1.42070207327616 -1.21326705313082 -0.55890868013681 -1.41714397973419 0.850598555710419 0.0896684704766252 0.365193021537417 0.972513227230494 1.66711097337593 -1.02530943780648 -0.929319499160719 0.148054750549134 -0.211587892746322 -0.174748994704654 -0.757647777021251 1.18418933183479 1.56666098108745 -0.375294601311436 -0.23290512869706 -0.257567428503504 -0.427501884098802 -0.264818621916762 0.928374004177459 0.578794758486045 1.58079629624915 -1.08481831194217 -1.31851028992474 0.371525623824143 -0.085197383674162 2.00683345269851 -1.4223715404262 1.93684097377253 0.625560011737808 -0.744375125592901 -1.15014005645121 -0.801061507929048 -0.888521783494945 0.781243072702451 0.059472248980348 0.0181256674453728 0.384118106664611 1.07079727062601 -0.596429091113677 -1.08436789711519 1.47270082892255 0.190742290681737 -0.0200551082748396 -0.773594671139579 -0.662218468520996 2.00343984175254 -0.608952758809623 0.331936086533125 -1.19406974430952 -0.0178639203216223 -0.311572347224091 -0.977781478932559 0.390594483595281 0.621928188971936 -2.25244800268607 2.7876337191599
1.30239759682151 0.800413514322443 -0.757364867638083 -1.00027883888719 1.20592706954311 0.386298213801935 -0.869133616909692 1.10634815814493 -0.365724857761103 0.785356328794471 1.27024803275802 0.341474049786768 0.232417865674612 -0.443529318285587 -0.846953065641354 0.899319341980527 -1.18354851661347 0.205897466147465 1.37812641546629 2.11155498638757 -0.701628206778394 0.413130522666107 1.71109698352056 0.839277678678633 -1.30262614418275 -0.0875637152119625 0.106949711252872 -0.378635861536902 0.0840559497615474 -1.07530053209461 -0.861893574014173 -0.759319329455734 1.70119536838723 -2.09629748966748 0.437795022543817 -0.363233519485348 -1.81447083007421 -1.88860246704016 -1.2694878746321 -0.365783744517761 0.358493825845489 -0.805789306305734 -0.238706109009334 -0.576669745577228 0.140358082911118 -0.540944254643039 0.107412266379736 0.858231730189942 -1.76127170244726 1.33202701244243 -1.35527575011 0.580544952680517 -1.13957154479439 -1.14018228840303 -2.20492084045299 0.588599838938888 -0.530990808316487 0.0950045842453212 0.0111600949765944 0.0293238388946638 2.50575132522433 0.972715746959516 -1.38625788385191 1.87281376937023 0.540192883858061 -0.180537784606185 1.24652283183123 1.29126244165651 -0.469640944889642 -0.286747364719919 1.14241133046647 -0.0159148197184945 -2.23131231183034 0.30490011299916
0.234283801830696 0.0872585892895471 -0.919019687897225 -0.538475802198051 -0.12244246555762 -0.130720848172318 -0.691205536109274 -1.5965594553773 0.10977426159452 -0.625220370422345 -0.98224518251412 0.968825990602344 1.0701284079621 0.189207100298418 -0.84025807363728 0.0367212209043468 -1.28152769107327 -1.07997029447628 -0.802997390969209 -0.154539140762424 0.920973652823454 -0.00605756324681127 -0.913929571850378 -0.984425684101683 -0.184125540928686 -0.986614717738432 0.287782989205601 -1.27897775675209 1.10710225074325 -0.125452935911796 0.176029487209703 -0.539809699616583 -1.68015348146522 0.16588340804496 -0.71217354430111 0.734691927262266 -0.914434453524612 1.69691226198789 0.235178351887983 -0.157371154879069 0.50758292336351 -0.343029348254956 -0.365422952765547 -0.827847094070412 0.212795534842008 0.13232777266863 1.2252852297714 0.95094633149264 -0.292724384526799 -1.10835487123233 1.32803877211229 1.35541190026679 0.245667826682698 -0.789780388056439 0.52729589660545 1.01638439082762 0.906019707795624 0.725287232143275 1.08666962895743 -0.151688246131316 -0.752675023148307 -0.00247693250680966 -0.0700492818193675 1.10824009336174 1.58115154147099 0.0869007721815283 -0.173126577104789 -1.58848045978057 -0.700849242452903 1.52656918661212 -0.926343859033499 -1.05282622597084 -0.311059358421772 -0.258483076264627
-1.10283624164012 -1.19779518646554 0.0491657818389607 0.249035340812977 -0.632322971498189 -1.12879349716737 -0.613840534724696 -0.397491243132974 -1.95420444680214 -0.44841801499671 -1.1339251492058 -0.873922160877565 -1.34281032869739 1.70933668349795 0.575886131048147 1.08551851188786 -1.92854508986039 1.04129888088874 0.45250788485748 0.444252909457025 1.32367850010347 -0.672400462765241 0.960072560391475 -0.640216206095375 0.520611993743 1.42671307185467 -1.10867867226887 -0.158011718014368 -0.154272589112428 1.22778471900533 -0.777469588631066 -0.664040603288371 1.08134001273107 -0.189886501352017 -0.24554900749551 -2.56606293205731 -0.361839349626603 -0.591818625189938 -1.01235871638777 -0.852223018329366 1.57664789855798 -0.736409630338697 -0.0216646719930424 -0.534764717042334 0.271281211460826 0.981420875449733 -0.59454511156768 -0.837355482850275 1.69062956921711 0.199052212445033 -0.699728183467557 1.55803570652887 -0.543420952240092 1.24390290753178 -1.54070138773776 -0.906682626174026 -0.898022388245491 0.339474902268596 -0.245412829951082 -0.621607192686936 2.47468422838415 0.747049132768604 -0.95242788048791 0.847399844469637 -0.49812043494214 -0.986398732318595 0.144964768368432 -2.15920434607988 0.439202743040824 1.30525652387938 0.204440130224933 0.1084632188161 -0.128343646075868 0.931009045502643
0.446321473014627 1.46644877945236 1.76405787192093 -1.42621212213989 -0.254178859128737 -1.95780547128782 0.215571365970611 0.107803572641972 1.09195273232035 0.611299478352602 -1.05321464958108 -0.861892939801181 -0.147218360337642 -0.706320468973974 1.07621048354641 0.242150544464892 0.893133705130052 1.60572089269478 0.71589799582014 -1.45856903975964 -0.502756920263555 -0.255436081317755 0.888620167330997 -2.09721736833704 -0.763965864596223 0.625122225185849 1.07536118113394 0.0776919657830319 -0.545353140461424 -0.815709572891709 -0.169653817465686 0.620709789690637 0.431546290291076 2.32605314554367 0.0484120024518033 -0.798879817840793 -0.557325270694178 1.01971497277184 0.650876303982524 -2.11678760722836 0.808596314616119 -0.346451822856605 0.840634413911692 0.665579462913199 -1.71368848540283 1.38703243391162 -1.25967571786853 -0.349749601309027 -1.51289239560687 1.14378709424997 -0.387312687264829 -2.0312620269404 0.399699746078515 0.410038203087112 -0.447288908678182 -0.36314400004307 -0.550121120058587 1.63041007990753 0.544544355134642 -0.0579735985756368 1.26241172187947 -0.52211443250837 -1.22609059852073 0.249684857847098 0.15039039717489 -0.138107711675921 1.60877673029282 -0.136151602533724 -0.698922804397712 -0.27482967651444 0.610163079575101 -0.836657110578583 0.370955318862189 0.487487361456139
0.441618008709565 0.857008178004583 -0.927434786325727 0.63066979279685 0.46560475705028 -0.899634974072844 0.189210082175685 -0.681312178968607 -0.721546203897544 -1.44453882885922 1.29966614160386 -1.21488830613092 1.70149025901448 0.601053479836947 0.599229504887347 0.00966336901749189 0.31526033393471 0.924597958852784 1.58417833745211 -0.441511395284361 0.546960519912284 -0.388869206431038 -0.972951497973072 0.862009693288005 -1.00154056791387 -0.115574283058597 -0.39368508759664 -0.0491918107156013 -1.31775183966123 0.0343033440573547 1.44379287444324 0.31984887593184 0.00855808596160727 0.58366941711628 -0.961684824581487 -0.0291984944264317 -0.984438362097337 0.381368087898237 -0.558176127488718 0.0859257558683391 1.00125540960541 -1.63410349779328 0.57088478244214 -0.176262555062431 -1.69187967959072 0.619293530459052 1.25915634177953 0.299648322437112 -0.398313829882509 -0.135231447878078 -0.418547961899151 0.242767452508685 0.738415715745392 -0.0439343861734494 -0.400504410461054 -0.57846672541147 -0.847605204538619 -0.491719662870449 -0.00401064985159545 1.19636501541397 1.03048671076313 2.09466036996473 0.782068617190621 0.322381317152778 0.89005795663982 -0.191781537483167 -1.13650951297237 -0.806261591482836 -0.71360607590749 1.23291135817684 0.0650460133521909 -0.351217895926112 -0.288955010476815 1.09307610673344
-0.916417454237163 0.399660230913338 -1.61126114373778 -1.65440000496277 -2.1736658660474 0.121293039527351 -0.213840579354127 -0.0908395186142347 0.211429428824585 1.97450566378387 0.852184803963788 0.480294153951695 0.426381943273638 0.736621874254682 1.38246739797635 0.169419019052122 -0.596287692477377 -0.0621275259529412 -0.204096324950704 0.729318958892944 0.177521593684196 0.471074438821339 4.1774641911574 -0.523685691166438 -0.374488987219253 2.40471111582056 -1.36564619340029 -1.24249210071956 -0.966624751846043 -0.220925179743246 -1.43159159893056 1.44907318508447 -2.30738253215529 -0.791853194914131 -2.09311115202869 -1.34697259022817 0.598373040093353 1.70075019530603 -0.881387073723899 -0.250494149923316 -0.277604418513978 1.46008965254883 -0.485918132126908 1.40811972014644 1.42134941534744 2.20218091229375 -0.500020747143631 -2.25146375948043 0.085750508693091 1.16863171452169 1.21651862385098 1.01857857387803 -1.8792454415977 0.166754452151073 1.44656836361815 -0.0354025946745115 1.04362537134611 0.305044478003774 -0.860072186081638 -1.12352914582309 0.321253026035379 -1.24931645482607 -0.476667405523537 -0.940462018387809 -0.619809353603396 -0.744981345476586 1.37047999675839 -0.701711692554234 1.74339934963928 0.102810471537297 -1.33680523965849 -1.05595586318328 0.683897287435279 0.48201121461563
-1.68061467840129 0.654654430361656 0.827814927375456 2.36961144321731 -0.71830804200492 1.67930040162866 0.985160895193969 -1.49927689565188 0.216461161267789 1.04572105495423 -0.125076639155441 -0.0774477824723604 -0.980269668614062 1.22702320357505 0.802230803409212 -0.0526139247811785 0.791188239783786 -0.682386292310734 -0.515598770391441 -0.638077335422592 -0.179128090747977 -2.98322111652242 1.04220141115823 2.26499317077903 -0.683453260790729 0.695164266241216 -0.0566355725736234 -0.998372307363127 0.332754928309904 -0.134546140580663 0.0254910569824844 0.806912397297954 0.321815105270105 -0.986457295187307 -1.79817460515299 1.44500210095338 1.61336963766954 -0.280251015420197 0.0567074096661555 0.178122601537622 -0.971103337961412 -0.18606564972465 -0.51079246141825 -0.47871122691823 -0.080822874712901 0.420102371791639 0.72491733327934 0.35801219523838 -0.706280958065621 -1.55703303990205 0.133295509315158 0.151331356692292 -1.21209897700794 1.15878937207046 -0.96672830127641 0.667125394215202 -0.614946738327317 1.03122138053347 -0.149567362477901 -1.37216126545473 -1.06118494359448 -0.705615590457797 0.722324853599102 0.221989625809539 1.01872385895874 -0.754161609222574 1.15371756511966 -1.20206557531112 -0.778081621344229 -0.661766977230894 0.250713708863724 -0.0320673106547552 0.987893452648313 0.694649262561487
0.662093271543452 1.27720599122593 1.73848010061027 -0.637940973126488 0.628529685690563 -1.84513064526604 -0.562346982258188 -1.17367391458956 -0.42105891194863 -0.372379268228092 -1.77927987678816 -1.98090756724149 -0.453236432761322 -0.784298442136035 0.845978724783482 -1.98692464322013 -1.09744090698824 -0.909150018234425 1.18200809108376 1.49502611354476 -0.81687684948403 -1.67752047644068 -0.402718799970011 1.187582390822 0.665199535106497 0.0823065363258333 -0.954127912491257 -1.85602591224973 -1.13147700973261 -0.800915450509469 -0.697527202989376 -0.210069404213618 -1.0823608918092 -0.780267287530547 1.4441469562227 -1.05905333648689 -1.12484772818722 -0.169198596734297 1.2787976498023 -0.16446761769381 -1.96804692453452 -0.647642894630963 -0.952422032927775 -0.821411236759563 -0.285623672352493 -0.469042659492842 -1.05206683445581 -0.922406825257835 -0.641504268222181 1.08111990567262 0.828188941102677 -0.0997627644179725 -0.789566499977317 0.122906510012969 -2.13824475971537 -0.889767091654374 -0.317557351929569 1.09019518359714 -0.271959126228151 1.52921758993238 1.05490574324046 -0.574745277357149 1.103824783191 0.485465725639421 0.0403364537138984 -1.65597509877809 0.0631190338967441 -0.374870825279318 0.235413181842059 0.41436484623643 -0.566257188561504 0.489227447348113 -0.634930858846503 -1.10005707429288
0.50215036381729 -1.04029068515804 -0.613090947319702 -0.370464953191369 0.315804562775635 -0.388272400319376 0.278813312028365 0.105789133789827 -1.06063865635724 -1.19442332343515 1.20602481052151 0.298544993441192 2.61388383178643 -0.358516421367964 0.0157887429897488 -1.46387416657533 0.104722437879203 -2.08831507013688 -0.602381778903124 0.149271735202562 0.890339202740927 0.0313945652987071 1.21876898944234 1.2876980031321 -0.546717274114489 -1.29281666454171 -1.43604901909885 0.193470842436264 2.60338115013435 0.0883711221080255 -0.0363322838707689 1.49909013947306 -1.4013144808018 -0.0321248597449932 0.350683138767724 -0.205668637637313 0.73879449048329 -0.0344208919330346 -2.40161541303606 -1.00803096192778 0.503785826024079 -0.334410390302441 -0.600203419507474 -0.335096999187289 -0.35597330131752 1.12017314452633 1.56065452590591 -0.0848104080263228 -0.225701649253587 -1.42573908137686 -1.13120541468305 0.450250961608347 0.982957306391764 0.723276043763448 -0.469462448287104 -0.217116637175528 -0.744070080647296 -0.156024450378393 -0.399107049058854 0.974344346164079 0.962981966218633 -2.0422085429506 0.511687242996471 -0.278853418170021 -0.643163310763397 1.44019239200322 0.80788158939399 -1.39534032124195 1.20007380637179 2.99286106536831 0.0951826373473545 -1.81230029172285 -2.32765586710884 -0.935462943750379
-0.153593825782137 1.71982937498799 -0.961601772580995 -0.490355097526599 0.206939304861926 -1.61814700393828 1.21530031562894 0.273062510840281 -0.222966261838972 -1.19840334970748 1.42255949408221 0.952071705394939 -0.761527049934608 -0.084500932166205 1.03047315710041 -2.13448958808455 -0.249948811685247 -1.25920532406359 -0.12438892400843 0.515845058766253 -0.0306173788977564 0.253537074972421 0.349953197367842 1.80588045565733 0.601153092185885 -0.471708122906255 0.882657706408963 -0.401655270761913 -0.0178279373356236 0.230421066948349 0.231962384053901 0.286992700533457 -0.99242323857005 -0.0402813322486167 0.747394790475985 -0.491025232647083 0.387939355045252 0.962501921515073 0.646382109729069 -1.17401343812265 0.0989113305434363 0.655284064565341 0.0106167186135154 0.336736035365373 0.659410670355786 -2.00899232416576 0.0567372303548808 0.310229936796906 0.5607612639831 0.670958448144745 -0.902048712513226 0.884508021027052 -0.0370694118020439 -1.58463392318936 0.566218233981673 0.832738123925399 -1.35038473867678 -0.979202596229271 -1.50383021049621 -0.12499414327923 -0.15863552453435 0.662885747527405 -0.725598024835102 1.11749153945261 0.991714554525267 -1.00968187472757 -0.264601984819116 -0.0987635246990309 -0.514224902435412 -1.30298369000497 0.230731539290429 0.262390578538931 1.06355899326613 -0.816938142110927
1.12170543863314 0.182213221210749 0.694233320144295 -0.832622977854053 -0.149207789964628 0.0124484953336196 -1.39250838391214 -0.116935968574332 -0.81035601892954 0.0524766705687235 -0.170981930483515 0.770853482947897 0.0113687303211481 -0.674478024989394 -0.251269770322988 -0.565390808322115 1.16640363676008 0.18544517322228 0.340469624193764 1.01941447267071 -1.34948762633582 -2.06560087534279 0.559598118879697 -0.828619196901555 -0.101511466638359 0.279452753982907 0.373121583246441 1.32453872884359 1.01494668773069 -1.438623678155 -0.950514009980052 -1.00896569405351 0.647183042287333 0.0189550024370234 -1.5487753882715 1.67989645959688 -0.900009490491787 -0.186667634892312 -0.150354210932661 1.78137541430217 -0.0696403616918507 -0.602446187116692 -0.832436490315467 1.70916841064158 -0.572387068898284 0.275588165591639 -0.837787746061442 2.49790927180485 -0.988053336896105 1.45831553475238 -0.202132730927619 -0.601738016230429 0.140039256196149 1.787980174994 -0.163087974467905 1.23645375304506 1.01271762811843 -0.0772118811830226 0.398569169159281 1.30066206746195 -1.93562792461104 -1.05635269445282 -0.679445871104494 0.946189657700313 -0.127473892588769 -0.522951645232199 -1.786857619637 0.148220172348769 0.961839333181603 0.507756972332667 -1.08588706525639 -0.396001759892116 -0.282527345822298 0.660669195792612
-0.097119035736392 0.0627835431862463 1.20385894759484 0.969802502255162 -1.1745447577758 -0.358148493048641 2.51416093903683 2.42165267005237 0.865079205159345 1.11987974661974 0.666583281538986 1.29612829135343 0.0817757796367954 -0.787858982314942 0.315458413122201 -2.00245432736711 -0.898155137197538 0.869160291553814 -0.128011063583 0.12089156361839 -0.878130431008051 -0.735799855107417 -0.621031741657864 -1.57608559715454 -0.339326859467416 0.394954774114085 1.62538785765936 -0.1613919818988 1.40071036244605 -0.609883927773755 0.363827950623865 -2.57910693170436 0.280693835848679 -0.21287857762984 0.123010955722629 0.267624029385469 -1.16974098269199 0.223437995870975 0.306587528042925 1.32731384701395 -1.9759253668735 -0.148524375578627 -0.73531002510347 -1.3939414623663 -0.838195260356682 1.70456192567479 1.29251407173792 -0.00938671345991962 0.470792666799576 1.96509545851529 -1.64881783379756 -0.126608612348668 1.04512098091777 -0.506796810239446 -0.701960455700859 0.485178983371575 0.438644912584191 0.246356699618967 -0.536253926771215 -0.385713110656797 -0.0959799390727447 0.133052860965786 0.0747479044836146 1.61200154953294 1.25327498465942 1.49503911271188 -0.466977356631977 -1.9378852962807 -1.03938390962137 1.14210314284491 -0.786067977290023 -0.297949931029342 -0.579633101120197 0.976390707611567
0.838991084636077 0.649516333789354 -0.316269774594505 -1.97536936374488 -0.484230977670908 -0.46947927775427 1.45719580127814 0.734076057952716 -0.605249034569797 -0.515315783763417 1.50744744579794 0.452771800508377 0.391443612975962 -0.414558872174261 -1.81734047022613 0.431208051368758 -0.428658976485636 -1.60708688590478 -1.19199890790928 -0.182696101493132 -1.40525023085277 0.0947152608824633 -1.28054584324093 2.25853422861285 0.463065952705952 1.42856748491476 0.201605642833538 -0.815338666784491 -0.729281974924631 -0.883684518973159 -0.36456652396562 -1.25015035218803 -0.593980220424191 0.651024711957729 -1.13564411623523 0.100246944174807 0.884899555190973 1.55027563019819 -1.7139320546957 0.684667387494561 -1.64635724412552 -0.888342632710266 0.886758008712987 -0.743715706379209 -1.0062247069846 0.269266502333357 -1.05890777017622 -0.465512180951935 0.421759751310426 -0.00274347880298469 -1.15958575882283 -1.43160619653751 -1.8160579108564 0.350527837079657 0.229885082849934 0.403609360960673 -0.279532254684963 0.968249708131401 -0.564668482597268 0.88295858383349 -0.0275526111301813 0.69081275738405 0.701393740821613 0.553836770357982 -1.41871428884991 1.23752913993785 -0.259169662486844 0.185217960689578 -1.17902955956286 -1.89934460952368 -0.414599194489195 1.49001732457896 -0.206446609290965 0.307140365874284
-1.30646294069279 -1.38205415343403 -1.80931687501632 0.183306217041197 0.856786008017385 -1.02173466139177 1.90700277379338 -0.274282688373863 -0.741339678045671 0.338815926241392 0.769884014206565 0.213085356522745 -1.0504982324164 -0.608067084524444 -0.038606288382662 0.846041142762721 0.340887020125052 1.43352097645264 -1.44905186896969 0.925066081272707 -0.910470398370565 -0.880254572860783 -1.08801943756256 -0.705139379121034 -0.190686082303441 0.719346783047194 0.592067510036961 1.20511362026851 -0.585836158595553 1.15611725540375 3.00486820552091 -0.8299924902216 -2.10877459245518 0.705870570869326 0.281076693989919 -3.1457080795265 -0.788173843160019 -0.553502765229675 1.02772394991331 -1.38240478111312 0.739427974291263 -1.01775025569471 1.10590287565133 -0.304391463078828 0.112749118603671 -0.123645777775022 -0.524259525253929 0.426303837374851 0.976176347988549 -1.19658595730763 -0.291297354261666 -0.784886126467784 1.2401378993107 0.51095417041752 0.170319960532825 0.109976221810345 -0.178134155062107 0.126004065906803 -1.14881532386356 -1.31548428960769 0.297811311178253 0.748636683617995 0.564836823651304 0.144132832569898 -0.368701328757972 -1.12871274010907 0.772518287075689 1.12246862293007 0.325107974336325 0.530125618184368 0.795006615487519 -0.460009860088027 0.64321918264336 1.09592643442954
1.92561406287333 -0.759280984114565 0.859321357363937 -0.961076404836252 1.45078341090399 0.340524005612213 0.897524584566782 1.49557132709235 -0.0123577576689064 1.76347699918048 1.04359144757712 -0.776648515465363 1.26953315954151 -1.61074220091384 -1.42902471835838 -1.99070662185646 -1.85483977091519 1.97355005450376 -0.0722608853763042 -0.308269218082311 -1.1395127837794 -0.757363132199488 -0.479580404782887 0.250406753161616 -1.18783603245888 0.109843855050823 0.180257741117468 2.38654340815315 0.61017917806365 1.47314405113387 0.26329188402997 -0.554906420734886 0.198038703218944 -0.693312968683715 0.459707157192496 0.853666974677334 1.23456661135475 -0.301860050390063 0.0341294731004865 -0.530303762621118 -0.926332429743456 -0.359487151897298 -1.15746321874497 0.171898530460636 -0.211623393825197 -1.1445974924985 -1.05360954712524 -1.46916893884178 1.49521588095355 2.00221701829745 0.00409926872884362 0.962497623125285 2.44585074293198 0.825616608069779 0.768622515362889 -0.111146537970863 2.24488052577634 -1.78881539483554 -0.139358452687508 0.351242331560592 0.953185139376678 -0.378265698727521 -1.92560825326787 0.337597821856412 -0.585558439122796 0.0797154661357081 1.6068362562933 0.200347777524406 0.635241486885919 -0.0684675976315355 1.19589890508578 -0.941395774260964 -0.3822266681685 -0.633979517223631
0.0306429234971619 1.664232583598 0.317010915467947 -1.10720313684606 -1.69574730620779 -0.880291375788957 1.00438209363897 -0.427824646553631 0.418419989705823 -0.637564927901747 0.287620349817416 1.66229241680891 0.555117868394354 -0.632745499195143 -0.600157984468632 1.06416599598206 -0.586486425578881 -0.603280250633581 1.06769572147163 1.19989763179081 -0.391876782385692 -0.642723376779023 -0.877204999270858 0.303152100197182 -0.223519142088741 1.7473894954703 1.72268299767965 -1.77218052830904 1.23342607584503 0.197888854597607 2.05997315384111 0.615400264138827 1.28147643082023 1.29818885871761 0.397717270710799 -0.434963432147826 -1.81556902423403 0.0518151405591855 0.530104791344693 -0.356853839555098 -1.64640166225781 1.17802689840314 -0.280046537251593 -1.14996980324705 0.249383779963853 -0.803367976040369 -0.32108027397012 -0.544036584937121 -2.69999152722623 0.322144636979304 -0.140963997196661 0.160103448639462 -1.50776472370194 2.34034887715164 -0.806604574411887 -0.475700862995742 2.65017879812631 -1.00063758297368 0.374024425810293 0.376599227848876 -0.021633398928483 1.07684517028717 -1.0304124855664 -0.765894781110013 -0.0759285876385175 0.361919148255055 -0.703076737877713 -0.341394233394675 0.37584124725858 1.14462503956858 1.50780471732855 -1.34588992187813 -1.22306481061121 0.109041276367081
-0.421025717944458 -0.588720710640664 -0.214771597393167 -2.55153927388952 -1.18612703125871 0.209837327229844 -1.01738707186603 1.34907618579385 0.682061811218505 0.36470702540748 -0.0328199365745986 0.937489612680091 0.32346468770749 0.0516611395055245 -0.794410915601558 1.32104851176311 0.850999444821905 -0.274118222760966 0.136402979274134 0.0343019135646994 1.21746517219186 -0.62075348094262 -0.736770898738089 -0.0383964451749232 0.783578210318034 -1.63103812299284 -2.02679614496162 0.215948338849695 -0.123788843641943 -0.00945331698858173 -0.583679549471991 -0.10986159121822 0.941246671745956 -1.30093246926566 0.679645430428341 -0.144274755895261 -1.11442949343384 -1.35913265579293 0.665882585257117 -0.0285710470213247 0.0721318312209113 0.48832972599345 -0.307891367345755 1.43764499639565 -1.93899911374077 -0.19570885849074 0.924397362749436 -0.262400623657357 -0.468697345668288 -0.641020751034201 0.767041094906623 -1.55791176932674 0.0364616802044597 1.05023207606328 -0.245774044566053 -0.77844980509513 0.987429989678837 -1.80091155517376 -0.403570977698151 -0.130421296684998 0.955458756455228 0.0899415606594386 -1.7837362752715 0.660935133529199 -0.108589576058503 0.340346886946063 -1.46159254654338 0.141359367932117 -0.0711489912905767 0.752710153522661 -0.579051708047079 -0.299771729950525 -0.110634126926201 0.0839353344090017
-0.184718532208438 0.013761881493582 -0.775360673850919 0.314452704737918 1.3864576600324 -0.667919795479575 0.0312262550489746 0.580714954194884 1.42476702891058 -1.82788090486792 -0.036509138509682 -1.24339338680692 1.65723463304346 -0.749045165612838 0.144889055496447 0.262698199932274 2.01429247363443 0.182861729104462 0.487650329537783 -0.291114602899114 -0.0800956958570278 0.441445358634947 -0.126136555920358 0.756271494371945 -2.04676867114811 -0.348928846922704 -0.918059827819193 -0.599206781643056 -1.80974919029903 -2.0146240736428 -1.02727769348724 -0.628260773599759 -0.153948827117828 -0.510959481722222 1.49647166704567 -0.80504606674886 0.578362629856382 -1.44052268777278 0.349817111677023 0.0824550475189206 1.70499018782795 -1.70985933001829 -0.468176592173041 0.856115801537848 1.20921022770057 -0.795081895410542 0.831476422902496 0.277420036326927 0.764153641465155 2.04194412814318 0.378030765300889 1.89665255290683 1.62321746239689 0.686614722132773 0.116509832202207 1.29671452762647 -0.761842440926821 2.39698417295127 -1.23615203735124 0.598025854280952 0.101286492207475 -0.0304000655728256 -0.837815404880565 0.135927188324586 -1.33982826638961 -0.0327545057386694 0.11957542496776 -0.724662882656215 -0.472772753802659 0.362052793735932 -0.0836366169066567 -0.141365894307384 -2.18179162765818 -0.193707395441714
