-0.715107221504857 -0.185609776066084 0.167801050927741 0.474396609531082 -2.34611530893172 0.134808864638318 0.0790319109245327 0.592720729214025 0.532916890117726 -1.06357429150509 -1.17047065614266 -1.31630156921362 -0.38979913570727 -0.505082799125651 -0.140784747871022 1.50047450664875 -1.3230810910975 0.0856057065217537 1.1862880096955 0.251420537645857 1.01438441863627 -0.473253710755877 0.447191030993093 -0.430523133243464 0.283753925419503 1.09839299841366 -0.85717135134857 0.868336817271085 0.0998295342460983 0.221218080468188 -1.31792743752975 -0.964505885426 -0.0171664696132448 0.419266511384122 -0.0786000560943607 0.882139135795418 -1.46840573688821 1.81102513973126 -1.13440496815238 -0.382207151504766 -0.552682871516916 -0.391789310362043 -2.14888680275843 -0.68958987449456 -2.03763250931183 0.668004845232442 -0.802670642268256 -0.759642896452707 0.249590479818431 -1.52075172292102 -0.385798367390342 -1.94181587565959 0.653484576750737 -1.31581411370065 -0.349919526490782 -1.90483233481909 -0.815912503915406 -0.708971253923108 0.85134133722633 1.15471811761701 -1.51778839475968 -2.66994657732745 -0.177767265391493 1.39464409176406 1.54299341468879 -1.08291492329874 -1.53202839352315 0.37352079696955 -0.377684257126213 -0.0297236755668432 0.262848368906392 1.11633669950705 0.577232662433818 -0.540797575166828
-1.67784419918663 0.793098248005896 -0.342354934369321 -0.894716639564735 0.554670278446817 -0.188200607937289 0.719452626700749 2.10171781738997 0.180989052405349 0.968540736331719 0.117048443347823 -0.143664456932947 0.705730565069055 0.462782798734189 -0.471119813909732 -0.900485282726962 1.85345781356627 0.832611270475458 -0.985435582226559 -0.252231933242076 0.539918799457981 -2.83483951412383 -0.461811625947024 -2.19066863678661 -0.151440418671178 -0.547066941666902 0.919672127327447 -0.521607509974219 -0.713890020593123 -1.32059018389967 0.791856609192481 0.330864590950733 -1.31326653536072 -0.62494696423668 1.42433276835722 0.27828920474816 0.964146175014555 0.783955887286485 -0.711121827521247 0.0570071992429755 -0.800726817672418 0.678946761043833 -0.806861869161224 0.645093282813265 1.0374356724455 -2.44911163045022 -0.54146533743836 -0.2918803949333 -0.749536954339376 -0.488877294266914 1.3321095869268 0.162605004348991 -1.59709678057707 -0.405013746922587 -0.461869134375001 -0.226825653032377 2.02322388757271 -1.6507122616168 0.544532559111723 0.611955035485143 -1.10915322582963 -1.29206063862755 0.173051281855887 -0.215481597862322 -0.144071729168148 0.311999673415955 -0.0241631971945161 -1.08954473644566 -0.521698297480326 -0.969894159459826 1.62379011409857 0.561109100287823 -0.448637089815343 -1.03987394314679
1.37559243690063 -0.396276750075229 0.231457085997622 0.398218745805362 -1.44421816181355 0.871765634226917 2.60520804373902 0.169295516012341 -0.283957751891223 -0.678360673167889 -0.205038604551452 -1.17152109388584 -0.763512737555511 1.86339388496116 1.5444261199433 -0.322869246530609 1.11594673807379 -0.228632778872955 -0.0117828388331069 1.26749209090053 0.791924836382683 -0.0331803671662401 -0.0755761040709406 -0.14471647351513 0.928130831463994 -0.071499615468752 -1.48335992774623 -2.08708951498599 1.82685705146984 -1.36605119570282 0.343686426219704 -3.04216390924111 -0.680905288967426 1.35878004533909 -0.891707549431346 0.231928261782548 -0.678934076430663 -1.59168818156615 -0.621977457813581 -0.740546692421436 -0.940965384412145 -0.773621761166379 -1.08043525918163 -1.37745668054514 1.77185329463198 -1.03114262451601 1.64056362970269 0.0731491031500751 -0.210503408563811 0.968368951050025 0.279577462368961 -1.56734936469813 -0.274874155358579 1.78529940495293 0.750719735138007 1.32769688792987 0.427832593927591 -1.3930669786135 -0.426273012221154 -0.437012174517483 -0.769980479691042 -0.628247302884958 -1.56595076515237 -0.128415068065881 0.239497610773611 0.923073808158079 -0.151819954199661 0.398341530487749 -0.934354132095095 -0.466369861061382 0.306547372313168 -0.214147279580263 0.517620157135742 1.77844609146024
1.3320321032824 -1.2749007801854 0.476867164976278 -0.802836207281984 0.676124997068501 0.0180186567493292 0.321262522675363 -0.0425328918045915 0.256533180481334 -0.696298546567582 -1.67608986588734 1.13551950045202 0.558817130401551 -0.585371119139984 -1.44141225887768 -0.357221725086148 0.48103314909181 -0.805734320367504 -0.523527372929655 -1.85409573813576 0.551229169729276 0.0374381160583008 -2.15020414566833 0.747847543008373 -0.379556987801358 -0.5358510118655 -0.611401470061749 0.0609162641058377 1.30932398972535 -0.88617952959552 -1.14936697662292 -0.334597336139395 -0.145663722389307 0.843869016708878 -1.19273505313011 0.970552287997202 -0.809074740508227 -1.28369883802769 -0.262464355948117 -0.422914427362965 -0.811025045568651 0.202939518036212 -0.108253689697595 -1.62154037699127 -0.887651233913772 0.610972810750926 -0.638005591051307 0.224982203936576 -0.658856411029312 -2.43762099709945 0.467391941936956 1.63307295529756 -1.47780454362705 -0.850078433691318 2.32324861643363 -1.25195083409839 -1.48553212336503 -0.586041782162339 0.564493258448746 -2.15542865922604 2.09604064944376 0.00246515209644385 -0.279566589140074 1.06781155002043 0.25288698250411 0.052731157166255 0.632213127844296 0.363109661799766 0.762150708664705 -0.711055824384787 0.485989555744392 -0.642271084488033 0.03842117643092 -0.0203806344304938
-0.591612139973086 -0.412562182064789 2.06699857051372 -1.08958854292175 -1.00641773512213 -0.770504963244325 -0.403997067168307 0.568524849184637 -0.429661584770452 0.584934932266109 1.37427192485717 0.821772884155099 -0.605538402549199 -0.744417743844694 0.932281107966112 0.533920970778299 0.893769336477002 -1.66294731359015 0.601303066590442 -0.98337356129887 -0.606411531817048 1.73143250699563 0.933778094027478 1.14407990770497 0.232134375162324 -1.27161545607964 -0.935140760164313 -0.162372137065588 1.38903926692111 1.83483142259154 -0.572205164350459 0.866666488297473 -0.826895241524328 -1.92555757422359 0.780262149001099 1.64895574938261 1.77291621095585 0.275552898004573 0.868631858143794 -1.78120798412193 -0.0830376897949939 0.41497722020274 0.013234803474635 1.90039222275339 0.133169223096721 0.925503868917884 0.658727603093423 -0.189579094225903 1.39814928111301 0.695953008637189 0.648532488939511 -1.01441951609707 -0.162760187399245 0.62975597029757 -0.511142380024368 -0.565428690438384 -0.726355846229364 -0.446913451517567 -1.92346323565141 0.48519520046931 0.560416520139113 -0.974762734115221 1.46847553587224 -0.542200240934128 -0.408236018569756 1.3437493876484 -0.556468938310386 -0.893484727018392 -0.860169624501757 -0.708779756840544 -1.51293935066162 -0.79353741177988 -0.0297934176960532 -0.165446636224861
1.29314780794294 -0.166467885353973 0.00250904899637132 1.62237024746173 1.84765471846894 1.08898786052087 -0.712790771217045 -0.0873685441694107 0.202192841537715 -0.162721144123052 0.0822381368304725 -1.5172531249085 -0.278630046861908 -1.2187673507731 -1.60889534967473 -1.43953300436327 0.466245600364595 0.475415822281303 0.131995316743052 0.91281107475702 1.48215322516766 3.12593207122713 1.98936605500799 -1.20536673607678 -0.380788332730154 0.222463707012084 -2.13625922761569 -0.267472878652879 1.14504543856826 0.402989364110071 -0.436770306607212 -2.13800547127951 -0.040283162891791 0.761609582954311 -0.38832875612967 0.612607610697631 2.45567684492724 1.83644682661723 1.73846061824751 0.31725599103919 0.420975845714855 2.64290647062619 -0.115966044129837 -0.977747045052303 -0.38457654752771 0.476253189191381 3.00108649751993 -1.35457701934506 -0.148778555483985 -0.609529508167463 0.132551987326125 0.587723416715237 0.50444061549375 0.656442759357103 -0.940818593084232 0.480833098590881 -0.78034348057212 -0.963978410166379 -0.439019559328464 0.221032539093168 -0.243032052049914 -1.69732719193203 0.930604266096431 0.415092158609923 1.48000993243481 0.839662054590557 0.499352107231771 0.381831591878684 1.22051181058913 1.15789313356996 0.923680727306428 -0.625857300201787 0.566545286601551 -0.137935728863123
-0.44693077256944 1.62146483806258 -1.04597690519743 -0.395896449659533 1.8404312234698 1.37609830830829 0.8693610160247 -2.00189362763287 -0.102596527800675 0.00623023921932672 -1.10127188054692 -2.11516015482437 0.471239539188678 1.28024854367685 2.71423896043535 -0.190738226113852 -0.542213647267295 0.389253492972249 0.108723023236586 0.253165229558729 0.040543408664877 0.191457687937808 0.405165498817575 -1.15656555262384 0.304850300921027 -1.75242583896204 1.81304632178777 -0.893243209583142 -0.428175302021159 0.777818595848332 0.192754840076353 0.800686295681279 1.00917553279942 2.81965681603584 -0.476222425500465 1.16176747721841 0.718508591567571 0.365908831475026 -0.995309887104693 0.246152750287229 0.757797704210921 1.31273835699426 0.909413610738473 0.127382063312973 0.999208219247271 -0.343852171410951 -1.42587196166107 0.897737442669559 1.77109928938472 1.1647368125797 0.0373027048168872 -1.75443536306892 -1.3939433568189 -1.19663738375827 0.627913917474135 -0.212496044568007 -0.324956533265452 -0.340930878687995 -1.30898586755397 0.607366897631038 2.25048839499998 -0.401546505051974 0.723137870520114 1.06087265230056 1.19303856998609 0.168138395712874 0.193468135068247 0.115141002197536 -0.644778842656793 0.0396322079163493 0.228505252217673 -0.665343858473793 -0.352269796591796 1.77662568482954
-0.903941603731339 1.41800155400484 1.35951784332004 0.967158249162022 1.52504043626805 -0.285843353993885 1.07780575617159 2.15941974930048 -1.7943028990166 0.882308550012548 -1.14473897557127 -0.651127516457684 -1.53035805223076 0.417360312105183 1.06761603787588 -0.941370648664685 1.58897121342823 0.375927446995939 0.100563616145519 -0.741540302626986 -0.768777987584542 -1.65112663740515 0.26990647684889 -0.584161076903855 0.76340953705496 -0.852991459754311 0.48226061584625 -0.599608278739418 -0.456536320764976 0.575305232477893 -0.566180863708231 2.28550255626508 0.0845696585178903 -0.29610840461323 -0.626172267170532 0.75263391982734 1.11313230894069 0.67034768697069 0.4103470219169 -1.75190156528415 0.451361074764402 -0.807709625748532 1.07699203367153 0.443404888936842 -2.13630403423923 -1.27253225903265 0.524658277876961 1.39158062293897 -0.635529562368728 -1.07842398099929 0.00722419957412138 -0.516364683100577 0.609162937545523 -0.77881389958842 0.147161506736379 0.0605072673810711 -1.53644188966337 -0.950588631949501 0.137363982956512 0.890262307067024 0.506892861517801 0.458915362139325 -0.447019851820151 2.48962710376757 -0.285667568793414 0.0062701902150634 1.29507626189481 -1.05709471722086 -0.0842783697878587 1.61372567420873 0.855433482194519 -0.485436754169527 -0.500595421128892 0.245338068501401
-0.356119929598888 0.489503039671087 -0.377421098314151 0.261659759717212 0.223587084014613 -1.24727001244344 0.0316165229970154 -0.0288574098228429 -0.00616251705279851 1.16054282826773 -0.439009982806906 -1.4890840224653 1.80579662564839 1.73228598638301 -1.36527066709038 -1.23400919535104 -0.193169020285875 -0.501603707738363 -1.52323168828516 -0.772825079199909 0.321596134283905 -0.837584820077988 0.0640721041495538 0.420955413347941 -0.953997172205895 -2.39317471798558 0.726944819196072 -1.07519116612778 0.307349393352511 0.383450924586981 1.75496016728044 -1.05710406060667 -0.704178368258545 0.665319386269288 1.25922868628054 -0.0460334009979293 -0.0807963688381604 -1.49573292341555 -0.295220162201241 -0.424779762942384 0.144504260219604 0.607765762267568 -0.388721188950124 0.42520209559553 -1.51152523774234 -0.452832892054357 -0.124027042153813 0.7042080172638 2.27315329302189 -0.209734853637595 0.882778522869374 -1.25052927369547 -0.5062100779734 -0.196862598483289 2.05862012829638 1.09825067847523 -0.361645549253536 -0.677929330462624 -0.236155092509866 -0.825250305442143 -0.695286382851149 0.216569118904745 -0.319370649102838 0.0917670369257559 0.741044790556354 -0.309622900027618 0.70212848867342 -0.562644703482263 -1.78993506125776 -2.02795015780262 -0.543972517048917 1.21782425652658 -0.47094457309809 0.909670473780286
-0.492752952134385 0.583581854679365 -0.171290088905195 -0.382460405126418 0.794364913216678 0.191816558233468 -0.0082708184460607 1.31453582760838 1.68158209266197 -0.938372595040249 -1.68949336677176 -0.9520166739921 1.49141436568276 0.547300382144318 0.573624738187954 -0.783955281532068 -1.68915210679628 -0.078484250789191 0.580624656604072 -1.66990209009794 0.959062708526988 0.683422167652966 0.249125607675728 2.14071153506842 -1.87003974524024 1.48361892576663 0.791435048679826 0.803442149547087 -0.342061906955991 -0.207980694191451 -0.118898130030313 -0.697898607196511 0.892547363087297 0.395125708139799 -0.419313961523051 0.37087701191026 1.6844518519919 -0.708545992011321 -0.0322913161256081 0.90617634354855 2.4738749431388 0.0152326720238931 -0.794805113870197 1.72550649747002 -0.991915940825 -0.915931721901536 -0.630750729147469 -0.23729212282325 -0.589184290597276 -1.87617274784012 -0.158451917851521 1.27736977536475 0.349409203477361 0.590753454603542 0.833949981409723 -0.444327901967071 -0.779036696513712 0.490275951297122 -1.55343348802504 -0.947927457962306 0.492021895767098 0.251111703217771 0.91323603557486 -0.7020997067262 0.388112253267256 -0.299667081093243 -1.28389812368466 0.784123600204879 2.08835136421896 2.24401272833165 -1.5482400546439 -1.10396562690701 -0.313616286598493 -0.708813456759998
-0.188777854477638 -0.647141724709913 0.289643162892244 -1.66382661424251 1.31240602032297 3.48788305614812 -0.467034562984254 -1.00893118964294 1.03191422383026 0.15772313788822 -0.531780113623027 -0.654815826206616 0.736665917348974 0.574348664190823 -0.0972818815889162 1.39522862521939 1.83814335831444 0.0176831873102492 -1.26126958374926 -0.656146084869791 0.460850778175896 -0.594675329798517 0.585363314356323 1.17568529702379 -0.835801001512898 1.4524994375179 -0.760820760040948 -1.46905745659944 -1.69955105725915 1.18472694202477 0.196943148153102 -0.734805438511806 -1.42136743052285 -1.70156495316578 -0.613008927297676 -1.68767354037517 0.93819068135487 -0.00883975775630955 -0.483644730371051 -0.0574470682374841 0.685913320110706 -0.217862162852894 1.52058538927934 -0.284317664664756 -0.406312766143377 -0.361527104542825 -0.258461064634575 -1.1851191827648 1.70677799583816 1.63405526278453 0.113039057865507 0.887479439626103 -1.25132418112575 0.228666836168635 0.218401695250923 0.978163578222636 0.0268908804089586 -1.78446388936267 -0.194995349183142 -1.4554076042062 -1.49322195145873 0.387797896956699 -0.243776280237529 1.32932837939608 0.573222083702168 0.470754150119438 -0.361255121794966 0.55582918221502 -0.377442782338256 0.850849119021623 -0.0445457867409035 2.60580070272854 -0.65418519518957 0.270445397582055
-0.577653631266102 0.885189950298037 -0.400559727278937 -1.95333187729251 -1.69742086667964 1.37854334691336 0.741615667689221 -1.3440856646147 0.0464692549400568 -0.950431249066686 0.425447534779143 1.04908533658482 -1.51371761245754 -2.04813487922687 -0.211236053781943 0.51122657029311 1.28107597074441 -0.174497864424985 1.02962446339466 -0.671643900137503 -0.59787716105346 -0.331545853156816 1.03229466790737 2.64247843666309 -0.57973494504465 -0.559851520560852 -0.47610409652674 -1.79656827009336 0.809203221040131 -0.516591912184705 -0.68421252835104 1.69875976873032 0.515845641084169 0.277309499019842 1.0825171416195 1.48322901036158 -0.0117131796920639 0.277828339129154 -0.960502271896425 -2.3535496972776 -1.219127615042 -1.13010413872495 -0.276524040494419 0.201050912893688 0.113680523806349 -0.438534367465855 1.59320957436806 -0.717734499851306 0.641570564043631 -0.624437105372145 1.34918408478595 0.494669571923864 0.744863502247954 -0.363137597316814 -0.397872902514707 0.847940774057598 1.06937102089733 -1.00875724804539 0.962916776494441 1.61418278595652 0.203115317281332 1.19944009101782 1.21008626522288 -0.561911026149409 0.789224726727058 0.453790428959982 0.688717247603162 -0.147197428927687 3.17382929159084 0.433929113577906 -0.233957454869874 -0.0871865844242389 1.74046623730232 -1.24600090100054
1.29290461013587 -0.199410041644483 -1.33655025671866 0.377817138499805 -1.09091515072267 -1.62497226331885 -1.81681331122474 -0.807898750229606 -0.316583798504232 0.615365192164103 0.233316888125195 2.06083869636603 -1.59986651994774 0.144236733749779 -2.26059086015869 -2.12389613031191 1.64275800535169 -0.989048168356124 0.562698846432296 0.584206670695266 0.571400878830328 -1.50481440796969 1.4492977914966 -1.72055881863668 0.0277339245950514 -0.113448268647613 2.17850508256721 -0.0479447784604344 -0.114035042663133 -0.533609934714756 1.0378216600851 -0.344284295854512 0.150554029466247 -0.872325249149727 -1.2520838972905 -0.440983510954109 -0.672910291444051 -1.11819667301832 0.521998723870343 -0.102446571508357 -0.266885254197763 0.563600209250539 0.342896534161999 0.0879401743800489 -0.694847013089542 0.32209898052251 0.74396023975139 -0.576823582545055 -1.24212583609628 -0.769547633861797 0.780622790273992 -1.01208300117453 0.030445902178525 -0.475788106808586 -1.54037016619364 -0.0349739936133897 -0.219014045662437 0.344372274649219 -0.231050990634732 0.888229694821534 0.286364901323032 -1.5146096345866 -0.173798624307676 -0.482630296149977 -0.843374096668405 0.845267631092043 2.9384814979221 -0.241328723306638 0.760267985519344 -0.635093937260395 2.20744592552266 -1.51467946359715 0.512590416807319 0.267977619142925
0.323968225361702 -0.128494118487963 1.77050318622048 -1.27566883774878 0.0447090929864216 0.248144769327449 2.05554150629328 1.30529116390824 0.0536001556855846 1.26849217390112 -1.78230521288564 0.187675114204417 0.494887319278511 1.7732382718677 0.198593485088969 0.395502568773518 2.08849017713223 -0.292360592148225 0.749562644440698 -2.46122297324117 0.546252538275384 1.15207430948807 1.9171101455045 -1.1562984808386 -1.0084810321809 -0.350467269112527 -1.09523226015913 1.71142636619394 -0.538385316172438 0.297554075077191 -0.276413859256284 -1.65360183174058 -0.712553981125074 0.551488405651356 -1.14961217622482 -0.714211160516863 -1.28930780713582 -0.167097073895682 -0.0332592490467267 -0.573032188899806 -1.02428684911358 -1.32660103201004 0.0358208692788948 1.14600972746818 0.0945553790366871 -0.378557862775987 -1.52568523548286 -1.55693888987734 -0.515381003403155 -2.77189051053725 0.0303393146718271 -1.53902343807443 0.318775015574392 1.46715278095694 -0.973139309754992 -0.5969813737735 0.589991583138877 -1.69412042886484 -0.356558642801911 -0.211201603876346 -0.132934214292951 1.56341545671409 1.21126741577657 -0.313700645416997 -0.0611371118438636 0.196549167487547 1.40171646129806 -0.726478401898182 -0.207509434724773 -0.702208283111179 1.5509208016315 -1.2358359395884 0.726919960189864 0.696177528169575
0.202304165889979 -0.553033534707265 0.484997887420304 -0.724514029221766 -0.690027562393354 -1.68120540833034 -0.00786679056681096 2.41171260072714 1.33593462509305 -0.0296974127883333 1.35063067831915 0.0174081442498894 0.211067700901472 2.0037358967788 0.0415383662746273 -2.39868101476282 -0.737943049203912 1.177502534525 0.00982327227085702 -1.39606056388352 1.09820198436966 0.0337793901179707 -1.16608097283357 -0.617952779633618 -0.837565024034435 0.831939919495109 0.887576046405859 -0.350500402375414 1.0147226830781 0.18039509647634 0.548922749652712 0.125957646991134 -0.794714766143655 0.218572852418142 -0.349301912310557 1.58405608562219 -0.690532118706975 0.566760494069086 0.93026562854706 0.198653921600119 0.58166968254366 0.546603294707806 -2.0053444461502 0.200646327508794 0.624402261414908 1.10551322470784 -1.14986848564578 1.63187034424648 1.15154466642305 0.235222181666932 0.624743983440482 1.59740498322484 -1.81562830194329 -2.59351312230649 1.77255454320044 -0.238583326855103 0.327442652290012 0.103546791520193 0.126520347651844 0.236618226489428 1.68976949839781 0.598754622689693 2.27774752824603 1.43093036836962 1.07611046286221 0.727680005029507 -0.317452066255306 -0.519982023822221 -1.35305330915355 -1.27034591395077 0.742706777847492 -0.511562101901468 -0.348884939809486 -1.07334292203997
-1.27840446452323 0.260659057629738 0.0157621817270599 -0.699042522153834 -0.514735371433342 1.0354265033972 0.345545267960052 -0.67810142034789 -0.140338595430417 0.432967645305716 1.4435530595643 1.05159098897476 -2.05105320923698 -0.522339255271943 0.563692846872763 1.49803684440886 -1.64968080881208 0.145715046053931 -0.382965885661325 0.512272119245941 2.30305166355782 -0.385951279827219 0.805007926941435 0.0347230662125512 0.922233382905419 0.0319862809590709 -0.457089294802539 0.24686303197041 2.13662671007792 0.82359184001489 0.627411050237159 -1.9149336193158 -1.48325306428074 -0.552645815004419 1.29714952005317 -0.44401416395779 -0.491136646702563 -0.45612303636885 -0.181626965344988 0.491201403356149 -0.392595020553506 1.15190963138917 2.94558004256233 -0.235145246153576 -0.700155971783649 0.177211358853745 -0.137951390179408 -0.713424434404457 -0.46146513327162 -2.08468172547514 -0.169967598696259 -0.148016312214413 0.389795808182602 0.179668480239779 -1.04023220958788 -1.67065324160429 -0.808774109665871 1.07164150678633 -0.269760880717302 -0.330718831331239 2.09574045049967 -0.216685473959108 0.768046874888624 0.326727701368367 0.0529347571609763 0.860465990974286 -1.14735021172029 1.26860629279381 0.0491886354891063 -0.23349065581685 1.11107150988642 0.797902485748433 -0.705624398483551 0.123737733066189
-1.92298498079345 0.856796788394772 0.919616235968774 1.4700531474859 0.716172570745567 0.74941141305087 1.47487209877973 0.346644201000052 0.281620241307624 -0.225778818360044 0.64167800843217 0.623102791241256 0.0545106349205722 -0.526263033392309 0.292866873679873 -1.30981451217855 0.911462336957852 0.660273042764704 0.380455476182854 -0.853556675232929 -0.203401602788701 0.602530228565644 1.2626722352473 -0.455249983576819 -0.411973980139423 0.33482723090865 1.57687645601947 -0.711454959050498 -0.252245343383129 -0.454925937885963 1.76780612028521 0.67001862685571 -0.180341928790825 -0.71113490996144 1.09917269833899 0.138943688147107 0.684063762774713 -0.521248107705463 0.361265778009512 -1.4291001127876 0.657841092676859 0.361710227915506 -0.106332481268164 0.318716200581743 -1.28702341694071 -0.664716884348554 0.35587859327189 0.620444823268964 -0.915689396428388 -2.19354135370539 -0.751422680826489 0.656915530787957 -1.45633701583359 -1.00481607861755 -1.03024667361187 0.13417787433112 -1.77287666264291 -1.05944938855538 0.395865429853065 -1.38496440554074 0.239470291098379 0.132897581060858 0.134947091611483 -0.5480849940677 -0.588322559528468 -1.82424654940916 0.127823028627856 -0.630506245787588 0.194886219846066 1.37474555092815 -0.0979726699548013 1.91903494932979 -0.972155663062357 -0.72443112370283
-0.0111604243475642 -0.727902320029092 -1.13182800231823 -0.848083181098212 -1.0335652587327 -0.251916966246287 0.34738463819309 -0.518278395190796 -1.61313726299744 -1.20085921239809 0.00561144349370448 0.625855761386068 -0.341481829716974 -0.0623411846513088 1.92060039109007 0.680122942289491 -2.09454193396029 0.784537481235382 -1.17020687538771 -0.133219010933408 0.644930317553412 0.524263964215322 0.586339637578643 -0.237186095930631 0.117123492043612 -1.18394577070205 0.458723504175647 0.636638589500982 1.49856425603962 0.149227037047729 -0.270428616685996 0.0759553265730525 0.254651023897747 -0.389226513803206 -0.0762469028052209 -0.74200214564828 -0.83794657546996 -0.606388967575248 1.21727569820436 -1.68485626862905 -1.41980541163992 1.02524100575938 -0.56262835598374 -1.33620408728591 -0.301834954823748 -0.623793456448363 -0.229858079960297 0.0840189656211924 -0.266291393372732 0.643801892041899 -0.396726015575276 0.926038542552715 0.165542393586787 0.439076596130724 1.61624949604827 1.31241360823827 -0.5257391215051 -1.64851841941029 -1.54582518772741 0.84316851675533 1.55056836816507 0.860365631683064 0.441193342526039 -0.120587557518319 0.850298440935454 1.0043051395535 -0.532187350554245 -0.906226144861743 -0.0423660921042052 1.01352574719254 -1.68916007163463 -0.33651509402975 1.17535510527204 -1.14445243614588
-0.537079696992217 -0.666783891936147 1.22745922989109 -0.25960117419928 0.289222151971841 1.10483906190469 -1.13940085059788 0.306503455304597 0.15990910938467 -0.521034209408969 -1.41564986881501 -1.71226976708777 -2.24245011419753 -2.5809761442373 -0.715969314366582 0.957954051509719 -0.601880134301133 -0.451125227069264 0.346045281692002 0.220459559641203 1.07699972223101 0.516686896091232 0.125632923210922 2.04270291962378 0.436319790653551 -0.667978565786029 0.0891983985546374 0.575008215197935 0.20543720650972 -0.247936087984768 0.116257584155192 1.46699880517231 -0.651049772592239 0.662628591164236 0.786017705770513 1.51680681251431 -1.13898640009734 0.77582793331065 1.61458037656256 -0.169430582196901 0.632805332921655 0.492821735199641 0.562508337512673 -0.033572411053849 -1.70030044165279 0.118409618083253 -0.368991615592555 1.06099772569784 -0.717461474331288 -0.813950083667962 0.413902568672698 -0.307687953323345 0.829910716235972 1.07474727186764 0.943736025870923 -0.368742934968543 -0.866837996951593 -1.51563965218429 -0.84720865693314 -0.335869792374312 0.694137196116838 -0.660245300949198 -0.639202820581342 0.290534908838962 0.316670602254726 -0.838687102162632 0.817656106694404 -0.236332831537478 0.322139437555714 -0.60431648733156 1.40641278360485 -0.0288374989691455 -0.422756878732703 1.61689376521588
-0.309913772417395 -0.274556976772953 0.688132475902087 -1.23442067027246 -1.60177399832262 0.858766926895397 -0.704306873586151 -0.492058664009585 0.896331863703558 0.350270357672408 -0.916854285858604 -0.423348126877158 0.199693198869361 0.371666924146984 -0.087872739298674 -0.396827043219233 0.00908111827690137 -0.482942278786217 -0.349102349099091 -0.602849840659668 0.907519228492684 -0.257605528160488 0.484588297409666 -0.161508877966507 -0.158798203221394 1.90881972212337 0.248968019371414 0.858932634385993 0.0970272826713041 -0.930620607797066 0.186524170933264 -0.71736497327577 -0.0984111494242008 -0.776139591896414 -0.798698381941497 -0.340420678713376 0.401812003857916 -1.89221540857441 -0.96019800803178 -0.701710083174076 -0.32068357754895 0.01605569325295 -0.984818646512735 0.671670149037685 0.296262193818712 0.120547785025135 -0.249646877880166 1.4419712434866 -0.258315915061088 -0.596011033928097 -0.833689835282805 0.446892658812465 1.69225569295348 -0.350950753823366 -1.95847117442273 1.1110833831306 0.396515497642369 -1.07202169443203 0.194502958276075 -1.43276579314414 -0.692825027515743 0.455539159228706 -0.499662873663773 -0.0996070996332273 0.486426738300596 1.02680511075461 -0.430733792635657 1.198587501111 0.546294938221375 1.70648785746104 0.00656676961870841 -0.184242779988108 1.91180206736188 0.587962190461334
-0.600865160854122 -0.85323284924033 0.911517664906069 -0.227214141811294 -1.11017724007776 1.34219095056261 0.914829958859392 1.84020514707258 -1.95117319011782 -0.602896193418069 0.0432299735423959 -0.250214334647193 0.100587839005273 -0.761063550005664 -0.951468631112247 0.150984888939043 -1.83237462988015 1.82552322469344 -1.18047599220771 0.450760675109647 0.259394798146633 -0.129595534843191 1.52730084017229 -0.487854913584205 -1.00437979059913 1.89835755075752 1.58304692411057 0.979928303495561 -0.610605753849875 -0.774153683100362 0.265703875024231 -1.25624745420472 -1.20032492052223 0.42151575861116 -0.41965539494635 0.118936145661357 0.812378995428909 0.746419691309642 -0.199062566649586 1.7518806816161 0.588249797882 -0.585412207006845 0.093665074928259 -0.271985682088111 -1.38885067049297 -0.087415412292688 1.58661941818962 -0.117788002167357 0.128080392567742 -1.55485607060245 -0.139418666040801 -1.96025824837231 -1.00678303965924 0.678561592329646 0.873355608000972 1.48567901023646 0.189493894718469 -0.660587712429003 -0.453488706354898 0.196811907506456 0.775067075642275 0.649115071563949 0.889056733722773 -0.799734326924704 0.704991228965326 -1.49243449200002 -0.543742176518935 0.00268009617652743 -1.28173140138633 -0.0340928280663014 -0.841937578792799 -0.114032761873856 0.0155529405104322 1.23203217288379
0.469462977805304 -0.449308811737739 -2.30571909226298 -0.541478219579692 0.740562227915143 -0.801375544059047 -1.85725056152988 0.56331229741269 -0.856854706656607 -1.00232266555164 1.82177821344477 0.114052003667778 -0.125471091115229 1.0189980183761 -0.310120509811638 1.53307000036599 0.162403357595738 2.87110789069205 -1.65550005447438 0.0276644617022919 0.118627048368855 0.295996179531093 -0.912511940798146 -1.10304285661374 -1.04590661285831 -0.247853975525893 -0.189743122997908 2.6703470391556 1.478711932674 -0.630359088709042 -0.441069466505707 0.772427516215815 0.443845185667131 1.2468759044858 -1.61823349220704 0.157750935871316 1.0414592970219 1.49388811506286 -2.00240283960186 -0.358100942596885 -1.14520522814942 0.187582602200749 -1.47004459215301 -1.52724612993526 -1.17228668111621 0.124008999818074 -1.46139686945289 -0.845673665576896 1.91576621757978 0.732584045713124 -1.31155259028746 -1.95144275497707 1.59638123437866 -0.0196329036914752 -0.269725973809532 0.376163795718983 1.42924175036426 0.307516726206269 -0.228982887845747 -2.17146211407034 -0.87179830915972 -1.64399826391186 -1.79584860216209 -1.75076430273629 1.63560931346148 -1.20722934019986 -1.2467351441802 -1.20564448406251 0.915804270929175 -1.15581495409036 -0.891285553561833 0.0600131222396083 0.823009148170509 0.568891740526126
-0.228899623823885 0.964002505094887 1.77400611207741 -0.108206117861185 0.192371282316754 0.572054284700928 -2.2385273173602 -0.0369750277212538 1.16867501857075 -0.829673457260052 0.540803084847193 -0.271685383847911 0.497339182854274 0.120485810533623 -1.35914599639686 0.672183246827562 -1.21241455744633 -1.10659550550923 -0.609945696634621 0.76616056343829 0.619484369835228 0.13411206490133 -1.28194061386333 -0.429937465574682 -0.969590769227687 0.712510226203426 -0.0450351416488732 0.384981281410414 -0.734728490265361 -1.51102150777359 -0.303526359997128 0.569380244360816 0.40877892425009 -1.66505180007531 -0.22792357255145 1.42588059962973 0.561509273881357 0.578481983005006 -0.336722407171817 -0.301083649505643 -0.60488414028235 -1.31401601712771 -0.640248953398264 0.700415471750529 -0.677447170084049 0.384743165073671 0.31459874655426 -0.672749792344073 1.29085061438308 0.302097531428166 -0.259317310090672 0.804257962417308 -1.2137567883696 -1.7855722509281 0.703956723860729 -0.385855106527606 0.260250093234587 -1.83897830319963 0.766215190509896 -1.26300460021694 -1.19623082949141 1.6382625515192 1.19173094607018 0.19538489861096 0.948558576671994 0.336005523127852 -1.82746396526712 -1.21437834246353 -0.312631195538384 -0.605708214021896 -0.659549989210969 1.68154710832191 -0.631642487576473 -0.349395956189107
0.0134753758631739 0.506836548948697 0.320385440474428 1.12357026189501 0.113879366300002 1.14347791964103 -1.17441230502837 0.923732627247875 -0.874046152830862 0.301125197323221 -0.0192012273391951 -0.827167213784358 -1.37748128264466 -0.349253057002604 -1.19214157967488 0.245710062586044 0.767492129587891 -1.60900936551795 -0.0515822240531048 -0.670533385943517 0.790387270634355 0.540559996857094 -0.0424727972146098 1.99807013424223 0.679406286270188 -0.209723148398419 1.84209638168376 -1.16218099459344 0.573782090906241 -0.239245061206224 0.280910219611092 1.01599975670566 1.10307070562181 -0.476215937992283 1.65314097170181 -0.026506146544623 -0.468545279607294 -0.259020635543318 0.00286052959400976 -0.48442462369759 0.0999637615761437 -0.875793672723443 -0.88572713576018 0.341329303055945 0.897733866263133 -0.909276887306831 -0.527545274189602 -1.99068460866555 0.353444188635812 0.444915613912936 -1.28601549779788 0.0146841914052988 2.49723205401573 -0.156646633023773 -0.720603841848571 -0.206820571869624 0.0237602548945973 1.41850956133818 0.276572511838923 1.50184855158266 0.689006631417498 1.45289050075702 0.835523942617749 -1.07011543171686 0.316631327161084 1.94975606215478 2.55212801630134 0.872787099247746 -1.39703388503893 0.719404088932505 0.971947998575649 0.528070997493358 -0.207218096593102 1.35180963928057
-1.99194283506962 -1.37152381326968 0.101664522936454 -1.76360055883023 0.279559600553506 2.17936679536807 0.200987587157598 2.04766726577963 -0.173894995236451 2.23496424476931 0.952483177868875 0.165894289942624 -0.669799645008044 0.378245871233694 -0.282072032977449 0.514244488275491 1.14961011220122 0.458056538261739 -0.0992573504218973 -2.07440962616215 -0.801385267702523 0.894914148091689 0.373544055212808 -2.45823011506731 -0.578419916449343 -1.36583576530852 0.128652286589903 0.511251554974962 -1.22751700140803 0.166332215717278 0.116722491060339 -0.464463420717964 0.017089953883873 -0.0544148572882703 0.658466762692999 0.181176110647834 -0.508142660538703 -1.51662579446162 0.587667649665188 -0.941945248798482 -0.997999901367064 1.90127014993073 0.1895018887656 -0.337663066637211 0.368636349064654 1.16027971384785 0.68152724126499 -0.43461435975268 1.38184003145597 -0.26773465014943 1.31710805864547 0.657304275529307 0.446624990706226 -0.921090746961178 -1.00594379730437 0.115194149279349 0.0973518319616573 -0.796927545858382 -1.40365885891373 -2.25012869809442 -0.568173276259781 -0.576751791447935 -0.979328209079779 -0.515689833247711 -1.25112707159664 0.401045034462335 -1.14305731472837 0.0302547241752121 0.391544092061995 -0.459367702875172 0.517428879761677 0.582093725739876 0.199726981699991 -1.21564109673706
0.295245731563419 0.47596534688992 -1.97609146692246 -0.403711360975015 -0.155938343497309 -0.879502445941911 0.531916315799158 -0.598682546475715 -1.03042106338614 2.65914804895504 0.236084668184356 -0.175715713690097 -1.81378702539384 0.21800622157518 0.960672893432496 -1.06828924764843 -0.438946578110467 -1.56085163967367 0.0821099608681003 -0.681496557719515 -0.0791428221103089 -0.442443226380078 -1.46791968579814 0.58443651247061 -0.193153985929498 -0.0875488067698431 2.70837064647563 1.35943136475621 -1.40175914909728 1.84087476920777 -0.624230279522555 -1.70390580224683 -0.41374587078721 0.16208193997598 1.10685196429864 -0.698154225731093 -0.792010507109671 -0.841322668949831 -0.805914177775019 0.121017853611376 2.4211616137979 1.60974944380892 0.226692213825568 0.56751771258683 -1.03144540859604 1.83151120130154 -0.448596453504459 0.193080310050501 0.0823657455809259 -0.271247938069912 0.121554554702143 0.383690797217857 -1.43676620647184 -0.166712275961647 2.11515087110013 -1.08417133745053 -0.265988058288938 -0.289590733625789 -0.131356177300943 -1.04098981336372 -0.841897012610895 0.0586192862442115 0.703423587280709 -1.39130062209159 -0.628659787249639 -1.068338756935 -0.239548396615722 0.740097766995876 1.30052020219929 3.12668310194115 1.15003713757945 0.49422800469873 -0.687974179087762 -0.265777080975238
0.380040934298913 1.77880520504365 -0.947714868333116 0.287058347464118 0.811936619874064 -1.04684336369574 1.05343799671648 1.18263742451394 -0.0319071434566667 0.368856005089505 -1.27816923690191 1.0428128866244 0.853033677920301 -1.86193593991498 -0.449902255478707 -0.297214998090131 -2.10394047289745 0.145326422119581 -0.486615370716682 1.49433015769016 0.820901918319499 0.543553969508604 -0.120190658472109 -0.605209250806716 2.23177417489106 0.181977519386277 -0.520035487899426 -1.98287605326856 -0.520115087308037 2.44406588044123 -0.303134678190671 0.055913591543945 1.90798030735151 -1.64811147267426 0.860803302942251 0.935690878527431 0.56324269708476 0.297058154781155 1.29485435099616 -0.259282694336302 -0.431256954148705 -2.50390010467563 2.06151326939736 -2.43440332732631 -1.07440533788628 1.86046988607047 0.220180619459752 0.75156058528165 0.931396024592147 -2.07302429964187 1.85922878182216 0.357318462544278 0.482503900841457 -2.36944636956639 -0.392657210938774 -0.933013318825679 0.609474409201873 -0.00451411105525072 0.917725721482956 -0.0125143504682457 0.0968522073596147 -0.453875262162572 -0.987410803956113 1.06562912079487 1.292527493789 -0.668113225127397 0.591249261055289 0.871718602417419 0.430353977810347 -1.01561999278974 0.0440581033567599 -0.349711639128354 0.224243927765281 -1.03846007112017
0.641048727360471 0.0852422464539647 0.769482738614933 1.31520901974155 -0.382698644372622 1.89408086654243 0.462118102907918 -1.39969176182661 -0.0237519737205699 -0.255236477564987 -0.69941159759426 0.577815897626476 0.770072973248611 0.0129694002065262 0.41140286504846 -0.569573428833407 -0.396507252607752 -1.36940204930629 0.850391519851991 -1.15104094341775 0.580870050814555 -0.790057779735019 -0.737305476961326 -0.799300109691584 0.754955673758744 0.39542792972461 -1.44292534640171 0.461100864487684 0.592119335851516 -0.354909305521315 -1.14883253859747 0.62742876932033 -0.596551058216825 0.506228984075376 0.603034024494816 -0.623627600927582 -1.34642555511018 -0.532549570515396 2.45259381784058 -0.544580844397872 -0.538360857425821 -0.0823713270275603 0.474213117749828 1.13048840112779 0.956303713413567 0.134267365786996 1.51110913749041 0.149914796362521 -1.21613922930006 2.80111333545017 -0.370446451808642 -0.319150835558302 0.465985203482579 0.539112493908291 -0.762582644197302 -1.57768086599688 -0.429152415611169 -2.00079521183807 0.537678063477689 -1.12389284506286 -0.474666868713166 -0.361064298250327 0.747769332581795 -1.42879991483002 0.289173968876891 0.0572397730088347 1.89631900451065 -0.912238954290268 -1.22902976206918 1.40604295663461 1.31854236941214 -1.66652347714033 1.00237930575291 1.56803195992437
-0.561464102734558 0.915070408273444 -0.812689987490755 -1.24735955196365 0.166179284574652 0.153801634471855 1.66106445030688 0.402634273280952 -0.939105436326416 -0.245172790119561 0.299331507299274 -1.43295804587618 -1.29906910658034 -0.800613191700113 -0.289313138928742 0.669945989705064 -0.171423548275234 0.972908074775615 -0.12821883150801 0.115089059708737 0.475804034772819 -0.764084789968235 1.87214433809312 -0.463756651747221 0.490639413014389 -2.0278169194887 -0.174534161599603 -0.315401048040591 1.76503852265218 -0.909492639743326 -1.40825187492813 -0.657190177925026 1.9034339790446 0.707364331864546 0.393301447599388 1.12385278403593 -0.0217676335743653 0.310239270765161 0.213468263639717 -0.523239170205062 -0.124473656059097 -2.51630258214517 -0.425202423911447 0.620817311983083 0.722795561429389 -0.967860725832016 1.26413829979212 1.19459427441789 0.0408610496804494 -0.667208657161632 -1.95140743984639 0.188479543637996 -0.994704421621389 -0.309440240453077 -0.116734304146773 0.15745636538396 0.972324495759222 1.78791459833221 0.571704295300648 0.104440267303714 0.533701705034249 0.113828087693462 -0.220348510925513 -1.56793768483062 0.837362689575603 1.0062262591619 -0.732494738183988 1.4871139454742 -1.36306082709664 -0.620511545119893 1.70553624525353 1.20021754081901 -0.558196248946301 0.0312965790694717
0.424278425659276 0.525318599619218 -0.10860587768195 0.673760943907472 1.09079296600076 1.75085051911787 -0.227870587294435 0.46448249692986 -0.912318382461635 -0.734298016113486 0.957604588327481 -0.343386920044995 -0.446747556913828 0.379113468363851 -0.921479551894122 -1.68871377887883 -0.715752636802301 1.35951903727223 0.553483175462097 -0.67397587544416 2.31354875312357 -1.60712060214045 0.419577204884092 1.29667960134626 0.262119188564142 -0.516297314698787 0.134297742978732 0.0771761947090408 -1.41891738139528 0.98842297003243 0.629119982935674 -2.7716159576632 -0.82038407568742 0.159536571788739 -0.973917555771781 1.72049622272167 1.00029858707825 1.41502114455541 0.157049524284894 -0.720034037628806 -0.196946907490682 -1.38465641948801 0.57924145086011 -1.11963522644621 0.181214530474044 -0.991757389822951 1.9417677938047 -0.523204741597717 1.7377794684469 1.10412242553831 -0.934382255366268 -1.04265647784621 -1.31422401651161 -0.822524089290849 0.456374405239429 -0.472553333475079 0.283395231703448 0.0678378323136624 -0.0871999140723237 -0.958573506602143 0.0769331334027645 1.44597151083114 0.940166942367972 -0.643077526330232 0.736799538850612 1.43966511972023 -0.163671017201341 1.17190641968288 0.673309541885155 -0.907446229317601 0.114620115427886 -1.07818425779237 0.505031372109855 0.706893614891025
1.06306543679034 0.162314125853162 0.10498813144425 -0.32461919443424 0.439312504640542 -0.181123139636334 0.142047472758785 0.94300893255013 -0.367538897068463 -0.25485899519562 0.304454396120668 -0.699907829770737 1.81326941591928 -1.40512140468251 -0.378048535031822 0.665311652144268 1.33161807492961 1.52491051986173 -1.6312057806087 -1.8318118556198 1.39102200037351 -1.79888390565551 -1.43713346291566 -0.960303497833616 -0.154648496726164 -0.786484574636222 -0.0298146581050338 0.922258729760198 0.0505661297145747 0.682460295365488 0.595925223076932 0.516936030672212 0.0923343001413033 0.537665511789953 -1.69958086374011 -1.31429514876237 -0.449101125467598 -0.62036898788391 -0.576191558604651 0.909296382612388 0.796660146692375 -0.155320263605346 -1.19105538167072 1.93876397772287 0.0903543862516686 -0.0316126824325186 -0.74693984684436 -1.2013261704551 -0.0548517572072622 2.72726112865266 1.77647241729494 0.778391711263107 1.0168260942243 0.741568333776581 2.49514027564382 -0.000977017887029825 0.982544545929886 -0.331851243492779 0.973243514167458 0.649083042812239 -0.870528749946981 -0.591616437185037 -1.21618159852039 -0.129434374628811 0.499890358873963 1.17839685486952 0.192285300308211 -2.20090450216447 -0.602158643032583 0.32282761996379 0.157350372330388 -0.903101697059676 -0.241660702826126 0.703712181698347
1.89904696115598 -1.7450669781957 -0.00164271457722251 -0.506363969707166 0.536580126954785 0.540683754830663 0.494041265901411 -0.141900315857674 -1.12137192650093 0.937151063584915 -1.11595062090513 -1.16061301291575 0.0950236921600689 0.139318778143437 -0.0330404701038852 -0.682936804542727 0.13975642423615 0.256626681340136 -1.13283413870108 -1.59359914494568 -0.114742701567815 -1.28883712847112 -0.924629292687233 -0.161212258204499 -0.348961524682217 0.579774943671712 0.618375207280732 -0.842233748457946 0.171947297859119 0.267706905987366 -0.37437322329351 0.733552259416701 1.10643130024228 0.323615757231209 1.53352391407846 -0.0796662127488711 1.41018411663801 -0.758538331640295 0.0790201366453131 -0.387878160126417 -1.20275934558692 0.55224967954767 -0.636072121373819 0.454707433251344 -1.28610239358488 2.0857185153137 0.412577799444144 0.0620004182058687 -0.324466824726333 -1.00161860332451 0.856067991118487 -0.146638704211608 0.466584688520797 -0.386712336566778 -0.407314917097247 0.327821250842243 0.211925394812636 0.119257066871697 -0.185284529260136 0.277036173743452 0.890175960581404 0.743195737392177 0.636218727217686 1.61017751950448 0.356729920729423 -0.418603067939074 -0.0144987555693187 -0.0062508612762904 -0.0333133337976952 -1.56289191125586 -0.840354700392894 -0.596891691409608 0.659684760913988 -2.11427088150596
-0.284252122754695 -0.768698041669748 -1.86415070275379 0.810228822797991 0.722991702281094 0.767675969897784 -0.944370154129327 0.794851679040852 -1.61248984791338 -0.480356016536078 0.803250470941595 -1.28274721253513 -0.259896907111479 0.160352996002371 1.99944154251411 1.04092868224033 -0.894374946001336 1.09883021389164 -0.453429079096686 -0.0181255461848157 0.225439092404605 -1.20215389709119 0.850101083055129 -1.10255171831373 -1.51709983729334 -1.19519201459789 -0.360937596377073 0.542666299129677 0.790293699980997 0.0836967288538022 0.498839355322596 0.371300546664132 -0.341182677263186 -1.09139960362952 -1.79015593973246 0.112581638315017 -1.06948286725212 0.388365809604951 2.88221338918244 -0.814763348258292 0.988711200777513 -0.195337783404545 -1.97906071955427 -0.0987531323351773 -0.190329424055507 -0.0174671233747534 -0.146203757383135 1.97655675078888 0.101928793617723 -0.665508108625033 -0.737431805261955 -0.88206257834624 -0.7529893500572 0.15175148331182 0.653888208115276 -0.989047704407529 0.415156396112721 -0.990300671488465 -1.73613792656638 -2.17472324743863 -0.718374702339016 -0.777359299395338 -2.1205821451679 -1.10847315418616 -1.533044906885 -1.08527673381931 -1.23967887677859 0.0485424884430734 -0.929533785435575 -0.408562681126061 0.068117178936003 1.67477945288711 -1.12787231948975 -0.837204507655253
-0.0235130822184935 0.972517341313732 -0.0947301735971727 0.38319503067616 -1.62908024084188 4.18463838153367 0.0501895266619616 0.270642027087971 0.441426091280534 -0.451489192193464 -0.165028693523352 0.245996941859695 -2.09482728270759 0.182782550881593 -1.01014496660121 0.697315601011881 -0.507692243035423 0.727310679169061 0.173218741189201 -0.825492189551767 0.693042675781871 -0.534672104510999 0.00223627519670501 -0.726361495579635 -0.742253718217381 0.937014146487872 -1.51754341134181 1.1035762415163 1.00551003635324 -0.50962452073492 -0.0167238583816824 0.287831031807273 -1.15669929953706 1.49064680753612 -0.309378758537562 0.673354843521 -1.71217034471136 0.648815589219542 -0.447496030215125 -1.34510900759069 -0.114234166533321 -0.850202726072717 -0.372556292739827 0.296245764873378 0.105001735298408 1.27323724277479 0.0505505868766698 -1.92749675903339 0.497368124724061 0.992055177440883 2.02413991540379 0.121365445819149 1.2745907630768 0.220923419517306 0.127055740434573 -0.220198442679231 -1.05534610485403 -1.58316256150905 -0.0397489503492108 1.24313393478545 -1.50015255771753 1.15001856163297 1.08413354152804 -1.77697595407545 2.4339432548196 -0.934937989449032 -1.34231645263095 -1.34294470022543 -2.06152163768052 0.865255249452699 0.748638938233121 0.45698121629515 0.213325568996206 0.433276243221261
-0.843031995887829 0.527669102868944 0.295394712652581 0.153699952605362 -0.201182542452501 1.43191423205427 0.350805848965401 -0.648489663702712 0.393443186126412 -0.419487732372627 -0.130927829292201 -0.115546742481164 -1.43727764275681 1.07519601374889 -3.33697168210057 -0.50809353395869 0.451751879879893 -0.607373978564675 -0.345464498542943 0.407996428489443 1.35464549721753 1.58539886166628 0.143072839306826 0.237294223956434 0.142783150768114 -0.543432098215703 -1.12620217337002 -0.0320780933389891 0.0265597922084791 0.23277883282016 -0.345076189082707 -0.818768060842716 -0.231303207827306 -0.636710280725569 0.625406030512247 0.366038573840596 0.201980617157535 0.54691548942371 1.46231773631376 -0.714756467510712 0.215543297604974 -1.30537021668496 -0.53927761032968 0.139671030946781 -0.0637137990637397 0.429474209654509 -0.185301406015276 -0.60701402943033 0.358190286685501 0.461570011336565 -0.515858657915234 4.03869010769525 0.595008832690784 -0.265456542001733 0.166835122571043 0.990756873410842 -2.44272740141423 0.131309554215481 -1.91459475657857 1.47742324448114 -0.84014872287963 0.897371419640924 0.412440534029658 1.1813215025597 -2.12275675448278 -0.558928714754153 0.480029762227424 -0.960436721897086 0.182266976218199 -1.06172300674652 0.417619741009648 -0.53821038057316 -1.25625214773157 0.101391347823694
0.324354591047518 -0.677488650503531 -0.422145265296303 -0.815876676432291 -0.0170653448342196 -0.881766830790828 0.351710532933154 0.705565995044637 -0.422235363396525 0.323845045940747 0.114630993134213 0.52716052662918 0.214085557805947 -1.21572723938306 -1.87977170731339 0.337546666921018 -0.854247069786624 2.34562900001279 0.135164210035156 -0.776598993305962 -0.022242143480937 1.58170442401633 1.01557254697508 -1.37162171711875 -0.42280695971955 1.31180504441241 0.6733931842372 0.0940208323180166 0.776775773074758 0.334501865248619 -0.266287007912374 -0.911599027421008 -0.80841924391372 2.12744055604127 0.211280961121935 -0.469091443351699 0.0600212080657325 -0.443955133342293 -1.07137533717174 2.70884144733242 -0.923663946472854 -0.207102486708459 -1.21935567321446 0.236367499042643 0.710562602789897 -0.972473838826568 -1.32194371437177 0.313878790148165 -0.526813730089443 1.24012606766211 -1.18228067468434 1.34647457395454 -0.3329243193734 0.244061753805164 0.567977526252229 -0.75365004359737 -0.458943091830957 1.26417391803589 -1.74801039757013 -0.616579074912743 0.414293743306445 -1.8099807011618 -0.98366529804837 0.888899899923243 -0.027111137515644 -0.755711198622222 -1.16534040873086 1.42282632464174 -0.892355921072214 -1.33855976099213 -0.358599001103545 0.142353851637322 0.572563464867361 1.41761928711996
-0.128758224805922 2.1291234950682 -0.642351787699567 0.406520062403284 -0.343865991466938 -1.77853904808057 -0.403131075299273 -0.0743513815861892 0.756694002409567 0.375211062183697 -0.611786244518154 0.775028453794189 0.802280889810633 0.170519808850699 -1.08064164171807 -0.340487764451166 -0.95331065584804 -0.00534540777074069 0.972681039322261 1.63643339909563 0.55966818524761 1.74444415136434 1.92463328832225 -0.197059775505703 -0.553855275036886 -0.00500893487353929 -0.694734448008093 0.596450891125755 -0.746260200716641 0.612916648674474 0.0763816563720308 -0.246721298262321 1.05130731777233 0.441535893023353 0.0835066087516832 0.923036793192385 -0.933304498703185 -0.993574669001238 -0.819268715993272 0.464325054436387 0.60432675243456 1.75079490177757 0.650421219214597 -0.267955909072424 0.985377379501145 0.411768252474282 -0.469219228462692 0.0496164472021278 -0.940242514587875 -0.973600788963352 -1.19463549456427 0.261622269063727 0.277585667633702 0.0301211308061731 -1.84287412198344 0.599527643025346 -1.84801573180487 2.64137451923164 2.60930672536155 0.435779555376111 -0.317773082447418 0.308934593801733 -1.28401979618318 -0.941554518398586 0.190995034991591 -0.360400424700891 -0.400348948717892 -1.94350620353533 -0.635792955660145 -0.288057139692344 -0.238553957167646 -0.581441423234105 -1.11125224267199 0.141720013929892
-0.516919902134867 1.63384712655286 0.6345562251583 -0.542624904051812 -0.763064019779437 0.661584725219339 -0.10750699460057 0.445642789254325 0.162720140345835 -2.54082138294759 2.03467669145727 -1.22615538567295 1.31255547589898 0.222186627403593 0.191293066997755 0.0035851517156917 0.671413000946621 -1.71942552692353 -0.987489910927412 -0.326020370732754 -0.173446103859437 -0.367211109252774 -0.951186642963872 -0.748573709941624 -0.266174977723703 -0.868987855126127 -1.81712672788789 0.31108290779371 0.790628605406231 -0.491196952941292 -0.524610884022826 0.605768770536181 -0.68680847015855 0.217076008429904 0.671935794739921 0.382918892473922 -1.71585329743578 -0.821386130464775 -1.16490206121711 -0.445469570188991 -0.872507782558097 -1.11023250669675 1.38111659650028 1.6801083417643 -1.43120245236918 -1.02466261887 2.00922613963202 -0.298089658639609 -0.327680450897151 0.685079091954228 0.731399977519954 1.02097921647096 1.27225041526211 1.01473305543784 1.47938946335958 -0.14748125488039 1.41621192285187 0.468375964879309 1.40979291709185 1.8818394957832 -0.59972121381764 0.0788827430273991 -1.13087893321468 0.340149020524428 -0.42139764891865 -1.02355528135561 1.62104641849856 0.391229995091785 -0.855246516961305 0.0401463812395629 0.00197682205440783 -0.366812965932856 -1.11352696119389 -1.12721591681765
-0.758715234134091 0.675382500013163 -2.75023484648383 0.0995307499413423 -0.968424326995439 0.40177068584424 -0.516638506525489 0.247730216294085 1.31036619655661 1.69820235173283 0.145139381274673 -1.11475592319579 -1.79042506238624 -0.212945193882563 0.630539670853705 1.50898583159338 -1.10512487723426 0.152309459051914 -1.11925554245735 -1.0670738733176 0.853142046100857 1.503424588384 0.0256835593969096 0.119441194820769 -3.11513941899466 -0.0376488264943255 0.797337389312679 -0.371762671654983 1.90068122365098 -0.254465254667268 -0.508808761749223 1.72804548450559 0.263274061815509 -0.595156149906747 0.507402696670761 0.385912843723885 -0.230754203801423 -0.58333105497979 2.73746963002281 0.687790395541508 -0.679433874206175 -0.523281494756854 0.75486581118568 -1.75151726199859 1.45416066577859 -0.170172722239567 -1.61646934375196 1.28587922267289 -0.664643524599349 -0.578529375282186 -0.987685336221321 -2.35268999329738 0.160135403286791 -0.139018156151876 0.405513433674534 -0.925448392284515 -1.23331955052747 -0.140052163971336 -1.50119379151588 0.246238880350134 -0.23785361227939 -0.361068106813973 -1.24801722215734 1.22372547391743 0.934298880563766 -0.327781846245182 0.651887667594501 0.766166328323903 -1.05625481035654 -2.50185404410854 -0.969374159052301 -1.04612408153744 -0.145240234941961 1.57143566248141
1.24082359271874 -0.461010815200185 0.0424421520655421 -0.53723442270296 0.0214980196848169 -1.50820415171115 0.363385131904012 -0.252892206920771 -0.0806870856438217 -0.108676958355918 0.311495431239343 -0.381647775234745 -0.518681968814007 -2.28464509506759 0.813445512475359 1.155810020885 -0.056354864012608 -0.257711994578112 -1.78312326797946 1.52928710523637 -0.108147801327736 -1.59723779290363 0.743397659311765 -1.8762018172958 0.522505998483226 0.567276287103712 -0.72070064636532 0.708173252642476 0.0696893594707764 0.587051139246649 0.617306917416771 -0.182396032204285 -2.26978011077586 0.736984721387987 -0.374920782372867 0.377218506319664 -0.0859864274458435 0.369683532744641 0.672335126752022 -0.63860582478142 -0.361414988681625 0.896289513159731 -2.05320783221994 0.709411160251509 -0.106124445386686 -0.469627532616006 0.245599018670261 -0.376209109016244 -1.41019458068858 -0.454191103130638 -1.28015763299229 -0.510032670641273 -0.88174406383364 -0.252085183418102 1.45124990758212 -1.18980524415807 1.73528080133291 -0.289764420402062 1.41082528273984 0.519869538595116 -0.641599810088438 -1.52597124522466 -0.425607496489949 0.842331428808376 -1.1718630226164 -0.506060597051559 0.510761054191023 -1.70199965342158 1.12395319241487 0.954708659939 1.01048223130511 -0.613924216042883 -0.551694934494619 -1.11266379261991
0.878043569953332 1.61762583422542 -1.62654288179708 -1.37304658534366 -0.938766866256641 0.103589046657644 1.41401108573865 2.96018443106251 -1.88525827705062 1.11298360194061 0.464420022706012 0.067147507430313 -0.310775822772959 -0.289828304844058 -1.08379893930703 1.25089501540253 0.449851171860069 -0.951107744796946 -0.751778811216364 0.0783600327249359 0.858098964896292 0.969228657788792 1.644683525017 0.432968300669471 -1.58160733619472 -0.429321787409727 -0.0156737986010811 0.744100302788719 -0.123316789018205 1.01059759834132 0.380318151765224 0.844458861597467 -0.244927706424804 0.85649608946858 0.0360840163955435 -1.54112061104665 -0.448447180008023 -0.800341648600018 -1.84692623945449 1.07954578722253 -1.87108940153661 0.217372397033074 -1.82188240133692 0.0130615555199018 -0.421211813393836 -1.48601436905735 0.386863911193523 1.38510638860021 0.762533564552574 1.1251674593115 0.600588434513209 -1.44627488875564 0.0176097895950632 -1.99452425878357 -0.790796846528571 0.523714723887414 -0.0671081308864299 -2.20125883466262 0.500119406496016 -0.576886333417333 0.346144687811646 3.13153722032616 -0.595095602664155 0.0342828400328719 0.366977760648237 -0.368760243321792 -1.8723810723874 -1.3567876623212 0.554552286784099 -0.201173785516467 1.12836435501221 -0.202924204533507 -0.499263780071133 1.16423400258753
1.3342146681896 -0.213101589109015 -0.266824484870761 0.160960870463832 0.998563645206049 0.487990657148515 -0.378201007668547 -1.48055293064069 -3.3030494127251 -1.32485792217113 -2.19689384230492 -0.447480041713674 -0.683032801021352 0.325271594171997 0.399368720901287 0.37644612666191 -1.33192498164658 1.81405979825173 -0.157518880113754 -0.0828865531835477 0.921216407520126 0.757392796906068 -0.723582761875891 1.454805408115 0.45661028081287 0.239437775529707 -0.482566225670533 -0.61880602828927 2.25868190060714 -0.830324521989049 -0.495188757411449 2.20461743144646 -0.962452393817478 0.0177058763633825 0.252001002394714 0.72026563424028 0.809681814879134 0.225439883740227 0.56719396185503 -0.297511155609471 -0.22946903638348 1.21808567785397 1.30139683214666 -0.262993616339274 1.32466619080164 -0.535660227108191 0.654351664829664 1.04879224544987 0.299605677762251 0.202654386825816 -1.33350781179146 -0.357109452087896 -0.299082977663739 0.751122277272138 0.525884184022704 -0.550820827021413 0.69863301032128 -0.0544917449050441 -0.887273749384312 0.28833556658203 0.598217688387413 -1.92172351801851 -0.678142018398481 1.23702384058317 1.55875286515515 -0.491528056826764 -0.280924904912112 -1.42110853878871 -0.248336228451367 1.01914112599989 1.47207724632512 2.07718948101382 1.72895098705084 2.63801999479947
0.818388811643234 0.344336469205846 0.521285535355344 1.12503483994889 0.136128568039431 1.17918737517728 0.821565875089699 0.738325469261 -0.894484075079818 0.0304243383746149 -0.629316717208491 0.0514822673888661 0.852828404382613 0.565382001715208 -0.0374735000062352 0.122351437270481 -2.43338046561268 -1.61392528249785 0.213136000539359 0.886735376275659 -0.446696247750066 2.36729289474669 0.164135097346488 -1.41733328708519 0.791255347972319 0.0892022369434917 0.281749536647556 1.53611577356191 -0.852098975407372 -2.13007769198125 -1.62162954555224 1.53387716682296 -1.21182938104302 -1.78179869690323 0.774351675936234 -0.0573689316109043 -0.518369654943057 0.257169866873291 0.608412463773601 1.34207645869871 1.10338427931088 0.186977640379233 -1.50697600381012 0.425813116063549 0.848400930554057 -0.279147407646898 1.39821430805376 -0.299124803516106 -0.200111046991265 2.03685528933256 -0.0383927297251233 -0.623764662644136 -0.440436502343708 -0.294917613263431 0.0833858770525688 0.00530845548010352 -0.564690756466102 -1.31464472824442 -0.234253068179378 1.44007611706559 0.791847363979877 1.08389217050602 0.249979598415973 0.218547104195056 2.55868115440184 0.505749025233917 -0.376440641864547 -0.0134020832910962 0.488852333439828 0.101100265315375 0.12590518969574 1.6228525799347 0.425946598088388 -0.439392275490923
0.117694685660702 -0.562565899673886 1.77832344238266 -0.233435191658702 1.271450944483 -1.30956231122394 0.0717454295972468 0.82373877923729 -1.06041970299531 -0.940876604810984 0.778474805643424 -1.13343574883433 -0.0675541600273061 -0.411860860309541 -0.348938013556715 -0.650328885491628 0.00421248550399736 -0.185466215372847 -1.22065946549961 -1.23165711146607 -0.837609173277655 -0.069143823820979 0.762772760860808 1.82216668347434 0.780707043608422 0.854197764097858 -0.847627856980481 -0.615267222324706 0.447476497742037 0.571820208294492 -0.375600231254867 0.292368868266869 -0.413615379107239 -1.32026333875318 -1.04484770901141 -0.31665139428633 0.772764218476891 2.29470285510403 0.171096735407161 -0.0258743724776839 -0.581847753555464 0.443600817521885 -1.18885163178852 0.722833874164661 0.039769804197705 0.650139254059841 0.266619053613293 0.657165543299895 0.476357613434261 0.163017665608861 -2.12696432021359 -1.81962502410908 1.38064028223128 1.01820990102639 -0.612502195090548 1.62325273695608 0.482951620057402 -1.41568142231121 0.77655619497426 -0.904493086902215 -1.63163309271409 -0.685673854563857 0.919239552570644 0.334884840160058 -1.81551597986318 -0.0672139113617287 0.114746873587651 -1.14982565288975 -1.06942520773152 1.99962182404705 -0.550956237033048 1.49236445828631 -0.722248704640939 -1.01416215092581
-1.16480104898801 -1.0404600872951 0.450222544370953 0.0563200043607396 0.0333953918295213 2.50154117823755 0.528576159893805 0.318071733817463 0.489192964939536 -1.6280508045493 -0.545340109508121 -0.0138847115297924 -0.406298517675341 -1.52847753511728 -0.0276994730768403 -0.57928843496298 0.886176003424644 -1.53571126980568 -1.03277326712799 -0.464355204955667 -0.226474919149409 0.177251147630218 -0.730445426366348 0.152506690357815 0.200117980095226 1.49281344492962 -0.777431416740517 0.685180160779838 1.12051017346499 -1.78984770201997 -0.922414662059816 -0.483862507118252 -0.111832965477809 -0.067068074521186 2.06097306194805 -0.490978309757072 2.43102343052719 -0.0850214085967224 0.391851851647352 1.00151393499722 -0.120997597336338 0.254097396340615 -0.1103663994391 0.0850525274055713 -0.191589150571513 -0.0167421097529803 0.3506413401864 -0.0387898766786521 0.479594170483469 -2.14245059389943 1.61815835788663 0.224245176065938 0.800118907411814 0.174323534233452 -0.250117241276411 1.18215834909224 -0.0004295473298511 0.122317213489427 0.428913462038812 -0.74883199682597 -0.760011575475529 1.1508805015201 1.88485198081676 -0.692461556668578 -0.575343021687296 0.370649162940892 -0.959239765072468 -0.59147123375825 0.478634630515236 -0.11360599968493 -0.431228582995455 0.0255668870467445 -0.521134785783172 0.564543993905609
0.154966835049582 -1.28618478692035 0.109199731388853 -1.11753553208612 -0.224474360616634 -1.84495109096238 0.859384800249816 1.34839722091149 -0.391987720467925 -0.860906607481701 1.69983034258914 0.822307711757708 0.285935015022789 -0.680959748243854 -0.869649836989714 1.4381553783533 -0.344716173059616 -0.130577414215558 0.315811539879672 -0.153224216359546 -2.43574474249877 -0.0599234908550655 -0.661781652432914 -0.726332991532915 -0.605689546057789 -0.562918023963946 0.438675271705171 0.408035559768812 2.51483078193523 0.0571864456487854 0.910770281915159 -0.745478829996529 -2.36644682829516 -1.02206949158903 0.00658207390298146 -0.0457034944947221 -0.315741720679399 0.0503096408512448 0.518572868752059 0.491718322857461 0.161731485797964 1.15016282850561 0.21755790518538 -0.861004252600629 0.124734953454585 1.02044052240415 0.343311687297264 -2.41132017464657 -0.694546830000228 -0.421146992624156 0.0201692653857266 -0.697288200532749 -0.604072704062646 -0.828693185590523 -1.08935371687957 -0.329881160649992 0.367312219057264 1.99981358449518 -0.444170117324066 1.09910132400375 -0.945531461673468 0.320411304677744 -1.0510265012571 0.72356305335521 -0.47508657822204 -0.0727595474680205 0.0166976070050302 -2.07877459392819 0.00231150670730127 0.38568869881799 0.951570828881567 -0.385967924853207 1.90147600547097 -0.0853311260027828
-0.480439741118897 -0.513125438798472 -1.33977075720936 0.675131143941193 0.392654437842317 0.894652767442817 1.4210346057387 -0.5644214160205 0.910632386804263 -0.016145424083561 -1.75885202571486 -0.282764363894363 -2.96156232604697 0.306094767255638 -0.611069962944181 0.717837716360567 -1.46321560206645 -0.440961122682378 -0.558658760020387 -0.437418024172014 0.685740744462264 0.725047619026822 1.39896972079948 1.595304242229 -0.844959431022113 -1.04702111116364 0.066611625565116 -0.788575977727768 -0.757838739675922 0.401863888876451 1.3538322492777 -0.100999198614873 -0.281454751189362 -0.698640410850094 0.454015130363563 0.00523227586791454 -2.63650144532408 1.02026086720505 1.24199144501029 1.5310154730174 -0.467637910664453 0.731618596839469 -0.177655887747164 -2.11657919870625 -0.723021056335791 -0.99619737007594 0.437543341666263 1.19931106794737 1.04432429224246 1.75064686357721 1.7481966819694 -2.11062924809681 0.751097332315922 0.949458124272657 -0.0287999276269866 -0.515649071460109 -0.55809535473397 0.807463081341211 -0.418668079828682 -0.870396651649316 0.753144797088097 -1.17461441985008 -0.792301397747156 -0.341106781267698 1.80133437934395 0.531226349468233 0.591289997203979 -1.3195492337582 1.31546366461033 1.77711513332374 0.550777515548554 2.20495944391506 -0.349423825810604 -1.40303811668158
1.24689227582385 0.292669221704534 -0.670240097434066 1.57975776249014 0.502777511507321 -0.416428346493628 0.401305301274741 -1.19608736001831 -1.39515667165422 -1.15685653141624 1.02796831721032 0.82724852672472 -0.190433044900485 1.04859009105834 -0.121631983306139 -0.173931046157706 0.533939894894167 0.670341410049294 -0.365566571749734 0.0921185670319913 -1.93427050695603 2.03330702088451 0.808726308692649 -1.53002333945149 -0.575065272639545 2.37142653963329 0.607135389293063 -0.832644530423037 0.666608129316534 -0.565966153958356 0.360724444846779 -0.896690114900546 -0.435863245175342 1.42679070220983 -1.03717485297295 -1.79085977732292 0.779400009893043 0.344474429032843 0.256384925757921 -1.60572675100442 -0.807358444487396 0.261101241832806 0.951038256112947 -0.31730442341205 0.479152528937911 -0.180363684629122 -1.79542510657361 1.08165056348945 0.458560258509976 -0.631990580147526 1.16729018069167 -0.868192124780048 1.46895799830525 0.00102550101218777 0.213499890045692 -0.854228461133913 0.0969250076850974 0.069653404482402 1.32592572897234 -0.305531361399108 -0.31429373676423 -0.272456784002506 -0.552186288717748 1.03889709534087 -0.871513784787366 2.15257976324309 -0.305831330908832 0.100454417594491 -2.07866669374677 -0.145021328447865 2.02822334009953 0.707517671732389 1.32904955990787 2.19129769700957
-0.269374318631346 1.37123152760739 0.615515594843005 -0.302109960321093 1.67342404471801 0.799497245069708 -1.23441770765256 -1.25395699275459 0.703829383860104 -2.87733354092725 0.812267810925455 -1.05439035656268 -0.0591133398684531 1.2560850573458 0.416454862669845 0.70249289401404 -0.551705875777641 0.863374098190263 0.895052527699711 -1.8110103070662 0.302321658634405 -0.838390142739284 -0.210051573989551 -0.788567038596352 0.570620473554576 1.71630736526749 -0.279542478614046 1.67910126723477 -0.642418305557749 0.69234221959561 1.31619134374048 -1.00659585242624 3.01062094972058 -2.44694204755973 0.677258381693806 -0.565530820052499 -0.613227249403368 1.55545647943236 0.182236095547293 -0.33922940239915 -0.0422072753283809 0.221865170738514 0.890949150577938 0.631749032448233 0.981180256867536 -1.35478941496987 0.513104787546449 0.247240628495464 -1.19972335214757 -0.101073175734727 0.269441605708933 -0.551136711792605 -0.844459069880368 0.339939058224689 0.301669275272655 -0.0336304576987637 0.656830904861591 0.695678171363062 -0.24528631001129 -0.687261048354861 0.0717298523056106 0.614302066483033 -1.31986381975896 1.5606390123613 -0.942545221149355 0.3038608448425 1.71969107809629 -1.86619816929696 -0.346795758651139 -0.00777679607830015 1.75176684661899 -1.06507287030731 -0.678624867499367 0.861770211505659
-1.9814827206838 0.2458743271545 -0.546266874494786 0.320687981621827 0.963920238702415 -0.262169878078046 -1.20357601480687 -1.26028536482215 -0.664834002965228 0.261446247230503 -0.768650515106863 1.62764722500588 -0.00509638083256911 0.369416015108405 -0.258548868732823 -0.136029879707813 -0.44751123584304 0.721331700547041 -0.117275544833678 -1.56449261834404 -0.0240655199932141 0.898559661122141 0.967084221061031 1.55402693921459 -2.67608459532983 -0.293517359300791 0.0922056228657584 -0.783499418948929 0.50456361318393 1.15439055588597 0.584303327012336 -0.677384602608398 -0.0767873910069892 -0.2389494793863 -1.49204550729142 -1.0244651842504 0.308946509368286 -0.270166808977806 0.494229963112692 0.325367500420654 0.761745095660616 -1.28887001931612 -0.383595885363017 -0.112190801488811 2.48340966980144 -0.178345050892835 -0.211330127912754 -0.24925069102861 -0.618756384137814 -0.908005286459671 -2.30239538958562 -1.0669737735018 1.94016223029869 0.441146639450706 0.141377492890448 -1.51969646062613 0.683937276941311 0.543873102981941 0.459573587659629 -0.909463355260142 1.77691474466583 -0.560946869064871 -1.78342715309408 0.542101689224729 -0.0018339484257816 -0.600990617893645 0.491836449999063 0.254785382399412 -0.891226601502723 0.172402619890048 0.123044281192724 0.756784986846162 0.4671651890822 1.42266283795759
0.021089345934037 -0.324535034628848 -1.39202821791061 -0.269654133910817 1.50560832726734 -1.05833938815745 0.32357345293178 -1.00178795445741 -0.9920670303392 -0.827006626634533 1.51655980589474 -1.18668469698455 -0.111042426656205 -0.73811924170348 0.143520328061732 1.1178137090573 0.420487895289468 -0.154589853614522 0.636409272979193 1.14652891484057 -0.835575549763388 1.13221174177266 1.52401486643364 -0.987314109302823 -0.210184537058481 -0.0411096488629923 1.7907286136573 0.261238590202491 -1.64600757736668 0.923207526769791 1.73773185966535 -1.55510611539888 -0.725380352982773 -0.926105506955445 -0.990213369418926 -0.225802752336972 1.35862449531167 0.786679433075291 0.671302179451304 0.99004338327691 2.3834664964137 -0.0528698546624629 -0.635677028468013 -0.184677084853752 0.30327361285318 -2.64624954838239 -0.790903476835673 -0.314741728243084 -0.992331243956131 -0.635589817458006 1.67340415309291 0.450993314637685 1.29981693133931 1.01779169281855 1.77028693789112 -0.833875227209977 0.538558355373133 -1.55942397021598 1.68306823198447 1.00358913334388 -1.27959642041253 0.615428614749944 -0.982664679544451 -0.223280995616613 0.415443544243418 -0.0641656240649832 1.40564379321115 -0.32663378552622 0.203766966510081 -1.25984045872126 -0.472618720533185 0.591794220650696 0.442130815912719 -0.282087767943128
0.247012208987364 -2.25277805593076 0.0315624012973162 0.551186990540944 -1.26382487204233 0.300562504112202 0.953505386524645 1.11117899541394 1.83229370081568 0.0359271849519081 -0.983837289032972 0.667225208165916 -0.366888098797156 -0.414792874544436 0.49772225202558 -0.881635226743571 0.422422446906496 0.36375709553135 -0.932463436931795 0.155983764587271 -0.683687491207046 0.635760759897537 1.53353248307435 -0.481059120451634 -1.10451738446647 -0.323997419278727 -0.440735087875622 0.0756440725943244 1.12274018272647 0.172221155534954 0.946695612486336 -0.87450074933014 1.20170063113785 -0.563359990313955 1.66760432127698 0.312429468389984 -0.830420598256449 0.367911976201309 0.451430029038108 -1.56677385403829 0.50617585048336 -0.486270914951689 0.209124750507468 -1.50598568667046 0.570991640404285 0.619897188382596 -1.00410956755669 -1.41171785207466 -1.20133792751913 1.35660401556736 0.730155102072798 0.449919372208359 0.774291969087392 -0.446743434130077 0.395396175560235 0.257448181033728 0.168316490897186 -1.87158975385514 -0.0863109189981826 0.394225258062225 -0.185826872982896 0.303390237454689 -0.579359835090765 0.796881977592765 2.20337911514877 1.45479109800521 1.05810767195046 -0.316486799926081 -0.283811842088571 -1.56073197891559 -0.334815783532686 0.13849865278787 -1.80405230482831 -1.57643451740335
-0.346809091251685 0.293767640343942 0.235805821123619 0.360116550647268 1.42232944291881 0.941101061449689 -0.568670984451463 -1.35311010111911 0.403146108036906 -0.847805014894493 -1.06279926175392 0.636000695848855 -1.73621204618479 -0.0170605983073041 -1.09498884600052 -0.411526457224988 -0.835031781436793 0.179658610214557 -0.645094920949099 1.18927947995931 -0.0961296088326047 -1.98040421920426 -0.729708853337166 0.59868490066949 1.46293349987116 -0.936268124185609 0.0720005645983728 -0.80166751919353 -1.88530735059318 -0.014770440951917 -1.328858997285 -0.437935062918356 -1.15036816484563 -1.48726141336005 0.307793749451918 1.41880988336927 1.05964573564474 -0.380801111370288 -0.363242849273818 -1.02194247726976 0.0842028417655816 -0.549197579959777 -0.289258331729466 1.11925668333947 -0.307584564072334 1.79506966129649 0.446205888041045 0.119959318418651 0.221392374793051 -0.434415242933942 -0.334177717979103 -0.602939544654755 -0.837040954524974 -0.698356128695794 1.51557388511438 0.158673077547056 -1.85436230510521 -0.234086967380619 1.07228471376386 -0.715854522266541 0.530174903196696 -2.15812039909606 -1.50008773452893 -1.56405502705378 0.600409866942457 1.14998737344798 0.523330116640711 -0.958554235782752 -0.434806774701105 0.791812035660475 -0.807451013642857 -2.40982326691025 -0.261472508459676 0.504479872433265
2.25128171319487 -1.58418515492212 1.00891978238266 -0.689158034341537 0.395875391394216 0.379181147174109 1.06610249396443 -1.34617956341606 3.18067357198222 1.59770938340191 0.160902146365037 0.735082931382509 -1.25484412495192 0.627872769433242 -0.195584984887485 -0.362102567641116 0.414323800350284 -0.94530280829234 -1.42227553331751 -2.17160631586981 -0.605333919660308 -1.14300454013157 0.0278116688547408 -0.482455243464986 1.41684925984237 -0.416359940507326 0.472165331128988 0.862713588711644 -0.415058697006678 1.34510902470206 1.13366817725124 0.154377598622449 -0.989141314301886 -0.0201464972283252 3.38763171679884 0.80791228046599 -2.92173855171154 -1.04168366951317 -0.162274132662259 -0.419738593266807 -1.65547765044047 -0.613280080609589 0.388767438345349 -0.082352101877454 1.39250223111008 -0.691526773912957 0.597832297804864 -0.701127212263427 0.840685195723161 -0.73408732854882 0.442338775679064 -0.21279735982417 0.111874806162165 2.54346428914576 0.967047558132741 0.0712208092674156 0.82759847823775 -2.28072433086759 -1.42326931548494 1.80445240873622 -0.935206662677753 -0.683446070929088 0.0312905496938209 0.303218177043851 0.85169670596046 -0.0227025271225161 1.2129601150833 0.702289426323272 0.577841594061124 1.31231559807904 0.424891442685772 -1.23283009319304 -1.68148591270847 2.25247253817824
1.78108796941606 0.763407707197805 -1.03214272133943 1.13061532969861 1.68942976103189 -0.868504239797415 -0.0829485657558415 -0.666299779410582 -1.62638224669362 -3.05015494879121 -1.15573234787183 1.73481913988338 0.17632661257552 -0.370740410929321 0.672275441631665 -1.4547708988504 -0.249621317360729 0.862212790209676 1.40912975621834 0.42080452329745 -0.272694553177138 -0.200632329852869 1.48454819103406 -0.84987882967699 0.734029003829758 0.927420980983646 -0.793511366936518 1.82039591082453 0.432154554994617 -0.66236361996914 0.0388903969728803 -0.398935718002382 0.438042827404862 0.609017149950748 -0.0061916915705578 0.161228699220916 0.926132123065733 -1.56285510427916 0.066669028484481 0.799558479844771 -1.54072651795533 2.2713866432252 0.979190355040924 0.437246974453878 0.241209943070694 -0.521284864294505 -0.334369174635169 3.26345951836597 -0.585258597178721 0.405226954720159 -1.35528161918152 -1.44874481737513 -1.34165604981781 1.0405483183727 2.6992331082359 -1.11056892078874 -0.0985641831401988 0.419845990091966 -0.627386198697708 1.24599387434726 -1.17462025327551 0.704305672334217 -1.33888191999844 0.207737491383682 -1.61767521112171 1.97383003659851 0.620172239750248 -0.932003179802359 0.135103066537993 1.14483464948399 -0.365827544468316 0.565655153532968 1.22425094693632 -0.113270331963676
-0.65089375726296 -1.08385637500181 1.06650162577366 1.1689409337085 1.58720136421521 -1.26341882503351 -1.00978898870835 -0.264051199503615 -0.413576346033408 -0.98527748457881 0.522994678079555 -0.624054113507007 -0.376194224478887 0.663103852968653 1.42783843850944 -1.20883941754134 -0.551541713507879 -1.5311222019919 0.900117839563037 0.196269010973416 0.354886791179026 0.98364612382668 1.55325017593001 -1.07878629678935 -0.94913030036388 0.0861014328488657 -0.248899559297056 -0.185454035349391 -0.782780558555027 1.20999816041296 1.57044686886112 -0.376789490645864 -0.182103301421558 -0.251497194702861 -0.418350346821125 -0.294500465474138 0.940483675026394 0.55875275145481 1.61423668819832 -1.07093144320993 -1.31134164273578 0.370505686881961 -0.0850855873102389 1.85619736871474 -1.42400053605011 1.90304979572055 0.675443550802735 -0.682110658513739 -1.18132665710181 -0.799829633196398 -0.921560833003304 0.77836277077973 0.0861043175285677 0.0631735640456624 0.291531018008344 1.06956889393154 -0.610073252886351 -1.0843692569803 1.46307561036126 0.212261692636151 -0.0137407288084076 -0.7826780043641 -0.666420535628731 2.00762517629861 -0.601772376105607 0.30941335689902 -1.12307724192715 -0.0279557078645159 -0.310114849492043 -0.930803219755129 0.335281853799848 0.620201959897667 -2.13555635003712 2.40309167012608
1.31035503301583 0.582928200231201 -0.749742727267383 -1.04285868173571 1.097551510051 0.351569420886944 -0.891299777952842 0.971155176517482 -0.366479226885882 0.785356328794471 1.26834291036318 0.304639880838504 0.228579972985031 -0.475627826311128 -0.848833727508288 0.981757019018291 -1.17187493853197 0.136020393696868 1.23964553311028 1.8811805134309 -0.631085043504204 0.436173934245783 1.60490236478 0.827266218867902 -1.35908833506548 -0.0179323744449535 0.114428588979884 -0.406113459967568 0.22480021789323 -1.11656977810543 -0.862206878334819 -1.18122352853019 1.69017575316625 -2.09469764295072 0.466940130296398 -0.558179774412528 -1.81353656136399 -1.92991304183979 -1.27698308378063 -0.371209885001839 0.414708644654176 -0.805882413680839 -0.238594312645411 -0.686938646913605 0.138334328723936 -0.399138704171425 0.159369023743892 0.762144823699775 -1.70524641499639 1.33067181170686 -1.36853174771632 0.577665473368934 -1.10071000469391 -1.00819760129407 -2.06766973384886 0.590378109667765 -0.2798711719993 0.0950045842453212 0.00486786456457637 0.301447970152523 2.41219343723517 0.954825015046067 -1.42521639806944 1.86040853686934 0.616842319200293 -0.185225339343692 1.33454709201708 1.23103627452898 -0.469855400767132 -0.192503376035012 1.03246696186791 -0.0242460585814911 -2.03941046895843 0.312761616051194
0.273130977587826 0.258024173409438 -0.959218956467659 -0.548536127986935 -0.216051986803144 -0.345188547926213 -0.539235529296929 -1.5340714221665 0.118697264153969 -0.624966656151325 -0.984724421716569 0.765985713986597 1.08588414644047 0.216822270303523 -0.831670627368693 -0.04890016192872 -1.39737833992319 -0.709784256002884 -0.761576964920144 -0.287480447891379 0.941216737711976 -0.0102287266591594 -1.15901120410647 -0.744200566913636 -0.192988581249807 -1.30454591884864 0.185108229956448 -1.29966029850356 1.17253178972883 -0.164207352162413 0.217384173532246 -0.190367211445745 -1.75571769938592 0.157192202202773 -0.689910122719629 0.724193665196936 -0.898370052906323 1.71738077606293 0.29454136481117 -0.206065927649847 0.610435779025843 -0.332225937558217 -0.365422952765547 -0.777817158550679 0.248283029961717 0.281292955249898 1.03364631816082 1.02093820872022 -0.37011661122372 -1.10762532884536 1.2375218610388 1.31399787570809 0.280542220344624 -1.16607418588647 0.540753816043154 1.021756805853 0.935212010356112 0.738324248532224 1.08885975552008 -0.455420990779436 -0.755259769899214 0.00622369985920734 -0.103944077391351 1.04389330894932 1.54367245457296 0.00819304791160606 -0.126388957363562 -1.52389341512376 -0.681454950768571 1.62305763664881 -0.645471775592625 -1.02756374966312 -0.0871428975073584 -0.442819494374246
-1.12001362129078 -1.02071447074453 0.00983123944892354 0.293835320273485 -0.524429160501698 -1.15695373868515 -0.471804033927999 -0.306149500467527 -1.95420444680214 -0.44841801499671 -1.13395267026616 -1.01242568446852 -1.34056353567688 1.85454399895732 0.60825665919612 0.859008832081653 -1.90836630558218 0.680040945863475 0.626653556510827 0.571184541204081 1.28162658862233 -0.689853352330351 0.242519343823958 -0.635605540805826 0.554927763781043 1.11039999267148 -1.2705598761356 -0.157771154383935 -0.247682770037699 1.18453435255639 -0.776211671969121 -0.0663646637690274 0.929464525006992 -0.178961235647049 -0.243492664718278 -2.49884508270174 -0.330658757015536 -0.622341726457216 -1.04418835089462 -0.864384136567585 1.32760918506548 -0.733468003528902 -0.0216646719930424 -0.346076895113664 0.224266404960493 0.926555548789007 -0.569435504938403 -0.914095194739015 1.49929121261602 0.204227700604686 -0.653951156954086 1.5472909477638 -0.587825602421799 0.819232361789299 -1.69104998167787 -0.90447668467905 -0.992762069723464 0.337147397600165 -0.244897603346696 -1.02426269155291 2.5027964787596 0.797530642998767 -0.951218541425921 0.816042631840799 -0.980665333253614 -0.954128012277876 0.15726363467132 -2.15920434607988 0.440527425309337 1.34158947216497 0.310830525890064 0.118410172612624 -0.0829049997647607 -0.254850454666322
0.458327444787095 1.50353341522995 1.80536514989528 -1.43235456475842 -0.301445227410919 -1.95830167381161 0.276946603905685 0.102692887932805 1.09369692483277 0.611299588573414 -1.05511977197592 -0.82347561949303 -0.14474840440804 -0.659567304205634 1.10310437836869 0.199775918768106 0.910006885841705 1.51156697612743 0.822990766585263 -1.27573010238829 -0.486225696105947 -0.255820263479916 0.642350878267064 -2.08585185339269 -0.779926348039259 0.543986982316633 1.05299332426955 0.0553211157899818 -0.567334738600966 -0.834757550435279 -0.169676112084085 0.712814111661815 0.484980663788362 2.32899444220762 0.0455499436319671 -0.830536274128504 -0.549119068948116 1.07238257430947 0.652268946815176 -2.12227778965709 0.875748212984812 -0.352784719150967 0.840634413911692 0.531120223326981 -1.71535046351671 1.38244592027629 -1.305573490704 -0.332412063544895 -1.53468264498391 1.14691829613214 -0.383651043831312 -2.0312620269404 0.398745332381915 0.347891413937381 -0.456693113215971 -0.36314400004307 -0.518635804343387 1.63041003327643 0.548622010808588 -0.129629194163939 1.25558958780034 -0.52211443250837 -1.22958991702442 0.254634170888705 0.0199225640634341 -0.162051604416936 1.67593785290184 -0.136151602533724 -0.698922979351208 -0.19344133200561 0.561859644309584 -0.835480706503048 0.489869453786264 0.209041555497384
0.438401104454515 0.822430782135121 -0.926697771110647 0.628018943132257 0.476617145582047 -0.899833842857239 0.175231301443992 -0.704624495637355 -0.721546203897544 -1.44453882885922 1.29776101920902 -1.19669558629581 1.69982981737033 0.60358413374969 0.595777957064077 0.0555143062717569 0.314833027472148 0.910299725107765 1.52649711964487 -0.56378511675147 0.544571945329982 -0.378362716748218 -0.870235470839406 0.825728995730146 -1.00178574895915 -0.0852093123241585 -0.394382663642904 -0.0391454003448605 -1.28817683838486 0.0389911299689032 1.44379313579075 0.109934523758936 -0.122255445645244 0.582886807949592 -0.94611656056287 -0.0264834037253708 -0.982623806338542 0.36784051891204 -0.556359897664388 0.0792554294350278 1.02238905920072 -1.62989960972189 0.57088478244214 -0.145982298377079 -1.69188940023985 0.609020497211228 1.2895288817912 0.301175251767248 -0.383558136085786 -0.135906547662261 -0.424692002245787 0.242767452508685 0.759205413987465 0.0393608982655728 -0.401401633040473 -0.57846672541147 -0.862744415149302 -0.491719709501545 -0.00483158906848933 1.27275230822235 1.03239107126858 2.08573684886349 0.766160797649953 0.318197655031069 0.937901899956476 -0.181321839880978 -1.15114105308595 -0.832246564148987 -0.713606250688289 1.21181291780217 0.102886006229593 -0.355173365100991 -0.325555646990829 1.05721278375229
-0.85744919654166 0.168815833186813 -1.26503107799003 -1.51326930358201 -2.06252968512975 0.114103881580412 0.0634334000674094 -0.170810651857899 0.207162458873491 1.97841723963737 0.872819224641161 -0.162227943318394 0.418637159709569 0.571965484020795 1.25386934808825 0.219348868879186 -0.496858567915001 0.397858521590305 -0.0663474616462039 0.586130845944324 0.246636259118903 0.374509521886747 3.90688718883669 -0.50309267646862 -0.340322823538451 2.16562133621789 -1.08525694525396 -1.33033187201885 -0.864956981030201 -0.237412021811888 -1.24563956164704 1.15184274842767 -1.34392663910171 -0.795025252546485 -1.86150323954103 -1.31044210978906 0.397285985113703 1.67148902823037 -0.774158962136582 -0.201517367498259 -0.207740065605548 1.53947879362917 -0.486490527475365 1.24416532853116 1.42733267298712 2.31469571505859 -0.405037982459994 -2.47376403238238 0.178034472002765 1.15322784823414 1.01203374449779 1.10749983821587 -1.68830100571951 0.132478557306137 1.65677355439324 -0.0240465179215857 1.12050756775001 0.310834360667649 -0.824193505360497 -0.80868814647187 0.269875674075115 -1.18738518786182 -0.502383515952705 -0.834080762275105 -0.784571207025504 -0.493605791329067 1.13265028316378 -0.483417356427416 1.64929331114926 0.0826324442168385 -1.36422999549117 -1.04863995345296 0.546573178540426 -0.45844001969532
-1.65700764522006 0.559268938435694 0.844691993127881 2.39909846467139 -0.596281033065767 1.50706553074203 0.74818755304391 -1.49643457334079 0.226402044628882 1.12189952761961 -0.125076639155441 -0.0354852922538368 -0.980598240759284 1.21610892147292 0.81420627741188 -0.0129533719921407 0.702933865907064 -0.620309982668372 -0.443134439427936 -0.210586748750458 -0.0944756111722537 -2.98628902079295 0.565539869635087 2.12687281007913 -0.638218223277197 0.639848101291319 0.0878738287768049 -1.01848627630951 0.309922000291886 -0.0689682490752249 0.0387526759266935 0.688266715203692 0.620831241175557 -0.988202071849303 -1.76288245490414 1.40144877968597 1.58877440557406 -0.22682558505602 0.0942481696170442 0.169047050479591 -0.959076297262832 -0.178252146143079 -0.51079246141825 -0.377818871394181 -0.0723554898751891 0.552963011143196 0.666565012534994 0.415552488285552 -0.797517421723255 -1.53590750344466 0.21246519643641 0.288165750499947 -1.25892528347706 1.08635770878173 -1.06784431162726 0.673525940933819 -0.777451182691994 1.03945043551436 -0.162168472593194 -1.27260306883465 -1.05056000830686 -0.690520077530224 0.570976151679129 0.215798504496505 1.07214084369714 -0.788400798086419 1.11283076440322 -1.22171835925729 -0.787853046506882 -0.747099945605234 0.195834852326053 -0.0298394811160379 1.05734176648261 0.482321508363008
0.645501191350758 1.10611719572657 1.73419609557935 -0.641403098302705 0.579862751488769 -1.91241094270884 -0.696655491417268 -1.20423269888186 -0.427331452188019 -0.355385206527887 -1.7761555543559 -1.86396870439983 -0.463094198213095 -0.798823449660223 0.824013919009885 -1.9772537601815 -1.1149464065976 -0.914881484956413 1.24673684001033 1.42057984008237 -0.793075669530219 -1.69201636014767 -0.412588703797647 1.41430514521392 0.651439104015094 -0.0424451475408597 -0.973004495278542 -1.8458595972687 -1.1904760787192 -0.77787061874401 -0.697527202989376 -0.128753382686308 -1.13426269870104 -0.779291688948418 1.41291936383757 -1.0019859448557 -1.13054840870374 -0.192316297203509 1.21030688161115 -0.160998773176608 -1.97253153772637 -0.615682034580654 -0.952422032927775 -0.808899822097445 -0.285684740636235 -0.539457988335981 -1.08712967316898 -0.865100148933857 -0.685515180890245 1.08470955602271 0.954673966182954 -0.0822107011260969 -0.707456085082681 0.0402325565586138 -2.21799168513768 -0.889767091654374 -0.410427475071722 1.09019518359714 -0.280479026107398 1.6374747880975 1.09404909428078 -0.574745277357149 1.07076216492227 0.499071673889023 0.0269760487365805 -1.69096814837292 0.00862093511661292 -0.283305796201115 0.216290819041562 0.366883726791875 -0.707913788394065 0.498621988207275 -0.6632434076335 -1.07325099877419
0.50215036381729 -1.04029068515804 -0.613090947319702 -0.370464953191369 0.315804562775635 -0.388272400319376 0.278813312028365 0.105789133789827 -1.06063865635724 -1.19442332343515 1.20602481052151 0.298544993441192 2.61388383178643 -0.358516421367964 0.0157887429897488 -1.46387416657533 0.104722437879203 -2.08831507013688 -0.602381778903124 0.149271735202562 0.890339202740927 0.0313945652987071 1.21876898944234 1.2876980031321 -0.546717274114489 -1.29281666454171 -1.43604901909885 0.193470842436264 2.60338115013435 0.0883711221080255 -0.0363322838707689 1.49909013947306 -1.4013144808018 -0.0321248597449932 0.350683138767724 -0.205668637637313 0.73879449048329 -0.0344208919330346 -2.40161541303606 -1.00803096192778 0.503785826024079 -0.334410390302441 -0.600203419507474 -0.335096999187289 -0.35597330131752 1.12017314452633 1.56065452590591 -0.0848104080263228 -0.225701649253587 -1.42573908137686 -1.13120541468305 0.450250961608347 0.982957306391764 0.723276043763448 -0.469462448287104 -0.217116637175528 -0.744070080647296 -0.156024450378393 -0.399107049058854 0.974344346164079 0.962981966218633 -2.0422085429506 0.511687242996471 -0.278853418170021 -0.643163310763397 1.44019239200322 0.80788158939399 -1.39534032124195 1.20007380637179 2.99286106536831 0.0951826373473545 -1.81230029172285 -2.32765586710884 -0.935462943750379
-0.153593825782137 1.71982937498799 -0.961601772580995 -0.490355097526599 0.206939304861926 -1.61814700393828 1.21530031562894 0.273062510840281 -0.222966261838972 -1.19840334970748 1.42255949408221 0.952071705394939 -0.761527049934608 -0.084500932166205 1.03047315710041 -2.13448958808455 -0.249948811685247 -1.25920532406359 -0.12438892400843 0.515845058766253 -0.0306173788977564 0.253537074972421 0.349953197367842 1.80588045565733 0.601153092185885 -0.471708122906255 0.882657706408963 -0.401655270761913 -0.0178279373356236 0.230421066948349 0.231962384053901 0.286992700533457 -0.99242323857005 -0.0402813322486167 0.747394790475985 -0.491025232647083 0.387939355045252 0.962501921515073 0.646382109729069 -1.17401343812265 0.0989113305434363 0.655284064565341 0.0106167186135154 0.336736035365373 0.659410670355786 -2.00899232416576 0.0567372303548808 0.310229936796906 0.5607612639831 0.670958448144745 -0.902048712513226 0.884508021027052 -0.0370694118020439 -1.58463392318936 0.566218233981673 0.832738123925399 -1.35038473867678 -0.979202596229271 -1.50383021049621 -0.12499414327923 -0.15863552453435 0.662885747527405 -0.725598024835102 1.11749153945261 0.991714554525267 -1.00968187472757 -0.264601984819116 -0.0987635246990309 -0.514224902435412 -1.30298369000497 0.230731539290429 0.262390578538931 1.06355899326613 -0.816938142110927
1.12170543863314 0.182213221210749 0.694233320144295 -0.832622977854053 -0.149207789964628 0.0124484953336196 -1.39250838391214 -0.116935968574332 -0.81035601892954 0.0524766705687235 -0.170981930483515 0.770853482947897 0.0113687303211481 -0.674478024989394 -0.251269770322988 -0.565390808322115 1.16640363676008 0.18544517322228 0.340469624193764 1.01941447267071 -1.34948762633582 -2.06560087534279 0.559598118879697 -0.828619196901555 -0.101511466638359 0.279452753982907 0.373121583246441 1.32453872884359 1.01494668773069 -1.438623678155 -0.950514009980052 -1.00896569405351 0.647183042287333 0.0189550024370234 -1.5487753882715 1.67989645959688 -0.900009490491787 -0.186667634892312 -0.150354210932661 1.78137541430217 -0.0696403616918507 -0.602446187116692 -0.832436490315467 1.70916841064158 -0.572387068898284 0.275588165591639 -0.837787746061442 2.49790927180485 -0.988053336896105 1.45831553475238 -0.202132730927619 -0.601738016230429 0.140039256196149 1.787980174994 -0.163087974467905 1.23645375304506 1.01271762811843 -0.0772118811830226 0.398569169159281 1.30066206746195 -1.93562792461104 -1.05635269445282 -0.679445871104494 0.946189657700313 -0.127473892588769 -0.522951645232199 -1.786857619637 0.148220172348769 0.961839333181603 0.507756972332667 -1.08588706525639 -0.396001759892116 -0.282527345822298 0.660669195792612
-0.097119035736392 0.0627835431862463 1.20385894759484 0.969802502255162 -1.1745447577758 -0.358148493048641 2.51416093903683 2.42165267005237 0.865079205159345 1.11987974661974 0.666583281538986 1.29612829135343 0.0817757796367954 -0.787858982314942 0.315458413122201 -2.00245432736711 -0.898155137197538 0.869160291553814 -0.128011063583 0.12089156361839 -0.878130431008051 -0.735799855107417 -0.621031741657864 -1.57608559715454 -0.339326859467416 0.394954774114085 1.62538785765936 -0.1613919818988 1.40071036244605 -0.609883927773755 0.363827950623865 -2.57910693170436 0.280693835848679 -0.21287857762984 0.123010955722629 0.267624029385469 -1.16974098269199 0.223437995870975 0.306587528042925 1.32731384701395 -1.9759253668735 -0.148524375578627 -0.73531002510347 -1.3939414623663 -0.838195260356682 1.70456192567479 1.29251407173792 -0.00938671345991962 0.470792666799576 1.96509545851529 -1.64881783379756 -0.126608612348668 1.04512098091777 -0.506796810239446 -0.701960455700859 0.485178983371575 0.438644912584191 0.246356699618967 -0.536253926771215 -0.385713110656797 -0.0959799390727447 0.133052860965786 0.0747479044836146 1.61200154953294 1.25327498465942 1.49503911271188 -0.466977356631977 -1.9378852962807 -1.03938390962137 1.14210314284491 -0.786067977290023 -0.297949931029342 -0.579633101120197 0.976390707611567
0.838991084636077 0.649516333789354 -0.316269774594505 -1.97536936374488 -0.484230977670908 -0.46947927775427 1.45719580127814 0.734076057952716 -0.605249034569797 -0.515315783763417 1.50744744579794 0.452771800508377 0.391443612975962 -0.414558872174261 -1.81734047022613 0.431208051368758 -0.428658976485636 -1.60708688590478 -1.19199890790928 -0.182696101493132 -1.40525023085277 0.0947152608824633 -1.28054584324093 2.25853422861285 0.463065952705952 1.42856748491476 0.201605642833538 -0.815338666784491 -0.729281974924631 -0.883684518973159 -0.36456652396562 -1.25015035218803 -0.593980220424191 0.651024711957729 -1.13564411623523 0.100246944174807 0.884899555190973 1.55027563019819 -1.7139320546957 0.684667387494561 -1.64635724412552 -0.888342632710266 0.886758008712987 -0.743715706379209 -1.0062247069846 0.269266502333357 -1.05890777017622 -0.465512180951935 0.421759751310426 -0.00274347880298469 -1.15958575882283 -1.43160619653751 -1.8160579108564 0.350527837079657 0.229885082849934 0.403609360960673 -0.279532254684963 0.968249708131401 -0.564668482597268 0.88295858383349 -0.0275526111301813 0.69081275738405 0.701393740821613 0.553836770357982 -1.41871428884991 1.23752913993785 -0.259169662486844 0.185217960689578 -1.17902955956286 -1.89934460952368 -0.414599194489195 1.49001732457896 -0.206446609290965 0.307140365874284
-1.30646294069279 -1.38205415343403 -1.80931687501632 0.183306217041197 0.856786008017385 -1.02173466139177 1.90700277379338 -0.274282688373863 -0.741339678045671 0.338815926241392 0.769884014206565 0.213085356522745 -1.0504982324164 -0.608067084524444 -0.038606288382662 0.846041142762721 0.340887020125052 1.43352097645264 -1.44905186896969 0.925066081272707 -0.910470398370565 -0.880254572860783 -1.08801943756256 -0.705139379121034 -0.190686082303441 0.719346783047194 0.592067510036961 1.20511362026851 -0.585836158595553 1.15611725540375 3.00486820552091 -0.8299924902216 -2.10877459245518 0.705870570869326 0.281076693989919 -3.1457080795265 -0.788173843160019 -0.553502765229675 1.02772394991331 -1.38240478111312 0.739427974291263 -1.01775025569471 1.10590287565133 -0.304391463078828 0.112749118603671 -0.123645777775022 -0.524259525253929 0.426303837374851 0.976176347988549 -1.19658595730763 -0.291297354261666 -0.784886126467784 1.2401378993107 0.51095417041752 0.170319960532825 0.109976221810345 -0.178134155062107 0.126004065906803 -1.14881532386356 -1.31548428960769 0.297811311178253 0.748636683617995 0.564836823651304 0.144132832569898 -0.368701328757972 -1.12871274010907 0.772518287075689 1.12246862293007 0.325107974336325 0.530125618184368 0.795006615487519 -0.460009860088027 0.64321918264336 1.09592643442954
1.92561406287333 -0.759280984114565 0.859321357363937 -0.961076404836252 1.45078341090399 0.340524005612213 0.897524584566782 1.49557132709235 -0.0123577576689064 1.76347699918048 1.04359144757712 -0.776648515465363 1.26953315954151 -1.61074220091384 -1.42902471835838 -1.99070662185646 -1.85483977091519 1.97355005450376 -0.0722608853763042 -0.308269218082311 -1.1395127837794 -0.757363132199488 -0.479580404782887 0.250406753161616 -1.18783603245888 0.109843855050823 0.180257741117468 2.38654340815315 0.61017917806365 1.47314405113387 0.26329188402997 -0.554906420734886 0.198038703218944 -0.693312968683715 0.459707157192496 0.853666974677334 1.23456661135475 -0.301860050390063 0.0341294731004865 -0.530303762621118 -0.926332429743456 -0.359487151897298 -1.15746321874497 0.171898530460636 -0.211623393825197 -1.1445974924985 -1.05360954712524 -1.46916893884178 1.49521588095355 2.00221701829745 0.00409926872884362 0.962497623125285 2.44585074293198 0.825616608069779 0.768622515362889 -0.111146537970863 2.24488052577634 -1.78881539483554 -0.139358452687508 0.351242331560592 0.953185139376678 -0.378265698727521 -1.92560825326787 0.337597821856412 -0.585558439122796 0.0797154661357081 1.6068362562933 0.200347777524406 0.635241486885919 -0.0684675976315355 1.19589890508578 -0.941395774260964 -0.3822266681685 -0.633979517223631
0.0306429234971619 1.664232583598 0.317010915467947 -1.10720313684606 -1.69574730620779 -0.880291375788957 1.00438209363897 -0.427824646553631 0.418419989705823 -0.637564927901747 0.287620349817416 1.66229241680891 0.555117868394354 -0.632745499195143 -0.600157984468632 1.06416599598206 -0.586486425578881 -0.603280250633581 1.06769572147163 1.19989763179081 -0.391876782385692 -0.642723376779023 -0.877204999270858 0.303152100197182 -0.223519142088741 1.7473894954703 1.72268299767965 -1.77218052830904 1.23342607584503 0.197888854597607 2.05997315384111 0.615400264138827 1.28147643082023 1.29818885871761 0.397717270710799 -0.434963432147826 -1.81556902423403 0.0518151405591855 0.530104791344693 -0.356853839555098 -1.64640166225781 1.17802689840314 -0.280046537251593 -1.14996980324705 0.249383779963853 -0.803367976040369 -0.32108027397012 -0.544036584937121 -2.69999152722623 0.322144636979304 -0.140963997196661 0.160103448639462 -1.50776472370194 2.34034887715164 -0.806604574411887 -0.475700862995742 2.65017879812631 -1.00063758297368 0.374024425810293 0.376599227848876 -0.021633398928483 1.07684517028717 -1.0304124855664 -0.765894781110013 -0.0759285876385175 0.361919148255055 -0.703076737877713 -0.341394233394675 0.37584124725858 1.14462503956858 1.50780471732855 -1.34588992187813 -1.22306481061121 0.109041276367081
-0.454209878329848 -0.930898301639365 -0.223339607455011 -2.55846352424194 -1.28346089966229 0.075276732344247 -1.28600409018419 1.28795861720926 0.669516730739727 0.398695148807892 -0.0265712917100912 1.17136733836341 0.303749156803948 0.0226111244571405 -0.838340527148752 1.34039027784038 0.815988445603194 -0.285581156204951 0.265860477127263 -0.114590633360048 1.26506753209949 -0.649745248356587 -0.756510706393362 0.415049063608941 0.756057348135225 -1.88054149072623 -2.0645493105362 0.236280968811759 -0.241786981615111 0.0366363465423357 -0.583679549471991 0.052770451836403 0.837443057962306 -1.2989812721014 0.617190245658019 -0.030139972632925 -1.12583085446687 -1.40536805673137 0.528901048874852 -0.0216333579869185 0.0631626048372174 0.552251446094073 -0.307891367345755 1.46266782571989 -1.93912125030826 -0.33653951617703 0.854271685323121 -0.1477872710094 -0.556719171004417 -0.633841450334025 1.02001114506719 -1.52280764274298 0.200682509993752 0.884884169154562 -0.405267895410693 -0.77844980509513 0.801689743394532 -1.80091155517376 -0.420610777456649 0.0860930996452243 1.03374545853585 0.0899415606594386 -1.84986151180893 0.688147030028396 -0.13531038601314 0.2703607877564 -1.57058874410366 0.324489426088525 -0.10939371689157 0.657747914633553 -0.862364907712183 -0.280982648232193 -0.167259224500208 0.137547485446432
-0.193014572304785 -0.0717825162560949 -0.777502676366383 0.312721642149809 1.36212419293152 -0.701559944200973 -0.035927999530565 0.565435562048737 1.42163075879088 -1.81938387401781 -0.0349469772935551 -1.18492395538609 1.65230575031758 -0.756307669374931 0.133906652609648 0.26753364145159 2.00553972382976 0.179995995743466 0.520014704001066 -0.3283377396303 -0.068195105880117 0.434197416781456 -0.131071507834176 0.869632871567905 -2.05364888669384 -0.411304688856051 -0.927498119212836 -0.594123624152538 -1.83924872479235 -2.00310165776008 -1.02727769348724 -0.587602762836099 -0.179899730563741 -0.510471682431158 1.48085787085309 -0.776512370933265 0.575512289598124 -1.45208153800738 0.315571727581455 0.0841894697775216 1.70274788123202 -1.69387889999312 -0.468176592173041 0.862371508868897 1.2091796935587 -0.830289559832116 0.81394500354591 0.306073374488916 0.742148185131122 2.04373895331823 0.441273277841027 1.90542858455276 1.66427266984421 0.645277745405595 0.0766363694910471 1.29671452762647 -0.808277502497896 2.39698417295127 -1.24041198729086 0.652154453363513 0.120858167727629 -0.0304000655728256 -0.854346714014929 0.142730162449385 -1.34650846887827 -0.0502510305360861 0.0923263755776962 -0.67888036811711 -0.482333935202908 0.338312234013656 -0.154464916822934 -0.136668623877803 -2.19594790205173 -0.180304357682355
